tree
version=v3
num_class=1
num_tree_per_iteration=1
label_index=0
max_feature_idx=34
objective=binary sigmoid:1
feature_names=ps_car_13 ps_reg_03 ps_ind_03 ps_ind_05_cat ps_reg_01 ps_ind_15 ps_ind_17_bin ps_car_14 ps_car_01_cat ps_ind_06_bin ps_car_15 ps_ind_01 ps_car_07_cat ps_reg_02 ps_car_03_cat ps_car_11_cat ps_car_06_cat ps_ind_07_bin ps_car_12 ps_calc_14 ps_car_09_cat ps_ind_02_cat ps_calc_10 ps_ind_16_bin ps_calc_03 ps_calc_02 ps_ind_09_bin ps_calc_11 ps_car_04_cat ps_car_08_cat ps_car_02_cat ps_car_05_cat ps_car_11 ps_ind_04_cat ps_ind_18_bin
feature_infos=[0.3133398:3.3947425321] [0.061237239999999998:3.4907910000000002] [0:11] [1:3] [0:0.90000000000000002] [0:13] [1:2] [0.1095445:0.63639610000000002] [1:4] [1:2] [0:14] [0:7] [1:2] [0:1.8] [1:3] [-0.88492512611029339:0.67043710492173902] [1:8] [1:2] [0.10000000000000001:1.2649110641000001] [0:23] [1:4] [1:3] [0:25] [1:2] [0:0.90000000000000002] [0:0.90000000000000002] [1:2] [0:18] [1:3] [1:2] [1:2] [1:3] [0:3] [1:2] [1:2]
tree_sizes=2201 2213 2225 2222 2231 2224 2237 2228 2249 2233 2228 2240 2239 2241 2238 2235 2229 2238 2230 2238 2245 2227 2234 2241 2234 2229 2232 2231 2226 2224 2237 2223 2228 2240 2235 2229 2238 2242 2239 2235 2227 2249 2244 2238 2250 2231 2239 2228 2235 2233 2237 2238 2232 2236 2233 2233 2229 2234 2234 2233 2241 2230 2247 2237 2242 2237 2242 2241 2247 2243 2239 2247 2250 2236 2255 2249 2241 2254 2262 2256 2252 2249 2255 2257 2254 2250 2251 2255 2257 2264 2260 2265 2274 2276 2280 2266 2256 2270 2276 2256 2277 2268 2256 2282 2268 2268 2269 2266 2272 2266 2281 2274 2285 2279 2290 2268 2266 2270 2263 2272 2267 2276 2270 2272 2279 2276 2257 2264 2255 2272 2281 2271 2273 2286 2274 2276 2277 2265 2277 2286 2280 2266 2265 2264 2279 2275 2269 2258 2279 2266 2267 2254 2285 2269 2270 2269 2279 2265 2269 2274 2269 2283 2272 2273 2271 2265 2280 2272 2275 2278 2276 2265 2283 2269 2264 2276 2285 2265 2261 2279 2270 2268 2268 2267 2264 2268 2274 2263 2263 2272 2258 2287 2284 2256 2265 2280 2283 2269 2282 2264 2274 2279 2269 2282 2271 2267 2280 2282 2265 2265 2285 2255 2276 2258 2272 2258 2287 2280 2286 2254 2274 2287 2286 2281 2276 2272 2272 2287 2272 2274 2289 2286 2288 2268 2272 2276 2283 2268 2284 2285 2285 2289 2298 2267 2274 2292 2288 2297 2274 2280 2282 2254 2280 2283 2288 2288 2284 2279 2283 2266 2272 2285 2263 2264 2271 2271 2298 2272 2287 2269 2273 2283 2286 2286 2276 2256 2303 2288 2268 2282 2283 2267 2286 2278 2261 2268 2262 2278 2291 2284 2276 2279 2267 2297 2293 2292 2298 2282 2282 2294 2265 2298 2279 2266 2285 2271 2268 2286 2277 2295 2283 2291 2286 2299 2303 2291 2314 2308 2283 2292 2274 2296 2290 2298 2306 2273 2276 2284 2275 2298 2279 2294 2279 2290 2290 2277 2293 2303 2269 2291 2259 2274 2288 2262 2280 2312 2278 2283 2290 2241 2258 2284 2301 2290 2280 2293 2266 2283 2281 2277 2246 2265 2310 2267 2276 2261 2263 2277 2274 2280 2290 2251 2280 2285 2283 2275 2265 2258 2286 2278 2285 2289 2274 2289 2307 2311 2284 2303 2261 2279 2256 2284 2284 2293 2281 2261 2235 2267 2263 2264 2233 2270 2264 2267 2286 2274 2269 2253 2290 2278 2261 2280 2256 2266 2280 2269 2284 2279 2277 2290 2284 2294 2287 2292 2291 2260 2298 2295 2293 2290 2261 2265 2270 2277 2281 2252 2266 2253 2289 2293 2263 2278 2272 2264 2273 2269 2297 2284 2274 2245 2279 2274 2234 2276 2242 2275 2248 2286 2269 2260 2261 2265 2248 2281 2273 2292 2273 2267 2304 2270 2278 2258 2284 2282 2299 2278 2292 2288 2293 2289 2274 2276 2282 2299 2293 2285 2287 2291 2272 2254 2290 2298 2290 2289 2260 2287 2291 2282 2243 2277 2251 2266 2280 2259 2256 2257 2291 2269 2275 2283 2265 2258 2277 2274 2274 2257 2259 2264 2279 2241 2255 2266 2220 2258 2221 2264 2258 2249 2237 2291 2281 2271 2278 2261 2243 2261 2251 2260 2274 2286 2274 2278 2264 2260 2269 2250 2248 2239 2259 2271 2256 2275 2247 2243 2271 2224 2262 2251 2253 2277 2295 2286 2297 2298 2306 2238 2234 2233 2238 2277 2243 2240 2235 2238 2258 2288 2231 2251 2296 2272 2250 2277 2235 2238 2262 2243 2228 2264 2236 2251 2277 2254 2268 2283 2304 2240 2246 2278 2264 2261 2269 2252 2278 2264 2295 2245 2270 2278 2241 2246 2292 2286 2274 2292 2295 2254 2260 2241 2283 2255 2237 2302 2299 2267 2275 2279 2285 2222 2224 2281 2254 2263 2277 2279 2266 2274 2290 2298 2271 2267 2248 2259 2222 2276

Tree=0
num_leaves=20
num_cat=0
split_feature=0 3 6 13 15 5 3 6 9 0 0 15 0 3 2 9 2 6 3
split_gain=55504.6 17280.3 14217 13087.5 10559.7 7545.17 6019.77 4707.28 4555.82 4522.19 4244.79 3728.6 2979.74 2958.37 2810.7 2765.35 2446.25 2375.19 2243.28
threshold=0.83028920290000008 1.5000000000000002 1.5000000000000002 0.35000000000000003 0.061496135416123192 7.5000000000000009 1.5000000000000002 1.5000000000000002 1.5000000000000002 1.2317010000000002 0.64643011030000019 -0.27930275221661122 0.68495795000000015 1.5000000000000002 4.5000000000000009 1.5000000000000002 1.0000000180025095e-35 1.5000000000000002 1.5000000000000002
decision_type=2 2 2 2 2 2 2 2 2 2 2 2 2 2 2 2 2 2 2
left_child=1 3 4 5 13 11 9 10 -3 14 -5 17 -13 -2 16 -7 -6 -1 -4
right_child=2 8 18 7 6 15 -8 -9 -10 -11 -12 12 -14 -15 -16 -17 -18 -19 -20
leaf_value=-3.1686844390472442 -3.1443280806441742 -3.1061856488296633 -3.0981337763680892 -3.1637964044738252 -3.0620069402914916 -3.1662601586430328 -3.0856864856869128 -3.1190159639568358 -3.1395713291950087 -3.1031427727021255 -3.1411309470707911 -3.1657871503279109 -3.1353767624124664 -3.1128745545978735 -3.1165795700952783 -3.1851564636585894 -3.1369324378228893 -3.133946163859227 -3.0657859346086704
leaf_weight=1626.971411600709 2527.752273619175 912.97884517908096 1431.866751536727 1133.4834640920162 44.71675369143486 1466.8202134370804 561.46533347666264 686.23829925060272 740.06593093276024 1128.2430244535208 3048.7086477726698 443.76313589513302 1176.2761752009392 339.15082834661007 1564.9128716140985 1640.7381318360567 1707.1546963900328 223.91465006768703 252.13529677689075
leaf_count=28739 38728 10638 15575 19489 331 25568 5435 8843 11000 12816 45772 7715 17009 4170 19799 31582 24941 3207 1958
internal_value=0 11.7794 14.9487 11.3429 14.3846 10.4231 15.261 12.5859 14.8017 14.8713 12.1876 11.4364 12.5443 12.8542 14.283 9.29124 13.413 10.4668 17.5859
internal_weight=0 13100 9557.4 11446.9 7873.4 6578.48 5006.49 4868.43 1653.04 4445.03 4182.19 3470.93 1620.04 2866.9 3316.78 3107.56 1751.87 1850.89 1684
internal_count=333315 209562 123753 187924 106220 113820 63322 74104 21638 57887 65261 56670 24724 42898 45071 57150 25272 31946 17533
shrinkage=1


Tree=1
num_leaves=20
num_cat=0
split_feature=15 6 6 0 13 3 9 4 3 4 0 3 0 2 3 0 7 12 2
split_gain=39339.4 11064.8 9550.68 8670.32 7011.49 4989.27 4452.51 4388.56 4176.2 3844.83 3199.38 2878.1 2717.67 2596.43 2479.03 2471.24 2199.77 2178.83 2088.44
threshold=-0.069575444365654715 1.5000000000000002 1.5000000000000002 0.94251070705000017 0.45000000000000007 1.5000000000000002 1.5000000000000002 0.65000000000000002 1.5000000000000002 0.45000000000000007 0.70695340000000007 1.5000000000000002 0.64028825000000011 4.5000000000000009 1.5000000000000002 0.55002815000000016 0.34724865000000005 1.5000000000000002 1.5000000000000002
decision_type=2 2 2 2 2 2 2 2 2 2 2 2 2 2 2 2 2 2 2
left_child=2 3 4 5 6 7 14 -2 15 -8 -11 13 -9 -5 17 -6 -4 -1 -17
right_child=1 -3 16 11 8 -7 9 12 -10 10 -12 -13 -14 -15 -16 18 -18 -19 -20
leaf_value=0.13802348471578993 0.1003536770883084 0.14704050605563423 0.13769593261686169 0.12211139278505448 0.067006215297862437 0.13881749329385654 0.073350064026866252 0.087797501937782421 0.13959924239410179 0.083406305435345912 0.1066250941925663 0.15442075990882695 0.12199160071580674 0.1374918884201658 0.12346827371874344 0.12731667240464797 0.11439348055751997 0.096663714725708838 0.10459310440134656
leaf_weight=132.81776611879468 2178.4065803326666 2286.8741389922798 727.61441945284605 2157.8638025745749 149.3906272277236 745.00193682312965 1474.944153867662 254.27353134378791 443.28329615667462 1316.863861899823 1080.2940594814718 538.9315704330802 2705.8327562138438 2233.7628340162337 447.58706524968147 496.21095388382673 913.98679814115167 3105.4155938476324 2187.2584236450493
leaf_count=1493 31869 20979 7723 26154 2727 7498 26144 4148 4523 22070 15393 4402 33571 23164 5157 5984 11785 47404 31127
internal_value=0 12.7056 10.2244 12.283 9.88386 11.4633 9.35421 11.1126 11.1057 8.60536 9.387 13.2611 11.9054 12.9935 10.1409 10.6591 12.4722 9.83601 10.8795
internal_weight=0 13100.9 12475.7 10814.1 10834.1 5883.51 7557.92 5138.51 3276.14 3872.1 2397.16 4930.56 2960.11 4391.63 3685.82 2832.86 1641.6 3238.23 2683.47
internal_count=333315 151785 181530 130806 162022 77086 117661 69588 44361 63607 37463 53720 37719 49318 54054 39838 19508 48897 37111
shrinkage=0.01


Tree=2
num_leaves=20
num_cat=0
split_feature=15 1 1 4 14 23 5 0 0 0 4 14 8 15 0 1 14 12 11
split_gain=27943.5 9901.37 9340.07 4446.35 4293.61 4285.36 4263.04 3668.4 3022.21 2385.28 2215.7 2019.86 1901.79 1652.43 1520.92 1483.42 1478.81 1420.39 1391.15
threshold=-0.042868681735059859 0.75723177739791658 0.82234420510000017 0.35000000000000003 1.5000000000000002 1.5000000000000002 8.5000000000000018 0.67858321740000016 0.67058165000000003 1.2480895000000003 0.65000000000000002 1.5000000000000002 3.5000000000000004 0.33953380037368264 0.63874552115000005 0.60941580000000017 1.5000000000000002 1.5000000000000002 1.5000000000000002
decision_type=2 2 2 2 2 2 2 2 2 2 2 2 2 2 2 2 2 2 2
left_child=1 3 5 12 9 13 -3 11 -7 14 -10 15 -1 18 -4 -5 -8 -9 -2
right_child=2 6 4 7 -6 8 16 17 10 -11 -12 -13 -14 -15 -16 -17 -18 -19 -20
leaf_value=0.080821107648870127 0.10303280966992423 0.10737639890406632 0.080743325635167909 0.062957814175586699 0.12739484331199477 0.06662896031864253 0.085697680906164544 0.1247702840415032 0.091215057033055269 0.13120765801531606 0.10796790203540933 0.095266286104096806 0.061038184350325972 0.13440101376626318 0.11131002060540396 0.082205524578666742 0.10165630395068853 0.094331314663764571 0.11924680197753978
leaf_weight=1030.9823291487992 1268.9406526573002 4215.7125729434192 170.04104939103127 741.17997099086642 3616.3439275696874 323.92888344824314 1719.3131170161068 161.3241902180016 1770.6147675141692 612.13922183960676 1424.6988708861172 569.35499892383814 919.18603080883622 312.0304807536304 3813.5803104825318 870.89704883471131 876.77146475762129 3082.7231411263347 907.68804191425443
leaf_count=15249 14276 48212 2458 12297 30811 5163 23557 1566 22535 4814 15439 7496 15456 2400 39729 12736 10509 40093 8519
internal_value=0 9.24755 11.2312 8.44471 11.9244 10.2836 10.1168 8.91021 9.57341 11.2829 9.86847 7.90746 7.14967 11.288 11.0005 7.33561 9.10874 9.5845 10.9794
internal_weight=0 14187.4 14220 7375.65 8212.1 6007.9 6811.8 5425.48 3519.24 4595.76 3195.31 2181.43 1950.17 2488.66 3983.62 1612.08 2596.08 3244.05 2176.63
internal_count=333315 187171 146144 104893 77812 68332 82278 74188 43137 47001 37974 32529 30705 25195 42187 25033 34066 41659 22795
shrinkage=0.01


Tree=3
num_leaves=20
num_cat=0
split_feature=1 3 17 23 12 5 17 28 4 7 4 1 2 6 9 20 26 5 6
split_gain=20051.4 8479.28 7541.12 5252.75 4981.73 3494.17 2540.98 2420.3 2277.49 2187.03 2059.15 1636.73 1562.65 1442.02 1440.35 1313.29 1300.48 1416.1 1231.56
threshold=0.80622700000000014 1.5000000000000002 1.5000000000000002 1.5000000000000002 1.5000000000000002 8.5000000000000018 1.5000000000000002 1.5000000000000002 0.55000000000000016 0.34293165000000003 0.55000000000000016 0.58843010740000012 1.5000000000000002 1.5000000000000002 1.5000000000000002 1.5000000000000002 1.5000000000000002 10.500000000000002 1.5000000000000002
decision_type=2 2 2 2 2 2 2 2 2 2 2 2 2 2 2 2 2 2 2
left_child=2 3 4 6 -1 10 15 12 -4 -7 13 -12 -5 -6 16 -2 -14 -18 -3
right_child=1 18 8 7 5 9 -8 -9 -10 -11 11 -13 14 -15 -16 -17 17 -19 -20
leaf_value=0.10427862839246553 0.089248432203364855 0.11510709697989928 0.087918735224743319 0.10085216092208682 0.07365275289805305 0.082819702472313031 0.1140695802654367 0.10182305399760661 0.10345726256534132 0.066878660791661729 0.078324368596106669 0.092098512621640372 0.09523737019528293 0.097082345649197835 0.079027742765456863 0.103907878232329 0.089562095758285415 0.068282377735087482 0.13397683221924861
leaf_weight=805.95959907397628 864.05031259357929 1667.0682842582464 1708.9442758597434 1036.0733909234405 2364.4403659626842 1202.6338693462312 2069.1658216007054 2170.7267841883004 2105.3381753191352 3026.4695925265551 1275.249867785722 2666.5143437944353 2380.9072379283607 295.52079680934548 1476.4780171215534 2087.6754743494093 1079.3983173929155 440.28588574752212 436.429120156914
leaf_count=7790 9324 12233 19440 10297 31802 14854 15973 19525 19795 42425 16062 29302 24732 2866 18090 18829 11913 5834 2229
internal_value=0 10.0337 8.42929 9.74483 8.02932 7.85084 10.5573 9.26961 9.64954 7.14118 8.30544 8.76423 8.96068 7.62558 8.744 9.96167 9.06243 8.33969 11.9022
internal_weight=0 15708.3 15451.1 13604.8 11636.8 10830.8 5020.89 8583.87 3814.28 4229.1 6601.73 3941.76 6413.14 2659.96 5377.07 2951.73 3900.59 1519.68 2103.5
internal_count=333315 148979 184336 134517 145101 137311 44126 90391 39235 57279 80032 45364 70866 34668 60569 28153 42479 17747 14462
shrinkage=0.01


Tree=4
num_leaves=20
num_cat=0
split_feature=0 3 1 14 2 4 0 5 6 2 5 2 1 0 1 33 1 15 5
split_gain=18118.7 6667.93 5195.01 5010.13 3105.14 3298.35 2477.11 2390.67 2250.41 2140.38 1918.09 1886.43 1778.2 1447.33 1446.7 1383.15 1381.73 1370.78 1321.72
threshold=0.78631440000000008 1.5000000000000002 0.75723177739791658 1.5000000000000002 4.5000000000000009 0.35000000000000003 0.60378455000000009 8.5000000000000018 1.5000000000000002 1.5000000000000002 7.5000000000000009 1.0000000180025095e-35 0.82234420510000017 1.2317010000000002 0.70253285000000021 1.5000000000000002 0.7390876500000001 0.066611439448593768 5.5000000000000009
decision_type=2 2 2 2 2 2 2 2 2 2 2 2 2 2 2 2 2 2 2
left_child=1 2 6 4 5 16 -1 -4 11 -7 -8 -5 15 -11 -3 -6 18 -13 -2
right_child=3 14 7 8 12 9 10 -9 -10 13 -12 17 -14 -15 -16 -17 -18 -19 -20
leaf_value=0.056191346246688825 0.073337319645220722 0.08188902347879097 0.084910338265431623 0.12615383130506105 0.080059818954135289 0.097293333649974278 0.076272897016285424 0.072784639619968394 0.10681638565303779 0.079059848972343638 0.064708939312842439 0.086200882375231297 0.097783116737308676 0.10075629163788731 0.098906856743783772 0.097151920618037901 0.073698409353835939 0.097010252219673507 0.033213625339896476
leaf_weight=1406.3912729732692 134.71780690178275 776.12659391760826 4233.8585970178246 178.70833422616124 1441.2163377478719 1106.1151984333992 3139.4409566782415 2639.6735614128411 1942.4899080321193 3028.9144389219582 2640.9694966226816 1838.8003065958619 2788.7852597683668 342.19809959083796 1401.7412028461695 705.08346104621887 642.42308471351862 3240.9936866872013 210.19388455152512
leaf_count=19904 1545 8074 41989 753 14614 9015 36099 30370 11725 30876 34808 17973 21489 2404 10798 5902 6849 24824 3304
internal_value=0 7.65602 7.40382 9.12068 8.67672 8.15744 6.80937 8.02537 9.76185 8.52228 7.09895 9.42209 9.25171 8.12622 9.28422 8.56748 6.50303 9.30974 4.88854
internal_weight=0 16238.2 14060.3 17600.6 10399.6 5464.56 7186.8 6873.53 7200.99 4477.23 5780.41 5258.5 4935.09 3371.11 2177.87 2146.3 987.335 5079.79 344.912
internal_count=333315 182042 163170 151273 95998 53993 90811 72359 55275 42295 70907 43550 42005 33280 18872 20516 11698 42797 4849
shrinkage=0.01


Tree=5
num_leaves=20
num_cat=0
split_feature=0 1 3 0 5 6 15 5 6 12 3 18 2 7 1 0 0 20 2
split_gain=15343.3 7811.49 3305.66 3266.05 3125.92 2898.79 2394.19 2201.79 1648.6 1518.43 1509.8 1342.42 1324.23 1240.48 1201.72 1149.41 1144.69 1114.39 1099.85
threshold=0.83028920290000008 0.7508410000000002 1.5000000000000002 1.0252850000000002 7.5000000000000009 1.5000000000000002 0.24176188175996763 9.5000000000000018 1.5000000000000002 1.5000000000000002 1.5000000000000002 0.31614868930000006 4.5000000000000009 0.35832947865000003 0.8609737500000002 0.55475965000000016 0.61412430000000018 1.5000000000000002 1.0000000180025095e-35
decision_type=2 2 2 2 2 2 2 2 2 2 2 2 2 2 2 2 2 2 2
left_child=1 4 3 6 9 7 8 15 -2 -1 13 -9 -5 -6 -4 -3 -11 -7 -13
right_child=2 5 14 12 10 17 -8 11 -10 16 -12 18 -14 -15 -16 -17 -18 -19 -20
leaf_value=0.088818649715926221 0.074736942353724467 0.062505598198286869 0.087390554864903575 0.083573425012576655 0.064231540680511623 0.071881701281438601 0.09352187356075882 0.041281007134388502 0.087589203212926528 0.059142916326277231 0.07393329111677488 0.11112473857360904 0.093105477501278247 0.052346562238826159 0.10292654773845299 0.079760839243349077 0.07114672271544531 0.093855209878047394 0.068693719217169352
leaf_weight=407.07074185088277 6043.9878463223577 413.45692893862724 849.59984911978245 2752.8068061508238 1366.8343490064144 280.26706983149052 978.93385369330645 177.35517980903387 1195.4738620705903 995.32927324622869 578.2094220072031 62.603759959340096 3097.2282694280148 2456.5608112886548 1202.6504020281136 5821.7126647867262 3935.6160883456469 1307.7227022945881 2525.6121804080904
leaf_count=3366 56597 4682 5946 21079 16329 2594 6758 2450 8076 12407 5637 357 19685 32735 5591 52111 41466 8827 26622
internal_value=0 7.15752 8.46387 8.29092 6.51117 7.75204 7.8844 7.53227 7.68593 7.02561 5.88729 6.78963 8.86201 5.65954 9.64949 7.86166 6.87237 8.99771 6.972
internal_weight=0 20328.4 16120.7 14068.4 9739.62 10588.7 8218.4 9000.74 7239.46 5338.02 4401.6 2765.57 5850.04 3823.4 2052.25 6235.17 4930.95 1587.99 2588.22
internal_count=333315 209583 123732 112195 111940 97643 71431 86222 64673 57239 54701 29429 40764 49064 11537 56793 53873 11421 26979
shrinkage=0.01


Tree=6
num_leaves=20
num_cat=0
split_feature=9 15 4 15 1 3 6 15 5 3 2 21 3 2 5 6 2 12 2
split_gain=13296.2 5520.56 4802.44 3321.13 3026.15 2558.06 2293.08 2279.72 2173.41 1986.55 1560.68 1546.76 1206.86 1151.74 1120.6 1020.61 1003.07 997.689 961.424
threshold=1.5000000000000002 1.0000000180025095e-35 0.55000000000000016 -0.23645959544980485 0.75723177739791658 1.5000000000000002 1.5000000000000002 -0.33750662900763018 4.5000000000000009 1.5000000000000002 4.5000000000000009 1.5000000000000002 2.5000000000000004 1.5000000000000002 10.500000000000002 1.5000000000000002 1.0000000180025095e-35 1.5000000000000002 3.5000000000000004
decision_type=2 2 2 2 2 2 2 2 2 2 2 2 2 2 2 2 2 2 2
left_child=1 4 3 -2 6 8 12 16 -3 14 11 -10 -1 -9 18 -15 -4 -18 -6
right_child=2 5 7 -5 9 -7 -8 13 10 -11 -12 -13 -14 15 -16 -17 17 -19 -20
leaf_value=0.061315913039812556 0.045701808543971073 0.08618780614797858 0.084710498655155786 0.063212219696898928 0.070832014276283287 0.092348718707564711 0.081237525987190126 0.079767742817090662 0.066511214526428025 0.086938531858712198 0.080224755240839371 0.080184044012967096 0.085088633891462234 0.066684656516815113 0.065547739738689409 0.078080376433638632 0.083466481844152993 0.054942878736491299 0.079147210714346591
leaf_weight=4189.9126432910562 2095.8064010553062 2901.9633082933724 137.79343443363905 2241.7521423846483 2689.2405957430601 1600.4901829175651 769.16830413788557 1112.9603538662195 2375.7813998013735 1200.020337883383 4181.6048475764692 1269.4903322942555 225.0182338654995 4617.854911133647 1562.3810245171189 947.10411017760634 131.24367925152183 1867.7946791909635 2879.2266464158893
leaf_count=44199 26952 18102 1050 22507 23149 7410 5791 8612 20142 6877 28397 9091 1554 43228 14996 6686 1027 21102 22443
internal_value=0 7.57165 6.33657 5.47516 7.13021 8.05554 6.53036 6.76046 7.87961 7.50349 7.60555 7.12729 6.25276 7.04813 7.30317 6.86241 5.86144 5.68156 7.51315
internal_weight=0 25844.3 13152.3 4337.56 13515 12329.3 5184.1 8814.75 10728.8 8330.87 7826.88 3645.27 4414.93 6677.92 7130.85 5564.96 2136.83 1999.04 5568.47
internal_count=333315 202151 131164 49459 119009 83142 51544 81705 75732 67465 57630 29233 45753 58526 60588 49914 23179 22129 45592
shrinkage=0.01


Tree=7
num_leaves=20
num_cat=0
split_feature=15 0 13 3 12 6 0 5 1 3 33 1 17 15 1 15 18 8 5
split_gain=10874.9 4092.62 3812.73 3683.89 2310.96 2055.33 2062.56 2052.63 1721.6 1225.85 1130.4 1117.36 1107.75 974.476 961.61 916.797 825.725 824.696 815.305
threshold=-0.23645959544980485 0.97582345000000015 0.25000000000000006 1.5000000000000002 1.5000000000000002 1.5000000000000002 0.6003959000000002 7.5000000000000009 0.74665921310000016 2.5000000000000004 1.5000000000000002 0.72303440000000008 1.5000000000000002 0.18459634928146937 0.59740420000000005 0.33953380037368264 0.31614868930000006 1.5000000000000002 8.5000000000000018
decision_type=2 2 2 2 2 2 2 2 2 2 2 2 2 2 2 2 2 2 2
left_child=2 3 7 4 17 6 -4 11 15 10 18 -1 -3 -10 -7 16 -6 -2 -8
right_child=1 12 5 -5 8 14 9 -9 13 -11 -12 -13 -14 -15 -16 -17 -18 -19 -20
leaf_value=0.055383632140396925 0.051845503771682601 0.071770400586171207 0.049504128442669569 0.07881628351457029 0.030875508417500343 0.033742219961598 0.062102455439203369 0.046879744615176903 0.065980748074441958 0.081825133793934288 0.067263766579835696 0.069373028946554616 0.078668135431900307 0.07636627365892476 0.077155518525398814 0.080445737780153084 0.059715380644331351 0.08113267407665832 0.050705120219580867
leaf_weight=2311.9999998733401 104.99162911996245 4176.7425059378147 1166.1347038820386 2457.6119221411645 101.28127199038863 53.209613688290119 1952.9603061489761 2695.4968316741288 7591.7481095232069 363.32596708834171 2929.4621837288141 758.18076716735959 5260.757309615612 1025.5141631327569 1240.743719663471 210.36008329316974 5016.7251514643431 1141.4404394179583 924.88411260023713
leaf_count=24212 986 27363 12716 13905 1355 621 17498 31530 60524 2130 24915 6256 29137 6508 8153 1286 47028 7304 9888
internal_value=0 7.02997 5.9544 6.74574 6.56198 6.37502 6.17008 5.32476 6.44538 6.40057 6.28909 5.88383 7.56154 6.72167 7.53703 5.99856 5.91447 7.86657 5.84396
internal_weight=0 27087.2 14396.4 17649.7 15192.1 8630.72 7336.77 5765.68 13945.6 6170.63 5807.31 3070.18 9437.5 8617.26 1293.95 5328.37 5118.01 1246.43 2877.84
internal_count=333315 195396 137919 138896 124991 75921 67147 61998 116701 54431 52301 30468 56500 67032 8774 49669 48383 8290 27386
shrinkage=0.01


Tree=8
num_leaves=20
num_cat=0
split_feature=9 3 4 23 15 15 15 15 1 1 15 5 1 4 5 10 20 10 16
split_gain=9695.58 3855.35 3715.88 3271.99 2606.78 2213.56 1955.8 1339.62 1034.77 966.716 958.536 895.395 888.305 1080.86 883.096 866.668 844.338 882.767 819.325
threshold=1.5000000000000002 1.5000000000000002 0.45000000000000007 1.5000000000000002 -0.23645959544980485 -0.11367461559813949 -0.33750662900763018 -1.0000000180025095e-35 0.75723177739791658 0.60622825000000014 0.33953380037368264 3.5000000000000004 0.84705370865000018 0.65000000000000002 9.5000000000000018 3.5000000000000004 1.5000000000000002 8.5000000000000018 6.5000000000000009
decision_type=2 2 2 2 2 2 2 2 2 2 2 2 2 2 2 2 2 2 2
left_child=1 3 4 7 11 8 9 -1 -5 15 -6 -2 13 -7 -10 -4 17 -8 -14
right_child=2 -3 6 5 10 12 16 -9 14 -11 -12 -13 18 -15 -16 -17 -18 -19 -20
leaf_value=0.064758598252353611 0.055822962132316647 0.07481306158059943 0.011315285214607881 0.051518398667319117 0.052835065441986372 0.055511921914659333 0.043180769448704706 0.072097768224565123 0.063275963891333692 0.055067945973147785 0.07602797577239867 0.035980333533362711 0.067707105433646372 0.066684009797435884 0.05288646954966298 0.045405844058777491 0.062777019891713109 0.059217565467570656 0.050995990949790682
leaf_weight=4749.4928019084036 264.77926870808005 3906.9397215619683 83.696567732840776 2424.644881606102 1893.5704007409513 1978.5387798920274 467.95953221619129 5221.0859970226884 2523.8012985028327 1821.510395154357 196.70719101279974 1611.484157320112 5374.5194405801594 1539.9846318177879 1210.5345331206918 684.15288092568517 6360.2709129191935 1288.0139641389251 310.33075263723731
leaf_count=35398 2657 19018 1245 24397 17767 16630 4818 28676 19450 16853 1113 20018 34082 10618 11398 7590 48718 10385 2484
internal_value=0 6.55668 5.56048 6.41408 4.73371 6.12454 5.86681 6.86017 5.66053 5.11008 5.50177 3.87805 6.43507 6.04017 5.99081 4.16899 6.10823 5.49438 6.67949
internal_weight=0 29239.9 14672.1 25332.9 3966.54 15362.4 10705.6 9970.58 6158.98 2589.36 2090.28 1876.26 9203.37 3518.52 3734.34 767.849 8116.24 1755.97 5684.85
internal_count=333315 202151 131164 183133 41555 119059 89609 64074 55245 25688 18880 22675 63814 27248 30848 8835 63921 15203 36566
shrinkage=0.01


Tree=9
num_leaves=20
num_cat=0
split_feature=9 26 2 6 1 5 10 5 2 5 14 2 14 12 2 12 1 23 8
split_gain=8183.53 3651.01 3725.78 2260.27 1870.12 1834.88 1359.34 1313.59 1269.88 1261.86 1228 1117.37 933.068 877.228 872.106 950.178 843.618 750.572 744.759
threshold=1.5000000000000002 1.5000000000000002 5.5000000000000009 1.5000000000000002 0.82234420510000017 7.5000000000000009 8.5000000000000018 10.500000000000002 1.0000000180025095e-35 7.5000000000000009 1.5000000000000002 1.0000000180025095e-35 1.5000000000000002 1.5000000000000002 1.5000000000000002 1.5000000000000002 0.76949600000000007 1.5000000000000002 1.5000000000000002
decision_type=2 2 2 2 2 2 2 2 2 2 2 2 2 2 2 2 2 2 2
left_child=1 2 4 5 9 11 -7 -3 -6 -1 -4 -2 16 -13 -8 -16 -5 -10 -15
right_child=3 7 10 12 8 6 14 -9 17 -11 -12 13 -14 18 15 -17 -18 -19 -20
leaf_value=0.059926964735893214 0.069631584998008811 0.057853490572730037 0.06522999969112693 0.047196203092868858 0.079690579121199492 0.040339314813052703 0.060891037373640079 0.048271801934919221 0.066559694095357849 0.050939517855193198 0.072985352072455698 0.065956014318230505 0.068621084249767442 0.042342360484209349 0.068693958791224155 0.046997278952018003 0.065070993700976507 0.060055381774940991 0.053575404521641473
leaf_weight=4133.5867489874363 454.00319132581353 6415.8396323062479 4351.1128527894616 575.47863385081291 469.65711116045713 2053.4233700707555 652.6717627607286 1841.4405049979687 3012.0198082625866 2511.3119249008596 3846.7657507583499 513.48996393755078 1071.0201124437153 663.11904696002603 214.86899974197149 3330.0541794039309 487.88318633660674 4316.888016924262 5369.6393305771053
leaf_count=28998 2787 45999 26110 5066 1666 22025 5055 15729 15882 21094 18429 3424 5948 6526 1401 30984 2861 28244 45087
internal_value=0 6.14088 6.34847 5.24827 6.04285 5.09444 4.70066 5.57167 6.375 5.65303 6.88691 5.44608 6.2033 5.34087 5.02682 4.83124 5.53974 6.27285 5.23407
internal_weight=0 30898.6 22641.3 15385.7 14443.5 13251.3 6251.02 8257.28 7798.56 6644.9 8197.88 7000.25 2134.38 6546.25 4197.59 3544.92 1063.36 7328.91 6032.76
internal_count=333315 202151 140423 131164 95884 117289 59465 61728 45792 50092 44539 57824 13875 55037 37440 32385 7927 44126 51613
shrinkage=0.01


Tree=10
num_leaves=20
num_cat=0
split_feature=9 14 4 26 7 10 3 12 2 4 2 6 2 2 23 4 16 12 10
split_gain=5872.79 3399.75 2885.22 1822.96 1808.82 1622.67 1409.76 1283.17 1155.92 1066.11 1126.38 960.727 897.696 895.413 865.391 805.102 866.81 798.982 794.757
threshold=1.5000000000000002 1.5000000000000002 0.55000000000000016 1.5000000000000002 0.41812885000000005 8.5000000000000018 1.5000000000000002 1.5000000000000002 1.5000000000000002 0.55000000000000016 5.5000000000000009 1.5000000000000002 1.5000000000000002 1.0000000180025095e-35 1.5000000000000002 0.8500000000000002 5.5000000000000009 1.5000000000000002 5.5000000000000009
decision_type=2 2 2 2 2 2 2 2 2 2 2 2 2 2 2 2 2 2 2
left_child=1 4 7 11 6 15 9 -2 -7 10 -1 -3 -5 -9 -15 16 -4 -10 -6
right_child=2 3 5 12 18 8 -8 13 17 -11 -12 -13 -14 14 -16 -17 -18 -19 -20
leaf_value=0.044269853292613001 0.0639030205337658 0.061678666039704656 0.039655346604515966 0.068612809316032752 0.037417882740341024 0.064229238480409359 0.061357392897335272 0.064023997416695469 0.066004215052687443 0.054125726547546202 0.055246921836358195 0.068586417941113684 0.051256931284621991 0.048411524152767803 0.03919603591763525 0.051645572460579603 0.066075305986051242 0.052862761421360559 0.061029591237586091
leaf_weight=2737.6033068113029 309.44583121687174 7086.2589960023761 1359.3214033618569 350.20743052661419 146.90640217065811 1350.4720686376095 1932.5580628737807 193.08428503572941 505.65548110753298 9145.2781895659864 1419.4783202186227 2812.4777777269483 1999.5917484685779 1477.7672792524099 3282.414020627737 2124.6186364851892 136.66762977093458 5439.444714512676 4811.6419572457671
leaf_count=23547 2056 39806 12920 1751 1274 7988 9790 1294 2718 64360 10375 11233 13954 12711 33456 17166 863 39956 26097
internal_value=0 5.76052 5.02294 6.17617 5.5084 5.31616 5.33765 4.41474 5.58776 5.2217 4.80181 6.36413 5.38436 4.29132 4.20569 4.76886 4.2069 5.39805 6.033
internal_weight=0 32442 16178.9 12248.5 20193.5 10916.2 15234.9 5262.71 7295.57 13302.4 4157.08 9898.74 2349.8 4953.27 4760.18 3620.61 1495.99 5945.1 4958.55
internal_count=333315 202187 131128 66744 135443 81611 108072 49517 50662 98282 33922 51039 15705 47461 46167 30949 13783 42674 27371
shrinkage=0.01


Tree=11
num_leaves=20
num_cat=0
split_feature=15 6 3 5 4 3 8 1 10 15 4 10 4 2 2 21 14 2 5
split_gain=6343.25 2569.76 2043.95 1963.58 1933.56 1378.76 1299.19 1180.86 1083.28 965.079 959.305 945.876 833.908 758.62 975.883 750.107 712.707 696.929 625.755
threshold=-0.13176136161160293 1.5000000000000002 1.5000000000000002 5.5000000000000009 0.35000000000000003 1.5000000000000002 3.5000000000000004 0.82537870050000006 7.5000000000000009 0.19481658980376851 1.0000000180025095e-35 5.5000000000000009 0.35000000000000003 4.5000000000000009 1.5000000000000002 1.5000000000000002 2.5000000000000004 1.0000000180025095e-35 8.5000000000000018
decision_type=2 2 2 2 2 2 2 2 2 2 2 2 2 2 2 2 2 2 2
left_child=1 4 3 9 6 8 10 11 -6 -2 -1 -5 -13 14 -9 -15 -8 -3 -10
right_child=2 17 -4 7 5 -7 16 13 18 -11 -12 12 -14 15 -16 -17 -18 -19 -20
leaf_value=0.057535350846270088 0.056316187632870253 0.080407720708522007 0.062240044868541164 0.03616457165107375 0.042008856796295638 0.055935809685434046 0.030540171480021083 0.059781699472990731 0.050688736902989064 0.064300932332716554 0.042105119226530964 0.043939483955302255 0.052379308381142735 0.05883623233713052 0.048951720663233278 0.048424676401932029 0.046648516545334168 0.055631280501922467 0.045631019581266863
leaf_weight=514.94563974440098 6169.643977843225 117.85979559272528 3723.0748218595982 531.12530819699168 3009.6005496494472 2140.6734053865075 1309.9487742744386 1091.6167517974973 6602.6305091790855 2005.8266705349088 1851.9537315256894 1605.3181954100728 4324.3345215767622 4243.4233011081815 3498.986610263586 826.80437143146992 347.54075553640723 3090.3406458720565 3885.9183286242187
leaf_count=3629 34667 353 14906 4953 27094 12441 13995 5591 47811 8673 16589 12460 27734 21194 22156 5052 2978 18571 32468
internal_value=0 4.8243 5.53404 5.42832 4.68891 4.84798 4.07075 5.22588 4.72974 5.82752 4.54621 4.89493 5.00944 5.4472 5.1527 5.71384 3.39178 5.65415 4.88149
internal_weight=0 22871.4 28020.2 24297.1 19663.2 15638.8 4024.39 16121.6 13498.1 8175.47 2366.9 6460.78 5929.65 9660.83 4590.6 5070.23 1657.49 3208.2 10488.5
internal_count=333315 175929 157386 142480 157005 119814 37191 99140 107373 43340 20218 45147 40194 53993 27747 26246 16973 18924 80279
shrinkage=0.01


Tree=12
num_leaves=20
num_cat=0
split_feature=0 1 2 6 12 4 15 12 2 3 4 1 4 1 0 7 6 0 4
split_gain=5808.31 2692.5 1725.33 1539.62 1414.19 1382.4 1305.82 1288.35 1235.18 1065.26 912.038 962.634 903.273 854.361 784.817 776.807 739.791 835.122 722.729
threshold=0.83028920290000008 0.75291100865000005 1.0000000180025095e-35 1.5000000000000002 1.5000000000000002 0.35000000000000003 0.27899497730928086 1.5000000000000002 1.0000000180025095e-35 1.5000000000000002 0.65000000000000002 0.88566260000000008 1.0000000180025095e-35 0.5760859155500001 0.60378455000000009 0.34724865000000005 1.5000000000000002 0.61216155000000005 0.45000000000000007
decision_type=2 2 2 2 2 2 2 2 2 2 2 2 2 2 2 2 2 2 2
left_child=1 4 -3 6 -1 12 8 -4 -2 16 11 -10 -6 14 15 -7 17 -9 -13
right_child=3 2 7 -5 5 13 -8 9 10 -11 -12 18 -14 -15 -16 -17 -18 -19 -20
leaf_value=0.055367520657360794 0.067021717986947837 0.063044295918788629 0.059252746451159785 0.058365065712417889 0.049121244930398281 0.045808363161128123 0.057521044726493734 0.038965817500870095 0.044380982952053102 0.055264599392509925 0.05219378269925528 0.057147409438459487 0.034702271663316457 0.04647561328576208 0.042343785346734643 0.020249488038068128 0.052680198929001165 0.046856602614616695 0.045344088910187791
leaf_weight=903.33471064269543 450.41672119498253 868.74723862856627 1039.783133469522 4513.0875673443079 512.7506988979876 180.92620398849249 3393.2403761222959 1597.221148841083 4058.7098210677505 1631.6462711617351 9399.1134260296822 1348.1833481863141 2845.4335198588669 6385.8642707318068 2695.6628100350499 346.93445388972759 1727.6979689896107 8369.1656723991036 843.21805202960968
leaf_count=5362 1387 3637 5270 17561 4091 1510 15155 13381 27869 7713 50669 6320 27380 48668 21849 3948 9155 57377 5013
internal_value=0 4.64572 4.93595 5.31019 4.32697 4.2427 5.18833 4.85319 5.06951 4.76954 5.02252 4.72647 3.69039 4.43571 4.01603 2.90099 4.66392 4.5592 5.26057
internal_weight=0 29105.2 15234.3 24006 13870.9 12967.6 19492.9 14365.5 16099.6 13325.7 15649.2 6250.11 3358.18 9609.39 3223.52 527.861 11694.1 9966.39 2191.4
internal_count=333315 209341 96533 123974 112808 107446 106413 92896 91258 87626 89871 39202 31471 75975 27307 5458 79913 70758 11333
shrinkage=0.01


Tree=13
num_leaves=20
num_cat=0
split_feature=0 3 12 9 6 2 15 2 2 26 17 5 15 13 6 5 15 2 7
split_gain=5126.31 2437.75 2579.08 2082.21 1346.58 1156.81 1133.31 1066.24 852.637 1339.84 796.863 745.437 734.494 733.671 624.136 612.84 596.609 580.13 573.118
threshold=0.83028920290000008 1.5000000000000002 1.5000000000000002 1.5000000000000002 1.5000000000000002 1.5000000000000002 0.27899497730928086 1.0000000180025095e-35 5.5000000000000009 1.5000000000000002 1.5000000000000002 8.5000000000000018 -0.40996409330344791 0.25000000000000006 1.5000000000000002 5.5000000000000009 -0.30012674980462917 3.5000000000000004 0.37013510525000004
decision_type=2 2 2 2 2 2 2 2 2 2 2 2 2 2 2 2 2 2 2
left_child=1 2 18 8 6 -5 7 -2 -4 -10 15 -11 -7 -3 -14 -9 -13 -12 -1
right_child=4 13 3 5 -6 12 -8 10 9 11 17 16 14 -15 -16 -17 -18 -19 -20
leaf_value=0.059581305783265953 0.062949732907363665 0.045501376946450824 0.042915495803774358 0.045928140941108149 0.055189198132476913 0.031834024650376949 0.054393481587903268 0.050127504049050503 0.052644951088886727 0.047742601697510059 0.046664111954984176 0.028349208524590868 0.037625359604563868 0.054310812185175986 0.046694851932198793 0.044290051894843682 0.043468660323066483 0.052572916234537817 0.048305863648498606
leaf_weight=1016.0447394996881 474.62885999679565 1431.7994873672724 8932.2081292048097 1876.2721010893583 4723.9564525336027 1932.6279150545597 3551.6313452124596 2439.2164388820529 2811.4964301139116 1163.2850727438927 2707.6242559999228 508.78973580896854 5556.5421036779881 2782.7507592588663 878.77680256217718 6846.3327555879951 535.85757534205914 4301.0319854095578 810.30267141014338
leaf_count=4945 1387 9043 62066 13489 17561 18267 15155 13302 16119 7395 15279 4698 46745 12606 5475 41802 3774 19488 4719
internal_value=0 4.42626 4.31199 4.22549 5.038 3.88315 4.9262 4.81751 4.47687 4.80665 4.77448 4.22364 3.72403 5.1318 3.88638 4.58235 3.61048 5.02902 5.45787
internal_weight=0 30236.8 26022.2 24195.9 25044.4 10244.2 20320.5 16768.8 13951.6 5019.43 16294.2 2207.93 8367.95 4214.55 6435.32 9285.55 1044.65 7008.66 1826.35
internal_count=333315 209341 187692 178028 123974 83976 106413 91258 94052 31986 89871 15867 70487 21649 52220 55104 8472 34767 9664
shrinkage=0.01


Tree=14
num_leaves=20
num_cat=0
split_feature=15 3 0 6 0 4 13 15 2 33 4 10 2 1 27 13 2 1 1
split_gain=4622.22 1822.72 1816.52 1646.43 1303.75 1198.78 1135.5 971.09 874.03 660.378 630.673 604.2 573.87 494.84 504.354 485.866 618.46 649.948 530.861
threshold=-0.23645959544980485 1.5000000000000002 0.99583842410000012 1.5000000000000002 0.60642222030000015 0.35000000000000003 0.25000000000000006 0.24176188175996763 1.5000000000000002 1.5000000000000002 0.35000000000000003 5.5000000000000009 5.5000000000000009 0.56955541962938361 3.5000000000000004 1.0000000180025095e-35 1.5000000000000002 0.67780745000000009 0.62052995000000011
decision_type=2 2 2 2 2 2 2 2 2 2 2 2 2 2 2 2 2 2 2
left_child=3 2 5 4 13 15 10 11 -8 -10 -6 -7 -4 14 -1 -2 -17 18 -18
right_child=1 -3 12 -5 6 7 8 -9 9 -11 -12 -13 -14 -15 -16 16 17 -19 -20
leaf_value=-0.0026158115296534864 0.044415904228885569 0.052471020021595143 0.047477271199262643 0.048058890157136158 0.033051885313726791 0.03914566144224748 0.049774471801061891 0.053141323907705783 0.038466741722296416 0.044793051805441568 0.040024601467981001 0.045436274680606903 0.052200108547057644 0.035240514979374742 0.028163039594993507 0.048242037844456007 0.051524638938727822 0.037007181951981688 0.014374881254439623
leaf_weight=63.73563801497221 1350.3649967759848 5044.9329920038581 6291.7595453485847 2753.6860708445311 2020.3212535008788 1702.4743282720447 1684.2342937737703 1519.5847337916493 3224.3692793697119 3379.3863115385175 3624.0774051994085 14800.431931845844 4352.7117526531219 2515.4662899300456 323.27244760096073 421.36450747400522 46.253449849784374 2056.746978379786 228.44306724518538
leaf_count=823 8426 18630 29322 14734 17641 11914 9149 6377 23179 21033 27415 83944 16894 20785 3190 2618 288 14590 2363
internal_value=0 4.68755 4.60141 4.08906 3.9718 4.43811 4.09882 4.54917 4.33442 4.17041 3.75288 4.47873 4.94085 3.36209 2.30941 3.95027 3.70926 3.50776 2.06302
internal_weight=0 37815.1 32770.1 19588.5 16834.9 22125.7 13932.4 18022.5 8287.99 6603.76 5644.4 16502.9 10644.5 2902.47 387.008 4103.17 2752.81 2331.44 274.697
internal_count=333315 195366 176736 137949 123215 130520 98417 102235 53361 44212 45056 95858 46216 24798 4013 28285 19859 17241 2651
shrinkage=0.01


Tree=15
num_leaves=20
num_cat=0
split_feature=0 3 6 1 0 4 5 1 3 5 13 5 10 4 14 15 33 10 6
split_gain=4479.49 1873.14 1500.13 1475.47 1271.24 1072.01 998.945 869.877 841.623 777.016 935.153 681.716 606.278 707.822 611.883 578.633 524.818 502.543 488.977
threshold=0.79395961715000019 1.5000000000000002 1.5000000000000002 0.72480730120172909 1.0833405000000003 0.35000000000000003 6.5000000000000009 0.91036695000000012 2.5000000000000004 8.5000000000000018 0.55000000000000016 10.500000000000002 7.5000000000000009 0.25000000000000006 2.5000000000000004 0.21865579574685909 1.5000000000000002 7.5000000000000009 1.5000000000000002
decision_type=2 2 2 2 2 2 2 2 2 2 2 2 2 2 2 2 2 2 2
left_child=1 3 4 6 5 7 -1 -2 11 18 17 15 14 -14 -8 16 -7 -11 -5
right_child=2 -3 -4 9 -6 8 12 -9 -10 10 -12 -13 13 -15 -16 -17 -18 -19 -20
leaf_value=0.03951329319864702 0.035780415919057694 0.046352365276080026 0.050123180533145933 0.041891962129883116 0.048062006701781276 0.041748854089523627 0.026559286879098296 0.049272601409411892 0.054053305774418955 0.028049559695476282 0.042674920224921704 0.039119264704385988 0.026645039415750083 0.03747332656977749 0.048223641877510506 0.050217146613277891 0.046464336811078456 0.037044133678196541 0.048341148991801218
leaf_weight=4769.6062373369932 2864.798668935895 4008.6691263690591 5731.6325684711337 7379.9432519897819 7047.4223831817508 5444.5369214192033 1577.6998175010085 573.51483611017466 823.68017384409904 901.92955581098795 2410.1325954049826 2681.3293518722057 742.00012511014938 3238.2754505649209 142.11300949752331 1641.5798974782228 4166.4009562879801 1995.513566493988 1398.425187677145
leaf_count=33543 19212 19432 19976 44516 28223 30541 14665 2568 2602 7533 14671 15663 7070 24551 962 6679 20471 14276 6161
internal_value=0 4.00144 4.55048 3.89798 4.44561 4.30595 3.61365 3.80309 4.42311 4.10931 3.80726 4.36505 3.3311 3.54547 2.83495 4.47302 4.3793 3.42443 4.29193
internal_weight=0 28564.3 30974.9 24555.6 25243.3 18195.8 10469.7 3438.31 14757.5 14085.9 5307.58 13933.8 5700.09 3980.28 1719.81 11252.5 9610.94 2897.44 8778.37
internal_count=333315 187380 145935 167948 125959 97736 80791 21780 75956 87157 36480 73354 47248 31621 15627 57691 51012 21809 50677
shrinkage=0.01


Tree=16
num_leaves=20
num_cat=0
split_feature=17 1 4 11 3 4 1 5 0 0 14 10 12 23 16 5 7 1 5
split_gain=4446.18 2238.33 1544.86 1245.45 1136.3 1086.52 1219.43 1059.91 856.839 728.891 719.485 607.767 604.272 581.159 509.676 502.395 577.258 492.964 490.343
threshold=1.5000000000000002 0.80326283769295859 0.8500000000000002 3.5000000000000004 2.5000000000000004 0.35000000000000003 1.2246174357000001 7.5000000000000009 0.74681140185000017 0.94251070705000017 2.5000000000000004 5.5000000000000009 1.5000000000000002 1.5000000000000002 7.5000000000000009 6.5000000000000009 0.32863351725000006 0.44087980110000008 5.5000000000000009
decision_type=2 2 2 2 2 2 2 2 2 2 2 2 2 2 2 2 2 2 2
left_child=1 2 3 7 9 6 15 14 -4 12 11 -9 -3 -7 -1 -2 -17 -13 -11
right_child=5 4 8 -5 -6 13 -8 10 -10 18 -12 17 -14 -15 -16 16 -18 -19 -20
leaf_value=0.036230160140493586 0.041879008278735468 0.046991083393370714 0.037518907083142705 0.041758618404417254 0.050431826414596412 0.048303362496065469 0.055416281225939279 0.020832799225853012 0.044744500704057409 0.049546100922622592 0.038423371970809951 0.0022172655200195022 0.039184876631962656 0.044404798792294517 0.051492513187737815 0.045877544547039711 0.03135910327052438 0.031196926923312846 0.042390850971656138
leaf_weight=6319.1162819862366 1914.3668871670961 1073.8747861087322 3386.3662049770355 2439.4752440601587 1355.1259764879942 7091.5431352034211 476.28497395664454 710.88124184310436 3184.4935038387775 1286.002950720489 1071.9689766690135 59.508639931678772 12948.827027738094 8297.8811634629965 226.6497313156724 345.49825148284435 1320.7977627068758 4312.8588552027941 3752.130082346499
leaf_count=42120 9666 4768 23027 14250 4226 26388 1469 6733 15826 4634 6938 631 73163 38188 1117 1788 8307 33466 16610
internal_value=0 3.92068 3.69716 3.52143 4.15839 4.49876 4.03839 3.39573 4.10207 4.09548 3.09783 2.94083 3.97827 4.62013 3.67586 3.83844 3.43694 3.08025 4.42173
internal_weight=0 42127.3 21711.3 15140.5 20416 19446.4 4056.95 12701 6570.86 19060.8 6155.22 5083.25 14022.7 15389.4 6545.77 3580.66 1666.3 4372.37 5038.13
internal_count=333315 247509 144108 105255 103401 85806 21230 91005 38853 99175 47768 40830 77931 64576 43237 19761 10095 34097 21244
shrinkage=0.01


Tree=17
num_leaves=20
num_cat=0
split_feature=9 26 2 15 2 5 23 2 12 14 5 20 10 1 10 7 1 2 2
split_gain=4064.1 2272.67 1772.95 1536.6 1059.59 965.117 956.007 925.809 1113.91 910.603 1189.45 759.482 752.992 563.82 553.869 533.586 510.133 480.511 479.468
threshold=1.5000000000000002 1.5000000000000002 4.5000000000000009 -0.15703895315134997 1.0000000180025095e-35 10.500000000000002 1.5000000000000002 1.5000000000000002 1.5000000000000002 1.5000000000000002 6.5000000000000009 1.5000000000000002 5.5000000000000009 0.69552380000000003 8.5000000000000018 0.35567120000000002 0.74286751519638361 1.0000000180025095e-35 1.0000000180025095e-35
decision_type=2 2 2 2 2 2 2 2 2 2 2 2 2 2 2 2 2 2 2
left_child=1 2 4 7 -1 17 -4 13 -9 10 15 14 -10 -2 -5 -6 -16 -3 -13
right_child=3 5 6 11 9 -7 -8 8 12 -11 -12 18 -14 -15 16 -17 -18 -19 -20
leaf_value=0.050287837851768664 0.032924260429475667 0.049040778559308586 0.047821102143027511 0.024919142621185435 0.024327161695751217 0.031687414125397523 0.042754855875859643 0.045439843612141796 0.023881304316143499 0.042645295856287679 0.033907508611485913 0.052462346363448785 0.032067850085846554 0.043387696853220754 0.030028114015374273 0.041642358294711718 0.041276816975972318 0.038256900328281489 0.039495913362772056
leaf_weight=978.48779246211052 884.47315195947886 434.71888083964586 6559.2541195899248 576.08463283628225 184.821423150599 2445.431432209909 8618.9450402259827 547.63543953746557 1348.3634634390473 5885.2703404724598 4495.5231175944209 296.36415228247643 6738.4212905019522 1232.7421933561563 720.6532801091671 4801.7166999801993 915.10484410077333 8344.6127196699381 7556.7655610740185
leaf_count=2888 6512 1485 22313 4366 1275 15704 38051 2762 11722 25845 26810 957 49330 6509 4769 23069 4447 44590 39911
internal_value=0 4.11073 4.24832 3.57193 4.01979 3.72433 4.49442 3.30906 3.16375 3.95555 3.76377 3.85274 3.07029 3.90166 3.33514 4.10006 3.63211 3.87909 3.99852
internal_weight=0 42748.8 31524 20816.6 16345.8 11224.8 15178.2 10751.6 8634.42 15367.3 9482.06 10065 8086.78 2117.22 2211.84 4986.54 1635.76 8779.33 7853.13
internal_count=333315 202030 140251 131285 79887 61779 60364 76835 63814 76999 51154 54450 61052 13021 13582 24344 9216 46075 40868
shrinkage=0.01


Tree=18
num_leaves=20
num_cat=0
split_feature=9 26 6 4 2 4 5 10 10 0 5 3 2 12 13 2 0 3 4
split_gain=3689.13 2048.7 1600.71 1574.98 1210.55 1116.65 872.895 726.866 673.691 613.661 567.12 562.977 548.647 510.432 461.178 451.772 541.162 441.368 455.178
threshold=1.5000000000000002 1.5000000000000002 1.5000000000000002 0.55000000000000016 5.5000000000000009 0.55000000000000016 10.500000000000002 5.5000000000000009 5.5000000000000009 0.5641127009500001 7.5000000000000009 2.5000000000000004 1.0000000180025095e-35 1.5000000000000002 0.65000000000000002 1.5000000000000002 0.97582345000000015 2.5000000000000004 0.35000000000000003
decision_type=2 2 2 2 2 2 2 2 2 2 2 2 2 2 2 2 2 2 2
left_child=1 2 4 8 5 10 17 14 -2 -7 -1 13 -9 -10 -5 -11 -17 18 -3
right_child=3 6 -4 7 -6 9 -8 12 11 15 -12 -13 -14 -15 -16 16 -18 -19 -20
leaf_value=0.037310376389029377 0.022971189136278457 0.02849342478684401 0.045291674149867303 0.02817022805699243 0.042532970381488351 0.01866061742132611 0.030598830387821966 0.046286924469010476 0.04283689994203585 0.044219362938838769 0.031325843241137394 0.044113801499778511 0.036668273756828879 0.030190665763470667 0.039646025168818252 0.03712747508842474 0.042445963876902582 0.045530979794981462 0.037335871589601929
leaf_weight=3773.1326848939061 1027.7519364133477 629.01919920742512 6205.0329917296767 1585.8306247666478 9363.5285159498453 132.14474715292454 2506.7889756783843 624.20668383687735 340.17389481514692 2333.8592369630933 2728.620982401073 346.45916346460581 11866.947329059243 5167.9268879815936 449.43515522032976 4862.3921344056726 3154.2187514230609 603.25583849847317 7813.1575444340706
leaf_count=19321 8744 4198 19468 11733 37859 1033 15704 2357 1679 9104 16688 1673 65169 37509 2421 24943 11835 1889 39988
internal_value=0 3.94383 4.07222 3.43791 3.96461 3.80546 3.58204 3.6246 3.04385 4.0074 3.47988 3.17494 3.71489 3.09717 3.07044 4.03473 3.92201 3.72675 3.6677
internal_weight=0 44105.2 32552.9 21408.7 26347.9 16984.4 11552.2 14526.4 6882.31 10482.6 6501.75 5854.56 12491.2 5508.1 2035.27 10350.5 8016.61 9045.43 8442.18
internal_count=333315 202030 140251 131285 120783 82924 61779 81680 49605 46915 36009 40861 67526 39188 14154 45882 36778 46075 44186
shrinkage=0.01


Tree=19
num_leaves=20
num_cat=0
split_feature=15 9 14 0 4 4 23 0 12 10 2 26 11 5 7 2 2 0 13
split_gain=3461.37 1561.22 1331.68 1058.73 1183.66 976.227 660.611 658.311 627.428 685.63 618.919 604.577 737.092 539.731 532.883 526.097 560.939 515.619 503.409
threshold=-0.1620935319777366 1.5000000000000002 1.5000000000000002 1.0833405000000003 0.35000000000000003 0.8500000000000002 1.5000000000000002 0.63411940970000014 1.5000000000000002 5.5000000000000009 1.0000000180025095e-35 1.5000000000000002 1.5000000000000002 9.5000000000000018 0.35567120000000002 1.0000000180025095e-35 4.5000000000000009 0.70458360000000009 0.45000000000000007
decision_type=2 2 2 2 2 2 2 2 2 2 2 2 2 2 2 2 2 2 2
left_child=1 6 3 4 -2 8 -1 -6 -3 -10 -4 12 -12 -8 -15 -9 -17 -16 -11
right_child=2 5 10 -5 7 -7 13 15 9 18 11 -13 -14 14 17 16 -18 -19 -20
leaf_value=0.03825145814168248 0.03028907138551408 0.041387394531249254 0.050429879225163197 0.040765967483686404 0.029207536138165902 0.034588252239901737 0.03561368386871229 0.046934202512607159 0.020571867705694972 0.027815368783903283 0.038327271324173483 0.034357107242006524 0.042922348409110599 0.036044332474188034 0.021641155589869964 0.035123779655765769 0.039069001640536491 0.031916119612333572 0.035851001824956846
leaf_weight=5806.9552364870906 3406.7941131964326 354.45490428060293 591.87191806733608 5088.6047624051571 1072.538525544107 4039.1948772370815 6550.0022205337882 548.03192449361086 1113.8156992942095 4640.0811670646071 6774.7179581448436 1686.7037836536765 7201.903635263443 1128.6841302812099 865.41494964063168 7773.517864972353 6718.8436601683497 1121.0485658571124 937.05851602554321
leaf_count=27752 20183 1771 1150 17996 6904 23996 35086 1584 9642 34791 28024 7799 24023 6475 6605 38719 28781 6909 5125
internal_value=0 3.35334 3.81707 3.67035 3.56445 3.06688 3.55857 3.67768 2.84218 2.7735 4.03918 4.00125 4.0695 3.3984 3.05574 3.73165 3.69528 2.74398 2.91655
internal_weight=0 26556.7 40863.5 24608.3 19519.7 11084.6 15472.1 16112.9 7045.41 6690.96 16255.2 15663.3 13976.6 9665.15 3115.15 15040.4 14492.4 1986.46 5577.14
internal_count=333315 158152 175163 114167 96171 75325 82827 75988 51329 49558 60996 59846 52047 55075 19989 69084 67500 13514 39916
shrinkage=0.01


Tree=20
num_leaves=20
num_cat=0
split_feature=15 6 14 15 3 10 5 13 2 2 5 1 2 11 2 5 10 1 1
split_gain=3344.31 1586.93 1352.06 1215.48 774.444 741.049 713.164 611.481 603.525 564.102 558.114 694.871 499.119 497.464 478.725 467.779 514.299 441.866 436.113
threshold=-0.042868681735059859 1.5000000000000002 1.5000000000000002 -0.3177746513129458 2.5000000000000004 5.5000000000000009 7.5000000000000009 0.35000000000000003 1.0000000180025095e-35 4.5000000000000009 6.5000000000000009 0.87821691329862062 1.0000000180025095e-35 1.5000000000000002 1.0000000180025095e-35 7.5000000000000009 9.5000000000000018 0.68465535000000011 0.56955541962938361
decision_type=2 2 2 2 2 2 2 2 2 2 2 2 2 2 2 2 2 2 2
left_child=1 3 5 7 10 -2 9 15 -4 -7 -5 -12 -9 -10 -3 -1 18 -8 -17
right_child=2 14 8 4 -6 6 17 12 13 -11 11 -13 -14 -15 -16 16 -18 -19 -20
leaf_value=0.029698614786799252 0.028735971030997242 0.053780523356908506 0.049544526224326271 0.035021810434559 0.041688940730347478 0.035552247524806638 0.028860470924071714 0.044098740328885562 0.036979347592226978 0.040022021746795894 0.029190622050284169 0.034790122191584276 0.031064993634083209 0.04071086908835967 0.037364448978310802 0.009960657584253298 0.028924962207774959 0.034825770271366067 0.023050166995920555
leaf_weight=3418.8630641177297 1529.7133418917656 184.82671645283699 560.79389996081591 6896.2810147926211 1057.1501085087657 6190.6306774020195 1515.5642360523343 316.63751968741417 6697.5689611211419 5191.1027325168252 5933.5377783179283 3537.4104290232062 4075.3179171457887 7657.1552978828549 4570.2349884659052 312.63870649039745 1337.8944243267179 6872.3781813681126 1369.6575541272759
leaf_count=22369 9270 379 942 36214 3891 26928 8488 1083 26275 18556 38920 18045 23335 25045 19814 3000 9348 30571 10842
internal_value=0 3.26578 3.70584 3.17583 3.33936 3.54415 3.59604 2.91277 3.93674 3.75909 3.28578 3.1282 3.20047 3.89698 3.80025 2.71653 2.42976 3.37479 2.06176
internal_weight=0 33010.5 36214.9 28255.4 17424.4 21299.4 19769.7 10831 14915.5 11381.7 16367.2 9470.95 4391.96 14354.7 4755.06 6439.05 3020.19 8387.94 1682.3
internal_count=333315 187240 146075 167047 97070 93813 84543 69977 52262 45484 93179 56965 24418 51320 20193 45559 23190 39059 13842
shrinkage=0.01


Tree=21
num_leaves=20
num_cat=0
split_feature=1 4 3 0 23 4 0 1 2 7 13 5 12 7 5 2 13 21 6
split_gain=2930.23 1624.83 1435.65 1281.8 1207.41 738.154 720.66 616.996 599.41 533.396 514.961 482.857 459.303 487.395 451.612 430.987 430.784 414.892 421.677
threshold=0.75723177739791658 0.35000000000000003 1.5000000000000002 0.6958020302000002 1.5000000000000002 1.0000000180025095e-35 1.1103659635500003 0.72132930000000017 1.0000000180025095e-35 0.35358765000000009 0.15000000000000005 10.500000000000002 1.5000000000000002 0.34727510355000007 8.5000000000000018 10.500000000000002 0.75000000000000011 2.5000000000000004 1.5000000000000002
decision_type=2 2 2 2 2 2 2 2 2 2 2 2 2 2 2 2 2 2 2
left_child=1 5 4 15 -2 -1 8 9 -6 12 -5 17 -7 -14 -10 -3 -16 18 -12
right_child=2 3 -4 10 6 7 -8 -9 14 -11 11 -13 13 -15 16 -17 -18 -19 -20
leaf_value=0.034441477877735119 0.036921357404987212 0.029192268578467968 0.039855151286314831 0.030424049066855776 0.04325639102612347 0.04876395856881019 0.037099048940114066 0.030353907487611742 0.033426023620088785 0.020352183354753244 0.034495496391724473 0.030712587163765556 0.023860317252224081 0.041242447670655123 0.02846786766364422 0.004055033694446787 0.033383532086825637 0.044136198497099967 0.040000584921019648
leaf_weight=1074.2418017908931 14064.443569920957 6703.1175415068865 6098.0007302910089 2909.3881125673652 493.99390333145857 100.45938703417778 3917.3768943920732 1716.3089294284582 10676.168926380575 2449.848752617836 7461.6500645726919 2053.4678079485893 1049.3791504651308 190.61754915118217 4916.4770870357752 68.908159337937832 2796.9854259639978 595.4232122823596 1710.326885946095
leaf_count=5895 52639 42857 17386 15505 1667 346 13386 10140 50215 18627 35206 10938 7495 1105 28028 622 13409 2130 5719
internal_value=0 3.12067 3.53606 3.25374 3.46171 2.68588 3.31957 2.53795 3.2386 2.31271 3.41929 3.51205 2.81985 2.65324 3.2094 2.89365 3.02503 3.60472 3.5522
internal_weight=0 28083.1 42963.4 21502.3 36865.4 6580.86 22801 5506.61 18883.6 3790.3 14730.3 11820.9 1340.46 1240 18389.6 6772.03 7713.46 9767.4 9171.98
internal_count=333315 156585 176730 112977 159344 43608 106705 37713 93319 27573 69498 53993 8946 8600 91652 43479 41437 43055 40925
shrinkage=0.01


Tree=22
num_leaves=20
num_cat=0
split_feature=15 6 14 15 3 2 21 2 13 33 1 12 2 11 2 2 14 15 15
split_gain=2979.9 1385.97 1196.65 1074.6 677.203 649.168 553.225 527.742 526.633 505.506 514.99 485.026 476.231 447.628 430.562 418.936 391.089 382.806 360.851
threshold=-0.042868681735059859 1.5000000000000002 1.5000000000000002 -0.3177746513129458 2.5000000000000004 4.5000000000000009 1.5000000000000002 1.0000000180025095e-35 0.35000000000000003 1.5000000000000002 0.57933150565000013 1.5000000000000002 1.5000000000000002 3.5000000000000004 1.0000000180025095e-35 1.0000000180025095e-35 1.5000000000000002 0.24176188175996763 0.41967880506310468
decision_type=2 2 2 2 2 2 2 2 2 2 2 2 2 2 2 2 2 2 2
left_child=1 3 5 8 9 6 -2 -4 -1 11 -11 -5 -13 17 -10 -3 -17 -9 -7
right_child=2 15 7 4 -6 18 -8 13 14 10 -12 12 -14 -15 -16 16 -18 -19 -20
leaf_value=0.025416020568014824 0.02971992238810154 0.0495952890768937 0.045841581336774774 0.037938097269830932 0.038655834337228204 0.034185725300273147 0.034339702284063273 0.033962846560881617 0.040693805099695654 0.024443541252332741 0.033170265922438429 0.033441120836566016 0.027226239154131644 0.038671063294683748 0.02894475156436584 0.031875727965228216 0.037572323038415893 0.038602057903020695 0.040675374771943933
leaf_weight=6734.0672998726368 7421.6181657165289 196.95527770370245 595.00828669965267 563.83865289390087 1118.2770975753665 10068.935077480972 3983.4396166428924 7779.1928994804621 336.42479480803013 742.34553216397762 7593.0287275388837 1506.1733261197805 6797.3261860460043 5048.9717875644565 4280.5476448759437 2417.2314756736159 2403.4550772234797 2305.8665300756693 936.50227148085833
leaf_count=45559 35082 379 942 2351 3891 39897 16347 29349 1083 4696 37712 7510 40910 15132 23335 11236 8578 6839 2487
internal_value=0 3.04392 3.44893 2.96173 3.11152 3.30054 3.13335 3.66036 2.71995 3.0625 3.23931 2.8963 2.83536 3.62404 2.98009 3.52999 3.47159 3.50236 3.4738
internal_weight=0 34689.7 38139.5 29672 18321 22410.5 11405.1 15729 11351 17202.7 8335.37 8867.34 8303.5 15134 4616.97 5017.64 4820.69 10085.1 11005.4
internal_count=333315 187240 146075 167047 97070 93813 51429 52262 69977 93179 42408 50771 48420 51320 24418 20193 19814 36188 42384
shrinkage=0.01


Tree=23
num_leaves=20
num_cat=0
split_feature=15 6 4 0 15 9 3 6 4 10 4 3 0 2 11 1 7 14 8
split_gain=2775.25 1280.99 1162.28 1129.28 975.317 932.087 900.684 717.846 702.682 632.125 613.307 520.807 513.22 496.966 468.182 443.615 714.268 422.516 397.667
threshold=-0.042868681735059859 1.5000000000000002 0.35000000000000003 0.65905173020000019 -0.3177746513129458 1.5000000000000002 1.5000000000000002 1.5000000000000002 0.15000000000000005 2.5000000000000004 1.0000000180025095e-35 1.5000000000000002 1.3763995000000002 1.0000000180025095e-35 2.5000000000000004 0.75291100865000005 0.36400990000000005 2.5000000000000004 3.5000000000000004
decision_type=2 2 2 2 2 2 2 2 2 2 2 2 2 2 2 2 2 2 2
left_child=1 2 5 -2 9 10 7 8 14 -4 -1 -6 17 -11 -5 16 -12 -10 -7
right_child=3 -3 4 6 11 18 -8 -9 12 13 15 -13 -14 -15 -16 -17 -18 -19 -20
leaf_value=0.036216212833965582 0.026285010533025295 0.034065032870336513 0.016815268171188297 0.024378780715828552 0.030446929705979137 0.023985437719066357 0.037711241147421644 0.03628794489654457 0.03167268278525872 0.037333240033092865 0.027829001292787602 0.035740036747120375 0.037517411553423342 0.027161869284213554 0.033870591128797742 0.030272190024527031 0.013465875647187018 0.034950601228675854 0.016055050789016371
leaf_weight=733.38967780768871 2158.9332075417042 5146.8679356202483 562.17047157138586 1689.9747372344136 12892.45382489264 1292.8576701506972 4915.6167436763644 5827.6507776007056 16350.56819678098 510.06713661551476 873.24518249183893 2172.0770751610398 2213.7659880742431 8247.965915620327 750.40096374601126 1247.2544528022408 573.68734975904226 5177.4891161471605 1237.5956138521433
leaf_count=3299 11851 20193 4271 8857 66256 9313 12478 16771 68679 1896 5306 7711 6102 47955 2888 6292 4372 18449 10376
internal_value=0 2.94521 2.86696 3.33148 2.9637 2.47102 3.37258 3.31138 3.24073 2.70944 2.81086 3.12101 3.29325 2.77542 2.72975 2.59016 2.21342 3.2461 2.01068
internal_weight=0 35489.6 30342.8 39084.4 24384.7 5958.03 36925.5 32009.8 26182.2 9320.2 3427.58 15064.5 23741.8 8758.03 2440.38 2694.19 1446.93 21528.1 2530.45
internal_count=333315 187240 167047 146075 128089 38958 134224 121746 104975 54122 19269 73967 93230 49851 11745 15970 9678 87128 19689
shrinkage=0.01


Tree=24
num_leaves=20
num_cat=0
split_feature=15 6 4 14 0 15 9 0 10 4 4 3 2 2 2 2 6 1 7
split_gain=2594.87 1187.4 1075.95 1048.47 1003.34 900.098 868.034 594.441 587.639 562.619 558.412 483.241 474.107 458.262 428.863 673.394 423.253 416.209 544.612
threshold=-0.042868681735059859 1.5000000000000002 0.35000000000000003 1.5000000000000002 0.64028825000000011 -0.3177746513129458 1.5000000000000002 1.3407585000000002 2.5000000000000004 1.0000000180025095e-35 0.15000000000000005 1.5000000000000002 1.0000000180025095e-35 1.0000000180025095e-35 4.5000000000000009 1.5000000000000002 1.5000000000000002 0.73357001880000017 0.36400990000000005
decision_type=2 2 2 2 2 2 2 2 2 2 2 2 2 2 2 2 2 2 2
left_child=1 2 6 4 -2 8 9 10 -4 -1 -6 -7 -5 -10 15 -12 -14 18 -11
right_child=3 -3 5 12 7 11 -8 -9 13 17 14 -13 16 -15 -16 -17 -18 -19 -20
leaf_value=0.034898981097624841 0.021569705061064665 0.032910857244330183 0.0164297627283869 0.042672976216384433 0.025559059858616645 0.02946238372127381 0.019590834074980794 0.037010292869165018 0.035980293674137194 0.026096975261443771 0.034365587606003417 0.034498113978990282 0.032790092909083392 0.026340931639880938 0.032938679605544821 0.028381641428910698 0.036419518964423137 0.028511724022701437 0.012152020607686087
leaf_weight=753.35679729282856 1107.8047672510147 5273.4399858266115 569.56972905993462 627.47330278903246 1817.7159795090556 13188.522470675409 2570.917043171823 1696.2589468881488 523.88292388617992 716.40683844685555 2531.286848179996 2227.4821509793401 11426.660050608218 8419.0902148932219 9013.8770211488008 7315.6857006251812 4470.047042414546 1571.1087703853846 459.81358412653208
leaf_count=3299 6795 20193 4271 942 8929 66256 19689 4401 1896 4365 8964 7711 40256 47955 32343 32381 11064 8071 3534
internal_value=0 2.85241 2.77779 3.22173 3.08594 2.86974 2.4003 3.13193 2.62784 2.72433 3.08525 3.019 3.41472 2.69056 3.13626 2.99199 3.38107 2.5144 2.06455
internal_weight=0 36273.6 31000.2 40006.8 23482.6 24928.5 6071.6 22374.8 9512.54 3500.69 20678.6 15416 16524.2 8942.97 18860.8 9846.97 15896.7 2747.33 1176.22
internal_count=333315 187240 167047 146075 93813 128089 38958 87018 54122 19269 82617 73967 52262 49851 73688 41345 51320 15970 7899
shrinkage=0.01


Tree=25
num_leaves=20
num_cat=0
split_feature=0 6 2 9 4 21 2 26 16 4 2 2 5 5 14 0 1 4 14
split_gain=2250.55 1460.53 1282.04 1261.76 809.055 662.078 630.057 806.124 593.207 470.455 447.185 458.757 413.381 397.18 428.207 387.404 430.621 367.875 364.109
threshold=0.94251070705000017 1.5000000000000002 1.5000000000000002 1.5000000000000002 0.25000000000000006 1.5000000000000002 4.5000000000000009 1.5000000000000002 2.5000000000000004 0.8500000000000002 1.0000000180025095e-35 4.5000000000000009 11.500000000000002 7.5000000000000009 1.5000000000000002 0.66193741340000012 0.67240840000000013 0.75000000000000011 2.5000000000000004
decision_type=2 2 2 2 2 2 2 2 2 2 2 2 2 2 2 2 2 2 2
left_child=1 2 5 6 -5 17 9 -8 -6 -4 -3 -12 -9 -2 -15 16 -7 18 -1
right_child=13 10 3 4 8 15 7 12 -10 -11 11 -13 -14 14 -16 -17 -18 -19 -20
leaf_value=0.0219538555479355 0.033486144303168611 0.044158437027523367 0.025192681146150996 0.019082137053292009 0.027939955861270689 0.019784792559355908 0.031858652955218045 0.028265320260989754 0.023676816408240309 0.029686998463993405 0.029435765478966425 0.034161117136913041 0.021211806771226634 0.028652155160675905 0.032938949075661278 0.034665115682348369 0.031806233719921702 0.031835127552691141 0.035027292445308437
leaf_weight=1321.4750372692943 12443.386094294488 308.49520634114742 7035.3600656092167 2114.2795379459858 6353.4762400239706 388.05242652446032 8328.9941670075059 3928.9953405708075 6712.278711527586 3481.7869912981987 3947.5606860741973 4284.3818424791098 1053.7179298624396 4747.1549262404442 4576.6559064984322 4431.803168810904 1283.7079308778048 992.11276156455278 253.9795747846365
leaf_count=7775 37163 522 36518 15417 33998 2526 32912 18146 38696 15447 15363 13836 6227 18126 13637 16158 5573 4196 1079
internal_value=0 2.85297 2.78476 2.70745 2.48212 3.13256 2.851 2.99553 2.57499 2.66806 3.23381 3.18951 2.67737 3.23169 3.07564 3.31178 2.90158 2.70652 2.40614
internal_weight=0 56220.5 47680 39008.9 15180 8671.13 23828.9 13311.7 13065.8 10517.1 8540.44 8231.94 4982.71 21767.2 9323.81 6103.56 1671.76 2567.57 1575.45
internal_count=333315 264389 234668 197361 88111 37307 109250 57285 72694 51965 29721 29199 24373 68926 31763 24257 8099 13050 8854
shrinkage=0.01


Tree=26
num_leaves=20
num_cat=0
split_feature=0 4 1 3 8 15 0 14 0 7 3 0 10 9 7 13 7 22 14
split_gain=2118.26 1358 1104.15 580.77 579.348 612.422 510.202 489.417 452.986 427.499 380.587 379.949 356.925 346.822 341.35 323.229 378.274 374.216 321.695
threshold=0.94251070705000017 0.8500000000000002 0.75723177739791658 2.5000000000000004 3.5000000000000004 -0.13176136161160293 0.61988401005000016 1.5000000000000002 0.59534175000000011 0.36400990000000005 1.5000000000000002 1.3763995000000002 6.5000000000000009 1.5000000000000002 0.32924300000000006 0.45000000000000007 0.36661008773548359 14.500000000000002 1.5000000000000002
decision_type=2 2 2 2 2 2 2 2 2 2 2 2 2 2 2 2 2 2 2
left_child=1 2 4 13 9 14 -7 8 -3 -1 11 18 -11 -4 -6 17 -17 -15 -2
right_child=10 7 3 -5 5 6 -8 -9 -10 12 -12 -13 -14 15 -16 16 -18 -19 -20
leaf_value=0.028618895951362845 0.028962026142550907 0.023311742012966628 0.02860947878341143 0.034749863376194345 0.024710816128124195 0.011243015749133183 0.02795172736494006 0.031951779844277224 0.029277750149588277 0.018848620686336109 0.034811619129533206 0.033881728747278052 0.025636199511284846 0.023107539708736691 0.019274497869799182 0.031992939862973753 0.023631402081223829 -0.011500678829391488 0.031811901838642437
leaf_weight=4684.7906845957041 9258.5772702172399 1421.2314736545086 12780.722782798111 1285.4641612097621 1651.1387237384915 197.18373142182827 2496.4943297356367 6727.4614171907306 12175.478276185691 921.49093686789274 2714.9699743613601 3348.8614588975906 4864.2010277062654 2131.549690335989 3844.0740940123796 1150.6898115053773 1021.2148537039757 31.708541736006737 6922.2787870615721
leaf_count=23872 33836 8184 52288 3289 9551 1401 11346 24208 51894 6041 5927 8430 25110 11508 25578 4776 5060 283 20733
internal_value=0 2.76684 2.65292 2.82673 2.48151 2.28226 2.67286 2.97457 2.86541 2.63734 3.13035 3.08158 2.45551 2.77804 2.09079 2.53363 2.80614 2.26003 3.01812
internal_weight=0 57384.9 37060.7 18401.3 18659.4 8188.89 2693.68 20324.2 13596.7 10470.5 22244.7 19529.7 5785.69 17115.9 5495.21 4335.16 2171.9 2163.26 16180.9
internal_count=333315 264389 180103 77204 102899 47876 12747 84286 60078 55023 68926 62999 31151 73915 35129 21627 9836 11791 54569
shrinkage=0.01


Tree=27
num_leaves=20
num_cat=0
split_feature=0 6 2 9 4 15 21 2 26 4 2 2 10 14 14 0 4 10 10
split_gain=2001.19 1344.01 1164.46 1135.39 730.156 675.644 595.619 572.696 735.325 413.933 401.718 414.473 378.622 365.509 340.998 375.562 382.026 334.322 329.923
threshold=0.94251070705000017 1.5000000000000002 1.5000000000000002 1.5000000000000002 0.25000000000000006 -0.3177746513129458 1.5000000000000002 4.5000000000000009 1.5000000000000002 0.8500000000000002 1.0000000180025095e-35 4.5000000000000009 8.5000000000000018 2.5000000000000004 1.5000000000000002 1.3407585000000002 0.55000000000000016 3.5000000000000004 13.500000000000002
decision_type=2 2 2 2 2 2 2 2 2 2 2 2 2 2 2 2 2 2 2
left_child=1 2 6 7 -5 17 -1 9 -9 -4 -3 -12 13 -8 15 16 -2 -6 -16
right_child=14 10 3 4 5 -7 12 8 -10 -11 11 -13 -14 -15 18 -17 -18 -19 -20
leaf_value=0.025493096694597064 0.025591827120366419 0.041369761077334782 0.023740826851887289 0.018027850820694639 0.012660628644388675 0.025626371273864985 0.025634372800602337 0.029950528569149665 0.025191674080974964 0.027871020399122225 0.027726663549133567 0.032127000223072771 0.032597989808090706 0.041627243916653588 0.032632423209103124 0.033403688549050049 0.029755314658785413 0.021753931739350453 0.028425444057187558
leaf_weight=2670.3530547469854 3183.2624432221055 323.61371006816626 7307.740480363369 2186.2181711345911 461.43591751903296 9855.2463774830103 1557.46230532974 8688.5519436970353 5184.3507300391793 3632.8373101949692 4107.275099568069 4470.2781576365232 4657.9059943035245 157.34091191738844 8128.5361904352903 1817.0309455096722 7162.7015426009893 3266.2747844159603 2418.8204196989536
leaf_count=13050 12464 522 36518 15417 3597 49041 7391 32912 24373 15447 15363 13836 16454 412 20972 4461 23538 20056 7491
internal_value=0 2.68545 2.62127 2.54896 2.33914 2.42547 2.94577 2.6823 2.81721 2.51123 3.04326 3.00199 3.1119 2.71018 3.03518 2.92107 2.84743 2.06283 3.16676
internal_weight=0 58526.9 49625.7 40582.7 15769.2 13583 9043.06 24813.5 13872.9 10940.6 8901.17 8577.55 6372.71 1714.8 22710.4 12163 10346 3727.71 10547.4
internal_count=333315 264389 234668 197361 88111 72694 37307 109250 57285 51965 29721 29199 24257 7803 68926 40463 36002 23653 28463
shrinkage=0.01


Tree=28
num_leaves=20
num_cat=0
split_feature=15 3 0 12 13 4 23 6 2 0 7 5 17 5 4 9 5 10 7
split_gain=1917.33 1018.14 908.469 835.244 803.992 686.052 633.757 625.221 500.634 432.3 403.5 393.961 362.018 340.671 337.386 563.3 493.63 421.774 406.742
threshold=-0.25546943299462627 1.5000000000000002 1.0252850000000002 1.5000000000000002 0.35000000000000003 0.65000000000000002 1.5000000000000002 1.5000000000000002 1.5000000000000002 0.55985720000000005 0.31812150000000006 6.5000000000000009 1.5000000000000002 12.500000000000002 0.8500000000000002 1.5000000000000002 7.5000000000000009 1.5000000000000002 0.36199580000000003
decision_type=2 2 2 2 2 2 2 2 2 2 2 2 2 2 2 2 2 2 2
left_child=4 2 3 -2 7 6 -5 14 9 -6 -7 -10 13 -12 15 -1 -17 -16 -18
right_child=1 -3 -4 5 8 10 -8 -9 11 -11 12 -13 -14 -15 17 16 18 -19 -20
leaf_value=0.023712632521900878 0.031809690533302064 0.03137813621708662 0.029660713545083539 0.027380593922106233 0.014220622718178323 0.031726418251498627 0.022881470910872642 0.028466886747407973 0.028216571374203001 0.032254375889399903 0.026387969017320417 0.023793816717236939 0.029078656556090172 0.019071516754471867 0.0066728961252494837 0.022109281324410639 0.019087572018890976 0.026077872327416318 0.010379381603731088
leaf_weight=4918.2270467802882 2903.3686298802495 7800.1377114579082 14005.198978707194 4873.3808659017086 142.26718161255121 1946.7239089012146 8756.383499763906 1901.3799673169851 3496.7122092470527 2024.7104828059673 11822.907786771655 4749.8603615760803 5470.9698890224099 672.6112884953618 116.73164975643158 2236.1908158510923 1280.6002938896418 2768.7248477637768 922.93076934665442
leaf_count=25711 9404 20137 40573 19346 835 6536 43933 7707 14060 6698 48318 22769 18640 3254 925 13769 8975 14325 7400
internal_value=0 2.80158 2.7496 2.66642 2.46844 2.62188 2.44902 2.31319 2.67931 3.10704 2.7402 2.56692 2.69334 2.59941 2.23034 2.13816 1.87993 2.52928 1.54402
internal_weight=0 58251.7 50451.5 36446.3 24558.3 33543 13629.8 14144.8 10413.6 2166.98 19913.2 8246.57 17966.5 12495.5 12243.4 9357.95 4439.72 2885.46 2203.53
internal_count=333315 210141 190004 149431 123174 140027 63279 78812 44362 7533 76748 36829 70212 51572 71105 55855 30144 15250 16375
shrinkage=0.01


Tree=29
num_leaves=20
num_cat=0
split_feature=0 3 12 2 9 4 21 2 26 4 10 2 1 5 8 7 0 7 5
split_gain=1816.59 1228.87 1303.43 1117.84 1048.72 597.11 529.23 521.349 715.269 461.845 434.654 433.07 412.807 407.534 394.785 380.736 367.703 400.086 348.149
threshold=0.94251070705000017 1.5000000000000002 1.5000000000000002 1.5000000000000002 1.5000000000000002 0.15000000000000005 1.5000000000000002 4.5000000000000009 1.5000000000000002 0.8500000000000002 5.5000000000000009 10.500000000000002 0.93641602000000013 6.5000000000000009 3.5000000000000004 0.29664926975000006 0.68026795000000007 0.3685105077500001 7.5000000000000009
decision_type=2 2 2 2 2 2 2 2 2 2 2 2 2 2 2 2 2 2 2
left_child=1 2 -1 6 7 11 -4 9 -9 13 12 -6 15 -5 -3 -7 17 -8 -2
right_child=18 14 3 4 5 10 16 8 -10 -11 -12 -13 -14 -15 -16 -17 -18 -19 -20
leaf_value=0.030553351008956859 0.029671718774036387 0.030344694361705751 0.024075850688694049 0.024467980685383424 0.014426761960610924 0.035638818058989198 0.028453370287764641 0.02811766742365392 0.023308843651043718 0.026155153153373412 0.023051433409736352 0.043672878409821501 0.026092235080703029 0.019901122078076594 0.025743106973955446 0.015076584378471727 0.031366399884288805 0.017024573146364647 0.027217180609399153
leaf_weight=3633.6047040522099 13499.318826891482 5802.7587917521596 2593.837603263557 3626.5641362071037 1386.4167368113995 94.916846081614494 1277.41605001688 8220.1397640183568 4959.1001044884324 4075.8879131153226 11695.354872144759 52.550766326487064 536.61413215845823 4236.877382569015 2747.0519858822227 1756.2297805026174 3648.2118508443236 402.91675047576427 10103.75652962178
leaf_count=12334 37163 16688 12273 15905 9892 438 5611 30469 23131 16450 59321 227 2555 21875 10506 11888 12625 2201 31763
internal_value=0 2.53519 2.47763 2.4344 2.36742 2.16307 2.77803 2.4937 2.63082 2.34233 2.22576 1.54948 1.83696 2.20073 2.88662 1.61309 2.95836 2.57129 2.8621
internal_weight=0 60746.5 52196.6 48563 40640.7 15522.1 7922.38 25118.6 13179.2 11939.3 14083.1 1438.97 2387.76 7863.44 8549.81 1851.15 5328.54 1680.33 23603.1
internal_count=333315 264389 237195 224861 192151 84321 32710 107830 53600 54230 74202 10119 14881 37780 27194 12326 20437 7812 68926
shrinkage=0.01


Tree=30
num_leaves=20
num_cat=0
split_feature=0 5 13 3 1 15 2 4 4 1 8 2 9 31 25 33 27 18 3
split_gain=1910.48 1191.32 1041.26 810.314 766.14 702.313 589.444 706.841 565.554 468.166 435.553 403.423 402.081 373.037 326.325 315.615 505.663 374.204 314.302
threshold=0.83028920290000008 8.5000000000000018 0.55000000000000016 1.5000000000000002 0.75723177739791658 0.25309550151252014 4.5000000000000009 0.65000000000000002 0.35000000000000003 0.99980520000000006 1.5000000000000002 5.5000000000000009 1.5000000000000002 1.5000000000000002 0.35000000000000003 1.5000000000000002 8.5000000000000018 0.31622778300000004 1.5000000000000002
decision_type=2 2 2 2 2 2 2 2 2 2 2 2 2 2 2 2 2 2 2
left_child=1 4 12 5 8 6 7 13 -1 -9 -10 18 14 -2 -3 16 -14 -17 -6
right_child=3 2 -4 -5 11 -7 -8 9 10 -11 -12 -13 15 -15 -16 17 -18 -19 -20
leaf_value=0.019991693248979401 0.018021508042021444 0.019118950179171319 0.025835128322477741 0.030696064798753354 0.024932910865292219 0.029311526255206867 0.027271380892824579 0.028160897845676769 0.019679560998273851 0.023512437426905494 0.025477935386707232 0.02910332953186336 0.017755538141650724 0.02353576836771365 0.023821067482596422 0.011476542553095883 0.004224062230143954 0.02342808750828166 0.02990672133264936
leaf_weight=3342.329498000443 2017.4186045974493 2353.9585266634822 4833.3090079948306 5266.9414954409003 8688.7502544149756 6964.6399636864662 13098.892527863383 4762.1842693611979 1499.7390486374497 3975.163142375648 9511.4943300262094 5112.4025822803378 3326.7922751903534 3130.4872908890247 3956.8520557358861 309.95360453426838 301.16701079905033 1692.4461461007595 1488.0711158514023
leaf_count=19075 9857 12197 19483 11472 34659 18889 41377 15802 7706 13971 42693 17194 20684 12242 18463 2210 2268 9309 3764
internal_value=0 2.40487 2.1919 2.70466 2.52538 2.64804 2.57497 2.43142 2.35946 2.6046 2.46882 2.68115 2.03339 2.13748 2.20672 1.83912 1.66323 2.15781 2.56602
internal_weight=0 46417.3 16774.5 39215.7 29642.8 33948.8 26984.1 13885.3 14353.6 8737.35 11011.2 15289.2 11941.2 5147.91 6310.81 5630.36 3627.96 2002.4 10176.8
internal_count=333315 209705 84614 123610 125091 112138 93249 51872 69474 29773 50399 55617 65131 22099 30660 34471 22952 11519 38423
shrinkage=0.01


Tree=31
num_leaves=20
num_cat=0
split_feature=9 3 26 2 12 15 4 4 3 10 1 8 23 23 4 1 1 14 34
split_gain=1767.43 1212.96 931.272 1174.94 911.006 852.692 748.681 691.5 473.818 461.587 441.873 405.587 378.51 358.015 354 349.742 330.339 319.625 329.424
threshold=1.5000000000000002 1.5000000000000002 1.5000000000000002 5.5000000000000009 1.5000000000000002 0.18459634928146937 0.55000000000000016 0.65000000000000002 1.5000000000000002 7.5000000000000009 1.6402170000000003 1.5000000000000002 1.5000000000000002 1.5000000000000002 0.55000000000000016 0.37996710190000005 0.72132930000000017 1.5000000000000002 1.5000000000000002
decision_type=2 2 2 2 2 2 2 2 2 2 2 2 2 2 2 2 2 2 2
left_child=1 2 3 7 -2 6 13 10 9 -8 17 -7 -5 -6 16 -11 -4 18 -1
right_child=4 -3 14 12 5 11 8 -9 -10 15 -12 -13 -14 -15 -16 -17 -18 -19 -20
leaf_value=0.020117776418636463 0.029088451231241864 0.029340177028871654 0.013807568417107544 0.030348527352733991 0.022240338125546169 0.010785644355387043 0.018972381332263484 0.026206171417910339 0.026964403297708894 -0.01167161841185632 0.035754276280913176 0.028371271788513501 0.026915866846715892 0.017580688393777619 0.023615137943404085 0.023291148312315272 0.021999075834479985 0.024822302120001805 0.025545379064692265
leaf_weight=5515.712174102664 2065.8233724236488 8043.7751815393567 744.64862505346537 5594.6256299093366 2388.6372152939439 138.13644504547119 3496.9033586010337 13193.809917204082 2351.4457946419716 28.693212956190109 257.56193380057812 2593.1461972594261 7543.7167102321982 5324.3818983361125 11133.436306789517 10008.87270539999 1452.7316097989678 3818.7633098363876 1402.6135555803776
leaf_count=25294 6808 18890 4479 14047 12188 681 19214 43417 8042 236 561 7667 24643 32787 45118 43688 6473 13697 5385
internal_value=0 2.57328 2.516 2.59703 2.26939 2.21922 2.15799 2.46627 2.2821 2.21012 2.28105 2.74819 2.83776 1.90237 2.28912 2.31912 1.92231 2.25 2.12182
internal_weight=0 58701.4 50657.6 37326.8 28396 26330.2 23598.9 24188.5 15885.9 13534.5 10994.7 2731.28 13138.3 7713.02 13330.8 10037.6 2197.38 10737.1 6918.33
internal_count=333315 202004 183114 127044 131311 124503 116155 88354 71180 63138 44937 8348 38690 44975 56070 43924 10952 44376 30679
shrinkage=0.01


Tree=32
num_leaves=20
num_cat=0
split_feature=9 3 26 2 12 15 5 20 1 13 20 3 14 33 8 5 13 23 21
split_gain=1677.09 1151.26 879.095 1102.24 853.645 806.104 632.424 483.693 493.545 457.905 446.314 438.64 419.616 425.14 380.993 359.713 384.371 355.935 379.737
threshold=1.5000000000000002 1.5000000000000002 1.5000000000000002 5.5000000000000009 1.5000000000000002 0.18459634928146937 8.5000000000000018 1.5000000000000002 0.74085586414782512 0.45000000000000007 2.5000000000000004 1.5000000000000002 2.5000000000000004 1.5000000000000002 1.5000000000000002 10.500000000000002 0.15000000000000005 1.5000000000000002 1.5000000000000002
decision_type=2 2 2 2 2 2 2 2 2 2 2 2 2 2 2 2 2 2 2
left_child=1 2 3 7 -2 6 11 8 -1 12 -9 -6 13 -8 -7 16 -4 -5 -19
right_child=4 -3 15 17 5 14 9 10 -10 -11 -12 -13 -14 -15 -16 -17 -18 18 -20
leaf_value=0.018052003512800171 0.028246162710963724 0.028536266071688975 0.017182373084887098 0.02948230696637515 0.021574247377938428 0.010601844690576517 0.014288675936226439 0.029640078796226436 0.02358360212080628 0.022682437479582044 0.024407492145824303 0.02639538323455062 0.023034461797441532 0.02028560776419238 0.027580831867656485 0.019253197447135204 0.023788026485444789 0.027264461203773366 0.021606293401720579
leaf_weight=2282.1238224506378 2105.9447342008352 8186.9412968382239 970.14490066468716 5700.8650045469403 13006.937717095017 139.12094038724899 3477.4802393317223 1829.2557656243443 5500.9441893026233 2341.9958433955908 14970.40253829211 2207.4368161484599 1133.4468322768807 1790.9937449321151 2640.545040756464 2995.0201531052589 9574.1208549290895 6210.2538504675031 1466.1539126113057
leaf_count=10724 6808 18890 4854 14047 61509 681 21632 4669 19664 9966 53297 7644 5325 10079 7667 14371 36845 19080 5563
internal_value=0 2.5053 2.44992 2.52795 2.21163 2.16335 2.1042 2.40225 2.19616 1.88989 2.49773 2.22737 1.75148 1.63273 2.6731 2.23116 2.31803 2.75895 2.61838
internal_weight=0 59686.2 51499.3 37960 28843.9 26738 23958.3 24582.7 7783.07 8743.92 16799.7 15214.4 6401.92 5268.47 2779.67 13539.3 10544.3 13377.3 7676.41
internal_count=333315 202004 183114 127044 131311 124503 116155 88354 30388 47002 57966 69153 37036 31711 8348 56070 41699 38690 24643
shrinkage=0.01


Tree=33
num_leaves=20
num_cat=0
split_feature=0 5 13 3 15 3 2 4 23 2 4 10 15 27 4 4 3 20 10
split_gain=1730.26 1056.24 924.175 705.349 629.514 577.233 557.73 598.149 451.695 414.694 397.08 440.493 335.819 412.924 399.443 330.281 312.215 303.811 538.141
threshold=0.83028920290000008 8.5000000000000018 0.55000000000000016 1.5000000000000002 0.27899497730928086 1.5000000000000002 4.5000000000000009 0.65000000000000002 1.5000000000000002 6.5000000000000009 0.35000000000000003 5.5000000000000009 -0.23645959544980485 8.5000000000000018 0.8500000000000002 1.0000000180025095e-35 2.5000000000000004 1.5000000000000002 9.5000000000000018
decision_type=2 2 2 2 2 2 2 2 2 2 2 2 2 2 2 2 2 2 2
left_child=1 5 12 4 6 9 7 -2 -8 10 15 -12 13 14 -3 -1 -14 18 -13
right_child=3 2 -4 -5 -6 -7 8 -9 -10 -11 11 17 16 -15 -16 -17 -18 -19 -20
leaf_value=0.024811560194037616 0.019918239812836355 0.016780217946749755 0.023842329718065755 0.02830796934043758 0.02734893402495971 0.026616455778268655 0.027379011205935267 0.024041995690455724 0.02377058303921873 0.025155723888214295 0.018865903487527688 0.016581467025868539 0.020174892292855996 0.0099635132709642079 0.022297959829274818 0.017532478330829743 0.030703213541436222 0.024324922232486289 0.023845035895513723
leaf_weight=796.3498207628727 5573.4355171695352 5137.0879242494702 5082.5377830117941 5544.5993486866355 6275.1302684769034 4519.5187749117613 5957.8050884455442 9534.9656017944217 8304.4661510586739 5651.4048754945397 2513.3405326157808 1607.5594778433442 4635.7779315859079 669.45563511550426 1762.0074312612414 2869.3300128057599 299.88737487047911 10407.931119590998 2790.6435535997152
leaf_count=3367 22718 29558 19483 11472 15878 13314 15041 30903 27598 21609 12481 7807 22040 4256 8493 15486 784 40083 10944
internal_value=0 2.2206 2.02467 2.499 2.44739 2.3312 2.38596 2.25208 2.52779 2.27513 2.21038 2.27367 1.87852 1.74618 1.81894 1.91138 2.08146 2.33937 2.11902
internal_weight=0 48742.8 17586.8 41190.4 35645.8 31156.1 29370.7 15108.4 14262.3 26636.6 20985.2 17319.5 12504.2 7568.55 6899.1 3665.68 4935.67 14806.1 4398.2
internal_count=333315 209705 84614 123610 112138 125091 96260 53621 42639 111777 90168 71315 65131 42307 38051 18853 22824 58834 18751
shrinkage=0.01


Tree=34
num_leaves=20
num_cat=0
split_feature=0 1 3 23 3 0 12 2 9 13 0 2 7 16 32 7 7 8 28
split_gain=1658.58 973.273 672.353 591.463 569.894 545.334 427.312 482.524 470.864 456.445 379.529 375.089 342.635 310.184 364.662 334.439 283.146 279.464 273.514
threshold=0.83028920290000008 0.75723177739791658 1.5000000000000002 1.5000000000000002 1.5000000000000002 0.60378455000000009 1.5000000000000002 1.0000000180025095e-35 1.5000000000000002 0.45000000000000007 1.2162381366000001 4.5000000000000009 0.45880445000000009 2.5000000000000004 1.5000000000000002 0.37443290225000009 0.33911649960000007 3.5000000000000004 1.5000000000000002
decision_type=2 2 2 2 2 2 2 2 2 2 2 2 2 2 2 2 2 2 2
left_child=1 4 3 11 5 13 -3 -8 16 18 12 -2 -5 14 15 -1 -9 -7 -10
right_child=2 6 -4 10 -6 17 7 8 9 -11 -12 -13 -14 -15 -16 -17 -18 -19 -20
leaf_value=0.024696612521115768 0.023800851191031563 0.027645570591974807 0.027573824224559968 0.022497754944802942 0.024118554746119247 0.021430676261456449 0.028187612360462772 0.025354131548127882 0.016206945312545941 0.022193099535643031 0.025625624114642486 0.026981383835288635 0.016233832233055075 0.012795602869279785 0.014201231688233285 -0.011661827869855305 0.022381060150915424 0.018861750144454972 0.032088082258152774
leaf_weight=811.5186815187335 7400.0521704256535 1838.5413157343864 5634.8372470512986 16562.654744520783 3197.3417404741049 9588.2359215840697 1473.0345191583037 4472.8834091350436 2578.2412269413471 4030.8783490136266 3877.4948307722807 7431.8488678559661 921.85430484265089 1651.2801998853683 826.70318906754255 26.113259270787239 11285.799051046371 7584.3986830860376 113.20850280672312
leaf_count=4121 22090 5307 11472 58835 11809 44451 3541 14418 13003 16231 9791 17832 3590 10450 5134 216 42138 38552 334
internal_value=0 2.16556 2.43606 2.38604 2.0192 1.95792 2.29996 2.2643 2.22797 2.00638 2.27952 2.53945 2.21675 1.58663 1.89129 2.35631 2.32249 2.02961 1.68749
internal_weight=0 49478.2 41828.7 36193.9 23685.6 20488.2 25792.6 23954 22481 6722.33 21362 14831.9 17484.5 3315.62 1664.34 837.632 15758.7 17172.6 2691.45
internal_count=333315 209705 123610 112138 114733 102924 94972 89665 86124 29568 72216 39922 62425 19921 9471 4337 56556 83003 13337
shrinkage=0.01


Tree=35
num_leaves=20
num_cat=0
split_feature=6 0 5 4 0 7 0 2 2 7 13 23 2 2 2 2 8 19 5
split_gain=1597.14 1380.91 608.783 472.171 466.348 439.163 426.17 388.029 438.315 371.638 357.192 345.094 343.04 317.148 401.615 314.953 302.613 343.135 231.327
threshold=1.5000000000000002 0.78631440000000008 7.5000000000000009 0.65000000000000002 1.0833405000000003 0.45880445000000009 0.61838231020000012 4.5000000000000009 1.5000000000000002 0.36510271265000005 1.2500000000000002 1.5000000000000002 1.5000000000000002 1.0000000180025095e-35 5.5000000000000009 1.0000000180025095e-35 1.5000000000000002 7.5000000000000009 6.5000000000000009
decision_type=2 2 2 2 2 2 2 2 2 2 2 2 2 2 2 2 2 2 2
left_child=1 2 15 4 5 13 9 8 -2 -4 -8 -12 -5 -3 16 -1 17 -15 -18
right_child=7 3 6 12 -6 -7 10 -9 -10 -11 11 -13 -14 14 -16 -17 18 -19 -20
leaf_value=0.026623985731680726 0.028283890691573683 0.030157014973700713 0.01819273302150359 0.027043208629495188 0.024551669566632916 0.0097542504134325754 0.019566514268552829 0.026928329377060339 0.022429902111487425 0.011381889660867362 0.038374362901549011 0.022806773417114023 0.023594341251391975 0.0072248706806327927 0.023258610309031078 0.02137936585662667 0.022454032384364716 0.019787803504722274 0.018523753651656229
leaf_weight=1221.3991371095181 1653.5884747207165 380.6464863345027 2752.3785087391734 3351.3161231279373 4738.1941028162837 346.42611894756556 12414.780114680529 8170.3721628561616 5646.7460951954126 1130.1085681021214 187.24847518652678 594.45458175987005 20681.167046241462 410.02959605306387 4367.0238081067801 18313.310684129596 2586.7712575867772 462.80818729102612 3556.47643802315
leaf_count=3529 3825 763 14657 8462 12419 1593 58134 19345 17338 6995 375 2143 62903 2217 15113 76465 9623 1938 15478
internal_value=0 2.19121 2.05016 2.31754 2.18919 2.08512 1.91225 2.54313 2.37559 1.62102 1.99793 2.65358 2.40753 2.1178 2.08778 2.17073 1.93959 1.38862 2.01787
internal_weight=0 77494.5 36613.7 40880.9 16848.4 12110.2 17079 15470.7 7300.33 3882.49 13196.5 781.703 24032.5 11763.8 11383.1 19534.7 7016.09 872.838 6143.25
internal_count=333315 292807 162298 130509 59144 46725 82304 40508 21163 21652 60652 2518 71365 45132 44369 79994 29256 4155 25101
shrinkage=0.01


Tree=36
num_leaves=20
num_cat=0
split_feature=15 6 6 1 4 2 13 5 2 10 9 33 15 0 1 13 5 10 4
split_gain=1943.26 758.394 673.473 550.221 583.409 517.995 496.264 490.239 435.878 433.291 348.835 327.193 321.281 314.815 313.31 300.257 409.078 315.54 299.525
threshold=-0.23645959544980485 1.5000000000000002 1.5000000000000002 0.82234420510000017 0.25000000000000006 1.5000000000000002 1.0000000180025095e-35 8.5000000000000018 4.5000000000000009 3.5000000000000004 1.5000000000000002 1.5000000000000002 0.4113698494484283 0.66031232390000005 0.59740420000000005 0.15000000000000005 12.500000000000002 9.5000000000000018 0.35000000000000003
decision_type=2 2 2 2 2 2 2 2 2 2 2 2 2 2 2 2 2 2 2
left_child=2 3 5 4 6 18 -2 8 9 -7 13 -10 15 -9 -4 -6 17 -17 -1
right_child=1 -3 14 -5 12 7 -8 10 11 -11 -12 -13 -14 -15 -16 16 -18 -19 -20
leaf_value=0.016846765941895589 0.025085912662921667 0.0253426905609807 0.017188511469305778 0.023392252993774218 0.019293155007249548 0.0078411298419323924 0.0165140023347006 0.014796469909185102 0.019735002630999227 0.018694875708911346 0.014444419156303765 0.024253555489930755 0.027378928152620476 0.02021615699706977 0.024568276143177765 0.02028478325964982 0.013439208953051347 0.023752361638283662 0.023203994344324071
leaf_weight=890.93242839723825 827.26968085020781 11127.687730677426 674.77093448489904 28543.019750379026 3819.8600820377469 391.12555502355099 3678.9116914346814 1561.4015964120626 3687.9583101421595 6169.2813420891762 3642.1928155645728 2833.97209456563 1085.1577564924955 3417.9414069354534 3902.2736451849341 3621.3077602609992 484.29062483459711 9531.0253460109234 4407.9365671947598
leaf_count=4660 2929 25785 2960 83527 15604 2524 16955 8203 16519 28308 21784 10040 2494 14862 11763 15016 2266 30834 16282
internal_value=0 2.2975 1.99333 2.24643 2.1315 1.9332 1.80877 1.86477 1.98677 1.80478 1.67963 2.16984 2.20993 1.85167 2.34803 2.17711 2.24653 2.27976 2.21351
internal_weight=0 62718.5 31579.8 51590.8 23047.8 27002.7 4506.18 21703.9 13082.3 6560.41 8621.54 6521.93 18541.6 4979.34 4577.04 17456.5 13636.6 13152.3 5298.87
internal_count=333315 195410 137905 169625 86098 123182 19884 102240 57391 30832 44849 26559 66214 23065 14723 63720 48116 45850 20942
shrinkage=0.01


Tree=37
num_leaves=20
num_cat=0
split_feature=15 6 12 2 33 1 4 13 3 32 4 27 2 2 21 15 3 10 13
split_gain=1859.49 727.108 654.037 639.189 720.992 526.679 552.345 468.087 421.991 378.099 337.436 331.676 318.873 359.798 335.5 304.814 292.248 299.201 327.938
threshold=-0.23645959544980485 1.5000000000000002 1.5000000000000002 1.5000000000000002 1.5000000000000002 0.82234420510000017 0.25000000000000006 1.0000000180025095e-35 1.5000000000000002 1.0000000180025095e-35 0.45000000000000007 2.5000000000000004 1.0000000180025095e-35 4.5000000000000009 1.5000000000000002 0.4113698494484283 2.5000000000000004 7.5000000000000009 0.15000000000000005
decision_type=2 2 2 2 2 2 2 2 2 2 2 2 2 2 2 2 2 2 2
left_child=2 5 -1 10 -5 6 7 -2 -6 -7 11 -4 -11 -14 -15 16 17 -8 -19
right_child=1 -3 3 4 8 9 15 -9 -10 12 -12 -13 13 14 -16 -17 -18 18 -20
leaf_value=0.025671352435104267 0.024430441110345102 0.024729771082521893 0.030437647953615636 0.0167867787345744 0.019456735975524917 0.027440297203327746 0.017713588262705703 0.016169130978187739 0.024924161996265744 0.027786286852662267 0.023495510456711593 0.016154341990125106 0.021092603977124535 0.024144730395907064 0.019968767092784692 0.026672958447721211 0.026714059334105353 0.018661778293207764 0.022307888997087969
leaf_weight=1616.2071787193418 840.9008512571454 11288.624345220625 186.13226576894522 12755.671978853643 10122.715535476804 1677.835650652647 2438.8020113110542 3719.5977731049061 1640.4570375680923 1115.1379087865353 4395.4709765687585 1284.6204654574394 12419.434777155519 11421.869170799851 2313.5793087258935 1102.650731369853 928.83594746887684 3166.1675570234656 11167.387406989932
leaf_count=5075 2929 25785 648 62380 43587 4087 11276 16955 4733 1979 15066 6416 40272 29912 7277 2494 2171 12683 37590
internal_value=0 2.24281 1.94727 1.9143 1.84335 2.19314 2.08145 1.76924 2.02192 2.28328 2.21082 1.7962 2.25493 2.23261 2.34413 2.15717 2.12539 2.09516 2.15025
internal_weight=0 63600.8 32001.3 30385.1 24518.8 52312.2 23364.3 4560.5 11763.2 28947.9 5866.22 1470.75 27270 26154.9 13735.4 18803.8 17701.2 16772.4 14333.6
internal_count=333315 195410 137905 132830 110700 169625 86098 19884 48320 83527 22130 7064 79440 77461 37189 66214 63720 61549 50273
shrinkage=0.01


Tree=38
num_leaves=20
num_cat=0
split_feature=15 6 6 12 0 1 2 33 32 15 1 2 2 13 1 5 13 10 2
split_gain=1783.4 698.096 638.216 535.347 602.998 505.147 449.85 501.018 354.587 325.181 307.446 303.919 342.551 299.297 292.587 292.473 322.114 382.25 286.621
threshold=-0.23645959544980485 1.5000000000000002 1.5000000000000002 1.5000000000000002 0.60835270000000008 0.82234420510000017 1.5000000000000002 1.5000000000000002 1.0000000180025095e-35 0.4113698494484283 0.55593384325000006 1.0000000180025095e-35 4.5000000000000009 0.25000000000000006 0.59740420000000005 12.500000000000002 0.15000000000000005 9.5000000000000018 1.5000000000000002
decision_type=2 2 2 2 2 2 2 2 2 2 2 2 2 2 2 2 2 2 2
left_child=2 5 3 -1 10 9 13 -8 -7 15 -5 -10 18 -6 -4 16 -2 -18 -13
right_child=1 -3 14 4 6 8 7 -9 11 -11 -12 12 -14 -15 -16 -17 17 -19 -20
leaf_value=0.024612749359323925 0.018150212806091928 0.024145196851181362 0.016427279187162632 0.0074323649533241899 0.018163460407972828 0.026724012584834457 0.016493218501085607 0.019886327693796696 0.027100294432630623 0.025090149221659142 0.015751628844554937 0.02337482911234897 0.022889516369926931 0.023665096408487098 0.02347281437000227 0.014374284545643237 0.018508082590437323 0.021942618565731403 0.019788029680354043
leaf_weight=1342.2490163818002 5344.4911405742168 11445.507943503559 690.99938100576401 498.0467973574996 1529.3994735181332 1705.4370062425733 9086.3746539950371 8351.3656874224544 1131.8461381793022 1355.9013974666595 4110.3036531209946 2893.2959137484431 13924.942868664861 2797.5780627056956 4009.6875443607569 873.49700881540775 4495.9957623332739 11604.346141695976 9687.2381503805518
leaf_count=4383 21722 25785 2960 3379 7061 4087 44146 34045 1979 3180 21335 8134 37189 8833 11763 3952 18897 38347 32138
internal_value=0 2.19055 1.903 1.84522 1.81386 2.1422 1.88344 1.81183 2.22987 2.03352 1.48525 2.20257 2.1809 2.17205 2.24371 2.00464 2.02774 2.09835 2.06129
internal_weight=0 64462.5 32416 27715.3 26373.1 53017 21764.7 17437.7 29342.8 23674.2 4608.35 27637.3 26505.5 4326.98 4700.69 22318.3 21444.8 16100.3 12580.5
internal_count=333315 195410 137905 123182 118799 169625 94085 78191 83527 86098 24714 79440 77461 15894 14723 82918 78966 57244 40272
shrinkage=0.01


Tree=39
num_leaves=20
num_cat=0
split_feature=0 12 3 23 9 1 4 3 4 18 0 7 16 11 33 25 24 7 7
split_gain=1366.83 1002.94 715.896 626.018 522.62 518.477 578.932 370.659 368.939 341.691 362.515 323.598 313.558 308.949 302.811 285.862 260.734 246.346 244.119
threshold=0.78631440000000008 1.5000000000000002 1.5000000000000002 1.5000000000000002 1.5000000000000002 0.88176845220000011 0.65000000000000002 1.5000000000000002 0.45000000000000007 0.31614868930000006 0.76965465000000011 0.33912950000000003 1.5000000000000002 1.5000000000000002 1.5000000000000002 0.35000000000000003 0.35000000000000003 0.37013510525000004 0.33015470000000008
decision_type=2 2 2 2 2 2 2 2 2 2 2 2 2 2 2 2 2 2 2
left_child=1 17 4 13 11 6 -5 -7 9 -6 12 -3 15 16 -8 18 -2 -1 -11
right_child=3 2 -4 5 8 7 14 -9 -10 10 -12 -13 -14 -15 -16 -17 -18 -19 -20
leaf_value=0.026913466513385026 0.019602225305367836 0.021307105885449353 0.021984653840351417 0.01757046392518238 0.0051108987633998685 0.021312649375512551 0.019744584698861804 0.025697120870008222 0.017830104179477693 0.029144968575755784 0.0013856979899467851 0.018513558485644711 0.017430487293782021 0.02405755267389106 0.023946672512613003 0.0054242215711074685 0.022880020023930477 0.021293468688427956 0.011689964567737918
leaf_weight=1878.0334030091763 3890.1663807928562 5756.0011625513434 5986.5599938109517 8338.2577059343457 363.07298443466425 13887.787615694106 4212.5917996689677 2239.0044489055872 11121.240997545421 115.97950847446918 180.30243619531393 14830.414262674749 2970.3159018307924 10943.060804605484 2892.3758223354816 477.9992867410183 6451.3322878777981 1333.9700292646885 259.16958440095186
leaf_count=5000 11496 20165 18011 32076 2596 40295 13804 3942 49899 507 1220 59657 16052 24329 8087 3238 17069 4286 1586
internal_value=0 1.91934 1.87821 2.15609 1.82506 2.06673 1.93577 2.19214 1.6863 1.43999 1.52423 1.92946 1.58957 2.28863 2.14552 1.05523 2.1647 2.45794 1.70863
internal_weight=0 45273.1 42061.1 52854.6 36074.5 31570 15443.2 16126.8 15488.1 4366.84 4003.77 20586.4 3823.46 21284.6 7104.97 853.148 10341.5 3212 375.149
internal_count=333315 182217 172931 151098 154920 98204 53967 44237 75098 25199 22603 79822 21383 52894 21891 5331 28565 9286 2093
shrinkage=0.01


Tree=40
num_leaves=20
num_cat=0
split_feature=15 13 3 5 6 0 4 33 3 0 12 2 4 2 21 2 0 5 17
split_gain=1565.18 1059.08 715.938 569.383 535.473 596.854 537.647 493.588 482.21 357.241 352.173 332.166 335.065 297.473 341.19 296.967 366.636 275.173 271.607
threshold=-0.014521537354511666 0.25000000000000006 1.5000000000000002 7.5000000000000009 1.5000000000000002 0.55002815000000016 1.0000000180025095e-35 1.5000000000000002 2.5000000000000004 0.6366075000000001 1.5000000000000002 1.5000000000000002 0.25000000000000006 3.5000000000000004 1.5000000000000002 1.5000000000000002 0.81651090000000015 8.5000000000000018 1.5000000000000002
decision_type=2 2 2 2 2 2 2 2 2 2 2 2 2 2 2 2 2 2 2
left_child=1 7 3 13 5 -3 -7 10 11 -5 -1 12 -8 14 -2 16 -12 -13 -19
right_child=2 4 -4 9 -6 6 8 -9 -10 -11 15 17 -14 -15 -16 -17 -18 18 -20
leaf_value=0.022675426473907218 0.018873002074929816 0.01280752678593621 0.024211313978908421 0.012714741652591025 0.022669335419856895 0.029623043757026429 0.0064051730016102615 0.018669971733509594 0.024588741007691803 0.019602309413749807 0.016170875684752652 0.019321197271972103 0.021939460201458615 0.022626669762520021 0.022757988729755187 0.014235117205649569 0.026733963707187544 0.015939355143159396 0.020907557500282042
leaf_weight=631.00572625547647 6031.0368494912982 1404.7914215251803 6482.554366081953 787.5421217828989 5165.007400341332 514.41439997404814 143.61164739727974 7906.0662412270904 1608.6946694627404 17199.31481782347 1389.786736510694 11492.557801961899 4188.0324863865972 13553.262178450823 3615.8806416839361 8897.8586102426052 430.33334068208933 6028.5944992080331 1346.0707265660167
leaf_count=2045 18979 7332 12423 3933 13556 1377 833 33059 3668 53076 6387 42011 13292 34543 9740 44319 1208 26895 4639
internal_value=0 1.86036 2.11223 2.06361 1.97217 1.91521 1.95041 1.67517 1.92943 1.93007 1.54154 1.89271 2.14244 2.16713 2.03292 1.4988 1.86683 1.83538 1.68462
internal_weight=0 51146.8 47669.6 41187 31891.8 26726.8 25322 19255.1 24807.6 17986.9 11349 23198.9 4331.64 23200.2 9646.92 10718 1820.12 18867.2 7374.67
internal_count=333315 200621 132694 120271 113603 100047 92715 87018 91338 57009 53959 87670 14125 63262 28719 51914 7595 73545 31534
shrinkage=0.01


Tree=41
num_leaves=20
num_cat=0
split_feature=1 6 4 5 20 4 2 2 20 8 24 1 5 7 26 5 32 2 24
split_gain=1483.48 714.217 669.012 574.376 546.245 521.168 518.44 539.457 414.056 401.866 484.512 366.966 318.882 321.138 315.111 305.729 298.662 285.367 308.13
threshold=0.75723177739791658 1.5000000000000002 0.35000000000000003 10.500000000000002 1.5000000000000002 1.0000000180025095e-35 4.5000000000000009 1.0000000180025095e-35 2.5000000000000004 3.5000000000000004 1.0000000180025095e-35 0.58528865000000008 8.5000000000000018 0.30331390000000008 1.5000000000000002 6.5000000000000009 1.0000000180025095e-35 1.5000000000000002 1.0000000180025095e-35
decision_type=2 2 2 2 2 2 2 2 2 2 2 2 2 2 2 2 2 2 2
left_child=2 3 5 6 11 -1 7 -2 -6 10 -7 -4 -10 -14 -3 -11 -9 18 -5
right_child=1 14 4 17 8 9 -8 16 12 15 -12 -13 13 -15 -16 -17 -18 -19 -20
leaf_value=0.020871471407089014 0.024182216820249895 0.023442363775217304 0.013389814550323995 -0.012414869167780404 0.023032401741598915 0.0046781300076234487 0.021681813888628533 0.024738900621018373 0.01983525203380658 0.015552007901087714 0.017566689096011289 0.017877604720060922 0.023756445311265462 0.016408876993997533 0.018700087316194051 0.0095758048170998377 0.018611700148259518 0.017346846055155719 0.026716035509464501
leaf_weight=1520.2732868567109 2114.6683139801025 9088.4314007312059 2710.8121466264129 21.00113932043314 2773.7048716545105 315.78539906442165 17711.980986319482 830.34628029167652 12632.734686642885 1438.8856861442327 3819.828877851367 5557.4388519376516 660.01405786722898 6024.4156877100468 1656.5597702413797 2113.2304032966495 18972.729291163385 9551.3849611058831 481.28971076011658
leaf_count=5892 4266 18606 12026 137 7688 1835 48216 2097 44374 6645 17082 21166 2419 25603 4571 12281 63134 34106 1171
internal_value=0 2.03735 1.78827 1.98679 1.85988 1.55216 2.04095 1.93813 1.94194 1.44636 1.65826 1.64062 1.89006 1.71344 2.27112 1.19966 1.88686 1.77332 2.50799
internal_weight=0 60428.4 39567.1 49683.4 30359.1 9208 39629.7 21917.7 22090.9 7687.73 4135.61 8268.25 19317.2 6684.43 10745 3552.12 19803.1 10053.7 502.291
internal_count=333315 176304 157011 153127 113276 43735 117713 69497 80084 37843 18917 33192 72396 28022 23177 18926 65231 35414 1308
shrinkage=0.01


Tree=42
num_leaves=20
num_cat=0
split_feature=15 13 3 3 23 6 0 33 2 10 12 2 0 2 22 11 13 10 15
split_gain=1502.89 1007.33 636.828 515.814 490.818 484.637 529.71 457.869 410.803 328.487 327.18 299.62 346.346 279.792 339.385 550.934 259.615 274.827 288.616
threshold=-0.0038847239615818598 0.25000000000000006 1.5000000000000002 2.5000000000000004 1.5000000000000002 1.5000000000000002 0.55002815000000016 1.5000000000000002 1.5000000000000002 8.5000000000000018 1.5000000000000002 1.5000000000000002 0.81651090000000015 6.5000000000000009 7.5000000000000009 1.0000000180025095e-35 1.3500000000000003 13.500000000000002 -0.14429840305728789
decision_type=2 2 2 2 2 2 2 2 2 2 2 2 2 2 2 2 2 2 2
left_child=1 7 4 5 -2 6 -3 10 -8 -6 -1 12 -12 14 15 -13 17 18 -10
right_child=2 3 -4 -5 9 -7 8 -9 16 -11 11 13 -14 -15 -16 -17 -18 -19 -20
leaf_value=0.021636245476858235 0.021143596425599168 0.011867000738741045 0.023246079586763942 0.023583603781332438 0.016243512507765793 0.021357153601976271 0.020991200017914071 0.017870187240102062 0.017065011390391321 0.019425469318564838 0.015607111176777605 0.0028597895586451156 0.02554525722574379 0.016235122909685439 0.014283977453826551 0.012975825366460888 0.022349088446455938 0.012924796147737963 0.019978090119092306
leaf_weight=663.77763838320971 16666.636037617922 1326.4010717496276 6310.603613063693 2191.8649041652679 3882.638572499156 5223.9060733914375 4781.835558719933 8355.0690037086606 13902.153269387782 19735.457278244197 1442.7829812392592 817.55039082467556 463.26967068761587 2919.2049273326993 3989.528419546783 1576.5363442748785 1154.6363781988621 1245.9710377901793 4502.6101580262184
leaf_count=2095 41365 6933 11783 4804 15127 13606 14909 33909 55219 57887 6448 4974 1263 13286 19152 7664 3430 5039 14422
internal_value=0 1.78469 2.02923 1.88899 1.98296 1.85698 1.80288 1.60767 1.83482 1.89024 1.48146 1.44106 1.80226 1.36706 1.24978 0.952133 1.77408 1.747 1.77777
