tree
version=v3
num_class=1
num_tree_per_iteration=1
label_index=0
max_feature_idx=56
objective=binary sigmoid:1
feature_names=ps_ind_01 ps_ind_02_cat ps_ind_03 ps_ind_04_cat ps_ind_05_cat ps_ind_06_bin ps_ind_07_bin ps_ind_08_bin ps_ind_09_bin ps_ind_10_bin ps_ind_11_bin ps_ind_12_bin ps_ind_13_bin ps_ind_14 ps_ind_15 ps_ind_16_bin ps_ind_17_bin ps_ind_18_bin ps_reg_01 ps_reg_02 ps_reg_03 ps_car_01_cat ps_car_02_cat ps_car_03_cat ps_car_04_cat ps_car_05_cat ps_car_06_cat ps_car_07_cat ps_car_08_cat ps_car_09_cat ps_car_10_cat ps_car_11_cat ps_car_11 ps_car_12 ps_car_13 ps_car_14 ps_car_15 ps_calc_01 ps_calc_02 ps_calc_03 ps_calc_04 ps_calc_05 ps_calc_06 ps_calc_07 ps_calc_08 ps_calc_09 ps_calc_10 ps_calc_11 ps_calc_12 ps_calc_13 ps_calc_14 ps_calc_15_bin ps_calc_16_bin ps_calc_17_bin ps_calc_18_bin ps_calc_19_bin ps_calc_20_bin
feature_infos=[0:7] [1:4] [0:11] [0:1] [0:6] [0:1] [0:1] [0:1] [0:1] [0:1] [0:1] [0:1] [0:1] [0:3] [0:13] [0:1] [0:1] [0:1] [0:0.90000000000000002] [0:1.8] [0.061237243599999998:3.4907914574999999] [0:11] [0:1] [0:1] [0:9] [0:1] [0:17] [0:1] [0:1] [0:4] [0:2] [1:104] [0:3] [0.10000000000000001:1.2649110641000001] [0.31333978070000001:3.3947425321] [0.1095445115:0.63639610310000005] [0:3.7416573868] [0:0.90000000000000002] [0:0.90000000000000002] [0:0.90000000000000002] [0:5] [0:6] [1:10] [0:9] [2:12] [0:7] [0:25] [0:18] [0:10] [0:13] [0:23] [0:1] [0:1] [0:1] [0:1] [0:1] [0:1]
tree_sizes=2237 2244 2217 2257 2250 2276 2281 2264 2246 2241 2268 2255 2254 2243 2271 2255 2267 2255 2239 2256 2236 2221 2233 2218 2253 2251 2243 2238 2263 2241 2258 2257 2255 2264 2254 2261 2264 2250 2238 2251 2251 2240 2247 2275 2257 2269 2254 2264 2244 2253 2248 2237 2261 2232 2230 2249 2268 2239 2249 2242 2264 2263 2240 2264 2241 2247 2282 2265 2268 2280 2247 2270 2272 2267 2264 2254 2277 2284 2278 2272 2250 2244 2254 2292 2252 2279 2274 2275 2270 2293 2286 2285 2272 2283 2285 2282 2240 2284 2292 2264 2278 2291 2296 2277 2297 2263 2279 2270 2288 2278 2303 2277 2297 2279 2287 2286 2302 2285 2295 2284 2300 2293 2300 2300 2304 2286 2282 2289 2292 2270 2287 2297 2293 2289 2305 2297 2298 2285 2297 2288 2303 2276 2296 2297 2297 2286 2277 2262 2280 2257 2294 2287 2306 2292 2302 2274 2307 2288 2280 2277 2287 2286 2296 2282 2292 2295 2283 2293 2281 2278 2298 2277 2298 2302 2286 2296 2280 2292 2316 2289 2302 2270 2298 2290 2297 2301 2300 2291 2295 2277 2290 2275 2276 2303 2303 2288 2306 2281 2292 2294 2287 2296 2299 2271 2307 2292 2292 2276 2281 2282 2284 2275 2294 2302 2282 2278 2296 2275 2288 2289 2298 2295 2308 2298 2310 2293 2277 2294 2299 2292 2325 2310 2311 2300 2305 2298 2298 2302 2297 2286 2286 2282 2296 2298 2294 2302 2291 2317 2328 2291 2309 2293 2304 2306 2327 2300 2283 2292 2294 2306 2298 2299 2281 2287 2302 2302 2301 2283 2293 2299 2301 2295 2307 2285 2308 2289 2263 2277 2302 2270 2323 2288 2293 2299 2300 2265 2270 2304 2303 2294 2295 2301 2300 2307 2286 2304 2274 2307 2288 2324 2293 2267 2275 2289 2298 2287 2300 2276 2314 2298 2268 2282 2279 2288 2285 2300 2320 2283 2296 2293 2309 2300 2303 2297 2295 2302 2296 2291 2293 2313 2297 2303 2305 2290 2289 2287 2304 2275 2309 2300 2302 2302 2302 2312 2303 2309 2307 2293 2309 2309 2313 2327 2305 2335 2318 2300 2258 2312 2264 2310 2299 2305 2301 2297 2297 2286 2271 2293 2258 2275 2288 2307 2304 2293 2304 2320 2297 2284 2283 2273 2311 2310 2303 2313 2312 2293 2283 2298 2264 2261 2297 2283 2276 2273 2321 2272 2280 2286 2291 2285 2300 2280 2308 2267 2299 2283 2304 2296 2316 2291 2293 2324 2321 2265 2281 2300 2264 2302 2313 2271 2257 2313 2303 2283 2287 2261 2315 2303 2311 2312 2266 2294 2270 2268 2236 2312 2300 2306 2289 2315 2320 2292 2289 2310 2298 2291 2289 2299 2295 2289 2310 2295 2319 2316 2319 2267 2285 2275 2258 2296 2258 2281 2294 2293 2261 2253 2259 2283 2283 2280 2248 2283 2243 2250 2247 2295 2287 2284 2293 2296 2279 2282 2294 2299 2277 2278 2322 2308 2292 2292 2240 2297 2274 2282 2295 2297 2297 2302 2294 2301 2298 2312 2275 2317 2308 2313 2293 2303 2320 2305 2258 2283 2283 2281 2299 2291 2297 2285 2299 2292 2263 2292 2277 2289 2298 2297 2277 2272 2281 2301 2260 2311 2308 2287 2279 2288 2294 2262 2290 2308 2268 2259 2271 2266 2290 2251 2267 2270 2267 2261 2312 2248 2257 2269 2273 2285 2232 2256 2241 2299

Tree=0
num_leaves=20
num_cat=0
split_feature=34 20 23 27 34 20 27 27 5 20 34 15 6 15 35 2 18 7 34
split_gain=55440.2 20496.8 10344 8202.26 6919.39 5780.55 5548.15 5382.43 5046.47 4795.71 4431.52 4417.49 4155.29 2978.72 2839.7 2285.96 2152.6 2058.48 1896.9
threshold=0.83131504900000019 0.75684374700000012 inf 1.0000000180025095e-35 1.2338050061000003 0.64006830915000001 1.0000000180025095e-35 1.0000000180025095e-35 1.0000000180025095e-35 0.47990873505000003 0.67709729265000018 1.0000000180025095e-35 1.0000000180025095e-35 1.0000000180025095e-35 0.34321992235000004 1.5000000000000002 0.55000000000000016 1.0000000180025095e-35 0.62999245695000006
decision_type=2 10 8 10 2 10 10 10 2 10 2 2 2 2 10 2 2 2 2
left_child=1 3 6 -1 5 16 -2 -3 14 -10 -11 -8 15 -7 -5 -9 -4 -17 -16
right_child=2 7 4 8 -6 13 11 12 9 10 -12 -13 -14 -15 18 17 -18 -19 -20
leaf_value=-3.1246407602382358 -3.0822285328148693 -3.1057648956648696 -3.1586497973998782 -3.1419925224964733 -3.0993222111687784 -3.1118876370420461 -3.1000676413850123 -3.1288196351354394 -3.1905758500132104 -3.1802294876502013 -3.153075667587248 -3.123438744795815 -3.1231101354815078 -3.1320280698070713 -3.180604050240968 -3.1522962627849354 -3.1344919581213833 -3.1335553669481628 -3.1578749563403221
leaf_weight=532.94495823979378 720.84323228895664 496.23248866200447 906.89068798720837 965.2600455135107 710.44311073422432 1102.4159296602011 1475.1290119439363 737.8553234487772 1134.852071583271 1119.8582465946674 1297.2537103146315 1790.3116868287325 1121.0058600306511 2199.3352435231209 459.73762856423855 2692.2548870593309 621.70760026574135 749.18646058440208 1823.8385513424873
leaf_count=7156 6738 5762 15144 14572 7809 13450 16320 10204 22436 21025 20967 23832 14887 31094 8648 43312 8937 10702 30320
internal_value=0 11.7838 14.9527 10.673 14.0688 13.6403 16.1811 13.1892 10.377 9.55315 10.3493 15.6268 12.8943 14.3846 11.2777 12.4358 12.0325 12.0933 10.6699
internal_weight=0 13130.3 9527.08 7333.75 5540.79 4830.35 3986.28 5796.54 6800.8 3551.96 2417.11 3265.44 5300.3 3301.75 3248.84 4179.3 1528.6 3441.44 2283.58
internal_count=333315 209991 123324 125124 76434 68625 46890 84867 117968 64428 41992 40152 79105 44544 53540 64218 24081 54014 38968
shrinkage=1


Tree=1
num_leaves=20
num_cat=0
split_feature=34 4 4 20 34 14 20 20 14 2 20 24 34 5 35 34 35 34 14
split_gain=36975.7 21893.1 14143.6 10633.8 7636.99 5220.42 3681.75 3572.44 3548.71 3489.59 3045.47 2871.95 2507.95 2185.07 2137.5 2133.21 1831.4 1947.98 1717.08
threshold=0.83131504900000019 1.5000000000000002 1.0000000180025095e-35 0.67938387320000004 0.97241923750000014 7.5000000000000009 0.75972854210000007 0.65311748010000004 8.5000000000000018 4.5000000000000009 0.72305771090000015 1.5000000000000002 0.61426735230000007 1.0000000180025095e-35 0.33068110665000006 0.55475964560000013 0.35249095625000004 0.68697293840000018 5.5000000000000009
decision_type=2 8 8 10 2 2 10 10 2 2 10 2 2 2 10 2 10 2 2
left_child=1 3 4 5 7 12 13 -2 11 18 -4 15 -1 -3 -7 -5 -10 -18 -6
right_child=2 6 10 8 9 14 -8 -9 16 -11 -12 -13 -14 -15 -16 -17 17 -19 -20
leaf_value=0.080385887162050113 0.1026149792564915 0.13771813812860748 0.13743783524364672 0.085642339174440668 0.13528904551417051 0.093812204144322744 0.15072125589658414 0.1213241053272026 0.10974305906112872 0.14121346248226199 0.16688023463400847 0.14626621287534117 0.10308211322778905 0.10839936376119907 0.074001508655650972 0.11380231924262312 0.079158139598055538 0.10133099551428419 0.11770623385413929
leaf_weight=605.07954490929842 1558.0365412980318 505.74028301239014 535.1021280027926 290.05757210403681 885.71399734541774 759.13411466777325 903.71722090989351 2958.7763367332518 1015.0268082134426 2485.753535322845 1022.9396797046065 256.67549470812082 2492.095075506717 511.08496150374413 1927.5422077998519 3707.3546009622514 648.51525390520692 1018.5028746537864 1489.3513473086059
leaf_count=10410 22068 5640 5648 4671 9297 11821 8554 35548 13846 24786 7593 2518 36603 7336 34038 49000 10858 14696 18384
internal_value=0 10.4564 12.8868 9.98123 12.4232 8.97996 13.6035 11.4871 10.8162 13.2931 15.6768 11.3841 9.86481 12.2982 7.95991 11.1759 9.91532 9.27052 12.4263
internal_weight=0 14640.5 10935.7 12720 9377.63 5783.85 1920.54 4516.81 6936.13 4860.82 1558.04 4254.09 3097.17 1016.83 2686.68 3997.41 2682.04 1667.02 2375.07
internal_count=333315 209991 123324 188461 110083 92872 21530 57616 95589 52467 13241 56189 47013 12976 45859 53671 39400 25554 27681
shrinkage=0.01


Tree=2
num_leaves=20
num_cat=0
split_feature=34 16 16 19 20 14 34 18 34 34 23 5 34 0 27 26 14 3 18
split_gain=26712 10544.7 10253 6707.52 5925.78 4273.36 3340.04 4273.52 2462.83 2402.22 2244.61 2234.48 2004.98 1800.8 1770.73 1745.73 1628.11 1479.35 1443.91
threshold=0.78329010485000017 1.0000000180025095e-35 1.0000000180025095e-35 0.45000000000000007 0.82291400765000011 7.5000000000000009 1.2338050061000003 0.55000000000000016 0.65774156525000016 0.55002817285000016 inf 1.0000000180025095e-35 1.3781500331500001 1.5000000000000002 inf 10.500000000000002 7.5000000000000009 1.0000000180025095e-35 1.0000000180025095e-35
decision_type=2 2 2 2 10 2 2 2 2 2 8 2 2 2 8 2 2 10 2
left_child=2 4 3 5 6 8 7 13 -1 -5 -4 -7 14 18 -6 -13 -3 -9 -2
right_child=1 16 10 9 12 11 -8 17 -10 -11 -12 15 -14 -15 -16 -17 -18 -19 -20
leaf_value=0.081081753081447452 0.10927462291453356 0.13658262328141446 0.12641086384197489 0.071593921980066672 0.11210169787242225 0.084130146235617528 0.12181331049671953 0.100865670046558 0.09668666945573183 0.10228539933767872 0.10401019268398415 0.076475217090702166 0.13244051792872033 0.099709344164127536 0.15144235300115558 0.057450882378276273 0.12014262336988907 0.11555101670890902 0.079054330945427312
leaf_weight=1651.1542583890259 177.80441397428513 1558.4772026836872 843.05157460644841 275.48074131086469 5474.2568240761757 1806.281175211072 677.44119475781918 1744.6061653755605 2610.1552717201412 3433.8474399447441 952.95599035546184 1194.4586416594684 581.09157362580299 961.43247567117214 116.85339150950313 809.06060839444399 981.94359997659922 1130.4525685682893 1426.9463156163692
leaf_count=24216 1975 11759 8100 4191 56039 25561 5896 20369 33158 40637 11549 18404 4381 11616 588 13979 9079 11583 20235
internal_value=0 11.1681 9.22686 8.88754 10.7848 8.376 10.0874 9.82672 9.06401 10.0006 11.4525 7.60645 11.4761 8.88867 11.2924 6.87928 13.0228 10.664 8.24027
internal_weight=0 14831.3 13576.4 11780.4 12290.9 8071.11 6118.68 5441.24 4261.31 3709.33 1796.01 3809.8 6172.2 2566.18 5591.11 2003.52 2540.42 2875.06 1604.75
internal_count=333315 153520 179795 160146 132682 115318 71674 65778 57374 44828 19649 57944 61008 33826 56627 32383 20838 31952 22210
shrinkage=0.01


Tree=3
num_leaves=20
num_cat=0
split_feature=4 34 16 34 20 5 20 14 16 21 34 20 2 20 5 20 21 14 14
split_gain=21431.2 18811.5 8352.1 6820.48 4530.07 4467.2 3099.77 2428.14 2334.14 2297.8 1747.65 1747.28 1736.89 1673.32 1618.96 1490.61 1469.59 1372.8 1209.03
threshold=1.0000000180025095e-35 0.94304818330000006 1.0000000180025095e-35 0.67709729265000018 0.48573387420000008 1.0000000180025095e-35 0.81259612545000015 2.5000000000000004 1.0000000180025095e-35 7.5000000000000009 1.3781500331500001 0.66638010550000015 6.5000000000000009 0.7316505001500001 1.0000000180025095e-35 0.60492762645000009 5.5000000000000009 10.500000000000002 7.5000000000000009
decision_type=8 2 2 2 10 2 10 2 2 10 2 10 2 10 2 10 8 2 2
left_child=1 2 3 6 9 13 18 -6 10 16 12 -4 -3 -2 -9 -7 -5 -16 -1
right_child=5 8 11 4 7 15 -8 14 -10 -11 -12 -13 -14 -15 17 -17 -18 -19 -20
leaf_value=0.071533802424341333 0.10949600265633484 0.093967368346041621 0.08939568261238591 0.083715860728141106 0.10266053132262229 0.085507377954778419 0.082189222856740213 0.090139723142680206 0.11497756049390312 0.08668533657133129 0.11263818926019276 0.10641846539422412 0.10745148968149591 0.12496144897655341 0.084408284780350715 0.10581905759083443 0.060926656640311334 0.067930740082598154 0.059359078009667054
leaf_weight=1730.3987671844661 1094.9596304818988 3420.5731364414096 931.31136150285602 368.25703400373459 1084.5189540088177 558.47874078154564 1780.6554205045104 5240.6165355369449 1316.9435390494764 835.72824295610189 942.9557362049818 1710.3342551030219 1325.4242450334132 1937.609436661005 2456.1363760195673 1023.3470593355596 1221.7874284610152 636.68723498657346 1543.0349033437669
leaf_count=24169 9566 34203 10526 4566 10472 6748 21624 57294 9361 10153 6793 15285 11233 12175 28943 9216 18137 8747 24104
internal_value=0 8.89222 8.38815 8.12965 8.54467 11.2271 7.15709 8.85854 10.2981 7.32607 10.0204 10.0417 9.77331 11.9377 8.67537 9.86478 6.62047 8.10162 6.57949
internal_weight=0 26545.4 19539.5 16897.8 11843.7 4614.39 5054.09 9417.96 7005.9 2425.77 5688.95 2641.65 4746 3032.57 8333.44 1581.83 1590.04 3092.82 3273.43
internal_count=333315 295610 234020 208209 138312 37705 69897 105456 61590 32856 52229 25811 45436 21741 94984 15964 22703 37690 48273
shrinkage=0.01


Tree=4
num_leaves=20
num_cat=0
split_feature=4 34 15 16 5 5 34 18 18 34 2 2 35 16 27 18 34 35 23
split_gain=16083.5 14768.2 4311.38 4121.33 3294.4 3251.32 3118.08 3424.58 2899.94 2135.29 1795 1348.6 1269.66 1247.75 1216.74 1173.79 1077.06 1171.37 1017.61
threshold=1.0000000180025095e-35 0.78710021995000012 1.0000000180025095e-35 1.0000000180025095e-35 1.0000000180025095e-35 1.0000000180025095e-35 1.0840942443000003 0.65000000000000002 0.45000000000000007 0.6184574919500001 4.5000000000000009 5.5000000000000009 0.46850796715000004 1.0000000180025095e-35 1.0000000180025095e-35 0.8500000000000002 0.67452156275000008 0.41273474165000007 inf
decision_type=8 2 2 2 2 2 2 2 2 2 2 2 10 2 10 2 2 10 8
left_child=1 3 10 4 9 13 7 11 -6 -1 -3 12 18 -2 -7 -11 -10 -18 -4
right_child=5 2 6 -5 8 14 -8 -9 16 15 -12 -13 -14 -15 -16 -17 17 -19 -20
leaf_value=0.064059147805061556 0.10311775582625916 0.089502380238832141 0.079135654684335935 0.087858596086169707 0.054829046340973568 0.10700598652123285 0.093760191068920348 0.086334975326637392 0.065296891287504322 0.07591042696219262 0.10053199614133532 0.08119609677663725 -0.00095629751166682875 0.11803179818836031 0.085391949501474745 0.085993862808688051 0.078027706841972799 0.045416155772235574 0.062713765178731576
leaf_weight=1148.6652283594012 2660.0018774122 3090.384433221072 544.97850983217359 1802.4859195612371 1653.0376132726669 319.57315708696842 2339.5464954301715 3978.4754904806614 1851.0567251518369 3666.1062054224312 2823.6991268210113 1002.4948659129441 27.29883511736989 710.88425240293145 1407.8077466376126 1685.0576033033431 1783.426444735378 117.39119369536638 1226.7166408114135
leaf_count=15004 18294 26453 5699 17289 24015 2137 18552 37292 24492 41496 20514 10349 497 3447 13827 17012 20138 1674 15134
internal_value=0 8.12738 8.81186 7.37667 7.16331 10.0546 8.3806 8.03711 6.58643 7.64301 9.47685 7.19017 6.67224 10.6263 8.93906 7.90857 7.07264 7.60137 6.77652
internal_weight=0 28740.8 15033.6 13707.2 11904.7 5098.27 9119.51 6779.96 5404.91 6499.83 5914.08 2801.49 1798.99 3370.89 1727.38 5351.16 3751.87 1900.82 1771.7
internal_count=333315 295610 134490 161120 143831 37705 87523 68971 70319 73512 46967 31679 21330 21741 15964 58508 46304 21812 20833
shrinkage=0.01


Tree=5
num_leaves=20
num_cat=0
split_feature=5 4 18 33 20 15 4 8 36 27 15 27 14 2 19 35 16 2 16
split_gain=14222.1 8778.69 5397.47 4796.17 3194.37 2447.69 2043.1 1775.92 1743.67 1735.25 1570.06 1513.16 1469.99 1434.26 1242.12 1119.33 1040 1133.48 1030.79
threshold=1.0000000180025095e-35 1.0000000180025095e-35 0.55000000000000016 0.42391035145000006 0.61972771155000006 1.0000000180025095e-35 1.5000000000000002 1.0000000180025095e-35 2.7370892179000008 1.0000000180025095e-35 1.0000000180025095e-35 1.0000000180025095e-35 8.5000000000000018 4.5000000000000009 0.25000000000000006 0.33771288770000002 1.0000000180025095e-35 1.5000000000000002 1.0000000180025095e-35
decision_type=2 8 2 10 10 2 8 2 2 10 2 8 2 2 2 10 2 2 2
left_child=1 3 9 4 11 -6 8 13 -4 -2 -11 15 -7 -5 -10 -1 17 -16 -3
right_child=2 18 6 7 5 12 -8 -9 14 10 -12 -13 -14 -15 16 -17 -18 -19 -20
leaf_value=0.11803719780653837 0.083334364385010032 0.093200705111731286 0.062587728720934988 0.083189447046037909 0.085478740589862309 0.079264344603416567 0.086022838573329374 0.074381996424990438 0.066550429026662916 0.067025695976696401 0.053097209793555623 0.066664868863519869 0.069323698360501562 0.093203046341787291 0.087618100642119418 0.074563930798146785 0.088922318749445839 0.072104290914915228 0.10602242117161287
leaf_weight=100.10363647341728 276.94509629160166 2909.5923015959561 1735.0358585454524 2792.3244219124317 3579.3397279493511 3517.6278422251344 1087.5798052884638 1088.0764545015991 1550.0567386597395 1171.5804124101996 2617.1687800586224 3714.9719721935689 2577.7024790197611 2932.5683900490403 572.59808246791363 145.03836976736784 628.1767775863409 2653.0670107007027 799.24991581216455
leaf_count=522 2410 18319 20595 22032 28483 31732 8553 9770 16896 12901 34148 41073 26283 19065 4835 1432 4546 26280 3440
internal_value=0 8.18091 6.85964 7.92417 7.58182 7.89149 7.32548 8.60931 7.13097 5.91706 5.74043 6.82528 7.50605 8.83189 7.41101 9.23162 7.71507 7.48582 9.59638
internal_weight=0 24156.6 12292.2 20447.8 13634.8 9674.67 8226.51 6812.97 7138.93 4065.69 3788.75 3960.11 6095.33 5724.89 5403.9 245.142 3853.84 3225.67 3708.84
internal_count=333315 202151 131164 180392 129525 86498 81705 50867 73152 49459 47049 43027 58015 41097 52557 1954 35661 31115 21759
shrinkage=0.01


Tree=6
num_leaves=20
num_cat=0
split_feature=34 20 27 16 16 5 6 5 18 27 20 16 14 14 29 34 34 35 27
split_gain=12033.6 7088.49 3234.56 2729.15 2721.85 2428.55 1999.72 1936.66 1918.68 1194.14 1129.21 1114.03 1069.63 1042.15 935.949 905.645 897.247 986.173 892.852
threshold=0.85851411605000016 0.60492762645000009 1.0000000180025095e-35 1.0000000180025095e-35 1.0000000180025095e-35 1.0000000180025095e-35 1.0000000180025095e-35 1.0000000180025095e-35 0.45000000000000007 1.0000000180025095e-35 0.84686921420000016 1.0000000180025095e-35 10.500000000000002 7.5000000000000009 1.0000000180025095e-35 0.55985719835000014 1.1020360570000003 0.32488458580000007 1.0000000180025095e-35
decision_type=2 10 10 2 2 2 2 2 2 10 10 2 2 2 8 2 2 8 10
left_child=1 5 -3 6 7 11 10 12 -9 -7 18 -1 15 -11 -6 -4 17 -8 -2
right_child=3 2 4 -5 14 9 16 8 -10 13 -12 -13 -14 -15 -16 -17 -18 -19 -20
leaf_value=0.06268621708107823 0.085512753173326711 0.08520978967501526 0.054363271142139374 0.08715393296193151 0.065858165652903353 0.073423224728339745 0.093924819423341077 0.048115601119612939 0.065427428485422087 0.057190430239882205 0.076766077528212323 0.078774306727819599 0.063793107061031848 0.046302855857331196 0.083036470228766091 0.073637615453771774 0.08488363181783655 0.07507904923551767 0.066976280186155646
leaf_weight=3362.3195616081357 284.05866957083344 1430.3318325392902 254.76979387924075 2909.5903301872313 387.95385330542922 278.22408493980765 308.95195261016488 760.78506369516253 4039.1439071856439 1810.2572425827384 3367.8198278397322 493.60221211984754 1694.43656931445 1709.2929272763431 1738.3463596999645 5651.5800984501839 2723.5616163760424 2742.1515884250402 3049.2174996286631
leaf_count=34883 1831 9404 2899 15616 3395 2480 1739 9425 40428 20808 24349 3840 16446 22600 11943 47260 15953 21027 26989
internal_value=0 6.70669 7.08616 7.84327 6.94489 5.91553 7.63987 6.76565 6.26835 5.34794 7.26822 6.47457 7.07969 5.19028 7.99022 7.28062 8.07116 7.69874 6.85559
internal_weight=0 23611 15957.3 15385.4 14527 7653.7 12475.8 12400.7 4799.93 3797.77 6701.1 3855.92 7600.79 3519.55 2126.3 5906.35 5774.67 3051.1 3333.28
internal_count=333315 225811 141200 107504 131796 84611 91888 116458 49853 45888 53169 38723 66605 43408 15338 50159 38719 22766 28820
shrinkage=0.01


Tree=7
num_leaves=20
num_cat=0
split_feature=34 4 5 18 15 4 14 5 27 2 26 2 2 8 33 53 14 16 14
split_gain=9937.35 7583.19 4373.63 3521.23 2462.03 1824.36 1475.26 1345.41 1300.9 1663.09 1264.2 1219.73 1154.53 1720.52 1133.45 1074.73 985.203 908.462 923.251
threshold=0.94304818330000006 1.5000000000000002 1.0000000180025095e-35 0.45000000000000007 1.0000000180025095e-35 1.0000000180025095e-35 8.5000000000000018 1.0000000180025095e-35 1.0000000180025095e-35 1.5000000000000002 10.500000000000002 4.5000000000000009 5.5000000000000009 1.0000000180025095e-35 0.36048577665000009 1.0000000180025095e-35 5.5000000000000009 1.0000000180025095e-35 7.5000000000000009
decision_type=2 8 2 2 2 8 2 2 8 2 2 2 2 2 10 2 2 2 2
left_child=1 2 4 17 12 11 -6 -3 -5 15 -11 16 -1 -14 -8 -10 -2 18 -4
right_child=5 7 3 8 6 -7 14 -9 9 10 -12 -13 13 -15 -16 -17 -18 -19 -20
leaf_value=0.066633880133562626 0.075236966734434585 0.080162609773560642 0.051470468681813292 0.074529646558176135 0.065113538548196986 0.084576963074290745 0.049648021601186157 0.068581324312695841 0.079208187213756012 0.060274285599778009 0.050545658261875057 0.076476969765186475 0.0824867263756449 0.063909107622414127 0.060908929730675167 0.060285646782582393 0.065794296330129384 0.063962344438486418 0.0395226190386921
leaf_weight=3740.1206095665693 1772.0085688047111 2715.6770731210709 1243.9771245494485 579.53695618361235 5632.5837935879827 1580.9202441722155 1333.1960769221187 1590.6155321486294 593.47462955489755 3633.4338700585067 2112.1827365644276 4899.371260330081 1386.9752229563892 778.23858541622758 2712.1943000555038 607.29518517106771 2935.1286636479199 288.61407145112753 1347.1539538912475
leaf_count=29724 10955 14566 14026 4196 47949 6965 14354 12492 4449 34570 22701 28658 8596 6526 24630 5733 21955 2501 17769
internal_value=0 6.3594 6.15574 5.65372 6.49097 7.46225 6.18048 7.58848 6.01356 5.89347 5.66979 7.29843 6.99981 7.58094 5.71978 6.9638 6.9349 4.71332 4.52587
internal_weight=0 30295.3 25989 10405.7 15583.3 11187.4 9677.97 4306.29 7525.92 6946.39 5745.62 9606.51 5905.33 2165.21 4045.39 1200.77 4707.14 2879.75 2591.13
internal_count=333315 264782 237724 105945 131779 68533 86933 27058 71649 67453 57271 61568 44846 15122 38984 10182 32910 34296 31795
shrinkage=0.01


Tree=8
num_leaves=20
num_cat=0
split_feature=34 20 4 4 34 14 14 16 18 4 18 24 16 34 20 23 31 2 18
split_gain=8433.32 5131.57 3259.6 3009.44 2009.66 1910.04 1789.85 1175.83 1143.19 1063.93 1045.7 878.232 889.668 873.074 878.041 816.651 810.477 788.729 778.17
threshold=0.83131504900000019 0.60492762645000009 1.5000000000000002 1.0000000180025095e-35 1.0204975694500003 7.5000000000000009 7.5000000000000009 1.0000000180025095e-35 0.55000000000000016 1.0000000180025095e-35 1.0000000180025095e-35 1.0000000180025095e-35 1.0000000180025095e-35 0.68080986045000014 0.93724995185000015 inf 103.50000000000001 4.5000000000000009 0.35000000000000003
decision_type=2 10 8 8 2 2 2 2 2 8 2 2 2 2 10 8 2 2 2
left_child=1 5 6 4 7 10 11 -2 15 -7 -1 12 -3 14 -10 -8 18 -6 -12
right_child=3 2 -4 -5 17 9 8 -9 13 -11 16 -13 -14 -15 -16 -17 -18 -19 -20
leaf_value=0.076663926787238615 0.060880402802125227 0.060389135611342473 0.072240614160154856 0.076368281579346595 0.065930820653332195 0.043883080415063218 0.058734711996847627 0.070387314516173236 0.046943694143189794 0.059010868166042008 0.047626434622377388 0.074112335725012343 0.070439400121492982 0.06132665488015155 0.060454536428316434 0.04295343571280423 0.069156497466241293 0.072572807468448075 0.057110543245683876
leaf_weight=234.57875061780214 7943.0703472495079 5704.3037450909615 2400.7468131631613 2978.0957099348307 3375.4053851813078 3006.2053902670741 488.08951615169644 1555.7795430496335 1103.2988691180944 549.95427229627967 1387.6261206716299 649.94873927161098 1041.627378385514 3175.7978165596724 852.80066505074501 999.16918020695448 365.24271101132035 3801.2794297859073 2297.5807670988142
leaf_count=1668 60460 47307 13465 13223 21336 34533 4338 8589 11580 4560 14337 3918 6627 25707 7254 10858 2929 19696 20930
internal_value=0 5.82953 6.14741 6.71087 6.5455 5.16403 5.96298 6.24375 5.58523 4.62226 5.61365 6.30106 6.1941 5.80896 5.2834 4.81325 5.49476 6.94489 5.35394
internal_weight=0 24257 16415.8 19653.6 16675.5 7841.19 14015 9498.85 6619.16 3556.16 4285.03 7395.88 6745.93 5131.9 1956.1 1487.26 4050.45 7176.68 3685.21
internal_count=333315 210011 131054 123304 110081 78957 117589 69049 59737 39093 39864 57852 53934 44541 18834 15196 38196 41032 35267
shrinkage=0.01


Tree=9
num_leaves=20
num_cat=0
split_feature=5 4 34 18 20 34 14 15 2 26 14 35 35 23 2 8 2 34 4
split_gain=7324.2 4548.66 3136.38 2980.14 1805.1 1502.14 1258.61 1193.86 1180.88 1326.51 1009.52 1165.97 946.906 901.385 860.263 746.121 834.217 701.319 689.446
threshold=1.0000000180025095e-35 1.0000000180025095e-35 0.97662240485000007 0.55000000000000016 0.68442490305000014 0.86606297845000013 8.5000000000000018 1.0000000180025095e-35 1.0000000180025095e-35 10.500000000000002 7.5000000000000009 0.32794815775000002 0.38503246070000002 inf 4.5000000000000009 1.0000000180025095e-35 6.5000000000000009 0.74604328190000013 1.5000000000000002
decision_type=2 8 2 2 10 2 2 2 2 2 2 8 8 8 2 2 2 2 10
left_child=1 2 4 5 6 10 -1 15 -5 18 12 -12 -2 -11 -4 16 -6 -9 -10
right_child=3 -3 14 8 7 -7 -8 17 9 13 11 -13 -14 -15 -16 -17 -18 -19 -20
leaf_value=0.056300587379966807 0.043900971606616539 0.070103876016761421 0.061348949353102984 0.070690459044520329 0.063509200189060616 0.057321747819776253 0.047119905878509942 0.053478418798163549 0.05665625516479645 0.057460950840048125 0.052239070569112284 0.034531338611494232 0.058852432614243048 0.046659910035957888 0.06795582095715258 0.057694508159782582 0.075612639505527601 0.059794911805477052 0.067225708917113353
leaf_weight=4313.1854335144162 1274.7087542042136 4878.9772128537297 3728.6184425055981 509.19545322284102 2197.5569496788085 1006.5719345137477 2284.0584900788963 2985.0617175884545 5621.7294790335 1143.1352671124041 488.46133436635137 1557.5267899781466 634.39112620055676 2383.9583558030427 4180.3241769447923 1357.3816950172186 768.63580844551325 4275.34066593647 693.26269393414259
leaf_count=34874 13006 21759 22534 2898 13365 7502 21665 24617 44039 8609 4804 18747 5400 22097 20316 9611 3603 29807 4062
internal_value=0 6.12415 5.95842 5.27869 5.72974 4.64149 5.31221 5.96753 5.58411 5.50729 4.36391 3.87589 4.88693 5.01605 6.48411 6.38354 6.66456 5.71979 5.78166
internal_weight=0 30969.1 26090.2 15312.9 18181.2 4961.66 6597.24 11584 10351.3 9842.09 3955.09 2045.99 1909.1 3527.09 7908.94 4323.57 2966.19 7260.4 6314.99
internal_count=333315 202151 180392 131164 137542 49459 56539 81003 81705 78807 41957 23551 18406 30706 42850 26579 16968 54424 48101
shrinkage=0.01


Tree=10
num_leaves=20
num_cat=0
split_feature=34 27 20 4 4 16 34 18 34 7 26 2 6 35 2 6 2 34 35
split_gain=6229.06 3887.57 3219.51 2433.7 2118.7 1603.67 1147 1150.09 1131.61 1056.25 930.003 763.656 739.438 688.76 675.944 756.005 760.728 642.373 1380.81
threshold=0.83131504900000019 1.0000000180025095e-35 0.57581457640000011 1.5000000000000002 1.0000000180025095e-35 1.0000000180025095e-35 1.0840942443000003 0.65000000000000002 0.60651592740000015 1.0000000180025095e-35 8.5000000000000018 1.5000000000000002 1.0000000180025095e-35 0.37020264105000006 1.0000000180025095e-35 1.0000000180025095e-35 5.5000000000000009 0.60380166130000001 0.29470313070000004
decision_type=2 10 10 10 8 2 2 2 2 2 2 2 2 10 2 2 2 2 10
left_child=1 13 9 8 5 6 7 -2 10 12 -4 -9 17 -1 -10 -16 -17 18 -3
right_child=4 2 3 -5 -6 -7 -8 11 14 -11 -12 -13 -14 -15 15 16 -18 -19 -20
leaf_value=0.068183840802272952 0.050407383169368852 0.059736384072636657 0.050745303756541849 0.062602762510160156 0.066414630406959246 0.064050938705333002 0.060361494883989286 0.066326912959947859 0.067369573569157029 0.053936923467555194 0.038225685511156508 0.055870888218792623 0.049426486786226839 0.056635190621527449 0.051097627697027859 0.053535615105005312 0.065045222837899833 0.043146803254556269 0.027567386760660759
leaf_weight=1534.6732020378113 4117.308553699404 164.11168194934726 1362.4976334869862 2304.2722933068871 3355.0124626010656 3343.6483805030584 4943.214713960886 803.08364424109459 309.10724263265729 1108.0659747682512 1051.0455387793481 5363.4866149574518 1470.2167707197368 778.33613958209753 9700.8052000999451 1860.5606149658561 830.63340590894222 3505.6154573820531 713.74213645979762
leaf_count=7735 30877 1435 11794 12082 13266 15265 25589 4376 1870 8801 10482 34161 12298 5115 76761 13199 4802 34839 8568
internal_value=0 5.19077 5.07323 5.30296 5.91011 5.77799 5.64028 5.45 5.15702 4.49842 4.52933 5.72326 4.32895 6.42977 5.27629 5.23986 5.7088 4.12312 3.35813
internal_weight=0 26693.7 24380.7 17418.9 21925.8 18570.7 15227.1 10283.9 15114.6 6961.75 2413.54 6166.57 5853.69 2313.01 12701.1 12392 2691.19 4383.47 877.854
internal_count=333315 209781 196931 130990 123534 110268 95003 69414 118908 65941 22276 38537 57140 12850 96632 94762 18001 44842 10003
shrinkage=0.01


Tree=11
num_leaves=20
num_cat=0
split_feature=34 27 20 16 6 5 14 6 27 14 36 35 19 35 46 14 16 35 35
split_gain=5408.91 3333.02 2802.91 1672.31 1335.04 1247.43 1201.64 1083.07 722.661 789.453 705.214 692.42 697.74 578.721 536.974 501.004 486.379 620.061 484.977
threshold=0.83131504900000019 1.0000000180025095e-35 0.57581457640000011 1.0000000180025095e-35 1.0000000180025095e-35 1.0000000180025095e-35 8.5000000000000018 1.0000000180025095e-35 inf 5.5000000000000009 2.1180339887500002 0.35735134030000004 0.65000000000000002 0.37020264105000006 12.500000000000002 6.5000000000000009 1.0000000180025095e-35 0.38085429720000002 0.36159368805000008
decision_type=2 10 10 2 2 2 2 2 8 2 2 10 2 10 2 2 2 10 10
left_child=1 13 5 7 6 -3 10 8 9 -2 -4 -8 18 -1 -14 -7 -17 -18 -13
right_child=3 2 4 -5 -6 15 11 -9 -10 -11 -12 12 14 -15 -16 16 17 -19 -20
leaf_value=0.063813212661731719 0.056509101847905509 0.046886977438465573 0.043726717893901916 0.061352502536002114 0.055604146767182068 0.043112161705724968 0.049748956718777181 0.057145949559841328 0.069813017049713141 0.050220202860047157 0.052264471287337029 0.029919818640832908 0.051813399852604532 0.053488118145361217 0.018986979786263968 0.033748611393809531 0.056694931778208293 0.011237579316204581 0.0417964867899095
leaf_weight=1622.9184658899903 2725.8044881597161 3723.2495755627751 1107.3330270014703 4316.3088324889541 3668.2777741402388 1438.1994923576713 2184.682156778872 8280.1791807562113 230.40945887565613 7456.0586264953017 7659.1953108347952 406.27618891000748 892.64439867064357 815.69309008866549 52.778088040649891 1849.0758472308517 186.85219021886587 35.748166374862194 2236.5799257159233
leaf_count=7735 15356 30145 9242 17509 22154 13321 16346 42400 625 47644 52786 4103 6283 5115 548 20634 1408 433 19528
internal_value=0 4.91917 4.81212 5.57422 5.02132 4.28549 4.88531 5.44467 5.23001 5.19038 5.1186 4.53105 4.26082 6.03596 4.99809 3.85777 3.54298 4.93948 3.99707
internal_weight=0 27879.5 25440.9 23008.8 18207.8 7233.13 14539.5 18692.5 10412.3 10181.9 8766.53 5772.96 3588.28 2438.61 945.422 3509.88 2071.68 222.6 2642.86
internal_count=333315 209781 196931 123534 130990 65941 108836 106025 63625 63000 62028 46808 30462 12850 6831 35796 22475 1841 23631
shrinkage=0.01


Tree=12
num_leaves=20
num_cat=0
split_feature=34 27 4 4 5 18 14 26 2 2 14 18 2 23 8 34 29 21 24
split_gain=4745.36 2888.55 2420.11 1740.34 1610.59 1416.08 1225.35 1139.83 1027.12 844.247 1285.65 754.901 1121.25 777.01 737.29 728.771 687.952 670.199 672.262
threshold=0.83131504900000019 1.0000000180025095e-35 1.0000000180025095e-35 1.0000000180025095e-35 1.0000000180025095e-35 0.35000000000000003 5.5000000000000009 6.5000000000000009 1.0000000180025095e-35 5.5000000000000009 8.5000000000000018 0.65000000000000002 4.5000000000000009 inf 1.0000000180025095e-35 0.94304818330000006 1.0000000180025095e-35 8.5000000000000018 1.0000000180025095e-35
decision_type=2 10 10 8 2 2 2 2 2 2 2 2 2 8 2 2 10 10 2
left_child=1 -1 4 6 9 17 15 -7 -9 16 -11 12 13 -8 -12 -2 -3 18 -6
right_child=3 2 -4 -5 5 7 11 8 -10 10 14 -13 -14 -15 -16 -17 -18 -19 -20
leaf_value=0.056883492005092774 0.050662845899208775 0.040947299779254188 0.053098330607991927 0.059057038018548245 0.0285745376361651 0.04665474462459003 0.049348236671192355 0.065275060835923646 0.037738391815234452 0.054845764430199014 0.050112094454715414 0.051786081177614712 0.051349940308692936 0.038038131718081007 0.038054670509612629 0.057501098785303004 0.046970394997586214 0.043673247985714064 0.065294427771173974
leaf_weight=2561.1055027469993 2419.9636197164655 2882.9600572437048 3843.553082741797 3699.4722231179476 1315.9451714120805 4357.6376663222909 966.34158241003752 141.41886358335614 3212.3629480749369 2620.0344396680593 1042.0039228349924 8158.2584942877293 2809.0470242276788 1635.4272335991263 987.9987121745944 4377.8520291745663 5541.3051158115268 482.52074330672622 51.821544151753187
leaf_count=12850 14090 22515 21100 13266 14701 33777 5714 772 28753 15896 7192 43559 15511 12355 8381 19039 38985 4478 381
internal_value=0 4.67425 4.57617 5.27474 4.4516 4.13968 5.16013 4.32819 3.88995 4.67971 5.02174 4.98652 4.69689 4.22389 4.42438 5.50667 4.49092 3.35404 2.99658
internal_weight=0 29040.7 26479.6 24066.4 22636 9561.71 20366.9 7711.42 3353.78 13074.3 4650.04 13569.1 5410.82 2601.77 2030 6797.82 8424.27 1850.29 1367.77
internal_count=333315 209781 196931 123534 175831 82862 110268 63302 29525 92969 31469 77139 33580 18069 15573 33129 61500 19560 15082
shrinkage=0.01


Tree=13
num_leaves=20
num_cat=0
split_feature=6 27 20 4 16 14 16 7 0 35 21 18 14 23 40 22 18 23 23
split_gain=4196.95 3198.36 2420.11 1548.43 1414.77 1321.08 1090.56 880.684 816.324 776.407 746.251 998.802 691.741 675.218 630.814 627.51 590.825 584.486 574.364
threshold=1.0000000180025095e-35 1.0000000180025095e-35 0.87660565145000013 1.0000000180025095e-35 1.0000000180025095e-35 8.5000000000000018 1.0000000180025095e-35 1.0000000180025095e-35 2.5000000000000004 0.40149717870000007 8.5000000000000018 0.25000000000000006 10.500000000000002 1.0000000180025095e-35 1.5000000000000002 1.0000000180025095e-35 0.8500000000000002 inf inf
decision_type=2 10 10 8 2 2 2 2 2 10 10 2 2 10 2 10 2 8 8
left_child=1 -1 4 6 5 8 9 12 10 -2 11 14 -4 16 -3 -16 -7 -9 -6
right_child=3 2 7 -5 18 13 -8 17 -10 -11 -12 -13 -14 -15 15 -17 -18 -19 -20
leaf_value=0.054142090444218367 0.04682384029275926 0.015454002548392043 0.047509468753859647 0.057913428415574217 0.052850685137000308 0.034633662833286914 0.055818843051418002 0.056136817653411122 0.048281710213474965 0.052302358443580832 0.045726801469302476 0.041739296660279701 0.040809791741588046 0.044265995316785801 0.05924310556047737 0.031842088142737868 0.04193061249083533 0.048129458029698896 0.044268394935007567
leaf_weight=3603.1927648633718 8205.3875491097569 209.47397607192397 6991.5759981572628 2811.2052761465311 1520.1408524513245 4512.8218042217195 2494.3647398278117 1703.1358446404338 2562.2721028588712 3777.7689766287804 3179.4188337400556 4473.7885736562312 1976.8678998872638 1346.3119380958378 93.591166749596596 781.11458956450224 1471.4208855777979 1961.390072606504 1601.1435911133885
leaf_count=16480 48957 2261 41060 9219 7401 39526 9917 7355 16137 17667 21593 33265 13285 9406 531 7205 11223 10730 10097
internal_value=0 4.51785 4.42392 5.11219 4.22174 4.11735 4.98032 4.77204 4.33183 4.8551 4.18628 3.96524 4.60327 3.78674 3.10411 3.47739 3.64279 5.1851 4.84482
internal_weight=0 37987.7 34384.5 17288.7 21751.5 18630.2 14477.5 12633 11299.7 11983.2 8737.39 5557.97 8968.44 7330.55 1084.18 874.706 5984.24 3664.53 3121.28
internal_count=333315 247555 231075 85760 158645 141147 76541 72430 80992 66624 64855 43262 54345 60155 9997 7736 50749 18085 17498
shrinkage=0.01


Tree=14
num_leaves=20
num_cat=0
split_feature=16 6 36 2 14 4 4 2 19 27 2 4 7 18 22 3 18 37 7
split_gain=3781.15 2884.74 2003.69 1400.33 1230.33 1055.04 975.269 846.483 799.384 808.494 787.467 771.981 688.593 803.733 590.052 733.178 692.391 594.56 585.234
threshold=1.0000000180025095e-35 1.0000000180025095e-35 2.7370892179000008 1.0000000180025095e-35 8.5000000000000018 1.0000000180025095e-35 1.0000000180025095e-35 4.5000000000000009 0.75000000000000011 1.0000000180025095e-35 4.5000000000000009 1.0000000180025095e-35 1.0000000180025095e-35 0.8500000000000002 1.0000000180025095e-35 1.0000000180025095e-35 0.15000000000000005 0.75000000000000011 1.0000000180025095e-35
decision_type=2 2 2 2 2 8 8 2 2 10 2 8 2 2 10 10 2 2 2
left_child=1 2 6 -4 7 10 12 -5 9 -6 -3 -2 13 -1 16 -16 -11 -17 -9
right_child=11 5 3 4 8 -7 -8 18 -10 14 -12 -13 -14 -15 15 17 -18 -19 -20
leaf_value=0.030373250164483438 0.049247839637062925 0.04407144198189502 0.054473918130540255 0.042560804482476872 0.050960716008695915 0.053598100520031888 0.045697043837592093 0.045512146822204141 0.045407329222656466 0.014724776672603015 0.04915838295868049 0.05654424628674723 0.042550532885198021 0.038838300862554846 0.033635009027321486 0.04257931306815145 0.047016787769013559 0.03038280449328034 0.052178762140151796
leaf_weight=2705.9753200486302 7596.212589494884 7167.9720847383142 1080.5626948326826 8485.0511886551976 499.52748037129641 2303.4281508028507 1147.1629047468305 4839.4387197941542 2250.0883808284998 71.291714549064636 5288.1849791035056 1792.1862123310566 1143.0168294385076 1915.7064209207892 3528.3432749137282 2325.1622499525547 967.4983986467123 482.6591788828373 1809.0292480885983
leaf_count=24750 35290 41289 4539 54191 2496 7772 6385 28715 12409 637 25335 5331 7613 14614 28281 16213 5263 3932 8260
internal_value=0 4.37016 4.20685 4.3326 4.28491 4.73808 3.72765 4.46543 4.01508 3.86488 4.62311 5.06407 3.56008 3.3882 3.78148 3.66695 4.48006 4.04828 4.73261
internal_weight=0 48010.1 33250.5 26338.7 25258.1 14759.6 6911.86 15133.5 10124.6 7874.48 12456.2 9388.4 5764.7 4621.68 7374.95 6336.16 1038.79 2807.82 6648.47
internal_count=333315 292694 218298 164936 160397 74396 53362 91166 69231 56822 66624 40621 46977 39364 54326 48426 5900 20145 36975
shrinkage=0.01


Tree=15
num_leaves=20
num_cat=0
split_feature=6 4 34 20 27 19 14 20 14 18 2 20 20 14 21 7 33 2 16
split_gain=4190.33 2725.13 2233.29 1321.75 1299.36 1481.73 1154.5 1125.8 857.389 840.132 839.099 823.706 645.815 621.088 557.225 522.701 502.843 483.889 463.575
threshold=1.0000000180025095e-35 1.5000000000000002 0.74604328190000013 0.6507207099500002 1.0000000180025095e-35 0.55000000000000016 8.5000000000000018 0.55311610010000012 10.500000000000002 0.65000000000000002 4.5000000000000009 0.47335229060000006 0.80680695490000021 6.5000000000000009 4.5000000000000009 1.0000000180025095e-35 0.44715768680000006 6.5000000000000009 1.0000000180025095e-35
decision_type=2 8 2 10 8 2 2 10 2 2 2 8 10 2 10 2 10 2 2
left_child=1 2 4 9 -1 6 -6 15 17 13 -5 -8 14 -2 -3 -4 -17 -9 -13
right_child=3 12 7 10 5 -7 11 8 -10 -11 -12 18 -14 -15 -16 16 -18 -19 -20
leaf_value=0.047157643280736565 0.043789203586654855 0.055994575476120592 0.034932808492365887 0.046151621288114938 0.037125032039664947 0.04192892035332111 0.0034353462192412078 0.04363320894004051 0.039065669753915691 0.048123118245237961 0.051284815286887726 0.029853625751127655 0.05105511957867577 0.035894038685468199 0.042733449715992883 0.038118413249744625 0.050575902401308048 0.04829530943937338 0.039866568848364529
leaf_weight=1212.2591364905238 2241.955682374537 359.6057707592845 2606.8670420125127 6694.3098314702511 6650.9840010479093 3610.1297386214137 110.08798182010651 8952.869421929121 3348.9672428965569 2064.7143865153193 6073.7555495873094 3558.2024168968201 2673.7713745087385 1793.4601238965988 2665.7530889213085 929.34469109028578 497.46192318946123 2963.1300798356533 531.4351762086153
leaf_count=6120 11780 1323 19096 30786 49059 22664 1318 47613 19770 9890 21927 32081 9178 11423 14172 6067 2106 13503 3439
internal_value=0 4.10622 4.00172 4.6764 3.72131 3.63794 3.4533 4.22945 4.35361 4.29349 4.85935 3.04282 4.74744 4.02804 4.43097 3.7596 4.24618 4.47925 3.11548
internal_weight=0 40670.9 34971.7 18868.2 15673.1 14460.8 10850.7 19298.6 15265 6100.13 12768.1 4199.73 5699.13 4035.42 3025.36 4033.67 1426.81 11916 4089.64
internal_count=333315 247509 222836 85806 114681 108561 85897 108155 80886 33093 52713 36838 24673 23203 15495 27269 8173 61116 35520
shrinkage=0.01


Tree=16
num_leaves=20
num_cat=0
split_feature=34 5 20 20 16 15 34 2 18 6 14 29 18 14 34 27 34 41 31
split_gain=3813.22 1644.66 1573.97 1280.1 1085.26 1051.83 969.307 778.59 728.157 720.092 690.699 673.204 638.361 633.83 536.922 525.967 494.621 649.698 517.099
threshold=0.78880860050000012 1.0000000180025095e-35 0.65835966135000012 0.60233913430000008 1.0000000180025095e-35 1.0000000180025095e-35 1.0840942443000003 1.0000000180025095e-35 0.45000000000000007 1.0000000180025095e-35 7.5000000000000009 1.0000000180025095e-35 0.35000000000000003 10.500000000000002 0.59240196030000014 1.0000000180025095e-35 0.55002817285000016 1.5000000000000002 64.500000000000014
decision_type=2 2 10 10 2 2 2 2 2 2 2 8 2 2 2 10 2 2 2
left_child=1 5 6 14 9 11 12 -5 -9 13 -7 -1 15 -4 -3 -2 17 -10 -19
right_child=2 3 4 7 -6 10 -8 8 16 -11 -12 -13 -14 -15 -16 -17 -18 18 -20
leaf_value=0.038998172770147832 0.04950866677997752 0.024551574130094123 0.043341078404896323 0.049566441290255114 0.049234077494146433 0.041203875190522363 0.0454231792874761 0.029755626627721476 0.041226857567477022 0.046057136822725109 0.035972915501616416 0.045962988072321583 0.0406839186628975 0.037380046853413222 0.033132428994718063 0.033619290532867989 0.039574758580073748 0.033563891524876016 0.010523205576439003
leaf_weight=2069.3467338234186 224.84184761345387 911.05642571300268 8046.3450815007091 548.89160912483931 4499.3901945725083 4812.5160425975919 2568.3554125651717 1109.182895667851 321.76833181083202 7712.9753050580621 5308.6636580377817 4213.7353026196361 4583.7948911786079 2291.7797529101372 3653.2542347460985 2836.2183668836951 5471.0809862092137 194.51775860786438 195.10464279353619
leaf_count=12079 929 8600 37832 2372 14105 26972 10100 9100 2126 30388 35108 19960 24836 12541 29891 18778 34223 1468 1907
internal_value=0 3.83775 4.3365 3.56299 4.484 4.04553 4.01081 3.80809 3.72163 4.37448 3.84602 4.36691 3.83225 4.20196 3.14197 3.47864 3.85548 3.07108 2.20262
internal_weight=0 28809.1 32763.7 12404.9 22550.5 16404.3 10213.2 7840.55 7291.65 18051.1 10121.2 6283.08 7644.86 10338.1 4564.31 3061.06 6182.47 711.391 389.622
internal_count=333315 183806 149509 89687 94866 94119 54643 51196 48824 80761 62080 32039 44543 50373 38491 19707 39724 5501 3375
shrinkage=0.01


Tree=17
num_leaves=20
num_cat=0
split_feature=34 4 21 18 14 0 2 6 20 34 16 14 39 27 14 33 26 34 18
split_gain=3473.32 3271.52 1765.03 1393.99 1176.36 936.137 804.186 752.683 733.512 655.57 581.682 576.25 562.167 555.018 532.775 577.095 583.098 471.995 483.22
threshold=0.94304818330000006 1.5000000000000002 7.5000000000000009 0.75000000000000011 8.5000000000000018 3.5000000000000004 1.5000000000000002 1.0000000180025095e-35 0.80680695490000021 0.59537646900000007 1.0000000180025095e-35 2.5000000000000004 0.25000000000000006 1.0000000180025095e-35 8.5000000000000018 0.31614868930000006 5.5000000000000009 1.2174565343500003 0.55000000000000016
decision_type=2 8 10 2 2 2 2 2 10 2 2 2 2 8 2 10 2 2 2
left_child=1 2 3 4 5 11 -4 13 -3 -5 17 12 -1 -8 -15 16 -16 18 -2
right_child=10 8 6 9 -6 -7 7 -9 -10 -11 -12 -13 -14 14 15 -17 -18 -19 -20
leaf_value=0.027701218871320554 0.037425660462377344 0.041189539199315221 0.043553456276680176 0.030391481964477291 0.02854984418392667 0.042955359357486345 0.043864025423631353 0.041701675322775626 0.047746635873732866 0.039078548773130765 0.046678654120039305 0.031930998817237967 0.043538176516561208 0.037964464117798136 0.027579879065080415 0.034228508571003603 -0.01099822853407011 0.044903848332241689 0.04237405578927534
leaf_weight=297.60943874716759 2771.8997474983335 3633.5909479036927 3153.4496085494757 995.46171679347754 4565.3180671557784 1232.9078651741147 1005.0604483559728 4142.4576074257493 3215.9561622738838 6822.3159502148628 3633.3281161189079 5030.6469822600484 907.96233712881804 6367.4455810338259 136.09401042759418 4350.5883782058954 55.018727630376816 4395.1733065843582 6850.5048197209835
leaf_count=2109 14026 16996 16221 7515 35721 6535 4434 20087 9896 38542 10751 34931 4915 36609 1085 28492 672 15010 28768
internal_value=0 3.78935 3.67757 3.46847 3.25489 3.49932 3.89366 3.80299 4.42682 3.79724 4.3113 3.34191 3.96286 3.67532 3.60981 3.34814 1.64738 4.21887 4.09486
internal_weight=0 45911.9 39062.3 19852.2 12034.4 7469.13 19210.1 16056.7 6849.55 7817.78 17650.9 6236.22 1205.57 11914.2 10909.1 4541.7 191.113 14017.6 9622.4
internal_count=333315 264760 237868 130268 84211 48490 107600 91379 26892 46057 68555 41955 7024 71292 66858 30249 1757 57804 42794
shrinkage=0.01


Tree=18
num_leaves=20
num_cat=0
split_feature=34 19 20 14 34 23 36 23 27 14 8 0 27 34 19 14 34 20 50
split_gain=3235.78 1398.09 1333.22 1329.34 810.293 765.361 592.698 590.948 568.96 544.27 539.661 531.565 508.817 506.823 504.243 486.054 481.146 449.154 440.193
threshold=0.78880860050000012 0.45000000000000007 0.65835966135000012 7.5000000000000009 1.0840942443000003 inf 2.7370892179000008 1.0000000180025095e-35 1.0000000180025095e-35 10.500000000000002 1.0000000180025095e-35 2.5000000000000004 1.0000000180025095e-35 0.55002817285000016 0.95000000000000007 2.5000000000000004 0.59537646900000007 0.57581457640000011 3.5000000000000004
decision_type=2 2 10 2 2 8 2 10 8 2 2 2 10 2 2 2 2 10 2
left_child=1 3 4 8 7 10 -5 9 -1 -2 -4 12 -8 14 -3 -7 -10 -18 -13
right_child=2 13 5 6 -6 15 11 -9 16 -11 -12 18 -14 -15 -16 -17 17 -19 -20
leaf_value=0.043750364094504696 0.035110836100711536 0.024761730333638276 0.04407196040114874 0.027346950286347121 0.04165440870609232 0.044640539559327036 0.043369961488705304 0.039831033073208726 0.030660638807739227 0.027071295285985855 0.037202424725584014 0.01107231818680283 0.030259854911469885 0.039048897871016362 0.042995909565306072 0.038904839357692837 0.033701829403213472 0.038375514557430483 0.038881157073627097
leaf_weight=920.59753449261189 4924.7833018749952 497.4224788621068 9147.8821714743972 2899.9160457774997 2744.1941294297576 1686.3813229054213 317.24132086336613 2172.6368508189917 1686.1437733396888 1015.7599499374628 1306.9633337855339 59.140204772353172 4429.56458568573 9474.7264885827899 218.17901432514191 11924.861357308924 3428.7842979207635 5136.8190285414457 1517.3877138271928
leaf_count=3880 27535 3636 30973 22574 10100 5984 1435 10239 12014 6769 5649 518 32424 47424 1138 52260 22546 27325 8892
internal_value=0 3.54113 3.9866 3.39001 3.69571 4.11784 3.10903 3.53683 3.62197 3.37362 4.32132 3.2807 3.1136 3.8436 3.03211 3.96155 3.55435 3.65047 3.7838
internal_weight=0 30585.9 34923.5 20395.6 10857.4 24066.1 9223.25 8113.18 11172.3 5940.54 10454.8 6323.33 4746.81 10190.3 715.601 13611.2 10251.7 8565.6 1576.53
internal_count=333315 183806 149509 131608 54643 94866 65843 44543 65765 34304 36622 43269 33859 52198 4774 58244 61885 49871 9410
shrinkage=0.01


Tree=19
num_leaves=20
num_cat=0
split_feature=4 34 20 16 5 20 34 34 15 14 20 14 43 6 31 0 21 38 20
split_gain=3090.63 3082.97 1543.61 970.849 865.298 793.621 748.75 615.988 582.971 579.883 526.436 520.857 430.563 406.313 390.117 386.12 385.974 377.674 364.455
threshold=1.5000000000000002 0.94304818330000006 0.58710086795000016 1.0000000180025095e-35 1.0000000180025095e-35 0.80680695490000021 0.55002817285000016 0.60651592740000015 1.0000000180025095e-35 7.5000000000000009 0.49592076050000006 10.500000000000002 3.5000000000000004 1.0000000180025095e-35 11.500000000000002 1.5000000000000002 8.5000000000000018 0.8500000000000002 1.3211027538000002
decision_type=8 2 10 2 2 10 2 2 2 2 8 2 2 2 2 2 10 2 10
left_child=1 2 4 6 8 -2 18 10 -1 15 -6 14 -10 -13 -8 -3 -9 -18 -4
right_child=5 9 3 -5 7 -7 11 16 12 -11 -12 13 -14 -15 -16 -17 17 -19 -20
leaf_value=0.037123884008067931 0.038660730939757484 0.038553220798269061 0.025209262314549528 0.039478120054446966 0.035951561526584776 0.044413384224240196 0.029865439693912865 0.027754899809066695 0.028405523721802554 0.03693473161650089 0.016834388942599633 0.030513157118269078 0.035305470196740706 0.038088074134546603 0.035972940269929123 0.042594248828742048 0.035853193401936156 0.015483292061476238 0.043139115023281834
leaf_weight=2596.1992166861892 4692.3838187158108 4376.4746636077762 1143.8957454487681 4577.405001103878 179.04200249910355 4904.9348049536347 1111.3074363917112 3288.4872771054506 2410.0716077238321 6934.7966889664531 736.92687474191189 3862.4718139544129 1447.5579469278455 867.08233480155468 17754.65605558455 5143.2611197680235 1163.5852797701955 98.744679875671864 125.839723944664
leaf_count=13919 19669 16886 8868 18933 1313 13190 6608 25050 16293 28777 7078 24946 8859 4272 92679 16925 7532 835 683
internal_value=0 3.54731 3.40166 3.52458 3.09806 4.16008 3.44667 2.80533 3.34603 3.91342 2.05712 3.48693 3.09947 3.19019 3.56132 4.07365 2.95593 3.42598 2.69862
internal_weight=0 57817.8 41363.3 29442.7 11920.6 9597.32 24865.3 5466.79 6453.83 16454.5 915.969 23595.5 3857.63 4729.55 18866 9519.74 4550.82 1262.33 1269.74
internal_count=333315 300456 237868 156989 80879 32859 138056 41808 39071 62588 8391 128505 25152 29218 99287 33811 33417 8367 9551
shrinkage=0.01


Tree=20
num_leaves=20
num_cat=0
split_feature=4 34 19 23 5 19 20 2 24 20 8 31 0 34 20 24 2 50 34
split_gain=2878.78 2731.95 1160.36 1086.88 872.172 735.341 732.028 680.358 665.989 695.301 592.297 701.261 578.759 576.649 543.289 538.873 589.329 536.011 403.97
threshold=1.5000000000000002 0.78094560170000016 0.35000000000000003 inf 1.0000000180025095e-35 0.25000000000000006 0.73378297520000013 5.5000000000000009 1.0000000180025095e-35 0.75972854210000007 1.0000000180025095e-35 99.500000000000014 1.5000000000000002 1.3781500331500001 0.37624769440000005 1.0000000180025095e-35 1.5000000000000002 10.500000000000002 0.71917401255000002
decision_type=8 2 2 8 2 2 8 2 2 10 2 2 2 2 10 2 2 2 2
left_child=1 2 4 10 -1 7 -6 17 9 -2 12 -12 14 -7 -3 16 -8 -5 -17
right_child=8 3 -4 5 6 13 15 -9 -10 -11 11 -13 -14 -15 -16 18 -18 -19 -20
leaf_value=0.03231048492600485 0.035404794161011083 0.029660559792655996 0.034113363639956006 0.02789182259883953 0.029880120733966564 0.035425226231236867 0.032435547195247126 0.03626068389329104 0.044952624015293326 0.04137629909301279 0.035719967102933813 0.018137094488692745 0.041239856287996396 0.044378865441695253 0.038114278286255014 0.054333896784534659 0.020136536039877178 0.037609877479989777 0.013222657091268559
leaf_weight=7479.1561000645161 3626.6418305337429 901.93946700543165 11712.974798500538 3534.4187198355794 4644.9581768959761 12361.913813821971 476.79759188741446 2253.2313557639718 2102.8885224163532 4217.3082463219762 1135.4618135988712 283.45502842217684 5933.176801264286 763.74355604499578 4837.9760245233774 92.24160985648632 2130.2924116849899 676.14069525152445 32.261208660900593
leaf_count=43754 16080 4786 62252 20174 32255 54545 3336 10237 4883 12117 4858 1657 19639 1964 18854 392 18038 3232 262
internal_value=0 3.41414 3.17598 3.60774 2.99042 3.45866 2.74644 3.18257 3.99552 3.86154 3.83082 3.22075 3.90498 3.59462 3.67859 2.33565 2.23858 2.94524 4.36811
internal_weight=0 59250.1 26568.7 32681.5 14855.7 19589.4 7376.55 6463.79 9946.84 7843.95 13092 1418.92 11673.1 13125.7 5739.92 2731.59 2607.09 4210.56 124.503
internal_count=333315 300235 160289 139946 98037 90152 54283 33643 33080 28197 49794 6515 43279 56509 23640 22028 21374 23406 654
shrinkage=0.01


Tree=21
num_leaves=20
num_cat=0
split_feature=16 34 4 4 18 2 20 23 24 20 34 44 20 2 14 1 0 36 26
split_gain=2978.94 2343 1093.84 985.841 980.637 936.1 851.422 672.766 591.847 547.721 526.025 726.651 518.688 509.026 434.618 416.854 501.012 490.392 418.431
threshold=1.0000000180025095e-35 0.77384945240000014 1.5000000000000002 1.5000000000000002 0.65000000000000002 5.5000000000000009 0.5790616782000001 inf 1.0000000180025095e-35 1.3130355996500003 0.61228850290000014 6.5000000000000009 0.60492762645000009 1.5000000000000002 5.5000000000000009 1.5000000000000002 2.5000000000000004 2.1180339887500002 10.500000000000002
decision_type=2 2 8 8 2 2 10 8 2 10 2 2 10 2 2 10 2 2 2
left_child=1 2 6 4 5 9 10 -2 -8 14 11 -1 -10 -6 -3 16 17 -12 -17
right_child=7 3 -4 -5 13 -7 8 -9 12 -11 15 -13 -14 -15 -16 18 -18 -19 -20
leaf_value=0.049506751858474952 0.040409432987796354 0.032182950017354543 0.035509537516276717 0.03902298902359172 0.040235123890519933 0.03531585070952311 0.030534687590832603 0.035588161620673131 -0.011311180174742265 0.039095320982424166 0.0025642013975512613 0.019652316182683122 0.039601900143493636 0.034836550922429557 0.026797212284759335 0.036976927967279902 0.033828184827433654 0.025529996034751097 0.025153143777362642
leaf_weight=86.72753269970417 6694.2930715158582 2293.2517384514213 3891.0643777772784 4387.2152352705598 1980.6653348207474 4406.0270508900285 14925.837516561151 5098.7209841683507 20.434649981558323 544.81579551845789 95.90031310915947 1359.9440925270319 962.97512276470661 14776.482487693429 4322.7742896601558 900.15732133388519 770.25920452177525 3051.2524612247944 448.39381579309702
leaf_count=464 19978 10855 15760 12886 7409 19130 86465 20522 201 2012 926 11527 4046 61256 24803 5237 4658 22014 3166
internal_value=0 3.28213 3.0612 3.4612 3.39287 3.16892 2.97696 3.8325 3.10298 2.94577 2.67829 2.14421 3.8544 3.54747 2.8664 2.82502 2.65994 2.48302 3.30455
internal_weight=0 59224.2 26512.9 32711.2 28324 11566.9 22621.9 11793 15909.2 7160.84 6712.63 1446.67 983.41 16757.1 6616.03 5265.96 3917.41 3147.15 1348.55
internal_count=333315 292815 154464 138351 125465 56800 138704 40500 90712 37670 47992 11991 4247 68665 35658 36001 27598 22940 8403
shrinkage=0.01


Tree=22
num_leaves=20
num_cat=0
split_feature=16 34 4 4 19 34 23 21 21 2 2 20 38 3 0 36 38 50 31
split_gain=2743.78 2175.63 1014.32 912.797 795.175 738.677 616.031 576.382 740.05 530.465 626.538 860.233 480.397 427.242 1127.89 423.657 456.878 509.83 429.636
threshold=1.0000000180025095e-35 0.77384945240000014 1.5000000000000002 1.5000000000000002 0.35000000000000003 1.1109289909500002 inf 8.5000000000000018 5.5000000000000009 1.5000000000000002 4.5000000000000009 1.5904008807500001 0.75000000000000011 1.0000000180025095e-35 1.5000000000000002 2.7370892179000008 1.0000000180025095e-35 6.5000000000000009 27.500000000000004
decision_type=2 2 8 8 2 2 8 10 8 2 2 8 2 10 2 2 2 2 2
left_child=1 2 4 5 7 9 -2 8 -1 -3 11 -11 -9 14 -12 16 17 -6 -17
right_child=6 3 -4 -5 15 -7 -8 12 -10 10 13 -13 -14 -15 -16 18 -18 -19 -20
leaf_value=0.031652306550627188 0.03888603149988825 0.03579126920675605 0.034258707055916639 0.037598878004695392 0.030356854733656 0.03562602499224244 0.034333921681147198 0.031786928218049952 0.024330276364525411 0.030830141879179637 0.026753221514309235 0.022931237670317621 0.022972145961671197 0.03552901561307089 0.035517249564803163 0.02686584027265888 0.029104446793217106 0.0029546741730145645 0.033524285835644527
leaf_weight=1708.4841195940971 6885.9898043945432 2990.090333968401 3992.2776147499681 4507.2318589612842 126.08840531110764 6873.4785709679127 5231.4444337114692 3478.436919644475 7187.8011830896139 7592.9661489650607 2832.4097465649247 1684.6398477777839 751.91636028140783 4012.7281521931291 3049.3731081187725 1174.0572714135051 3022.0898390933871 147.12180180847645 5550.2732972875237
leaf_count=10159 19978 12812 15760 12886 711 22809 20522 20254 50394 35896 14962 10239 5028 16180 12567 6489 17364 1219 27086
internal_value=0 3.17088 2.96037 3.34119 2.88008 3.2762 3.69208 2.71814 2.57364 3.18737 3.12627 2.93958 3.02202 3.30132 3.12969 3.09223 2.79849 1.5601 3.23617
internal_weight=0 60681.5 27138.5 33542.9 23146.3 29035.7 12117.4 13126.6 8896.29 22162.2 19172.1 9277.61 4230.35 9894.51 5881.78 10019.6 3295.3 273.21 6724.33
internal_count=333315 292815 154464 138351 138704 125465 40500 85835 60553 102656 89844 46135 25282 43709 27529 52869 19294 1930 33575
shrinkage=0.01


Tree=23
num_leaves=20
num_cat=0
split_feature=16 34 4 4 18 2 20 4 24 34 44 20 35 23 25 2 35 35 34
split_gain=2537.73 2028.37 944.04 851.357 800.699 901.586 752.422 576.863 527.45 477.018 647.643 472.422 469.378 412.144 404.773 379.179 348.862 348.684 337.419
threshold=1.0000000180025095e-35 0.77384945240000014 1.5000000000000002 3.5000000000000004 0.65000000000000002 4.5000000000000009 0.5790616782000001 1.0000000180025095e-35 1.0000000180025095e-35 0.61228850290000014 6.5000000000000009 0.60492762645000009 0.40890089285000003 inf inf 1.5000000000000002 0.34992855685000007 0.29470313070000004 1.0924865488500002
decision_type=2 2 8 8 2 2 10 8 2 2 2 10 10 8 8 2 8 8 2
left_child=1 2 6 4 5 12 9 13 -8 10 -1 -10 14 -2 -3 -6 -15 -12 -7
right_child=7 3 -4 -5 15 18 8 -9 11 -11 17 -13 -14 16 -16 -17 -18 -19 -20
leaf_value=0.045829186516385512 0.03640952896940812 0.027808338564923738 0.033091550174850028 0.036804018049590416 0.037045184848944389 0.030909795448980631 0.028587565882518713 0.040009327696950224 -0.011333650923320986 0.026503833379965338 0.03335275196234936 0.036925124012614531 0.031179623206603564 0.013376952458866467 0.021564345096134755 0.032556106893911051 0.032741210350452729 0.016811973834378012 0.035919861472006057
leaf_weight=92.183288797736168 5472.033727735281 2546.8912475332618 4091.2453316524625 3726.7164124622941 2132.3143557459116 4286.4720351621509 15622.361640043557 2409.6689990907907 20.699191197752953 5499.9773253202438 141.65797580033541 1014.0628792494535 1948.5156903862953 95.019397802650928 1752.6684428453445 16003.890521347523 4457.3187260255218 1270.1306688413024 1958.4334978014231
leaf_count=464 16895 12829 15760 10122 7578 20120 86465 5283 201 36001 899 4046 8637 609 10561 62695 17713 10628 5809
internal_value=0 3.06668 2.86561 3.22911 3.1742 2.97939 2.78892 3.56161 2.90455 2.51391 2.01485 3.59598 2.71082 3.45601 2.5263 3.30839 3.2337 1.84717 3.2481
internal_weight=0 62108.2 27752.3 34355.9 30629.2 12493 23661.1 12434 16657.1 7003.95 1503.97 1034.76 6248.08 10024.4 4299.56 18136.2 4552.34 1411.79 6244.91
internal_count=333315 292815 154464 138351 128229 57956 138704 40500 90712 47992 11991 4247 32027 35217 23390 70273 18322 11527 25929
shrinkage=0.01


Tree=24
num_leaves=20
num_cat=0
split_feature=16 34 4 4 14 20 34 36 4 20 23 0 23 8 20 2 20 29 2
split_gain=2357.35 1897.48 881.591 797.444 701.05 871.95 666.589 637.752 534.876 471.55 437.542 412.729 380.727 373.262 346.757 340.708 395.577 327.824 326.289
threshold=1.0000000180025095e-35 0.77384945240000014 1.5000000000000002 1.5000000000000002 7.5000000000000009 0.95049327875000011 1.1109289909500002 2.7370892179000008 1.0000000180025095e-35 1.0000000180025095e-35 1.0000000180025095e-35 1.5000000000000002 inf 1.0000000180025095e-35 0.95965487205000011 1.5000000000000002 0.63022808450000012 1.0000000180025095e-35 4.5000000000000009
decision_type=2 2 8 8 2 10 2 2 8 10 10 2 8 2 10 2 10 10 2
left_child=1 2 4 6 -1 7 9 -6 12 11 15 -3 -2 -12 -7 17 -17 -11 -18
right_child=8 3 -4 -5 5 14 -8 -9 -10 10 13 -13 -14 -15 -16 16 18 -19 -20
leaf_value=0.028622743727904919 0.035150510383561623 0.023726891834395154 0.031999792662428375 0.03505766481202835 0.019507793184052234 0.046226751094387133 0.033303165375082447 0.025450123792411749 0.038575758377574036 0.026598624217411257 0.034197747366141819 0.030834320631758751 0.03128280106105083 0.026558099944952729 0.02908696693763679 0.025174226344430731 0.028010587794134401 0.035616525728017732 0.031542404088033875
leaf_weight=12892.652228437364 5610.6338496506214 2154.3361192718148 4188.0212661921978 4737.0436118170619 2677.351590745151 123.00245779752731 7207.7360379770398 5549.9872869923711 2473.8934491351247 543.19962581247091 4130.3804467320442 1316.2044640630484 4658.1440443769097 756.70525627583265 2923.3664083257318 2279.1599440798163 5245.8329808339477 1563.1570378765464 5217.4789988473058
leaf_count=68248 16895 12712 15760 12886 19927 420 22809 35238 5283 2520 15313 6289 18322 3440 14871 12136 23681 5861 20704
internal_value=0 2.96887 2.77641 3.12412 2.70301 2.52086 3.06468 2.35164 3.44016 2.98217 3.04195 2.64224 3.3396 3.30148 2.9779 2.95653 2.89494 3.32909 2.97717
internal_weight=0 63505.6 28354.4 35151.2 24166.4 11273.7 30414.2 8227.34 12742.7 23206.5 19735.9 3470.54 10268.8 4887.09 3046.37 14848.8 12742.5 2106.36 10463.3
internal_count=333315 292815 154464 138351 138704 70456 125465 55165 40500 102656 83655 19001 35217 18753 15291 64902 56521 8381 44385
shrinkage=0.01


Tree=25
num_leaves=20
num_cat=0
split_feature=34 27 18 21 21 35 18 34 14 35 8 48 21 19 35 46 31 46 36
split_gain=2025.07 1532.75 1179.32 1143.44 943.841 773.425 568.239 510.384 469.056 465.696 399.885 375.752 363.063 339.372 332.559 321.935 315.672 526.269 318.013
threshold=0.94304818330000006 1.0000000180025095e-35 0.8500000000000002 7.5000000000000009 4.5000000000000009 0.36034699480000004 0.15000000000000005 0.59537646900000007 7.5000000000000009 0.39006409205000009 1.0000000180025095e-35 2.5000000000000004 5.5000000000000009 0.55000000000000016 0.36159368805000008 11.500000000000002 103.50000000000001 9.5000000000000018 2.3427788601500006
decision_type=2 10 2 10 8 8 2 2 2 8 2 2 10 2 10 2 2 2 2
left_child=1 14 3 4 -3 -5 -6 12 11 -8 13 15 -4 -2 -1 -7 18 -18 -11
right_child=10 2 7 5 6 8 9 -9 -10 16 -12 -13 -14 -15 -16 -17 17 -19 -20
leaf_value=0.036186133507093175 0.03147470284339203 0.030742101596491482 0.037172321238810681 0.031848149373117904 0.020109911787458086 0.031574056499183482 0.02390754937941008 0.030708792358661238 0.024887375338657348 0.018748897335239163 0.028362389196222942 0.023000236968505377 0.023334958798890741 0.034141234439329093 0.030944705099514556 0.023269778930060651 0.039643829451730651 0.01858408632420859 0.027990564839839666
leaf_weight=2791.4416732490063 10730.903749004006 2678.8577846139669 216.18479354679585 5816.5029116719961 2663.1077658236027 3674.2732598632574 8795.2533990219235 16094.991877511144 4524.431689247489 427.53237934410572 2437.3267874345183 789.32955433428288 1542.8722454756498 8596.4508211389184 2137.3969102501869 534.7823925986886 482.84905627369881 157.32032531499863 2884.4889977872372
leaf_count=7882 35554 12579 955 24761 17471 15422 49864 67912 23902 2835 9047 3976 9192 24010 8337 2683 1892 958 14083
internal_value=0 2.85868 2.80748 2.69666 2.52635 2.8975 2.43111 3.01498 2.72201 2.51888 3.21794 2.93316 2.50355 3.26607 3.39132 3.0519 2.80401 3.44684 2.67976
internal_weight=0 56211.6 51282.8 33428.7 18089.4 15339.3 15410.6 17854 9522.82 12747.4 21764.7 4998.39 1759.06 19327.4 4928.84 4209.06 3952.19 640.169 3312.02
internal_count=333315 264704 248485 170426 99682 70744 87103 78059 45983 69632 68611 22081 10147 59564 16219 18105 19768 2850 16918
shrinkage=0.01


Tree=26
num_leaves=20
num_cat=0
split_feature=23 14 21 20 35 2 4 8 36 21 4 2 35 20 40 36 35 21 15
split_gain=1930.49 1398.43 1094.6 892.529 806.82 599.156 596.089 700.866 559.567 521.952 509.46 485.959 476.426 481.005 425.197 373.247 363.459 355.189 352.458
threshold=inf 7.5000000000000009 7.5000000000000009 0.78082485870000007 0.39918666825000004 1.0000000180025095e-35 1.0000000180025095e-35 1.0000000180025095e-35 2.7370892179000008 6.5000000000000009 1.0000000180025095e-35 7.5000000000000009 0.37848381160000005 2.0510667729500005 3.5000000000000004 2.3427788601500006 0.41297699250000003 5.5000000000000009 1.0000000180025095e-35
decision_type=8 2 8 10 8 2 8 2 2 10 8 2 8 8 2 2 8 8 2
left_child=2 4 9 8 5 -2 7 11 -3 -1 17 -4 13 14 -11 -6 -10 -7 -5
right_child=1 3 6 18 15 10 -8 -9 16 12 -12 -13 -14 -15 -16 -17 -18 -19 -20
leaf_value=0.031652055860944127 0.035247479499460867 0.019135966220977681 0.031227654998485659 0.030707147020781124 0.023566510989092404 0.030896987935988808 0.035750272265249808 0.026035096191526552 0.023574696114128421 0.02528069670197056 0.031673239605779904 0.036171886629207124 0.031354160206752642 0.019261779195100404 0.033245588872216236 0.031348863434907837 0.028107100866779745 0.02577647910329357 0.026614759190326135
leaf_weight=3015.4227700829506 950.29565172642469 2191.5053013712168 9905.5372416749597 2842.3977286815643 651.10333101451397 1527.90324857831 3807.1240165829659 2150.1319062486291 6757.0765149965882 3700.8981491476297 2081.0131533294916 2487.0624398812652 1691.4864380061626 1068.2124711945653 818.46613951772451 11521.294402644038 2396.8930079266429 11947.885714650154 8106.9495480358601
leaf_count=11679 3205 15110 34530 10318 3445 6724 8108 9341 38538 16896 6923 7174 6105 6479 3127 39957 10404 59353 35899
internal_value=0 2.7519 3.07635 2.56404 2.89794 2.75391 3.22277 3.13055 2.36748 2.81536 2.70682 3.22199 2.67043 2.52967 2.67232 3.09326 2.47615 2.6357 2.76771
internal_weight=0 50974.3 28644.3 22294.8 28679.5 16507.1 18349.9 14542.7 11345.5 10294.5 15556.8 12392.6 7279.06 5587.58 4519.36 12172.4 9153.97 13475.8 10949.3
internal_count=333315 229876 103439 110269 119607 76205 59153 51045 64052 44286 73000 41704 32607 26502 20023 43402 48942 66077 46217
shrinkage=0.01


Tree=27
num_leaves=20
num_cat=0
split_feature=34 4 27 18 21 21 19 4 34 14 18 15 36 14 34 23 31 18 34
split_gain=1841.44 1479.97 1132.21 945.415 965.763 622.698 494.011 447.417 434.884 413.562 396.636 389.356 366.393 337.89 392.526 312.033 301.197 294.887 359.46
threshold=0.94304818330000006 1.5000000000000002 1.0000000180025095e-35 0.8500000000000002 7.5000000000000009 4.5000000000000009 0.55000000000000016 1.0000000180025095e-35 0.59537646900000007 6.5000000000000009 0.15000000000000005 1.0000000180025095e-35 2.5476205269500007 9.5000000000000018 0.70072055585000015 inf 103.50000000000001 0.15000000000000005 0.96869251360000008
decision_type=2 8 8 2 10 8 2 8 2 2 2 2 2 2 2 8 2 2 2
left_child=1 2 -1 4 5 -4 -3 9 -5 -2 -7 -6 -13 14 16 -11 -12 18 -17
right_child=7 6 3 8 11 10 -8 -9 -10 15 13 12 -14 -15 -16 17 -18 -19 -20
leaf_value=0.031652132266990776 0.031236276223371606 0.028992003633588805 0.027947846745335691 0.022773976289909417 0.028961623145241543 0.018562524631531473 0.034007530286021312 0.033655444757730843 0.028306800596350726 0.03017087552198662 0.020395612272790502 0.020158991360459618 0.026221551458994311 0.020538009646217069 0.026026921343699664 -0.011619920595992681 0.030775043315910793 0.027402377565054998 0.02163487887445318
leaf_weight=3572.1325378641486 9039.1927709430456 5848.3262910917401 2268.6355799809098 1574.7867262661457 4886.0208356827497 2360.6520156636834 2956.6496084183455 3302.5029181614518 14512.088269516826 4812.8540113940835 2764.9384348168969 1139.8173722848296 7948.1570318341255 3623.239251986146 4768.4555065333843 35.05293295532465 311.02800952643156 5053.8262030631304 447.07203908264637
leaf_count=12459 26333 20254 11020 9205 19615 15559 6803 6905 61663 14688 16751 7029 38021 22008 22785 294 1532 18445 1946
internal_value=0 2.68973 2.62282 2.58085 2.47617 2.3092 3.06762 3.02531 2.77652 2.96735 2.22953 2.66851 2.54612 2.30637 2.42303 2.83086 2.14451 2.66895 1.92171
internal_weight=0 58534.9 49730 46157.8 30070.9 16096.9 8804.98 22690.5 16086.9 19388 13828.3 13974 9087.97 11467.7 7844.42 10348.8 3075.97 5535.95 482.125
internal_count=333315 264704 237647 225188 154320 89655 27057 68611 70868 61706 78635 64665 45050 63076 41068 35373 18283 20685 2240
shrinkage=0.01


Tree=28
num_leaves=20
num_cat=0
split_feature=16 34 2 5 20 2 8 19 14 27 4 18 2 34 4 30 33 14 2
split_gain=1802.56 1499.92 1212.42 1056.47 701.974 698.453 822.378 481.137 439.861 438.609 438.592 395.256 388.61 404.847 354.321 445.148 394 448.515 351.826
threshold=1.0000000180025095e-35 0.94304818330000006 1.5000000000000002 1.0000000180025095e-35 0.40039024425000008 4.5000000000000009 1.0000000180025095e-35 0.25000000000000006 11.500000000000002 1.0000000180025095e-35 1.0000000180025095e-35 0.8500000000000002 1.0000000180025095e-35 1.2174565343500003 1.5000000000000002 1.0000000180025095e-35 0.31614868930000006 2.5000000000000004 7.5000000000000009
decision_type=2 2 2 2 10 2 2 2 2 8 8 2 2 2 10 2 10 2 2
left_child=1 2 7 5 -5 11 -7 -1 -8 -6 -2 -4 -3 18 15 -11 -17 -18 -14
right_child=10 12 3 4 9 6 8 -9 -10 14 -12 -13 13 -15 -16 16 17 -19 -20
leaf_value=0.025594937828254484 0.029466294597020565 0.038008274169498424 0.022836350275148604 0.018041934520703837 0.02984978097987542 0.029372983035280267 0.025889293675344476 0.03041359232176517 0.018855288422515021 0.0026566711414685927 0.033997696001497588 0.02682231395224029 0.026761770703026141 0.030781019825486446 0.027783798062811206 0.015506292991949767 0.029119058530249122 0.022481059312310845 0.031144421868895822
leaf_weight=3149.8795474618673 11093.735408470035 448.41361350566149 7487.3564250841737 2649.3616391569376 1059.4738275334239 8826.4949868097901 4169.1011693626642 6056.1004232764244 1129.9708936661482 111.59456877410412 2645.2911413311958 3725.6960115432739 10048.020988948643 5721.5693519040942 1452.9455052986741 705.23754550516605 1148.8878946006298 8927.5701296404004 2240.0487083047628
leaf_count=15437 35199 722 36565 18477 3885 32974 18160 21902 6233 852 5262 15467 35681 14873 5618 5013 5186 49162 6647
internal_value=0 2.63726 2.54825 2.47525 2.27455 2.60242 2.75034 2.87649 2.43894 2.36751 3.03388 2.41607 2.88127 2.85838 2.31452 2.25265 2.27322 2.32379 2.75607
internal_weight=0 69057.7 50599.7 41393.7 16055.1 25338.6 14125.6 9205.98 5299.07 13405.7 13739 11213.1 18458.1 18009.6 12346.2 10893.3 10781.7 10076.5 12288.1
internal_count=333315 292854 234931 197592 88193 109399 57367 37339 24393 69716 40461 52032 57923 57201 65831 60213 59361 54348 42328
shrinkage=0.01


Tree=29
num_leaves=20
num_cat=0
split_feature=23 14 21 20 34 2 4 8 34 32 21 18 18 21 2 40 33 4 34
split_gain=1710.18 1224.43 943.54 791.743 659.789 545.084 521.055 621.637 516.907 507.97 474.674 652.824 533.126 464.158 425.436 395.311 542.052 383.901 417.507
threshold=inf 7.5000000000000009 7.5000000000000009 0.78082485870000007 1.0619012649000001 1.0000000180025095e-35 1.0000000180025095e-35 1.0000000180025095e-35 0.82896679690000019 1.0000000180025095e-35 5.5000000000000009 0.55000000000000016 1.0000000180025095e-35 4.5000000000000009 7.5000000000000009 3.5000000000000004 0.42071231970000006 1.5000000000000002 0.60380166130000001
decision_type=8 2 8 10 2 2 8 2 2 10 8 2 2 10 2 2 10 10 2
left_child=2 4 13 8 5 -2 7 14 -3 -7 -11 12 -12 -1 -4 16 -15 18 -13
right_child=1 3 6 -5 -6 9 -8 -9 -10 10 11 17 -14 15 -16 -17 -18 -19 -20
leaf_value=0.03274306321542475 0.032413994775144152 0.020163016398152767 0.0285806900957007 0.025354772481855248 0.030107365072591753 0.030949079104872112 0.032680372736645279 0.023821462361787945 0.024516443200455724 0.029290285996969471 0.029573351376215039 0.019916361737940147 0.020663634316467897 0.022812624962860354 0.033065939695769514 0.029549285051545339 0.028723863610935069 0.030342116754447705 0.025846819605372662
leaf_weight=887.29946852475405 1231.8769733011723 7782.7891827076674 10508.741531975567 11587.707138344646 4403.8604332879186 1655.7412742748857 4046.3359801769257 2274.4510853588581 4198.8549206629395 2543.6306772083044 775.77716193348169 1319.9444303810596 5000.4672973826528 6211.6610337495804 2647.5443789213896 1726.4473821520805 2067.6073679551482 1668.922531709075 11795.095823451877
leaf_count=2731 3808 46580 34530 46217 11855 5564 8108 9341 17472 9570 3095 7454 25908 28407 7174 6492 6656 4605 47748
internal_value=0 2.52016 2.81682 2.34911 2.65281 2.59216 2.94863 2.86488 2.16886 2.55986 2.52151 2.4711 2.18603 2.58112 2.94833 2.51965 2.42889 2.58248 2.525
internal_weight=0 53964.7 30370.1 23569.4 30395.3 25991.5 19477.1 15430.7 11981.6 24759.6 23103.8 20560.2 5776.24 10893 13156.3 10005.7 8279.27 14784 13115
internal_count=333315 229876 103439 110269 119607 107752 59153 51045 64052 103944 98380 88810 29003 44286 41704 41555 35063 59807 55202
shrinkage=0.01


Tree=30
num_leaves=20
num_cat=0
split_feature=4 5 2 8 20 32 18 20 14 20 14 34 26 21 14 43 20 1 26
split_gain=1839.37 1409.68 918.078 1167.84 777.99 629.234 662.317 554.527 501.678 499.89 430.94 423.418 466.353 428.759 423.038 501.654 397.648 402.108 384.003
threshold=1.0000000180025095e-35 1.0000000180025095e-35 5.5000000000000009 1.0000000180025095e-35 0.55311610010000012 1.0000000180025095e-35 0.55000000000000016 0.80292431905000006 5.5000000000000009 0.92076732740000011 8.5000000000000018 0.73286909295000002 6.5000000000000009 4.5000000000000009 8.5000000000000018 1.5000000000000002 0.50836739225000016 1.5000000000000002 16.500000000000004
decision_type=8 2 2 2 10 8 2 10 2 10 2 2 2 10 2 2 8 10 2
left_child=1 2 5 -4 16 -1 7 8 -7 -2 -5 12 -6 -14 15 -15 -3 -18 -16
right_child=9 4 3 10 11 6 -8 -9 -10 -11 -12 -13 13 14 18 -17 17 -19 -20
leaf_value=0.030847047468627282 0.027236868560128993 0.02399835869928621 0.02927106956287237 0.026380711335348868 0.024432329597467672 0.023991050579703424 0.025373421644722897 0.026087016048782774 0.018251810213499847 0.031125560181492613 0.020824119674777201 0.025299852419404578 0.031574484320444421 0.0080099977142030123 0.013141307303811238 0.022965802000236245 0.016758255988958155 0.024166838127421167 0.058915942104023782
leaf_weight=1578.5836231932044 8431.964188605547 1618.2445840239525 12342.121109060943 2965.847029209137 4176.5848590880632 2520.5723523870111 19947.95093819499 2492.1922709569335 3848.5465442091227 5437.4881619438529 2636.4182986691594 9363.8021369278431 273.9519232660532 254.03442856669426 1196.0583803355694 1914.6105520874262 3678.3803421780467 914.80963518470526 18.611914701759815
leaf_count=5185 26508 8445 37790 11313 20512 10459 74043 9038 19909 11106 12603 37090 1179 1630 7986 9637 23624 5234 24
internal_value=0 2.47832 2.57588 2.75523 2.2769 2.46997 2.43629 2.20879 2.05231 2.87614 2.37658 2.38647 2.21492 1.95418 1.85675 2.12139 1.97356 1.82338 1.38427
internal_weight=0 71741.3 48332.2 17944.4 23409.1 30387.8 28809.3 8861.31 6369.12 13869.5 5602.27 17197.7 7833.85 3657.27 3383.32 2168.64 6211.43 4593.19 1214.67
internal_count=333315 295701 180340 61706 115361 118634 113449 39406 30368 37614 23916 78058 40968 20456 19277 11267 37303 28858 8010
shrinkage=0.01


Tree=31
num_leaves=20
num_cat=0
split_feature=4 34 15 21 18 2 2 5 2 27 34 34 38 26 21 18 0 35 2
split_gain=1747.4 1345.24 758.425 659.892 554.296 538.422 422.423 395.805 391.396 385.377 376.355 402.048 375.879 405.92 367.009 351.446 336.54 322.888 278.392
threshold=1.0000000180025095e-35 0.74604328190000013 1.0000000180025095e-35 8.5000000000000018 0.65000000000000002 4.5000000000000009 5.5000000000000009 1.0000000180025095e-35 1.5000000000000002 1.0000000180025095e-35 1.0538884120500003 0.75572880915000018 0.15000000000000005 3.5000000000000004 5.5000000000000009 0.8500000000000002 1.0000000180025095e-35 0.41659332255000009 1.0000000180025095e-35
decision_type=8 2 2 10 2 2 2 2 2 8 2 2 2 2 8 2 2 8 2
left_child=1 3 5 14 6 -3 8 -2 -4 -5 11 -10 -13 -14 -1 17 -7 -16 -11
right_child=7 2 4 9 -6 16 -8 -9 10 18 -12 12 13 -15 15 -17 -18 -19 -20
leaf_value=0.023995746160289079 0.029128613161083478 0.025081008460819836 0.025497632965236782 0.030921282526871027 0.025315670461935749 0.025264349866207927 0.024908830411278129 0.025552230214956975 0.028456419454134681 0.032531630346073093 0.024072493076019021 0.023128464906872277 0.01137303983791064 0.018801203553053206 0.018474870991628849 0.022661078288375616 0.029688694916125202 0.025880856469987803 0.023376694491966141
leaf_weight=3244.9573517143726 9538.21586330235 9415.3053299188614 1515.3647868260741 789.3494711369276 16258.788378924131 2337.8741480708122 4382.225602991879 4580.6258783042431 354.08993791788816 343.39038442820311 1508.8610702827573 866.75241246074438 1275.9485221207142 1737.3391846120358 7663.7913333103061 3970.4753188714385 6497.2641950398684 637.67098370194435 10156.129163794219
leaf_count=15040 21664 31872 6404 2382 57519 7717 16763 15950 1608 1138 5099 3991 7533 8641 44127 19200 16812 3074 46781
internal_value=0 2.41249 2.51598 2.23432 2.4123 2.67449 2.24572 2.79683 2.0977 2.41827 1.97842 1.8256 1.73251 1.56558 2.10049 2.02141 2.8518 1.90438 2.36761
internal_weight=0 72955.6 46149.8 26805.8 27899.4 18250.4 11640.6 14118.8 7258.36 11288.9 5742.99 4234.13 3880.04 3013.29 15516.9 12271.9 8835.14 8301.46 10499.5
internal_count=333315 295701 163959 131742 107558 56401 50039 37614 33276 50301 26872 21773 20165 16174 81441 66401 24529 47201 47919
shrinkage=0.01


Tree=32
num_leaves=20
num_cat=0
split_feature=4 24 20 34 16 35 14 20 34 21 14 34 35 19 0 32 20 48 14
split_gain=1663.81 1298.46 1086.39 620.348 575.7 572.683 498.41 470.905 432.041 356.705 358.383 348.757 332.545 329.352 322.776 371.065 359.178 319.417 318.376
threshold=1.0000000180025095e-35 1.5000000000000002 0.58710086795000016 0.60380166130000001 1.0000000180025095e-35 0.29470313070000004 8.5000000000000018 0.92076732740000011 0.70997177215000007 7.5000000000000009 2.5000000000000004 0.99251017435000011 0.39281036620000004 0.45000000000000007 1.0000000180025095e-35 2.5000000000000004 0.77520156050000011 1.5000000000000002 8.5000000000000018
decision_type=8 2 10 2 2 10 2 10 2 10 2 2 10 2 2 8 10 2 2
left_child=1 2 3 5 8 -1 13 -2 18 10 -7 -8 -13 -5 16 -16 -3 -11 -4
right_child=7 14 4 6 -6 9 11 -9 -10 17 -12 12 -14 -15 15 -17 -18 -19 -20
leaf_value=0.027130072611776693 0.025763115523666121 0.020240321950782573 0.022919677606843075 0.022209276475185207 0.026253039127532542 0.022949682737978396 0.017874437930259845 0.029472072810053259 0.023941390166367635 0.011630750755404954 0.0066601630187834862 0.030943820639229094 0.016408576909421626 0.029230358467447717 0.029152360894955209 0.024793997476259183 0.027338786867723369 0.030042749663106431 0.019550269273996695
leaf_weight=319.60379374027252 8731.3956936821342 1461.7917584776878 7460.4389299973845 9069.8070995360613 7543.9538439661264 160.23329507559538 4479.4011555537581 5630.7340786606073 26638.126804955304 193.38929200172424 859.72994998842478 426.54330767691135 249.45151823759079 721.24712940305471 5447.4482718557119 3045.6124635785818 1391.2429620325565 183.74809545278549 4493.4069356322289
leaf_count=1630 26508 5746 33457 41903 22274 893 25832 11106 98570 1317 6683 1138 1097 2476 15127 8687 3800 950 24121
internal_value=0 2.34985 2.2936 2.07475 2.37265 1.50542 2.14014 2.72172 2.32326 1.22917 0.92192 1.88848 2.55801 2.27265 2.66119 2.75895 2.37018 2.06014 2.16531
internal_weight=0 74145.2 62799.1 16663.2 46135.9 1716.7 14946.5 14362.1 38592 1397.1 1019.96 5155.4 675.995 9791.05 11346.1 8493.06 2853.03 377.137 11953.8
internal_count=333315 295701 262341 83919 178422 11473 72446 37614 156148 9843 7576 28067 2235 44379 33360 23814 9546 2267 57578
shrinkage=0.01


Tree=33
num_leaves=20
num_cat=0
split_feature=5 4 27 20 8 2 18 21 14 14 19 21 15 50 34 1 26 26 35
split_gain=1646.06 1197.68 844.442 882.187 834.945 1213.17 596.483 469.132 465.063 445.112 372.679 370.124 349.918 330.208 321.086 313.076 303.087 306.462 326.369
threshold=1.0000000180025095e-35 1.0000000180025095e-35 1.0000000180025095e-35 0.55311610010000012 1.0000000180025095e-35 5.5000000000000009 0.65000000000000002 8.5000000000000018 7.5000000000000009 10.500000000000002 0.15000000000000005 3.5000000000000004 1.0000000180025095e-35 12.500000000000002 0.53254612175000016 1.5000000000000002 16.500000000000004 10.500000000000002 0.42690748010000007
decision_type=2 8 10 10 2 2 2 10 2 2 2 10 2 2 2 8 2 2 8
left_child=1 4 -2 14 5 6 7 -1 -5 10 -6 -10 -7 15 -4 -14 17 -13 -19
right_child=2 -3 3 8 9 12 -8 -9 11 -11 -12 16 13 -15 -16 -17 -18 18 -20
leaf_value=0.019516577837246366 0.02680650995385625 0.027616522762011458 0.0089562991062142813 0.023548679229818289 0.01673179096490909 0.028939880197275988 0.024690577047686162 0.023641236587153773 0.032002762369145975 0.018284403715939982 0.023250191862071123 0.02136746090762455 0.027034168041741347 0.014094338495432693 0.018469340500770294 0.021748002124516001 0.047694807167562248 0.016167952131018092 0.025285701617401259
leaf_weight=5613.6090239882469 2758.734358638525 9861.594242952764 374.69168997555971 10306.032656900585 966.21359027922153 5573.3730898052454 13246.258943296969 5419.8871613144875 269.33847070485353 3007.1502637043595 9510.9130987673998 5697.9680536463857 5781.3901850581169 240.37417621165514 6682.877744436264 1389.6989271715283 39.637692146003246 2710.7083425745368 459.07107321172953
leaf_count=24728 8217 21664 2815 40453 4800 13706 42791 19597 892 14213 36421 25101 17769 1064 37454 5251 62 14512 1805
internal_value=0 2.44277 2.15408 2.09935 2.3808 2.45796 2.32601 2.15427 2.20908 2.16757 2.26491 2.04535 2.70468 2.56233 1.79643 2.60098 2.01042 1.99809 1.74885
internal_weight=0 60610.5 29299.1 26540.3 50748.9 37264.6 24279.8 11033.5 19482.8 13484.3 10477.1 9176.72 12984.8 7411.46 7057.57 7171.09 8907.39 8867.75 3169.78
internal_count=333315 202004 131311 123094 180340 124906 87116 44325 82825 55434 41221 42372 37790 24084 40269 23020 41480 41418 16317
shrinkage=0.01


Tree=34
num_leaves=20
num_cat=0
split_feature=5 4 16 27 20 24 14 20 21 26 26 35 2 42 45 18 35 42 35
split_gain=1568.15 1146.73 817.862 799.003 836.065 562.258 438.063 391.494 345.422 280.237 289.209 307.773 269.212 642.401 342.794 297.825 284.023 259.222 282.267
threshold=1.0000000180025095e-35 1.0000000180025095e-35 1.0000000180025095e-35 1.0000000180025095e-35 0.55311610010000012 1.5000000000000002 7.5000000000000009 0.67430515815000003 3.5000000000000004 16.500000000000004 10.500000000000002 0.42690748010000007 2.5000000000000004 5.5000000000000009 2.5000000000000004 0.15000000000000005 0.38639349505000004 8.5000000000000018 0.36159368805000008
decision_type=2 8 2 10 10 2 2 10 10 2 2 8 2 2 2 2 10 2 10
left_child=1 2 5 -2 12 7 -6 -1 -8 10 -10 -12 13 -5 15 16 -15 18 -9
right_child=3 -3 -4 4 6 -7 8 17 9 -11 11 -13 -14 14 -16 -17 -18 -19 -20
leaf_value=0.020558477156414207 0.026093212135146447 0.026906961277093244 0.025992184166976743 -0.0057926257918297034 0.022948281399873181 0.024992532780174784 0.03100255425885632 0.025016821049522471 0.020847410312439672 0.045743942542773863 0.015825352080651407 0.024608129240352924 0.016199297178974378 0.020098355161570689 0.016611771421638135 0.027115153805472924 -0.0061844004351974948 0.021118436046472941 0.022385036311219436
leaf_weight=11348.98626178503 2805.5666865333915 10019.626046851277 8766.3055878654122 90.487611904740334 10469.077845163643 8205.092091716826 275.21732367575169 6975.5150921717286 5781.279525667429 40.908248357474804 2741.5406660214067 466.95379544794559 4804.9046442732215 257.9493757262826 903.09604059904814 1044.146387822926 48.912624157965183 6434.8609663397074 9801.7908036410809
leaf_count=50362 8217 21664 23072 724 40453 23652 892 23448 25101 62 14512 1805 27581 1526 5204 4833 401 24145 35661
internal_value=0 2.38115 2.32096 2.10147 2.04855 2.26393 2.1545 2.20806 1.99664 1.963 1.95112 1.71036 1.75548 2.03327 2.13815 2.45698 1.5909 2.28248 2.34793
internal_weight=0 61552.2 51532.6 29730 26924.5 42766.2 19775 34561.2 9305.9 9030.68 8989.77 3208.49 7149.5 2344.59 2254.1 1351.01 306.862 23212.2 16777.3
internal_count=333315 202004 180340 131311 123094 157268 82825 133616 42372 41480 41418 16317 40269 12688 11964 6760 1927 83254 59109
shrinkage=0.01


Tree=35
num_leaves=20
num_cat=0
split_feature=16 34 34 2 2 14 18 3 0 50 27 35 33 27 2 5 20 41 38
split_gain=1541.54 1302.55 753.802 797.383 736.385 580.934 529.84 481.656 630.006 473.704 471.765 513.24 439.397 425.175 485.567 396.547 367.338 340.784 338.859
threshold=1.0000000180025095e-35 0.61426735230000007 0.94304818330000006 1.5000000000000002 4.5000000000000009 10.500000000000002 0.35000000000000003 1.0000000180025095e-35 1.5000000000000002 11.500000000000002 1.0000000180025095e-35 0.35078482710000009 0.36048577665000009 1.0000000180025095e-35 4.5000000000000009 1.0000000180025095e-35 0.5306245502000001 2.5000000000000004 0.8500000000000002
decision_type=2 2 2 2 2 2 2 10 2 2 8 10 10 10 2 2 8 2 2
left_child=1 10 3 -3 6 7 -5 8 -6 15 -1 12 17 -2 -15 -7 -13 -12 -17
right_child=13 2 -4 4 5 9 -8 -9 -10 -11 11 16 -14 14 -16 18 -18 -19 -20
leaf_value=0.027071122501747022 0.029386392895710874 0.024438602011128113 0.023980621975031115 0.0161259471334529 0.019517953934109496 0.022393355510201638 0.020452920459480432 0.025497677870364725 0.024730756656360459 0.0093297124195984033 0.020830705261523429 0.005149228051472156 0.027638081353654666 0.022627440202402524 0.026474100677594384 0.015266133282976118 0.016094243887510053 0.011893703595884412 0.027655351557816933
leaf_weight=543.83687592297792 2273.02886480093 8727.3475521206856 20528.835527896881 3487.474821947515 5019.9257968217134 3746.5369465351105 15009.507646895945 6340.1137055307627 4308.2597243264318 408.02643445134163 1644.1607335954905 331.42575122416019 691.90531037002802 6078.4990199431777 7131.7372346296906 1721.0610076710582 4100.8434468358755 576.20276495069265 253.25079358369112
leaf_count=1792 4103 30331 57629 18475 21478 14487 62334 20083 14973 2233 7939 2413 2714 18934 17471 9284 22373 3223 1046
internal_value=0 2.19351 2.23719 2.16982 2.11046 2.23499 1.96371 2.3371 2.19255 1.97397 1.80841 1.74186 2.06798 2.53915 2.47041 2.04821 1.52758 1.85115 1.68553
internal_weight=0 77438.7 69550.3 49021.5 40294.2 21797.2 18497 15668.3 9328.19 6128.88 7888.37 7344.54 2912.27 15483.3 13210.2 5720.85 4432.27 2220.36 1974.31
internal_count=333315 292807 252353 194724 164393 83584 80809 56534 36451 27050 40454 38662 13876 40508 36405 24817 24786 11162 10330
shrinkage=0.01


Tree=36
num_leaves=20
num_cat=0
split_feature=27 34 16 34 35 20 20 33 41 34 20 31 48 14 50 34 7 14 39
split_gain=1497.37 1392.23 656.897 685.45 484.046 439.319 415.266 407.491 391.064 373.179 358.762 337.652 414.606 337.537 370.043 326.174 323.612 273.758 267.299
threshold=1.0000000180025095e-35 0.8008324697000001 1.0000000180025095e-35 0.61426735230000007 0.35078482710000009 0.65311748010000004 0.54457544715000006 0.36048577665000009 2.5000000000000004 0.52774273685000017 0.67938387320000004 11.500000000000002 2.5000000000000004 10.500000000000002 12.500000000000002 1.0840942443000003 1.0000000180025095e-35 11.500000000000002 0.15000000000000005
decision_type=10 2 2 2 10 10 10 10 2 2 10 2 2 2 2 2 2 2 2
left_child=-1 2 3 4 7 15 16 8 18 -10 -6 12 -8 -7 -15 -3 -5 -12 -2
right_child=1 5 -4 6 10 13 11 -9 9 -11 17 -13 -14 14 -16 -17 -18 -19 -20
leaf_value=0.025705706511424915 0.027953333551197539 0.020398490942352378 0.02333660971740428 0.017366421124543296 0.011854516354663121 0.024034374228723249 0.018783507114826271 0.027084191087788291 -0.0049819991996211607 0.015187142683914131 0.018783558335496275 0.021489256790413098 0.0042250867767890891 0.021812258686785786 0.0074551567928771659 0.024007784708249855 0.022904792529053936 0.0085570539526742106 0.018301097245130012
leaf_weight=9630.2141724303365 377.33308210223913 9953.6689404398203 5918.4057560041547 5911.7685960382223 2030.9320582747459 23494.222355477512 1417.3835893273354 667.91637653112411 118.24836423248053 409.16651926934719 2151.0094564557076 19899.765075549483 226.93737659603357 5736.6560591906309 185.32181047648191 3345.3483240157366 1284.200730226934 298.03431572765112 1197.2209547758102
leaf_count=23524 1567 38407 19265 31514 12985 64006 6126 2621 913 2167 9970 78448 1307 17679 844 8704 5384 1829 6055
internal_value=0 2.15442 2.02493 1.97416 1.69938 2.28147 2.04347 2.02799 1.81178 1.06651 1.49621 2.11294 1.67743 2.34966 2.1363 2.13064 1.83548 1.75391 2.06142
internal_weight=0 84623.5 41908.3 35989.9 7249.86 42715.2 28740.1 2769.89 2101.97 527.415 4479.98 21544.1 1644.32 29416.2 5921.98 13299 7195.97 2449.04 1574.55
internal_count=333315 309791 180151 160886 38107 129640 122779 13323 10702 3080 24784 85881 7433 82529 18523 47111 36898 11799 7622
shrinkage=0.01


Tree=37
num_leaves=20
num_cat=0
split_feature=16 34 27 34 35 27 32 3 34 18 35 25 37 0 1 18 21 21 39
split_gain=1437.35 1181.46 684.178 649.814 457.631 390.966 371.822 363.503 350.067 439.956 353.242 335.104 323.367 373.382 278.635 261.368 355.931 386.344 289.185
threshold=1.0000000180025095e-35 0.8008324697000001 1.0000000180025095e-35 0.61426735230000007 0.35078482710000009 1.0000000180025095e-35 1.0000000180025095e-35 1.0000000180025095e-35 1.0840942443000003 0.55000000000000016 0.47449971025000004 inf 0.45000000000000007 2.5000000000000004 1.5000000000000002 0.35000000000000003 10.500000000000002 6.5000000000000009 0.25000000000000006
decision_type=2 2 10 2 10 10 10 10 2 2 10 8 2 2 8 2 10 10 2
left_child=1 2 -1 4 6 -2 -4 12 9 10 -3 -7 -5 15 -11 16 17 -14 -18
right_child=5 8 3 7 -6 11 -8 -9 -10 14 -12 -13 13 -15 -16 -17 18 -19 -20
leaf_value=0.023941635014195418 0.02796570539403723 0.019965978893210026 0.040357148023311876 0.0174186847813445 0.014657676232631003 0.024571897324823455 0.01915203399015946 0.021154741599950497 0.023612271503452631 0.021566903192791514 0.0064241037377337183 0.021146829340428362 0.020741151094880127 0.023989789525094403 0.024145213796402602 0.020130211521093098 0.0054873115664745651 0.007692442890512902 0.030077815059352631
leaf_weight=3454.3072301894426 2343.0327159017324 8505.6471597328782 85.279078803956509 7500.8035696670413 4527.0214481726289 9505.9859501793981 2723.746853761375 13527.919883437455 11307.492716372013 13638.956500016153 197.0891388207674 4083.6868272870779 348.07507006824017 2048.9710865989327 6051.0482059270144 4770.3471661657095 60.65876068174839 651.79100485146046 226.01177343726158
leaf_count=10101 4103 32573 189 34637 24784 23411 13134 53310 28004 43177 976 12994 1743 7542 17090 20100 367 4212 868
internal_value=0 2.09027 1.96881 1.92852 1.66251 2.41931 1.97958 1.9955 2.21243 2.15317 1.96593 2.35427 1.89151 2.02997 2.23593 1.90514 1.50514 1.2235 2.48745
internal_weight=0 79625.2 39924.9 36470.6 7336.05 15932.7 2809.03 29134.6 39700.2 28392.7 8702.74 13589.7 15606.7 8105.85 19690 6056.88 1286.54 999.866 286.671
internal_count=333315 292807 170987 160886 38107 40508 13323 122779 121820 93816 33549 36405 69469 34832 60267 27290 7190 5955 1235
shrinkage=0.01


Tree=38
num_leaves=20
num_cat=0
split_feature=16 34 27 34 35 4 20 4 33 27 41 31 34 20 34 25 19 1 0
split_gain=1376.67 1137.06 651.804 617.125 433.348 393.327 393.389 376.471 372.055 371.978 365.365 361.9 355.777 340.815 328.23 318.423 467.342 295.781 332.757
threshold=1.0000000180025095e-35 0.8008324697000001 1.0000000180025095e-35 0.61426735230000007 0.35078482710000009 5.5000000000000009 0.54457544715000006 3.5000000000000004 0.36048577665000009 1.0000000180025095e-35 2.5000000000000004 10.500000000000002 0.52774273685000017 0.5306245502000001 1.0840942443000003 inf 0.25000000000000006 1.5000000000000002 4.5000000000000009
decision_type=2 2 10 2 10 8 10 8 10 10 2 2 2 8 2 8 2 8 2
left_child=1 2 -1 4 8 6 -5 14 10 -2 -4 -8 -12 -6 17 -11 -17 -3 -19
right_child=9 7 3 5 13 -7 11 -9 -10 15 12 -13 -14 -15 -16 16 -18 18 -20
leaf_value=0.023359331233368034 0.027272004226501757 0.020007187799734174 0.019660341030136207 0.01715470986216576 0.0047178511776513957 0.024283862596829617 0.014492220364928992 0.024430341839945302 0.025720918546218399 0.023985333185228917 -0.0050727176729624028 0.020219845805353881 0.014491201526615941 0.015134992246651107 0.022772510738734108 0.01539427178970002 0.022810782234375035 0.023311554859510024 0.017097671147209909
leaf_weight=3504.7539630904794 2378.4231275767088 18527.598206266761 1618.6475031301379 6948.1691307276487 339.22657636553049 1620.8721315562725 1168.305489115417 4240.7084900140762 690.40430127084255 9640.3829324170947 119.45359717309475 19784.573984719813 419.00458033382893 4234.4403895959258 10456.336166873574 1194.7548566684127 2941.3954770192504 6000.7626084238291 1006.3070104718208
leaf_count=10101 4103 64470 7622 35407 2413 4438 5359 8747 2621 23411 913 77575 2167 22371 26304 4746 8248 18712 3587
internal_value=0 2.04219 1.92379 1.88469 1.62691 1.94949 1.92167 2.16122 1.93316 2.362 1.72866 1.99005 1.01511 1.43624 2.12802 2.29895 2.06685 2.06691 2.24192
internal_weight=0 80679.6 40447.9 36943.1 7421.18 29521.9 27901 40231.7 2847.51 16155 2157.11 20952.9 538.458 4573.67 35991 13776.5 4136.15 25534.7 7007.07
internal_count=333315 292807 170987 160886 38107 122779 118341 121820 13323 40508 10702 82934 3080 24784 113073 36405 12994 86769 22299
shrinkage=0.01


Tree=39
num_leaves=20
num_cat=0
split_feature=16 34 34 2 4 31 19 26 34 18 2 2 26 2 50 2 14 18 14
split_gain=1320.71 1095.59 527.902 432.368 407.599 394.982 411.599 517.555 387.866 454.362 338.89 392.131 334.477 316.31 345.4 298.44 281.952 348.262 272.616
threshold=1.0000000180025095e-35 0.8008324697000001 0.61426735230000007 1.0000000180025095e-35 5.5000000000000009 10.500000000000002 0.25000000000000006 1.0000000180025095e-35 1.0840942443000003 0.55000000000000016 4.5000000000000009 1.0000000180025095e-35 6.5000000000000009 9.5000000000000018 10.500000000000002 1.5000000000000002 1.5000000000000002 0.35000000000000003 8.5000000000000018
decision_type=2 2 2 2 8 2 2 2 2 2 2 2 2 2 2 2 2 2 2
left_child=1 2 12 -3 5 -4 7 -7 9 -5 11 -2 -1 16 -15 -8 -9 -18 -13
right_child=10 3 4 8 -6 6 15 13 -10 -11 -12 18 -14 14 -16 -17 17 -19 -20
leaf_value=0.018317437108304576 0.030334824067463028 0.027128572008918508 0.014349235851105346 0.01840807990008066 0.023460321153581043 0.014157428327019805 0.023093074082930185 0.024849198411201458 0.022497232161555379 0.021161129237357561 0.024431480673529248 0.022132708567129945 0.014263578421898465 0.031265120266521673 -0.011798844430103069 0.019691725235839678 0.015101953578733408 0.019711978256779256 0.017730266176850744
leaf_weight=4668.4946265667677 476.65653827786446 1164.1166884228587 1673.4921907484531 8659.5708373785019 2274.797566190362 2840.5794153138995 3138.9897198751569 682.82825300842524 11446.765317216516 19480.906342066824 8653.9760104939342 5330.1245797872543 3608.4654320925474 310.96241240948439 19.811540260910988 14475.715800411999 2496.3272197768092 4769.829279191792 1910.8352205380797
leaf_count=21819 627 2088 7826 33030 5820 14086 10467 2370 27755 58947 19345 14087 18635 1114 156 55368 12791 20535 6449
internal_value=0 1.9961 1.8806 2.11219 1.93773 1.90719 1.93469 1.78406 2.09452 2.03139 2.30728 2.15493 1.65501 1.91042 2.86858 2.02979 1.87055 1.81282 2.09709
internal_weight=0 81711.7 40960.3 40751.4 32683.3 30408.5 28735 11120.3 39587.2 28140.5 16371.6 7717.62 8276.96 8279.76 330.774 17614.7 7948.98 7266.16 7240.96
internal_count=333315 292807 170987 121820 130533 124713 116887 51052 119732 91977 40508 21163 40454 36966 1270 65835 35696 33326 20536
shrinkage=0.01


Tree=40
num_leaves=20
num_cat=0
split_feature=4 34 21 23 8 20 2 20 24 34 18 32 2 31 0 34 39 33 36
split_gain=1448.49 1104.61 748.932 447.75 566.793 431.439 430.213 422.934 430.055 389.966 410.487 410.188 337.034 336.569 318.49 315.001 304.223 295.231 280.725
threshold=1.0000000180025095e-35 0.79268348490000007 7.5000000000000009 inf 1.0000000180025095e-35 0.89110182880000011 1.0000000180025095e-35 0.67661839070000007 1.0000000180025095e-35 1.3781500331500001 0.35000000000000003 1.0000000180025095e-35 5.5000000000000009 97.500000000000014 2.5000000000000004 0.78880860050000012 1.0000000180025095e-35 0.31591134035000007 3.6736043311500004
decision_type=8 2 10 8 2 10 2 10 2 2 2 10 2 2 2 2 2 10 2
left_child=1 2 7 4 18 14 -4 8 15 10 12 -12 -5 -6 -2 16 -1 -9 -3
right_child=5 3 6 9 13 -7 -8 17 -10 -11 11 -13 -14 -15 -16 -17 -18 -19 -20
leaf_value=0.009657550078968272 0.019988945873326204 0.02296318305253385 0.028459455207891553 0.014346937476304585 0.018479678629616695 0.024539650407700991 0.019303477086919828 0.0066724327821407704 0.022660292441233514 0.024085441444155389 0.026063065275037826 0.019514662357049743 0.02003267064127448 0.0076906645377514491 0.024031175673697228 -0.0034444822297733106 0.01565000952935677 0.01858892110648927 0.019797957927455083
leaf_weight=929.75066886097193 6502.2845287024975 12119.066074952483 528.6581711396575 2773.1238562464714 1421.3028027117252 6634.9470984712243 17533.835151344538 212.55975659936666 777.85504208505154 1776.9622139632702 1007.3672109767795 18965.933492675424 1670.6348039731383 362.98578177392483 2783.6378482952714 92.225845471024513 9540.8552032709122 9493.9636431410909 3644.7090670391917
leaf_count=5293 19336 30241 1416 11994 4503 11925 67849 1238 2823 3591 2509 60094 5729 1529 6320 598 48459 37370 10498
internal_value=0 1.92988 1.80777 2.03906 2.16267 2.25922 1.95715 1.67957 1.54843 1.95625 1.92334 1.98449 1.64845 1.62848 2.12007 1.49558 1.51179 1.8328 2.22314
internal_weight=0 82851.8 39109.7 43742.1 17548.1 15920.9 18062.5 21047.2 11340.7 26194 24417.1 19973.3 4443.76 1784.29 9285.92 10562.8 10470.6 9706.52 15763.8
internal_count=333315 295734 165046 130688 46771 37581 69265 95781 57173 83917 80326 62603 17723 6032 25656 54350 53752 38608 40739
shrinkage=0.01


Tree=41
num_leaves=20
num_cat=0
split_feature=4 34 14 19 23 8 20 36 27 20 34 18 32 20 31 31 0 34 0
split_gain=1396.19 1068.29 737.156 531.144 428.225 538.148 415.535 381.579 373.829 422.445 373.631 391.517 386.874 364.625 321.716 310.221 302.799 293.797 396.09
threshold=1.0000000180025095e-35 0.79268348490000007 8.5000000000000018 0.55000000000000016 inf 1.0000000180025095e-35 0.89110182880000011 2.7370892179000008 1.0000000180025095e-35 0.44335355620000005 1.3781500331500001 0.35000000000000003 1.0000000180025095e-35 0.75684374700000012 97.500000000000014 38.500000000000007 2.5000000000000004 0.6107761624500001 1.5000000000000002
decision_type=8 2 2 2 8 2 10 2 8 10 2 2 10 10 2 2 2 2 2
left_child=1 2 13 7 5 -3 16 -4 -9 -10 11 -6 -13 -1 -7 -11 -2 18 -5
right_child=6 4 3 17 10 14 -8 8 9 15 -12 12 -14 -15 -16 -17 -18 -19 -20
leaf_value=0.017623718583831924 0.019561306157790472 0.021733840657439333 0.011784442121103213 0.021738928956440192 0.01615086620991037 0.018096919737777818 0.023993578584318855 0.024831137373696192 0.010711805647891925 0.012672858975488444 0.023541391658979508 0.025407487647474684 0.019095919663079351 0.020040381172299272 0.0075792173217405449 0.01817093529771081 0.023477795274547266 0.020163197856034421 0.0059379176749111339
leaf_weight=13797.00887670368 6577.6051291450858 15962.364061579108 3155.1656493842602 280.35595734417439 4489.956103220582 1436.7714529633522 6717.6694473326206 445.08033359050751 1512.0578131526709 1397.7954068034887 1799.7315942794085 1022.946353636682 19186.878770172596 11403.517022177577 364.63165603578091 3860.7449516355991 2820.5676625147462 3355.2112655639648 365.42761548608541
leaf_count=59348 19336 40739 17789 1117 17723 4503 11925 1291 9012 6983 3591 2509 60094 38617 1529 16998 6320 11907 1984
internal_value=0 1.88804 1.76866 1.58793 1.99478 2.11491 2.20943 1.46852 1.59536 1.537 1.91425 1.8822 1.94154 1.87173 1.5968 1.67095 2.07367 1.89744 1.27977
internal_weight=0 83835.6 39572.4 14371.8 44263.3 17763.8 16115.8 10370.8 7215.68 6770.6 26499.5 24699.8 20209.8 25200.5 1801.4 5258.54 9398.17 4000.99 645.784
internal_count=333315 295734 165046 67081 130688 46771 37581 52073 34284 32993 83917 80326 62603 97965 6032 23981 25656 15008 3101
shrinkage=0.01


Tree=42
num_leaves=20
num_cat=0
split_feature=4 34 14 19 2 2 20 31 20 36 27 20 20 34 22 31 14 0 34
split_gain=1347.38 1033.8 701.817 506.714 414.642 411.178 458.555 408.204 400.843 364.211 354.988 403.034 349.037 339.368 294.833 294.576 289.175 288.348 279.209
threshold=1.0000000180025095e-35 0.79268348490000007 8.5000000000000018 0.55000000000000016 6.5000000000000009 1.5000000000000002 0.59503145385000011 88.500000000000014 0.89110182880000011 2.7370892179000008 1.0000000180025095e-35 0.44335355620000005 0.75684374700000012 1.3781500331500001 1.0000000180025095e-35 38.500000000000007 6.5000000000000009 2.5000000000000004 0.6107761624500001
decision_type=8 2 2 2 2 2 10 2 10 2 8 10 10 2 10 2 2 2 2
left_child=1 2 12 9 5 -3 7 14 17 -4 -11 -12 -1 -8 -7 -13 -16 -2 -5
right_child=8 4 3 18 -6 6 13 -9 -10 10 11 15 -14 -15 16 -17 -18 -19 -20
