tree
version=v3
num_class=1
num_tree_per_iteration=1
label_index=0
max_feature_idx=28
objective=binary sigmoid:1
feature_names=ps_car_13 ps_reg_03 ps_ind_03 ps_ind_05_cat ps_reg_01 ps_ind_15 ps_ind_17_bin ps_car_14 ps_car_01_cat ps_ind_06_bin ps_car_15 ps_ind_01 ps_car_07_cat ps_reg_02 ps_car_03_cat ps_car_11_cat ps_car_06_cat ps_ind_07_bin ps_car_12 ps_car_09_cat ps_ind_02_cat ps_ind_16_bin ps_ind_09_bin ps_car_04_cat ps_car_08_cat ps_car_02_cat ps_car_05_cat ps_ind_04_cat ps_ind_18_bin
feature_infos=[0.3133398:3.3947425321] [0.061237239999999998:3.4907910000000002] [0:11] [1:3] [0:0.90000000000000002] [0:13] [1:2] [0.1095445:0.63639610000000002] [1:6] [1:2] [0:14] [0:7] [1:2] [0:1.8] [1:3] [1:104] [1:8] [1:2] [0.10000000000000001:1.2649110641000001] [1:3] [1:3] [1:2] [1:2] [1:3] [1:2] [1:2] [1:3] [1:2] [1:2]
tree_sizes=2200 2215 2221 2223 2233 2228 2231 2234 2234 2227 2224 2230 2229 2233 2226 2228 2237 2229 2222 2230 2241 2237 2226 2239 2245 2238 2227 2231 2229 2230 2238 2238 2229 2230 2231 2231 2242 2240 2233 2237 2238 2235 2227 2236 2235 2236 2227 2232 2236 2228 2225 2224 2228 2236 2239 2236 2232 2246 2240 2237 2223 2229 2231 2236 2229 2239 2240 2238 2252 2234 2243 2238 2237 2225 2245 2232 2249 2241 2250 2253 2253 2257 2253 2258 2249 2249 2250 2261 2257 2265 2254 2248 2255 2268 2261 2246 2266 2258 2259 2263 2259 2269 2258 2265 2262 2262 2253 2263 2265 2258 2274 2256 2268 2271 2273 2266 2260 2263 2277 2264 2273 2270 2268 2270 2255 2266 2249 2275 2255 2262 2279 2268 2271 2273 2275 2275 2272 2292 2259 2281 2272 2269 2278 2261 2261 2265 2258 2264 2289 2271 2268 2266 2276 2281 2267 2269 2270 2272 2265 2270 2269 2266 2261 2271 2271 2266 2272 2264 2266 2277 2268 2269 2266 2259 2269 2267 2268 2268 2280 2277 2266 2265 2270 2268 2276 2260 2266 2267 2258 2264 2264 2265 2245 2273 2272 2266 2271 2266 2273 2268 2272 2267 2267 2277 2263 2273 2270 2272 2261 2270 2271 2264 2283 2276 2281 2281 2273 2278 2263 2273 2265 2278 2279 2287 2265 2270 2272 2279 2265 2285 2276 2284 2282 2274 2275 2273 2274 2284 2276 2283 2266 2288 2280 2285 2273 2276 2275 2271 2269 2286 2270 2263 2272 2272 2277 2258 2290 2288 2284 2304 2268 2296 2263 2279 2278 2278 2285 2262 2289 2279 2280 2286 2286 2268 2297 2290 2273 2281 2270 2282 2283 2285 2264 2273 2269 2281 2289 2265 2268 2266 2293 2298 2268 2282 2276 2283 2293 2276 2275 2285 2295 2276 2276 2257 2270 2277 2285 2277 2286 2288 2286 2277 2284 2297 2293 2271 2291 2275 2283 2279 2286 2270 2265 2293 2283 2290 2285 2278 2282 2270 2272 2278 2283 2281 2295 2290 2284 2293 2280 2302 2278 2269 2269 2255 2269 2286 2263 2285 2275 2281 2286 2287 2274 2288 2269 2296 2275 2277 2268 2287 2266 2296 2268 2296 2248 2259 2263 2259 2260 2298 2285 2260 2293 2268 2272 2265 2277 2277 2260 2246 2273 2283 2254 2258 2288 2281 2282 2285 2300 2243 2290 2285 2286 2284 2261 2256 2246 2246 2298 2263 2273 2284 2273 2249 2252 2272 2292 2282 2245 2246 2275 2248 2291 2297 2269 2270 2294 2285 2273 2258 2266 2285 2261 2296 2301 2278 2274 2269 2301 2264 2272 2266 2254 2262 2251 2313 2273 2281 2303 2264 2258 2247 2290 2268 2266 2280 2257 2261 2284 2261 2244 2241 2253 2261 2252 2272 2270 2272 2242 2278 2242 2285 2275 2285 2289 2276 2273 2254 2268 2280 2256 2262 2275 2248 2252 2256 2287 2292 2290 2305 2282 2266 2258 2232 2271 2245 2265 2277 2269 2291 2277 2281 2274 2239 2280 2254 2266 2282 2271 2244 2280 2283 2244 2277 2289 2273 2289 2244 2254 2266 2242 2270 2274 2262 2260 2254 2255 2280 2268 2252 2251 2292 2245 2253 2248 2298 2275 2287 2248 2242 2288 2282 2271 2243 2265 2286 2273 2275 2268 2282 2250 2259 2264 2265 2267 2230 2254 2244 2249 2234 2265 2254 2265 2272 2244 2260 2278 2253 2269 2258 2234 2255 2294 2284 2295 2254 2244 2230 2255 2275 2294 2272 2284 2268 2251 2285 2267 2285 2210 2250 2283 2232 2283 2266 2248 2230 2259 2247 2227 2263 2236 2242 2258 2257 2246 2286 2254 2268 2240 2246 2264 2282 2268 2272 2265 2247 2266 2262 2219 2255 2253 2278 2247 2277 2262 2280 2280 2218 2269 2291 2314 2300 2283 2297 2279 2269 2306 2291 2273 2301 2289 2293 2268 2271 2265 2276 2275 2258 2268 2277 2268 2249 2247 2250 2250 2283 2301 2244 2276 2291 2244 2280 2243 2287 2268 2204 2237 2214 2234 2224 2255 2247 2247 2228 2234 2233 2249 2216 2252 2251 2273 2258 2275 2245 2282 2257 2240 2286 2230 2282 2272 2258 2259 2249 2265 2255 2222 2226 2257 2261 2217 2217 2216 2203 2230 2233 2256 2245 2246 2232 2267 2239 2273 2267 2262 2265 2280 2239 2274 2261 2221 2221 2222 2191

Tree=0
num_leaves=20
num_cat=0
split_feature=0 3 3 6 6 13 15 5 0 0 0 13 13 7 5 2 13 15 12
split_gain=55504.6 22436.8 15367.9 12807.7 11141 10455 9623.48 5965.2 4171.57 3814 3735.37 3529.32 2474.65 2375.23 2349.72 2194 2117.32 2223.22 2086.82
threshold=0.83028920290000008 2.5000000000000004 1.5000000000000002 1.5000000000000002 1.5000000000000002 0.35000000000000003 78.500000000000014 7.5000000000000009 0.64643011030000019 1.3763995000000002 0.6958020302000002 0.35000000000000003 0.25000000000000006 0.33912950000000003 11.500000000000002 7.5000000000000009 0.45000000000000007 80.500000000000014 1.5000000000000002
decision_type=2 2 2 2 2 2 2 2 2 2 2 2 2 2 2 2 2 2 2
left_child=1 3 4 5 6 7 12 10 -7 15 -1 -3 -2 -5 -10 -8 17 -4 -9
right_child=2 11 16 13 -6 8 9 18 14 -11 -12 -13 -14 -15 -16 -17 -18 -19 -20
leaf_value=-3.1703739605357319 -3.1543329866098122 -3.1282796125770216 -3.1182309731125026 -3.1138147011689363 -3.0990062386889106 -3.1641405710869961 -3.1274865654657855 -3.1394754406770171 -3.1386343695894454 -3.0967222845859612 -3.1484045282569775 -3.0964027267582241 -3.1360107278309193 -3.1392239767364045 -3.1652668152540393 -3.1049575480224116 -3.0746285613063313 -3.0818292551160695 -3.1808529608294345
leaf_weight=1483.5666516274214 1156.9955266267061 747.38766728341579 337.37472294270992 623.45322950184345 1400.9240842163563 1157.3688215911388 2501.9281013011932 127.63966637849808 2714.8101562857628 639.94019438326359 1617.9328736066818 648.87240424752235 2031.3993615061045 897.49739401042461 377.32155795395374 522.5497899055481 632.52220369875431 333.7638453245163 2704.1084827780724
leaf_count=26447 18840 10297 4322 7722 15356 19938 34279 1896 40107 6874 25423 6950 29498 13310 6541 6027 5450 3107 50931
internal_value=0 11.7794 14.9487 11.3273 14.4447 10.9231 13.9194 10.0655 12.1204 15.0248 11.0236 15.5684 12.649 14.0341 12.7265 14.5555 18.1394 16.9021 9.01616
internal_weight=0 13100 9557.4 11703.7 8253.74 10182.7 6852.81 5933.25 4249.5 3664.42 3101.5 1396.26 3188.39 1520.95 3092.13 3024.48 1303.66 671.139 2831.75
internal_count=333315 209562 123753 192315 110874 171283 95518 104697 66586 47180 51870 17247 48338 21032 46648 40306 12879 7429 52827
shrinkage=1


Tree=1
num_leaves=20
num_cat=0
split_feature=0 1 15 6 6 1 4 12 0 2 2 5 4 6 13 6 2 2 0
split_gain=37099.6 13411 11443.8 5776.56 5706.85 4897.08 4798.04 3979.62 3880.17 3795.85 4948.99 3655.62 3299.16 2583.53 2287.27 2005.03 1969.7 2887.08 1834.77
threshold=0.78631440000000008 0.75291100865000005 73.500000000000014 1.5000000000000002 1.5000000000000002 0.80326283769295859 0.55000000000000016 1.5000000000000002 0.60378455000000009 4.5000000000000009 1.0000000180025095e-35 8.5000000000000018 0.45000000000000007 1.5000000000000002 0.75000000000000011 1.5000000000000002 1.5000000000000002 4.5000000000000009 1.3763995000000002
decision_type=2 2 2 2 2 2 2 2 2 2 2 2 2 2 2 2 2 2 2
left_child=1 7 5 11 9 6 -2 -1 15 10 -4 -3 -10 16 -13 -9 -7 -18 -11
right_child=2 3 4 -5 -6 13 -8 8 12 18 -12 14 -14 -15 -16 -17 17 -19 -20
leaf_value=0.12386462284806292 0.091996494772060108 0.11581137811572713 0.17566513428909689 0.13653874460487939 0.15296979996220933 0.14154457126354908 0.11824264137100476 0.069516984057871364 0.083871555052820901 0.13486583918496836 0.11934303010897367 0.091477932444937196 0.10100646128753006 0.14693846205379105 0.11428009513655209 0.10800059574039809 0.10227111335385017 0.12722022813801784 0.15536982060268403
leaf_weight=379.7662558555603 1247.3718977943063 3206.9332645460963 165.26269345730543 903.25779968500137 1407.5795701704919 389.19074553623796 1577.220163449645 1052.3767768144608 1806.5837431438267 2592.5570419058204 2787.2548739686608 1393.088234577328 2972.5728424973786 462.6818146109581 642.94005073234439 155.37299127131701 793.06897447630763 1117.2031094357371 524.75517424568534
leaf_count=4702 19254 42086 1044 9629 11930 3998 20087 19071 29945 27639 34375 21950 44024 4242 8546 2089 11322 13100 4282
internal_value=0 10.2645 12.6738 11.3182 13.4828 11.591 10.6652 9.24734 9.04822 13.0621 12.2496 10.9158 9.45292 12.5378 9.86784 7.44678 12.104 11.6862 13.8317
internal_weight=0 12512.9 13064.1 6146.22 7477.41 5586.74 2824.59 6366.67 5986.91 6069.83 2952.52 5242.96 4779.16 2762.14 2036.03 1207.75 2299.46 1910.27 3117.31
internal_count=333315 182042 151273 82211 79270 72003 39341 99831 95129 67340 35419 72582 73969 32662 30496 21160 28420 24422 31921
shrinkage=0.01


Tree=2
num_leaves=20
num_cat=0
split_feature=0 3 1 3 0 5 5 1 6 7 0 6 4 21 13 1 4 1 0
split_gain=26461.4 13597.9 9573.1 7819.07 5923.67 3762.97 3510.82 2704.41 2549.57 2398.68 2362.78 2357.76 2304.16 2294.25 1944.82 1923.21 1860.5 1701.62 1592.27
threshold=0.83028920290000008 2.5000000000000004 0.75723177739791658 1.5000000000000002 0.97582345000000015 8.5000000000000018 7.5000000000000009 0.77419311420000014 1.5000000000000002 0.33060550255000004 0.6958020302000002 1.5000000000000002 0.65000000000000002 1.5000000000000002 0.55000000000000016 0.86410009394804366 0.8500000000000002 0.78342199040000005 1.2317010000000002
decision_type=2 2 2 2 2 2 2 2 2 2 2 2 2 2 2 2 2 2 2
left_child=1 2 6 4 11 8 10 -3 -4 -8 -1 12 17 -6 -7 -5 -11 -2 -15
right_child=3 7 5 15 13 14 9 -9 -10 16 -12 -13 -14 18 -16 -17 -18 -19 -20
leaf_value=0.081065969760449927 0.08244236419429217 0.10706653105281641 0.10143024112516201 0.12095065062874241 0.12520589477804378 0.081074469520339268 0.089478956294309936 0.13177687308034711 0.12235048519975873 0.064931902222482629 0.096591777343086729 0.11806362717848277 0.10578718854293648 0.10715294816106631 0.098114481738137443 0.14218200725574995 0.084607241672672931 0.10189865375963032 0.12236264280524442
leaf_weight=1901.3828658536077 1018.479731939733 843.11975981667638 3666.8998390138149 747.89135973900557 2254.7049077190459 1323.8750850595534 862.77114583924413 933.07396107167006 692.5799743719399 1823.7017148658633 2023.2052529752254 821.89602690190077 2520.8398529291153 2156.3333933874965 1355.6610066816211 993.29339888691902 652.57630159705877 804.64819849655032 1011.0075832903385
leaf_count=28181 14186 9611 44136 6665 19275 19311 12091 7636 6351 30226 25776 7358 28188 23582 16835 6214 9408 9349 8936
internal_value=0 9.39516 9.07109 11.3425 11.0195 9.90216 8.26571 12.0047 10.4754 7.51199 8.90698 10.2532 9.95935 11.7496 8.96955 13.3062 7.0117 9.10295 11.2008
internal_weight=0 16078.8 14302.7 12329.1 10587.9 7039.02 7263.64 1776.19 4359.48 3339.05 3924.59 5165.86 4343.97 5422.05 2679.54 1741.18 2476.28 1823.13 3167.34
internal_count=333315 209562 192315 123753 110874 86633 105682 17247 50487 51725 53957 59081 51723 51793 36146 12879 39634 23535 32518
shrinkage=0.01


Tree=3
num_leaves=20
num_cat=0
split_feature=15 3 3 1 21 1 4 0 6 5 1 0 4 0 11 15 0 2 15
split_gain=20553.1 10594.4 5915.96 5460.34 4529.17 3830.74 3695.59 3833.91 2993.21 2700.44 2506.76 2321.64 2102.63 1595.19 1533.67 1395.25 1366.43 1343.89 1746.77
threshold=63.500000000000007 2.5000000000000004 1.5000000000000002 0.74286751519638361 1.5000000000000002 0.82877921135000021 0.45000000000000007 0.67858321740000016 1.5000000000000002 10.500000000000002 0.77419311420000014 0.67058165000000003 0.25000000000000006 1.1103659635500003 1.5000000000000002 11.500000000000002 0.68495795000000015 1.5000000000000002 37.500000000000007
decision_type=2 2 2 2 2 2 2 2 2 2 2 2 2 2 2 2 2 2 2
left_child=1 3 4 6 14 11 -1 -8 9 15 -3 -6 -13 -7 16 -5 -2 -11 -19
right_child=2 10 -4 8 5 13 7 -9 -10 17 -12 12 -14 -15 -16 -17 -18 18 -20
leaf_value=0.067157811119439415 0.075065709181612886 0.094579696774330202 0.11854350940082337 0.098477660824959193 0.057017190488938586 0.095580037282337313 0.069802982004466788 0.08821017481427626 0.1024878156444613 0.11195747528707566 0.11668170544731249 0.069363643209817791 0.092596249751027482 0.10894151970187961 0.11251295803843324 0.08639006486450837 0.10330481591426045 0.0811755201239516 0.058914012352861665
leaf_weight=2674.2935088649392 187.37157712131739 930.30674952641129 1848.4919529892504 1217.791591245681 272.56611392647028 2591.1029439978302 1744.8645557649434 3219.0859691239893 1264.9694953672588 88.004849344491959 1144.4112701155245 490.2629832290113 1896.3660981915891 1363.8182387128472 2355.8501809574664 4423.9840058274567 2003.9568951800466 828.52425094693899 613.44618109613657
leaf_count=38930 2455 9693 12216 12350 4270 26397 24932 37555 11142 844 8058 6454 20065 11086 18308 51359 17776 10232 9193
internal_value=0 8.55045 10.1973 8.27597 9.92291 9.39472 7.66344 8.17399 8.83053 8.58037 10.6771 8.46661 8.78238 10.0188 10.6912 8.89992 10.089 7.40203 7.1705
internal_weight=0 18149.7 13009.8 16075 11161.3 6614.12 7638.24 4963.95 8436.72 7171.75 2074.72 2659.2 2386.63 3954.92 4547.18 5641.78 2191.33 1529.98 1441.97
internal_count=333315 214288 119027 196537 106811 68272 101417 62487 95120 83978 17751 30789 26519 37483 38539 63709 20231 20269 19425
shrinkage=0.01


Tree=4
num_leaves=20
num_cat=0
split_feature=9 14 13 15 22 6 15 5 1 2 6 12 5 10 15 5 1 2 14
split_gain=15720.2 8309.61 4881.77 4493.34 3959.56 3532.34 2248.07 2235.85 2172.02 2171.36 2143.18 1971.81 1498.27 1441.96 1290.26 2001.13 1272.95 1248.58 1173.11
threshold=1.5000000000000002 1.5000000000000002 0.25000000000000006 63.500000000000007 1.5000000000000002 1.5000000000000002 81.500000000000014 5.5000000000000009 0.74085586414782512 1.5000000000000002 1.5000000000000002 1.5000000000000002 10.500000000000002 7.5000000000000009 30.500000000000004 6.5000000000000009 0.97790555000000012 5.5000000000000009 1.5000000000000002
decision_type=2 2 2 2 2 2 2 2 2 2 2 2 2 2 2 2 2 2 2
left_child=1 3 6 8 10 9 14 -5 -1 -4 16 -11 -10 -13 -2 -16 -3 -9 -17
right_child=2 4 5 7 -6 -7 -8 17 12 11 -12 13 -14 -15 15 18 -18 -19 -20
leaf_value=0.072323463989690306 0.073983991715420194 0.09231346715494923 0.089745358267324757 0.098894859455627607 0.082917914017270208 0.096980599456149619 0.090821693961372144 0.081462838713533089 0.086128184710526551 0.096749543753928413 0.10947055900039601 0.062232250727287212 0.072654917331993835 0.07566931580863627 0.071456989140325194 0.050469391695141454 0.10267860208396641 0.09302830161893276 0.067017317714686234
leaf_weight=2797.6382360607386 1265.5405639745295 2684.9459842704237 1108.3004953861237 2203.6375403143466 1599.5096652917564 1074.9361624568701 375.77087211608887 2249.8591207675636 3965.520537879318 355.1269944421947 1884.3517729192972 1076.193729903549 1042.3022203631699 3096.5185175463557 1362.1891726329923 1352.8633450306952 2120.6903543807566 1595.3432924412191 626.92349746823311
leaf_count=33827 14898 24475 10438 16926 15662 8283 3179 21557 38133 3103 11206 13879 11927 33569 16278 19640 15329 13141 7865
internal_value=0 8.91329 7.48006 8.43945 9.70524 8.03681 6.73027 9.08638 7.93811 7.71998 10.0432 7.41289 8.33239 7.22037 6.53846 6.21282 9.68875 8.62613 5.57095
internal_weight=0 22143.8 11694.4 13854.3 8289.5 6711.08 4983.29 6048.84 7805.46 5636.14 6689.99 4527.84 5007.82 4172.71 4607.52 3341.98 4805.64 3845.2 1979.79
internal_count=333315 202183 131132 135511 66672 69272 61860 51624 83887 60989 51010 50551 50060 47448 58681 43783 39804 34698 27505
shrinkage=0.01


Tree=5
num_leaves=20
num_cat=0
split_feature=9 3 0 4 21 0 1 3 0 12 2 23 2 1 22 2 5 0 6
split_gain=15839.8 8415.91 6287.78 5557.87 3080.53 2614.01 2285 2136.83 2092.76 1732.91 1620.57 1593.69 1373.02 1233.07 1332.07 1407.16 1229.84 1389.86 1100.8
threshold=1.5000000000000002 1.5000000000000002 0.97582345000000015 0.55000000000000016 1.5000000000000002 0.86250525000000011 0.75723177739791658 2.5000000000000004 0.70695340000000007 1.5000000000000002 4.5000000000000009 1.5000000000000002 1.0000000180025095e-35 0.7304067500000001 1.5000000000000002 5.5000000000000009 9.5000000000000018 0.68622818120000006 1.5000000000000002
decision_type=2 2 2 2 2 2 2 2 2 2 2 2 2 2 2 2 2 2 2
left_child=1 2 4 5 13 11 -6 8 9 -5 -4 -2 -11 -1 15 -15 -8 -18 -3
right_child=3 18 10 7 6 -7 16 -9 -10 12 -12 -13 -14 14 -16 -17 17 -19 -20
leaf_value=0.075172561896244314 0.052997471828017464 0.093463707455699263 0.082743035869045495 0.090557110622614817 0.065482749661475936 0.074551385667146933 0.079298088833456765 0.088029821831136626 0.075456530696842689 0.096922143670830935 0.093010368159326562 0.084579338929807887 0.060850249215625464 0.083570421058906455 0.075844267911206964 0.09890882683942484 0.053415025057352662 0.074036016162284501 0.10720824626432712
leaf_weight=1804.7819271199405 3104.8326299786568 2803.8764410428703 2957.3310068659484 236.42197185754776 3116.6834364049137 823.8525245860219 3916.752001658082 836.20755061507225 4494.3572560213506 110.00892032682896 3201.4546587876976 168.45078460499644 2586.651948120445 1643.1073308475316 1060.7025876194239 940.44551505893469 418.91034407913685 1487.3300674445927 735.57347364351153
leaf_count=17928 40191 17790 22819 1944 35673 7730 35279 6016 41904 883 20399 1538 30958 13226 9641 6125 5325 14676 3270
internal_value=0 8.20781 7.96248 6.81531 7.60057 5.863 7.23932 7.28746 7.11684 6.45977 8.80802 5.46227 6.23218 8.19322 8.52799 8.91538 7.6092 6.95044 9.63201
internal_weight=0 24086.9 20547.5 12360.8 14388.7 4097.14 8939.68 8263.65 7427.44 2933.08 6158.79 3273.28 2696.66 5449.04 3644.26 2583.55 5822.99 1906.24 3539.45
internal_count=333315 202151 181091 131164 137873 49459 90953 81705 75689 33785 43218 41729 31841 46920 28992 19351 55280 20001 21060
shrinkage=0.01


Tree=6
num_leaves=20
num_cat=0
split_feature=9 3 0 4 0 21 1 1 6 0 2 2 8 0 16 12 1 22 2
split_gain=12733.1 6616.34 5019.24 4623.48 2604.65 2470.13 1900.3 1858.57 1597.78 1286.86 1262.22 1159.27 1099.55 1035.9 1161.97 983.894 941.067 993.534 1148.03
threshold=1.5000000000000002 1.5000000000000002 0.97582345000000015 0.45000000000000007 0.86250525000000011 1.5000000000000002 0.60622825000000014 0.75723177739791658 1.5000000000000002 0.76682910000000015 4.5000000000000009 1.5000000000000002 1.5000000000000002 0.94251070705000017 2.5000000000000004 1.5000000000000002 0.7304067500000001 1.5000000000000002 6.5000000000000009
decision_type=2 2 2 2 2 2 2 2 2 2 2 2 2 2 2 2 2 2 2
left_child=1 2 5 4 12 15 9 -7 11 -5 -4 -8 -2 14 -13 -1 -17 18 -18
right_child=3 -3 10 6 -6 7 8 -9 -10 -11 -12 13 -14 -15 -16 16 17 -19 -20
leaf_value=0.089222033384106073 0.043370150719481741 0.087725808683224868 0.076218184343440604 0.053450231592949767 0.070354854001036277 0.061166727865685229 0.076579710582303895 0.070447962879510731 0.080541074745745955 0.068572810462405723 0.084942443162398282 0.069139538518402932 0.055865424963380386 0.075956614942446946 0.058440152149184035 0.068316538333351801 0.076412146919564092 0.068998485634735984 0.091397934112539256
leaf_weight=478.73799274861813 1455.920106485486 3845.67283494398 3177.2141856253147 1435.8529594056308 752.4724500104785 3302.2504706382751 1174.7678573727608 6224.4491609781981 1146.2270014919341 925.33431225642562 3469.0282591991127 1917.2490877360106 1364.0427505113184 794.62604336813092 2156.9666467271745 1780.6480333767831 1840.3265939764678 1045.5818118453026 707.81835977360606
leaf_count=3062 19051 21060 22819 16927 6519 35673 9578 55280 7837 8282 20399 18260 15985 6046 22679 16871 13828 9033 4126
internal_value=0 7.56232 7.35101 6.35302 5.3825 7.03721 6.71603 6.72308 6.97165 5.93767 8.07718 6.76635 4.94142 6.55121 6.34751 7.54849 7.42612 7.72068 8.05749
internal_weight=0 25871.7 22026.1 13123.5 3572.44 15379.8 9551.02 9526.7 7189.84 2361.19 6646.24 6043.61 2819.96 4868.84 4074.22 5853.11 5374.37 3593.73 2548.14
internal_count=333315 202151 181091 131164 41555 137873 89609 90953 64400 25209 43218 56563 35036 46985 40939 46920 43858 26987 17954
shrinkage=0.01


Tree=7
num_leaves=20
num_cat=0
split_feature=9 3 0 13 0 12 1 12 2 22 6 2 2 2 3 0 2 6 7
split_gain=10434.5 5330.74 4096.21 3041.73 2270.96 2068.02 1887.39 1694.28 1411.86 1362.68 1295.95 1008.3 959.331 933.528 916.931 954.322 870.691 797.359 793.486
threshold=1.5000000000000002 1.5000000000000002 0.97582345000000015 0.45000000000000007 0.81651090000000015 1.5000000000000002 0.75723177739791658 1.5000000000000002 1.5000000000000002 1.5000000000000002 1.5000000000000002 4.5000000000000009 1.0000000180025095e-35 6.5000000000000009 2.5000000000000004 0.6003959000000002 1.5000000000000002 1.5000000000000002 0.32480761770000005
decision_type=2 2 2 2 2 2 2 2 2 2 2 2 2 2 2 2 2 2 2
left_child=1 2 5 4 7 -1 10 -2 -9 13 -7 -4 -5 16 15 -10 -8 -14 -6
right_child=3 -3 11 12 18 6 9 8 14 -11 -12 -13 17 -15 -16 -17 -18 -19 -20
leaf_value=0.078965157887193563 0.072241437980338954 0.080582781680654636 0.070663484311382016 0.086104646704146026 0.076840980911659904 0.057947976223019081 0.076134106991378944 0.061755112153003708 0.040194856291563198 0.062150233572152401 0.071780405277329221 0.078197928928557897 0.063599068531945163 0.076470887147921343 0.063208730326478973 0.051010636278099659 0.06549597406187288 0.076080618532245764 0.061895498648496992
leaf_weight=1069.4506408944726 453.15269887074828 4143.0930407345295 3391.552630148828 246.85102159529924 414.15923996269703 4749.5296080894768 971.15306440740824 1266.5021084286273 1034.2978458479047 3422.7359282560647 789.97243780270219 3729.148135535419 2998.948362082243 1642.2678442709148 479.99365242943168 3861.538241058588 3702.7927991189063 617.14562254026532 2496.9753337465227
leaf_count=7148 3653 21060 22819 1286 2884 47820 6708 12339 13307 29498 5951 20399 25625 11037 4178 43024 29711 3683 21185
internal_value=0 7.01253 6.82791 5.9494 5.65844 6.55219 6.45809 5.35329 5.22566 6.72316 5.99206 7.46093 6.70313 6.99852 5.00188 4.87257 6.77064 6.57292 6.40218
internal_weight=0 27611.7 23468.6 13869.6 10006.6 16347.9 15278.5 7095.48 6642.33 9738.95 5539.5 7120.7 3862.95 6316.21 5375.83 4895.84 4673.95 3616.09 2911.13
internal_count=333315 202151 181091 131164 100570 137873 130725 76501 72848 76954 53771 43218 30594 47456 60509 56331 36419 29308 24069
shrinkage=0.01


Tree=8
num_leaves=20
num_cat=0
split_feature=9 3 4 0 21 5 0 1 14 1 0 19 5 0 2 23 2 7 13
split_gain=8693.2 4385.62 3588.84 3407.28 1850.33 1642.3 1603.33 1281.46 1089.89 1038.08 1037.29 939.107 889.168 1013.66 839.752 1007.52 822.907 821.737 802.918
threshold=1.5000000000000002 1.5000000000000002 0.35000000000000003 0.97582345000000015 1.5000000000000002 8.5000000000000018 0.88781930875000004 0.75723177739791658 2.5000000000000004 0.58843010740000012 0.86250525000000011 1.5000000000000002 9.5000000000000018 0.68622818120000006 1.5000000000000002 1.5000000000000002 4.5000000000000009 0.39623330000000007 0.25000000000000006
decision_type=2 2 2 2 2 2 2 2 2 2 2 2 2 2 2 2 2 2 2
left_child=1 3 6 4 -1 8 14 -6 9 11 17 -4 -9 -14 -2 -16 -5 18 -7
right_child=2 -3 5 16 7 10 -8 12 -10 -11 -12 -13 13 -15 15 -17 -18 -19 -20
leaf_value=0.065455995982913656 0.054727430200268698 0.074547418524164855 0.036668511521917545 0.065874872813660459 0.053935577639119957 0.045219763172096777 0.062057946654794367 0.063705446251309222 0.0697350146619823 0.061520104235515315 0.062093184971690078 0.056193295409515218 0.043443288402332414 0.059611573822268796 0.036929108521823226 0.067147715678132977 0.072471789182766908 0.035850930703341014 0.056267828383147124
leaf_weight=6614.3897799886763 413.82200751826167 4432.1842255815864 316.15932612121105 3600.6000137254596 3667.3796471878886 1039.1076712347567 479.90475142002106 4728.2876851558685 1210.8228779025376 5090.5675382055342 1005.8150026239455 1115.5796415992081 495.06578362733126 1788.9756466895342 1672.9783828780055 118.12360834702849 3982.2041207402945 344.22253293544054 1792.6340763270855
leaf_count=46920 4150 21060 3584 22819 35673 11646 3673 35279 8100 40935 7223 10458 5325 14676 20370 953 20399 3878 16194
internal_value=0 6.5383 5.59382 6.37503 6.12997 5.82918 4.54936 5.87255 6.10219 5.94044 5.32431 5.18818 6.12305 5.61071 4.18884 3.8922 6.93393 5.04403 5.22137
internal_weight=0 29309.1 14599.7 24876.9 17294.1 11914.9 2684.83 10679.7 7733.13 6522.31 4181.78 1431.74 7012.33 2284.04 2204.92 1791.1 7582.8 3175.96 2831.74
internal_count=333315 202151 131164 181091 137873 102018 29146 90953 63077 54977 38941 14042 55280 20001 25473 21323 43218 31718 27840
shrinkage=0.01


Tree=9
num_leaves=20
num_cat=0
split_feature=15 13 14 6 0 0 5 2 6 15 5 2 27 5 6 26 1 0 2
split_gain=7876.29 4117.07 2169.28 1986.01 2182.99 1642.86 1624.21 1554.65 1474.95 1563.3 1381.97 1016.7 967.334 916.835 804.794 721.158 711.557 701.718 691.1
threshold=64.500000000000014 0.25000000000000006 1.5000000000000002 1.5000000000000002 0.55002815000000016 0.64028825000000011 7.5000000000000009 1.5000000000000002 1.5000000000000002 35.500000000000007 8.5000000000000018 1.0000000180025095e-35 1.5000000000000002 6.5000000000000009 1.5000000000000002 1.5000000000000002 0.59740420000000005 1.3407585000000002 5.5000000000000009
decision_type=2 2 2 2 2 2 2 2 2 2 2 2 2 2 2 2 2 2 2
left_child=1 8 5 4 -3 -2 17 -6 9 -1 -9 -4 -12 -11 -13 -10 -5 -7 -8
right_child=2 3 11 16 7 6 18 10 15 13 12 14 -14 -15 -16 -17 -18 -19 -20
leaf_value=0.053121272284090644 0.044777276556640593 0.039482534982151617 0.085405835080338374 0.040721456659781587 0.064364293131772832 0.063447277685157802 0.053239488264342855 0.058612997945098534 0.049390124889979452 0.049770462445265187 0.045958693976680724 0.064498991928750998 0.055590105210142397 0.040998351057939121 0.07156069244897878 0.065493115650342215 0.067046683585167563 0.074066088887969658 0.061207749393732407
leaf_weight=3961.1030467152596 634.0148385129869 716.64642922207713 294.43366179615259 107.05099003762007 2582.6495447382331 5505.4301078990102 2493.0818196795881 6499.3048521839082 419.21384175494313 2049.7034057378769 1894.313524428755 5741.3891765885055 2319.8029555976391 2845.5613222084939 2244.8810166716576 826.25884514674544 2511.8955507315695 701.62558028846979 1931.9322773739696
leaf_count=34327 6093 7369 781 959 16986 33613 18624 48132 3650 19188 17405 33640 18617 30593 9438 5263 13768 2848 12021
internal_value=0 5.4919 6.3271 5.79774 5.64835 6.0415 6.13475 5.73998 4.98836 4.84507 5.57209 6.71568 5.12606 4.46713 6.6484 6.0073 6.59706 6.46476 5.67184
internal_weight=0 26733.5 19546.8 16631.7 14012.7 11266.1 10632.1 13296.1 10101.8 8856.37 10713.4 8280.7 4214.12 4895.26 7986.27 1245.47 2618.95 6207.06 4425.01
internal_count=333315 216257 117058 123236 108509 73199 67106 101140 93021 84108 84154 43859 36022 49781 43078 8913 14727 36461 30645
shrinkage=0.01


Tree=10
num_leaves=20
num_cat=0
split_feature=15 3 12 9 3 5 2 14 0 14 6 13 5 22 0 10 2 5 2
split_gain=6403.29 3038.44 2576.01 2985.99 2065.36 2031.81 1576.64 1374.07 1291.01 1276.85 1221.32 1209.23 1042.4 867.9 801.974 738.459 683.262 658.6 932.696
threshold=63.500000000000007 2.5000000000000004 1.5000000000000002 1.5000000000000002 1.5000000000000002 5.5000000000000009 1.5000000000000002 1.5000000000000002 0.64028825000000011 1.5000000000000002 1.5000000000000002 0.55000000000000016 8.5000000000000018 1.5000000000000002 0.59534175000000011 9.5000000000000018 4.5000000000000009 10.500000000000002 4.5000000000000009
decision_type=2 2 2 2 2 2 2 2 2 2 2 2 2 2 2 2 2 2 2
left_child=1 2 -1 9 5 15 -5 8 -7 17 12 -3 14 -11 -8 -2 -12 18 -4
right_child=4 11 3 6 -6 7 10 -9 -10 13 16 -13 -14 -15 -16 -17 -18 -19 -20
leaf_value=0.064614836205546367 0.056347417434534391 0.056577352428380523 0.049493287158327272 0.05424967661903609 0.066849289569180154 0.033689363902783216 0.03447638807057473 0.059536847850764234 0.053616406394611842 0.060169603701207199 0.045013075802498477 0.069292696331771292 0.037261388644250541 0.050133395920449068 0.047256896095613329 0.064575062151839585 0.061128381153034143 0.045647572206029934 0.056744445557167213
leaf_weight=1277.7335178107023 1418.6870971731842 2133.4418049678206 4677.8392504602671 1744.9222203716636 3113.7650919519365 342.78630748018622 575.43288780003786 4977.052341837436 6308.6150463223457 3188.3158909007907 489.10050570964813 1151.6444926261902 2649.3931962400675 1180.748319029808 3345.3953664191067 4721.0503730624914 569.36005048826337 1894.7347994148731 2857.4624444320798
leaf_count=7758 9395 13268 36986 13763 12306 3611 6368 27957 42156 20365 3959 4420 28141 9169 29486 23576 3617 16833 20181
internal_value=0 5.20052 5.07919 5.00298 5.93367 5.80201 4.56744 5.5563 5.25894 5.29883 4.37129 6.10349 4.21069 5.74573 4.53812 6.26739 5.36817 5.09178 5.2243
internal_weight=0 27735.5 24450.4 23172.7 20882 17768.2 9373.6 11628.5 6651.4 13799.1 7628.68 3285.09 6570.22 4369.06 3920.83 6139.74 1058.46 9430.04 7535.3
internal_count=333315 214314 196626 188868 119001 106695 85334 73724 45767 103534 71571 17688 63995 29534 35854 32971 7576 74000 57167
shrinkage=0.01


Tree=11
num_leaves=20
num_cat=0
split_feature=17 12 1 2 5 3 15 4 14 4 1 3 18 3 15 4 1 6 14
split_gain=5578.71 3150.66 3406.54 1971.6 1724.04 1615.42 1444.52 1253.6 1241.23 1155.51 975.301 897.383 828.782 803.69 842.3 897.17 722.321 629.496 623.111
threshold=1.5000000000000002 1.5000000000000002 0.84705370865000018 1.0000000180025095e-35 7.5000000000000009 1.5000000000000002 82.500000000000014 0.35000000000000003 2.5000000000000004 0.15000000000000005 1.2742642468500003 2.5000000000000004 0.36048576290000006 1.5000000000000002 65.500000000000014 0.45000000000000007 0.55255085000000015 1.5000000000000002 1.5000000000000002
decision_type=2 2 2 2 2 2 2 2 2 2 2 2 2 2 2 2 2 2 2
left_child=1 -1 4 -4 13 7 11 10 9 -6 -2 18 -9 14 15 -3 -17 -14 -5
right_child=5 2 3 6 8 -7 -8 12 -10 -11 -12 -13 17 -15 -16 16 -18 -19 -20
leaf_value=0.060563138919423401 0.047967401720230819 0.040334767450607871 0.068386587261792725 0.047827649054848438 0.031338767702244592 0.064548945008544786 0.060279374194731096 0.051052576906754736 0.050776226366572662 0.042971715749082227 0.067462077555707892 0.059136212669586054 0.057247505685097941 0.056198114343265007 0.053152470415766498 0.040320598935660874 0.050852577212044649 0.063970823474429894 0.053055951043846993
leaf_weight=2582.868977047503 2605.0323175042868 1870.09397777915 774.00540093332529 6490.6111580245197 985.06588212773204 2451.9549889490008 1794.7696967720985 1751.8952503725886 1755.3355698920786 6411.5102472119033 284.67372966557741 1111.2338003516197 6971.2790227532387 1428.132995262742 2337.0502544865012 816.88277200981975 3210.5265408791602 1740.23066329211 3513.4665612876415
leaf_count=13956 17986 17248 2883 46186 10146 8862 8572 12354 12486 55286 1222 4740 38484 8345 14910 7348 24002 6852 21447
internal_value=0 4.99329 4.9088 5.28844 4.63269 5.70882 5.1955 5.57183 4.32165 4.14225 4.98879 5.06108 5.73285 4.92729 4.80719 4.60586 4.87164 5.85906 4.96638
internal_weight=0 35081.6 32498.7 13684.1 18814.6 15805.1 12910.1 13353.1 9151.91 7396.58 2889.71 11115.3 10463.4 9662.69 8234.55 5897.5 4027.41 8711.51 10004.1
internal_count=333315 247555 233599 83828 149771 85760 80945 76898 77918 65432 19208 72373 57690 71853 63508 48598 31350 45336 67633
shrinkage=0.01


Tree=12
num_leaves=20
num_cat=0
split_feature=0 3 12 9 4 6 10 3 0 4 13 14 14 5 16 4 16 22 10
split_gain=5211.89 2800.54 2536.05 1968.77 1597.89 1475.7 1004.32 947.167 1037.15 1202.91 742.101 647.36 637.551 794.078 555.384 543.595 479.264 472.766 512.494
threshold=0.83028920290000008 1.5000000000000002 1.5000000000000002 1.5000000000000002 0.35000000000000003 1.5000000000000002 7.5000000000000009 2.5000000000000004 1.0833405000000003 0.65000000000000002 0.25000000000000006 1.5000000000000002 1.5000000000000002 7.5000000000000009 7.5000000000000009 0.8500000000000002 2.5000000000000004 1.5000000000000002 13.500000000000002
decision_type=2 2 2 2 2 2 2 2 2 2 2 2 2 2 2 2 2 2 2
left_child=1 2 -1 12 -5 7 14 8 9 11 -3 -2 13 -4 15 16 -6 18 -13
right_child=5 10 3 4 6 -7 -8 -9 -10 -11 -12 17 -14 -15 -16 -17 -18 -19 -20
leaf_value=0.056960840243400965 0.042730072614114864 0.048201250032560455 0.048103219702883344 0.032730309100674683 0.039018106917914359 0.058045529658193054 0.045526850510959803 0.058033703367185545 0.054456669520133033 0.051860185998225942 0.05678892932731263 0.055497802144596035 0.050264501805004705 0.042172209376814734 0.054002697439372166 0.041634748606071831 0.026686635949992498 0.028730936737246422 0.041840328426139231
leaf_weight=1728.8923498913646 3151.6557084321976 1523.0888951569796 5082.6897431537509 1890.0093918256462 564.11288714781404 4533.4408572539687 5184.5481929033995 2114.285137437284 5675.6453038230538 7059.0853659957647 2965.4572150558233 1082.8756624683738 3978.8134865984321 4061.0140691250563 198.50240712612867 1136.1846264824271 714.18706633895636 92.629760317504406 368.17228976637125
leaf_count=9553 22441 9923 34752 19578 5188 17561 40124 7772 26552 40245 13692 6020 25648 32635 1420 9532 7296 770 2613
internal_value=0 4.66123 4.52839 4.43988 4.09795 5.29052 4.2979 5.17129 5.09462 4.92512 5.38749 4.53287 4.69231 4.54691 3.79238 3.66019 3.21285 5.06343 5.20325
internal_weight=0 29027.5 24539 22810.1 9687.54 24077.8 7797.54 19544.3 17430.1 11754.4 4488.55 4695.33 13122.5 9143.7 2612.99 2414.48 1278.3 1543.68 1451.05
internal_count=333315 209341 185726 176173 83138 123974 63560 106413 98641 72089 23615 31844 93035 67387 23436 22016 12484 9403 8633
shrinkage=0.01


Tree=13
num_leaves=20
num_cat=0
split_feature=0 3 12 9 4 15 14 4 10 7 22 1 1 16 4 0 3 10 7
split_gain=4609.42 2468.54 2211.88 1740.93 1424.51 1261.18 1248.91 992.871 887.279 723.345 709.927 691.02 660.243 488.443 486.026 470.544 469.556 452.37 447.862
threshold=0.83028920290000008 1.5000000000000002 1.5000000000000002 1.5000000000000002 0.35000000000000003 89.500000000000014 1.5000000000000002 0.65000000000000002 7.5000000000000009 0.3507225000000001 1.5000000000000002 0.54829280250000012 0.75498342175000011 7.5000000000000009 0.8500000000000002 1.3110530000000002 2.5000000000000004 13.500000000000002 0.37013510525000004
decision_type=2 2 2 2 2 2 2 2 2 2 2 2 2 2 2 2 2 2 2
left_child=1 2 18 12 -5 6 7 15 13 -3 17 -10 -4 14 -6 -2 -9 -8 -1
right_child=5 9 3 4 8 -7 10 16 11 -11 -12 -13 -14 -15 -16 -17 -18 -19 -20
leaf_value=0.058264740357055249 0.042738138883083573 0.055986556222073429 0.04191795260666939 0.03151097271199936 0.030954856114564826 0.055128876425289429 0.054280897656115712 0.048606799981538246 0.034576520826976161 0.047932138784514702 0.044007828588001389 0.044847956138508858 0.046435472720315465 0.051101028701987662 0.039805012481766121 0.055054728895733158 0.057244707331064418 0.048453358964023946 0.04825288618416302
leaf_weight=1008.5807264745235 4513.5317087769508 1828.2955034822226 5276.9715648889542 1943.2376096472144 1313.3111769631505 4307.944506034255 6186.5586617067456 6395.8165224418044 763.14902780950069 2857.9679371342063 981.57243495434523 4621.0250855460763 8361.5044725090265 207.62828820943832 1176.3191000446677 333.07413052022457 697.99792613089085 1697.5708435177803 802.15922619402409
leaf_count=4886 28406 7987 40662 19578 12484 17638 26122 34356 6818 15628 5379 33306 52373 1420 9532 1266 2262 8545 4667
internal_value=0 4.44043 4.31772 4.23621 3.91984 5.02041 4.91844 4.70732 4.10468 5.10745 5.20277 4.33921 4.46876 3.63654 3.51364 4.35846 4.94567 5.30261 5.38295
internal_weight=0 30160.1 25473.9 23663.1 10024.7 25114.1 20806.1 11940.4 8081.43 4686.26 8865.7 5384.17 13638.5 2697.26 2489.63 4846.61 7093.81 7884.13 1810.74
internal_count=333315 209341 185726 176173 83138 123974 106336 66290 63560 23615 40046 40124 93035 23436 22016 29672 36618 34667 9553
shrinkage=0.01


Tree=14
num_leaves=20
num_cat=0
split_feature=15 6 15 4 3 4 21 0 3 0 4 1 1 7 3 15 0 1 4
split_gain=4164.25 2126.15 2000.42 1438.39 1361.94 1177.18 1137.7 1062.87 999.221 761.519 818.392 749.987 695.975 645.32 636.75 586.585 581.776 535.151 498.502
threshold=63.500000000000007 1.5000000000000002 43.500000000000007 0.35000000000000003 1.5000000000000002 1.0000000180025095e-35 1.5000000000000002 0.60378455000000009 2.5000000000000004 1.0915575000000002 0.65000000000000002 0.6742392348038041 0.57933150565000013 0.46813215000000002 1.5000000000000002 95.500000000000014 0.69383351185000008 0.60622825000000014 0.35000000000000003
decision_type=2 2 2 2 2 2 2 2 2 2 2 2 2 2 2 2 2 2 2
left_child=1 2 3 5 6 -1 15 17 12 10 13 -7 16 -8 -3 -2 -5 -4 -9
right_child=4 14 7 8 -6 11 9 18 -10 -11 -12 -13 -14 -15 -16 -17 -18 -19 -20
leaf_value=0.049079274194551548 0.048713809602997066 0.046942314746647736 0.020686407576934122 0.028085330916811473 0.053483721086078399 0.024705440572445295 0.040191205252578882 0.0340033542479031 0.051693879578836345 0.048649951573251554 0.045882824794671609 0.037385509350815978 0.04467090283202909 0.010278250896941574 0.056426478594157191 0.056532749686779342 0.041212224973331012 0.033726764773010884 0.040682446221834659
leaf_weight=726.05526140332222 7661.5798335745931 3882.6665366962552 391.41134865581989 444.9541567414999 3741.7990410402417 583.15750877559185 3379.9900242164731 1380.3755776211619 1795.6528798043728 3875.3451015129685 4998.962227627635 2330.8714052438736 11294.36040751636 73.692559994757175 865.74348581582308 1096.8376755937934 1399.6513426080346 1605.7418594881892 5866.9677438363433
leaf_count=4512 34940 20585 4103 4179 12306 5696 22518 11752 7310 17011 27896 17692 71278 661 3000 3669 9934 13313 40960
internal_value=0 4.2487 4.14314 4.33232 4.79238 3.76866 4.69372 3.76303 4.4697 4.49794 4.32965 3.4848 4.37408 3.95529 4.86715 4.9693 3.80458 3.11711 3.94103
internal_weight=0 32567.6 27819.2 18574.7 24828.2 3640.08 21086.4 9244.5 14934.6 12328 8452.64 2914.03 13139 3453.68 4748.41 8758.42 1844.61 1997.15 7247.34
internal_count=333315 214314 190729 120601 119001 27900 106695 70128 92701 68086 51075 23388 85391 23179 23585 38609 14113 17416 52712
shrinkage=0.01


Tree=15
num_leaves=20
num_cat=0
split_feature=17 3 5 1 15 6 9 0 0 22 12 6 1 1 10 20 15 0 26
split_gain=4759.73 2556.77 2427.88 1444.67 1309.34 1078.89 995.272 831.237 754.337 743.226 727.524 690.152 685.4 662.124 611.712 669.946 509.561 497.226 481.988
threshold=1.5000000000000002 2.5000000000000004 8.5000000000000018 0.81662412430000009 84.500000000000014 1.5000000000000002 1.5000000000000002 0.66542565000000009 1.0833405000000003 1.5000000000000002 1.5000000000000002 1.5000000000000002 1.4688430411000002 0.71239032120000012 4.5000000000000009 1.5000000000000002 64.500000000000014 0.54432648715000009 1.5000000000000002
decision_type=2 2 2 2 2 2 2 2 2 2 2 2 2 2 2 2 2 2 2
left_child=1 2 4 7 6 8 9 11 12 18 -8 -4 -2 -3 -12 17 -5 -16 -1
right_child=5 13 3 16 -6 -7 10 -9 -10 -11 14 -13 -14 -15 15 -17 -18 -19 -20
leaf_value=0.042119318616384495 0.043629542993567638 0.042022690257882619 0.025873474816758883 0.03758090287133932 0.049257705808712554 0.052080986755695155 0.048106674300331491 0.035787677748473537 0.04931180185833503 0.040921965208089266 0.030982154255610857 0.042699619220671212 0.052154223321790649 0.050252578146990717 -0.002440477732164434 0.044051627853743003 0.043140192587341225 0.037722425802552417 0.048856194996807496
leaf_weight=1648.6513474285603 9719.1344088762999 1378.4475294873118 1736.5981729850173 3581.0178056657314 2293.0901856124401 3462.655417278409 820.48300182074308 5231.0376218855381 4554.37734618783 5085.0394359603524 1021.4083841815591 283.57270651310682 1044.5292937979102 3361.5464116483927 30.980748996138573 2107.7390602752566 3055.6140561401844 6132.2205159589648 2984.4063184186816
leaf_count=9629 53366 7603 16656 23888 9619 11375 4113 38037 16917 30288 8657 1804 4148 11951 377 13040 15511 42482 13854
internal_value=0 4.09551 4.00464 3.67692 4.21036 4.70398 4.12764 3.36836 4.59003 4.35617 3.90803 2.82354 4.44568 4.78592 3.82833 3.91849 4.01405 3.75205 4.64589
internal_weight=0 40751.9 36011.9 13887.8 22124 18780.7 19830.9 7251.21 15318 9718.1 10112.8 2020.17 10763.7 4739.99 9292.35 8270.94 6636.63 6163.2 4633.06
internal_count=333315 247509 227955 95896 132059 85806 122440 56497 74431 53771 68669 18460 57514 19554 64556 55899 39399 42859 23483
shrinkage=0.01


Tree=16
num_leaves=20
num_cat=0
split_feature=17 3 5 15 2 15 4 9 4 4 2 22 2 1 8 2 14 2 13
split_gain=4258.58 2300.5 2170.96 1337.89 1209.45 1171.13 983.228 916.218 863.305 772.213 681.548 662.128 612.101 593.843 543.009 527.783 517.991 513.31 511.51
threshold=1.5000000000000002 2.5000000000000004 8.5000000000000018 63.500000000000007 4.5000000000000009 83.500000000000014 0.75000000000000011 1.5000000000000002 0.25000000000000006 0.45000000000000007 1.0000000180025095e-35 1.5000000000000002 6.5000000000000009 0.69731880000000013 1.5000000000000002 1.5000000000000002 1.5000000000000002 1.0000000180025095e-35 0.35000000000000003
decision_type=2 2 2 2 2 2 2 2 2 2 2 2 2 2 2 2 2 2 2
left_child=1 2 5 6 8 7 14 11 -2 -9 -10 12 -1 -3 18 -8 -16 -11 -4
right_child=4 13 3 -5 -6 -7 15 9 10 17 -12 -13 -14 -15 16 -17 -18 -19 -20
leaf_value=0.042299618845702033 0.035565628874709827 0.039750308200355619 0.023725382362337958 0.039322608201972947 0.047581214902643415 0.046828738392873527 0.047056148037852519 0.032627177573549687 0.054415874508911298 0.052014756928814292 0.043046797596891 0.039222982683883904 0.050551328953159697 0.047715187283513122 0.02984579097394302 0.035457770754676474 0.038784473149806542 0.038483967250773049 0.034678101979822372
leaf_weight=3594.7832898125052 1500.5635880604386 1258.0217936187983 1704.8287905305624 5308.6410544514656 9038.593125782907 2458.7003722935915 442.67894624918699 2524.0581446737051 562.72767911851406 291.17694863677025 8371.9696014821529 5251.6359066516161 1198.7109528034925 3657.8509090840816 1820.3934575766325 3450.0847000330687 1006.8812562376261 7555.1241243556142 568.60674554109573
leaf_count=18635 9001 6766 15652 28999 34857 9982 2363 19898 1569 1323 40379 30279 4791 12788 14674 23547 6719 47151 3942
internal_value=0 3.92479 3.83978 3.53417 4.49035 4.03086 3.29919 3.95234 4.25841 3.74384 4.37628 4.16758 4.43631 4.56769 3.01033 3.67767 3.30291 3.89861 2.64648
internal_weight=0 42092.2 37176.3 14302.1 19473.9 22874.2 8993.47 20415.5 10435.3 10370.4 8934.7 10045.1 4793.49 4915.87 5100.71 3892.76 2827.27 7846.3 2273.44
internal_count=333315 247509 227955 95896 85806 132059 66897 122077 50949 68372 41948 53705 23426 19554 40987 25910 21393 48474 19594
shrinkage=0.01


Tree=17
num_leaves=20
num_cat=0
split_feature=17 3 5 1 4 1 0 2 12 6 0 4 2 11 20 15 19 1 15
split_gain=3834.14 2083.33 1952.04 1231.81 1123.37 1137.86 1080.69 774.102 755.292 745.939 873.776 771.575 652.554 595.49 572.887 562.122 548.779 535.971 518.267
threshold=1.5000000000000002 2.5000000000000004 8.5000000000000018 0.81662412430000009 0.35000000000000003 1.2075282338000002 0.75245465000000011 4.5000000000000009 1.5000000000000002 1.5000000000000002 0.66542565000000009 0.8500000000000002 1.5000000000000002 2.5000000000000004 1.5000000000000002 64.500000000000014 1.5000000000000002 0.71239032120000012 84.500000000000014
decision_type=2 2 2 2 2 2 2 2 2 2 2 2 2 2 2 2 2 2 2
left_child=1 2 6 9 5 -2 8 -6 -1 10 -4 -12 -5 14 16 -14 -10 -3 -8
right_child=4 17 3 12 7 -7 18 -9 13 -11 11 -13 15 -15 -16 -17 -18 -19 -20
leaf_value=0.044689101587309821 0.036444023850203788 0.038596003611478018 0.024085283297023707 0.046157925341258954 0.042118966868932066 0.052426607122233064 0.039666854156286624 0.046538981867211157 0.026846381833160373 0.038923162274219117 0.02989935020773403 0.039198655804686587 0.033161874451550048 0.039652562849382095 0.037921409252905942 0.039119458341524915 0.034244031575394705 0.045756324922998817 0.04479702472703511
leaf_weight=995.63159421086311 3710.3153928741813 1470.3151296451688 1822.4607302546501 705.23772442340851 8550.1432121619582 506.22007796168327 10094.221411637962 7384.4597995653749 1413.7953875288367 1084.5617794245481 3559.825333148241 1190.6539687290788 3303.2682252302766 2626.8252277448773 2582.3043868988752 3042.4963690266013 3449.4459360018373 3617.1797569096088 2446.4606820195913
leaf_count=4532 19723 7603 16656 3295 38414 1507 52089 26162 10965 5869 26707 7265 21478 15064 15996 14626 23869 11951 9544
internal_value=0 3.76745 3.68762 3.40166 4.29527 3.83628 3.86577 4.41673 3.63803 3.12396 2.99718 3.22301 3.70324 3.5559 3.41147 3.60183 3.20935 4.3687 4.06677
internal_weight=0 43404.7 38317.2 14708.5 20151.1 4216.54 23608.7 15934.6 11068 7657.5 6572.94 4750.48 7051 10072.4 7445.55 6345.76 4863.24 5087.49 12540.7
internal_count=333315 247509 227955 95896 85806 21230 132059 64576 70426 56497 50628 33972 39399 65894 50830 36104 34834 19554 61633
shrinkage=0.01


Tree=18
num_leaves=20
num_cat=0
split_feature=17 1 4 3 11 4 1 5 6 5 2 10 2 1 18 10 9 2 5
split_gain=3472.37 1928.45 1407.15 1155.74 1096.83 1006.85 1018.03 883.054 722.904 657.349 784.426 611.775 592.002 551.112 509.78 485.839 471.094 445.874 444.979
threshold=1.5000000000000002 0.80326283769295859 0.8500000000000002 2.5000000000000004 3.5000000000000004 0.35000000000000003 1.2246174357000001 7.5000000000000009 1.5000000000000002 10.500000000000002 6.5000000000000009 5.5000000000000009 1.5000000000000002 0.58843010740000012 0.31614868930000006 4.5000000000000009 1.5000000000000002 4.5000000000000009 6.5000000000000009
decision_type=2 2 2 2 2 2 2 2 2 2 2 2 2 2 2 2 2 2 2
left_child=1 2 4 9 7 6 18 -1 17 10 12 16 -3 -4 -11 -14 -9 -7 -2
right_child=5 3 13 -5 -6 8 -8 11 -10 14 -12 -13 15 -15 -16 -17 -18 -19 -20
leaf_value=0.033898276810735151 0.0382772307691088 0.04141568416098685 0.033692476661161201 0.044337182272570046 0.038525026125154731 0.039571549605845302 0.050058396644781469 0.031774579149856416 0.046476143402687069 0.015716380417112718 0.042342800586864772 0.029924098721266383 0.026175689626046598 0.039809502318400976 0.034670352127543477 0.036421692461016786 0.01537359443454756 0.043268614670448118 0.031438288366484365
leaf_weight=6947.7058498561382 2048.6507780402899 2442.0742870867252 2114.4570809304714 2813.743062697351 2593.0128950849175 7208.7521104291081 516.49906288832426 257.32586208730936 3304.0389917194843 146.9495861530304 3861.104139149189 5679.249750494957 491.9369920566678 4853.9092852622271 4129.4077582582831 7810.596206523478 548.29776807129383 5958.4006803110242 1776.3230555355549
leaf_count=43237 9666 11256 13387 8311 14250 33097 1469 1795 9390 1257 16652 40629 3307 25466 22953 39665 5344 22089 10095
internal_value=0 3.62197 3.42019 3.83582 3.25706 4.11648 3.68807 3.14212 4.2294 3.74673 3.84769 2.87673 3.70876 3.79534 3.4019 3.58146 2.06123 4.12445 3.51012
internal_weight=0 44689.8 22994 21695.8 16025.6 20812.7 4341.47 13432.6 16471.2 18882.1 14605.7 6484.87 10744.6 6968.37 4276.36 8302.53 805.624 13167.2 3824.97
internal_count=333315 247509 144108 103401 105255 85806 21230 91005 64576 95090 70880 47768 54228 38853 24210 42972 7139 55186 19761
shrinkage=0.01


Tree=19
num_leaves=20
num_cat=0
split_feature=0 3 9 6 1 13 21 3 2 5 0 5 8 10 5 18 12 7 22
split_gain=3246.43 1541.98 1449.06 1251.89 973.29 747.443 670.036 646.01 584.586 582.494 564.036 555.483 554.56 768.619 494.273 403.471 403.238 390.033 385.96
threshold=0.79395961715000019 1.5000000000000002 1.5000000000000002 1.5000000000000002 0.82234420510000017 0.25000000000000006 1.5000000000000002 2.5000000000000004 1.5000000000000002 7.5000000000000009 1.2162381366000001 10.500000000000002 1.5000000000000002 8.5000000000000018 2.5000000000000004 0.42391035100000007 1.5000000000000002 0.33911649960000007 1.5000000000000002
decision_type=2 2 2 2 2 2 2 2 2 2 2 2 2 2 2 2 2 2 2
left_child=1 2 6 4 11 12 18 10 -7 -8 -6 -2 14 -14 -4 17 -10 -11 -1
right_child=3 -3 5 -5 7 8 9 -9 16 15 -12 -13 13 -15 -16 -17 -18 -19 -20
leaf_value=0.039528970800039358 0.036357550447634911 0.039117003158354126 0.036685370309696846 0.042403646257369469 0.037345078935401316 0.038695453298610023 0.036033909966820585 0.044407267805585723 0.039904460044026133 0.034773693795846501 0.042100247324313819 0.030646926477365721 0.024567073231260887 0.036254357042984998 0.023022954836505457 0.040440545925977574 0.030309060948519487 0.02833713416403191 0.03413207571315046
leaf_weight=3986.7421203255653 9977.2703175470233 5071.03335519135 296.95087540894747 6521.6144286543131 11434.796130739152 1288.7767576873302 4588.7410009875894 2026.2556621059775 481.90388893336058 1331.6415636241436 3190.4263746365905 2054.0166123434901 996.14321747422218 1293.2493616566062 2445.4055436849594 422.41013770550489 4802.903093829751 3212.8877822011709 1984.8381621390581
leaf_count=18249 48462 21115 1931 19976 50696 6695 24706 4934 2175 7882 10120 11747 8173 8603 20516 2299 32128 21957 10951
internal_value=0 3.40554 3.31094 3.84489 3.75497 3.04363 3.51074 3.91155 3.26567 3.34652 3.83824 3.53826 2.75356 3.11691 2.45024 3.10921 3.1184 3.02232 3.77351
internal_weight=0 32203.6 27132.6 35204.4 28682.8 11605.3 15527.3 16651.5 6573.58 9555.68 14625.2 12031.3 5031.75 2289.39 2742.36 4966.94 5284.81 4544.53 5971.58
internal_count=333315 187380 166265 145935 125959 80221 86044 65750 40998 56844 60816 60209 39223 16776 22447 32138 34303 29839 29200
shrinkage=0.01


Tree=20
num_leaves=20
num_cat=0
split_feature=0 6 14 1 2 2 23 3 6 7 2 0 13 16 2 1 13 10 1
split_gain=2952.29 1490.93 1474.61 1139.33 822.512 863.613 734.993 718.565 548.5 541.178 463.882 463.699 489.825 638.432 437.325 430.908 423.04 381.503 453.025
threshold=0.77675420650000004 1.5000000000000002 1.5000000000000002 0.72873798503471254 4.5000000000000009 1.5000000000000002 1.5000000000000002 2.5000000000000004 1.5000000000000002 0.41472881355000007 1.0000000180025095e-35 0.61412430000000018 0.25000000000000006 1.5000000000000002 1.0000000180025095e-35 0.6742392348038041 0.25000000000000006 7.5000000000000009 0.74085586414782512
decision_type=2 2 2 2 2 2 2 2 2 2 2 2 2 2 2 2 2 2 2
left_child=1 3 4 11 5 -2 7 17 14 16 -3 -1 13 -13 -4 -6 -7 18 -5
right_child=2 10 8 6 15 9 -8 -9 -10 -11 -12 12 -14 -15 -16 -17 -18 -19 -20
leaf_value=0.025822098826619531 0.038014417837249466 0.053272581245301487 0.047942409856730171 0.013559910374589684 0.032846963253413408 0.025947998736737889 0.041531558441984119 0.038682012928804931 0.042155017246381439 0.034911339931446864 0.037316543651977438 0.022883785373537795 0.033709151922942562 0.030686593322311315 0.037622437783985635 0.038101999866013883 0.031835826746278176 0.033327020239136633 0.030229679332404304
leaf_weight=2754.336197912693 2973.3797708824277 190.27563423663378 426.4318522810936 170.41228099167347 1893.6632934212685 1854.9094059839845 1082.2715869098902 1895.9081647321582 4403.5704505369067 3398.2827956303954 4295.0101741030812 1389.282590508461 3116.3821719810367 4276.255688726902 11078.863030984998 8866.1789788380265 3566.9426286369562 7802.7905299887061 3762.4628776684403
leaf_count=21089 12385 390 795 1489 9405 11470 4498 6464 12039 14930 18810 10346 18284 28561 44241 34369 17985 42948 22817
internal_value=0 3.26652 3.68223 3.17548 3.51778 3.33537 3.35995 3.29698 3.91537 3.17825 3.79934 2.9402 3.05248 2.87732 3.80049 3.71771 2.98215 3.2047 2.95074
internal_weight=0 30735.4 38462.2 26250.1 22553.4 11793.5 14713.8 13631.6 15908.9 8820.13 4485.29 11536.3 8781.92 5665.54 11505.3 10759.8 5421.85 11735.7 3932.88
internal_count=333315 175696 157619 156496 100544 56770 78216 73718 57075 44385 19200 78280 57191 38907 45036 43774 29455 67254 24306
shrinkage=0.01


Tree=21
num_leaves=20
num_cat=0
split_feature=15 13 14 3 0 15 6 0 5 2 5 15 9 4 2 1 1 11 17
split_gain=2926.54 1683.57 1042.61 982.789 860.432 840.043 745.009 833.428 653.5 648.955 653.309 622.06 607.476 586.603 569.994 565.445 526.871 490.94 474.237
threshold=63.500000000000007 0.25000000000000006 1.5000000000000002 2.5000000000000004 0.64028825000000011 9.5000000000000018 1.5000000000000002 0.59751550865000003 7.5000000000000009 1.5000000000000002 5.5000000000000009 61.500000000000007 1.5000000000000002 0.25000000000000006 1.0000000180025095e-35 0.71806261180660858 0.78791420000000012 1.5000000000000002 1.5000000000000002
decision_type=2 2 2 2 2 2 2 2 2 2 2 2 2 2 2 2 2 2 2
left_child=1 12 4 5 -2 -3 7 11 -6 -9 -11 -7 15 -14 -4 -1 -15 -16 -12
right_child=2 3 14 -5 8 6 -8 9 -10 10 18 -13 13 16 17 -17 -18 -19 -20
leaf_value=0.028768967505964273 0.025068500697965079 0.037046749224621131 0.048594340525153171 0.038569689885204032 0.036621892891089684 0.026641202439621783 0.036546198733542853 0.036564472026826833 0.032611973937236069 0.034334661441985291 0.027884447261803839 0.0073147470125339243 0.021459031430248784 0.029538007478796341 0.03559927449692063 0.034147324329981563 0.018195986691763852 0.03953796180482326 0.034271852489910805
leaf_weight=4388.0366833135486 925.76117523759604 3764.6900599896908 503.770577929914 3343.6439717262983 9874.9841018989682 1693.6575161218643 2852.4664481580257 2400.1426460966468 6906.7807757332921 3575.793221399188 5962.2530575171113 184.70634104311466 1452.5581308454275 5007.3526916727424 5796.8323692753911 3525.0750451683998 446.04909858852625 6969.4811867699027 1443.8653739467263
leaf_count=26319 6121 16098 795 10375 37336 11333 11377 11184 31147 17733 35996 1637 11682 33182 21767 17340 3242 21741 6910
internal_value=0 3.19485 3.6042 3.35203 3.44538 3.27486 3.18553 3.09784 3.49716 3.1854 3.08245 2.47408 2.92734 2.71062 3.81612 3.11649 2.86103 3.77495 2.91297
internal_weight=0 40040.3 30977.6 25221.2 17707.5 21877.6 18112.9 15260.4 16781.8 13382.1 10981.9 1878.36 14819.1 6905.96 13270.1 7913.11 5453.4 12766.3 7406.12
internal_count=333315 214408 118907 122643 74604 112268 96170 84793 68483 71823 60639 12970 91765 48106 44303 43659 36424 43508 42906
shrinkage=0.01


Tree=22
num_leaves=20
num_cat=0
split_feature=15 4 3 15 9 6 21 2 10 2 3 4 15 4 5 0 2 1 2
split_gain=2714.76 1537.28 994.38 965.781 939.919 781.454 776.894 614.224 549.188 559.321 534.296 501.363 491.198 487.522 439.673 416.168 414.06 407.749 407.137
threshold=63.500000000000007 0.55000000000000016 1.5000000000000002 40.500000000000007 1.5000000000000002 1.5000000000000002 1.5000000000000002 4.5000000000000009 8.5000000000000018 1.5000000000000002 2.5000000000000004 0.35000000000000003 84.500000000000014 1.0000000180025095e-35 9.5000000000000018 0.53253641125000006 1.5000000000000002 0.67592535000000009 2.5000000000000004
decision_type=2 2 2 2 2 2 2 2 2 2 2 2 2 2 2 2 2 2 2
left_child=1 4 6 10 7 8 -2 16 14 -10 15 -6 -8 -9 -5 -3 -1 -15 -13
right_child=2 3 -4 5 11 -7 12 13 9 -11 -12 18 -14 17 -16 -17 -18 -19 -20
leaf_value=0.032446565694641716 0.036024955017337601 0.015196378597750039 0.038946909324831254 0.028090885552400049 0.022051831880890146 0.03598209118215006 0.031494821740967245 0.043095926989123651 0.037314287965184288 0.029255164268770801 0.038499630012685374 0.033368964154047408 0.035459265525813244 0.024531430410287158 0.020858512305622398 0.03323315186438016 0.02567361390243833 0.033615598465220685 0.024961087876473879
leaf_weight=1286.9102743268013 11257.616720087826 129.07563299685717 4831.0392866656184 3092.3920802474022 2920.247146204114 1796.3166044279933 11390.750095628202 443.01975265145302 1098.6131888628006 3984.3479390069842 2073.8774756863713 936.53496913611889 4307.0282386764884 608.15131168812513 1154.3221432715654 14335.25581485033 3022.7577664852142 2634.9244974553585 1495.7480995357037
leaf_count=6233 38637 969 12228 18115 22255 7183 52142 1645 4636 22021 5965 5499 15900 3777 8278 67320 17953 12386 10173
internal_value=0 3.08754 3.4769 3.22203 2.80882 2.99423 3.40202 3.02594 2.87794 3.0997 3.37528 2.4845 3.25826 3.32563 2.6125 3.30722 2.76961 3.19121 2.81985
internal_weight=0 41012.5 31786.4 27664.2 13348.3 11126 26955.4 7995.76 9329.68 5082.96 16538.2 5352.53 15697.8 3686.1 4246.71 14464.3 4309.67 3243.08 2432.28
internal_count=333315 214408 118907 134487 79921 60233 106679 41994 53050 26657 74254 37927 68042 17808 26393 68289 24186 16163 15672
shrinkage=0.01


Tree=23
num_leaves=20
num_cat=0
split_feature=15 13 3 3 15 6 0 21 2 5 15 9 11 10 0 12 9 22 10
split_gain=2528.91 1480.63 924.446 873.84 743.514 735.022 734.203 718.219 542.657 541.813 535.345 532.005 497.838 454.438 442.083 427.878 479.432 379.939 376.076
threshold=63.500000000000007 0.25000000000000006 1.5000000000000002 2.5000000000000004 18.500000000000004 1.5000000000000002 0.59751550865000003 1.5000000000000002 1.5000000000000002 5.5000000000000009 61.500000000000007 1.5000000000000002 1.5000000000000002 10.500000000000002 0.9255119019000001 1.5000000000000002 1.5000000000000002 1.5000000000000002 3.5000000000000004
decision_type=2 2 2 2 2 2 2 2 2 2 2 2 2 2 2 2 2 2 2
left_child=1 11 7 4 -3 6 10 12 14 -10 -6 -1 -2 -9 -8 -11 -17 -14 -13
right_child=2 3 -4 -5 5 -7 8 13 9 15 -12 18 17 -15 -16 16 -18 -19 -20
leaf_value=0.029141912230028197 0.032566891573850724 0.033559832649518284 0.037557564242680579 0.035947325308256547 0.024537947962863484 0.034332447931494502 0.034372659910528749 0.029070303688902902 0.031823634761898006 0.037041856157561559 0.0067988372098325665 0.017358298148524687 0.037658085202779738 0.032664508176503321 -0.011622526238667694 0.028241440621860465 0.022472337856882244 0.030053476719009691 0.026074021276783078
leaf_weight=8290.5199092403054 5428.9708727300167 6179.8078414946795 4958.9912984892726 3517.6367332711816 1657.9926718920469 2652.0056015774608 2211.9441983774304 5200.5536328405142 3278.1840829625726 389.64442416280508 189.57842775434256 534.73667319864035 5367.8925930485129 10871.625031135976 21.096074737608433 4166.5045277252793 2201.679141625762 748.61808122694492 6674.4361271485686
leaf_count=43659 20272 26149 12228 10375 10762 10102 9796 25692 15670 1566 1637 4352 15401 42350 176 22052 14358 2964 43754
internal_value=0 2.98688 3.35821 3.13062 3.05948 2.95021 2.85946 3.28683 2.94796 2.84876 2.27177 2.74143 3.4771 3.15015 3.39381 2.68693 2.62469 3.67273 2.54275
internal_weight=0 41965.8 32576.7 26466.1 22948.4 16768.6 14116.6 27617.7 12269.1 10036 1847.57 15499.7 11545.5 16072.2 2233.04 6757.83 6368.18 6116.51 7209.17
internal_count=333315 214408 118907 122643 112268 86119 76017 106679 63618 53646 12399 91765 38637 68042 9972 37976 36410 18365 48106
shrinkage=0.01


Tree=24
num_leaves=20
num_cat=0
split_feature=6 1 10 15 2 5 0 15 14 9 3 9 13 22 5 15 14 13 2
split_gain=2367.87 2038.58 1136.15 917.277 901.044 881.843 639.864 637.458 588.688 546.859 533.92 501.401 585.594 385.041 394.001 380.152 371.041 367.105 361.034
threshold=1.5000000000000002 0.82234420510000017 9.5000000000000018 86.500000000000014 1.0000000180025095e-35 7.5000000000000009 0.60642222030000015 71.500000000000014 1.5000000000000002 1.5000000000000002 2.5000000000000004 1.5000000000000002 1.0000000180025095e-35 1.5000000000000002 11.500000000000002 38.500000000000007 1.5000000000000002 0.15000000000000005 4.5000000000000009
decision_type=2 2 2 2 2 2 2 2 2 2 2 2 2 2 2 2 2 2 2
left_child=1 2 5 4 -3 -1 -6 17 -2 16 11 13 18 -8 -15 -11 -7 -4 -13
right_child=8 3 7 -5 6 9 10 -9 -10 15 -12 12 -14 14 -16 -17 -18 -19 -20
leaf_value=0.027861097663076692 0.031944868383836339 0.038699223001857186 0.025465031442504837 0.036107971369354223 0.024670919993093735 0.023176116221509838 0.032088701210253527 0.031808114519831988 0.036284443084691781 0.025900629675209858 0.035265206129919027 0.0035276222719016303 0.028325229591647034 0.029952076520425464 0.022019958758074783 0.017042568907055008 0.031806027982707569 0.029085943210896876 0.025110308178963505
leaf_weight=6402.9757771193981 5502.594395108521 1396.0562607124448 3852.4971715956926 3817.1170062124729 1782.9256605282426 1666.015841640532 12230.538768365979 6888.4408545196056 7237.7840632051229 636.56793284416199 2488.8734632357955 159.01848042011261 3878.5744649544358 4440.5892378464341 729.01382046937943 2027.8782185763121 710.74937625974417 10248.641663745046 151.20393947511911
leaf_count=35132 20522 3539 22851 11039 10090 10312 46065 26249 19978 4186 6326 1302 19035 19620 4081 15748 3493 52857 890
internal_value=0 2.96864 2.79327 3.15168 3.08739 2.5398 3.04514 2.93147 3.44102 2.22696 3.08795 3.03738 2.72678 3.11216 2.88335 1.91589 2.57568 2.80967 1.40471
internal_weight=0 63507.7 32433.8 31073.9 27256.8 11444.2 25860.7 20989.6 12740.4 5041.21 24077.8 21588.9 4188.8 17400.1 5169.6 2664.45 2376.77 14101.1 310.222
internal_count=333315 292815 170828 121987 110948 68871 107409 101957 40500 33739 97319 90993 21227 69766 23701 19934 13805 75708 2192
shrinkage=0.01


Tree=25
num_leaves=20
num_cat=0
split_feature=14 5 8 1 0 0 4 4 4 22 9 4 1 10 2 2 2 1 2
split_gain=2088.15 1378.47 1303.59 968.51 753.665 612.144 620.934 570.728 749.328 569.202 618.35 548.078 550.348 523.02 419.579 444.762 397.232 390.287 388.903
threshold=1.5000000000000002 7.5000000000000009 1.5000000000000002 0.78102585000000013 1.1008120000000001 0.68622818120000006 0.55000000000000016 0.35000000000000003 1.0000000180025095e-35 1.5000000000000002 1.5000000000000002 0.25000000000000006 0.66073895000000016 5.5000000000000009 1.0000000180025095e-35 4.5000000000000009 1.5000000000000002 0.69372182315000008 5.5000000000000009
decision_type=2 2 2 2 2 2 2 2 2 2 2 2 2 2 2 2 2 2 2
left_child=1 4 11 5 7 -3 -7 8 -1 10 18 12 -2 -9 -15 -16 -13 -10 -4
right_child=2 3 9 -5 -6 6 -8 13 17 -11 -12 16 -14 14 15 -17 -18 -19 -20
leaf_value=0.033902526346674053 0.0018614070228167223 0.020458271380120192 0.033463951876452215 0.028383757955667856 0.034203268286466811 0.022461862399715912 0.028579564140204544 0.025315130547205762 0.018162220177167995 0.028906573504736459 0.030606923385581682 0.035265706186759366 0.02441441461723419 0.037116950409826197 0.028754124599057903 0.031999437926518076 0.028407021588181435 0.025805307037954153 0.036992934878693089
leaf_weight=913.18912146240473 119.24928931891918 3080.8334706574678 7725.1809813082218 12036.819656670094 3460.6194064468145 3002.2114765420556 3708.4652343392372 2206.9817932397127 926.30329296737909 2780.0532971844077 4553.30261105299 999.98420013487339 1167.7752670571208 902.52919975668192 10010.228413619101 7304.3709611669183 5428.3205334618688 2396.9099507555366 5241.64667083323
leaf_count=3889 1000 21596 24654 52322 9780 18246 18105 12035 6292 11343 19699 3406 6060 2788 44721 28191 23885 11911 13392
internal_value=0 2.83695 3.17804 2.64839 2.98331 2.41485 2.58426 2.92198 2.58795 3.31102 3.37772 2.82814 2.23248 2.99127 3.04697 3.01232 2.9474 2.36749 3.48905
internal_weight=0 49949.5 28015.5 21828.3 28121.1 9791.51 6710.68 24660.5 4236.4 20300.2 17520.1 7715.33 1287.02 20424.1 18217.1 17314.6 6428.3 3323.21 12966.8
internal_count=333315 229876 103439 110269 119607 57947 36351 109827 22092 69088 57745 34351 7060 87735 75700 72912 27291 18203 38046
shrinkage=0.01


Tree=26
num_leaves=20
num_cat=0
split_feature=15 8 4 6 14 0 5 2 7 3 4 7 3 27 2 1 7 0 7
split_gain=2015.43 1290.37 1212.89 937.952 779.35 658.934 657.791 641.054 561.058 553.464 408.814 450.495 401.264 392.39 455.237 377.692 404.975 525.595 374.393
threshold=63.500000000000007 1.5000000000000002 0.75000000000000011 1.5000000000000002 1.5000000000000002 0.4732842000000001 7.5000000000000009 1.5000000000000002 0.36606010220000001 2.5000000000000004 0.15000000000000005 0.41012950677430005 2.5000000000000004 1.5000000000000002 6.5000000000000009 0.54514900000000011 0.29444861865000005 0.65720731995000015 0.39076848685000004
decision_type=2 2 2 2 2 2 2 2 2 2 2 2 2 2 2 2 2 2 2
left_child=1 2 -1 5 6 -3 8 -7 -2 13 11 -8 -6 14 18 16 -4 -18 -9
right_child=4 3 15 -5 12 7 10 9 -10 -11 -12 -13 -14 -15 -16 -17 17 -19 -20
leaf_value=0.022941081991863076 0.01738462525407895 0.011982870155349792 0.045494656383998577 0.032932353945045449 0.031604256824927415 0.031483751091853453 0.0099803245458947414 0.02506021041622571 0.031078900896896723 0.032171841550479433 0.027747166587202554 0.025840650997492349 0.036549288199462709 0.028181716335880465 0.028539906026622361 0.029074009945060458 0.0076441776208278321 0.025206057515528658 0.019293803627683591
leaf_weight=10182.848860763013 307.2354169934988 258.70255474746227 69.232232585549355 4322.0151062756777 13028.469448179007 4347.5229524597526 280.14824731647968 4106.4151545464993 11407.618041738868 2000.8412731438875 7374.1274580359459 496.44565675407648 1877.3979714736342 7955.717224009335 2591.675989061594 6597.4206058979034 235.64679522067308 615.62395580857992 1551.2990134805441
leaf_count=57936 1652 1875 251 14010 40820 17657 1830 22285 38760 6177 30128 2191 3517 38098 12866 29261 1877 3245 8879
internal_value=0 2.72907 2.51903 2.86609 3.04988 2.78517 2.92019 2.80337 3.07198 2.72098 2.70204 2.01192 3.22271 2.65972 2.5069 2.82368 2.22362 2.03446 2.34791
internal_weight=0 44835 17700.8 27134.2 34771.4 22812.2 19865.6 22553.5 11714.9 18205.9 8150.72 776.594 14905.9 16205.1 8249.39 7517.92 920.503 851.271 5657.71
internal_count=333315 214417 92570 121847 118898 107837 74561 105962 40412 88305 34149 4021 44337 82128 44030 34634 5373 5122 31164
shrinkage=0.01


Tree=27
num_leaves=20
num_cat=0
split_feature=0 3 4 8 4 2 14 10 1 2 0 2 15 13 14 5 1 5 1
split_gain=1911.57 1416.53 1194.98 972.509 672.818 667.338 616.937 550.9 450.719 445.28 459.864 440.193 411.96 400.433 371.417 355.999 342.082 323.766 488.405
threshold=0.94251070705000017 2.5000000000000004 0.8500000000000002 1.5000000000000002 0.25000000000000006 1.0000000180025095e-35 2.5000000000000004 7.5000000000000009 0.75291100865000005 1.5000000000000002 0.59534175000000011 8.5000000000000018 70.500000000000014 1.0000000180025095e-35 1.5000000000000002 7.5000000000000009 0.73527295000000004 7.5000000000000009 0.72480730120172909
decision_type=2 2 2 2 2 2 2 2 2 2 2 2 2 2 2 2 2 2 2
left_child=1 2 3 4 8 -5 11 16 13 -4 -11 17 -9 -1 15 -2 -6 -7 -19
right_child=14 -3 9 5 7 6 -8 12 -10 10 -12 -13 -14 -15 -16 -17 -18 18 -20
leaf_value=0.025821792295278159 0.030520362778958289 0.030998986154493556 0.03210430003692076 0.039051998664727187 0.016202538285635261 0.026260819650547142 0.029852692897480885 0.024310059398950909 0.024861692164368409 0.022561367146852127 0.028274561385830062 0.030834745221531019 0.029843028350183213 0.014087450544907707 0.031674904701575295 0.027038394004574938 0.02392843384397296 0.019563370131445289 0.025315780601531359
leaf_weight=353.36144299060106 7258.883444853127 7317.0365329757333 2691.2477372288704 419.43541700392962 1192.4634651690722 7589.4466525986791 3897.9574112147093 6478.534507073462 849.42321882396936 1566.8484329283237 13973.631513051689 1356.236818626523 1698.4612086564302 1642.8997128158808 10545.086942389607 4930.8843607679009 1103.400558501482 2334.448789767921 4013.6645368337631
leaf_count=2115 22337 21734 10022 1347 8343 35021 15466 33797 4066 8899 58991 5988 6493 11837 28463 18126 5772 14959 19539
internal_value=0 2.68835 2.62949 2.51578 2.30724 2.6574 2.63013 2.4244 1.87606 2.83489 2.76985 2.53961 2.54593 1.61646 3.03007 2.91119 1.99156 2.48669 2.32004
internal_weight=0 58478.5 51161.5 32929.7 13318.5 19611.2 19191.8 10472.9 2845.68 18231.7 15540.5 15293.8 8177 1996.26 22734.9 12189.8 2295.86 13937.6 6348.11
internal_count=333315 264389 242655 164743 72423 92320 90973 54405 18018 77912 67890 75507 40290 13952 68926 40463 14115 69519 34498
shrinkage=0.01


Tree=28
num_leaves=20
num_cat=0
split_feature=15 8 4 15 14 5 3 7 7 4 3 4 7 0 5 11 1 0 7
split_gain=1831.39 1132.59 1062.14 696.054 694.395 582.903 523.192 509.336 434.027 384.798 371.464 369.551 416.759 357.792 349.159 362.214 347.548 499.104 397.877
threshold=63.500000000000007 1.5000000000000002 0.75000000000000011 32.500000000000007 1.5000000000000002 7.5000000000000009 2.5000000000000004 0.36606010220000001 0.36400990000000005 0.8500000000000002 2.5000000000000004 0.15000000000000005 0.41012950677430005 0.4157165362000001 3.5000000000000004 3.5000000000000004 0.58843010740000012 0.65720731995000015 0.29444861865000005
decision_type=2 2 2 2 2 2 2 2 2 2 2 2 2 2 2 2 2 2 2
left_child=1 2 14 6 5 7 -3 -2 13 -10 -6 12 -7 -5 -1 -16 17 18 -4
right_child=4 3 16 8 10 11 -8 -9 9 -11 -12 -13 -14 -15 15 -17 -18 -19 -20
leaf_value=0.025908297452590153 0.016411346002864858 0.0277989398956742 0.041572249663676779 -0.00042240066090503894 0.029733916698741494 0.0093947201045149493 0.033450082311104926 0.029255341379219806 0.021691019909728305 0.026674701433422869 0.034394010226325607 0.026181603776949728 0.024432553535433041 0.027226548862420732 0.020067283781696692 0.025679115801830986 0.027618320436341017 0.025926899106332002 0.010050894917575864
leaf_weight=1673.1695987358689 316.98662003874779 12140.97256077826 44.596714608371258 47.095336951315403 13571.517591044307 287.17465277761221 1893.8316035270691 11879.004157863557 4150.8252602145076 2471.9306202605367 1957.1987556293607 7657.8808297216892 514.43887388706207 7537.6823045685887 7503.2424283251166 1358.3761038184166 6301.8469848483801 1085.4131563231349 392.26770751923323
leaf_count=7970 1652 50277 174 364 40820 1830 4534 38760 21903 10917 3517 30128 2191 33852 43550 6416 26357 5222 2881
internal_value=0 2.5725 2.37914 2.6982 2.87236 2.75224 2.85615 2.89215 2.54216 2.35512 3.03213 2.55054 1.90453 2.70549 2.17186 2.09275 2.65825 2.22942 1.32687
internal_weight=0 46601.3 18358.9 28242.3 36184.2 20655.5 14034.8 12196 14207.5 6622.76 15528.7 8459.49 801.614 7584.78 10534.8 8861.62 7824.12 1522.28 436.864
internal_count=333315 214417 92570 121847 118898 74561 54811 40412 67036 32820 44337 34149 4021 34216 57936 49966 34634 8277 3055
shrinkage=0.01


Tree=29
num_leaves=20
num_cat=0
split_feature=6 15 4 2 1 0 0 19 3 5 3 2 1 14 2 8 1 1 26
split_gain=1764.14 1489 1098.67 833.383 704.511 637.648 552.387 592.368 532.325 540.978 487.708 486.797 467.896 385.362 376.572 351.232 365.998 509.576 330.228
threshold=1.5000000000000002 64.500000000000014 0.35000000000000003 1.5000000000000002 1.1292255000000002 0.59751550865000003 1.2162381366000001 1.5000000000000002 2.5000000000000004 6.5000000000000009 1.5000000000000002 1.0000000180025095e-35 0.56639190000000006 1.5000000000000002 9.5000000000000018 1.5000000000000002 0.63097690000000017 0.70098500000000008 1.5000000000000002
decision_type=2 2 2 2 2 2 2 2 2 2 2 2 2 2 2 2 2 2 2
left_child=1 2 4 -4 14 -5 7 -3 9 -7 13 -9 -11 -2 15 16 -1 -18 -14
right_child=10 6 3 5 -6 8 -8 11 -10 12 -12 -13 18 -15 -16 -17 17 -19 -20
leaf_value=0.026762442832240229 0.026610642957653967 0.024254821848598319 0.028451510754445037 0.019924969435117592 0.033541753373844449 0.026263077081353791 0.030077346431267752 0.036616745667827577 0.029467617950658144 0.017738835790199189 0.033519776894206543 0.027369554756092263 0.021831720731972769 0.030293875316640899 0.029976666838058285 0.021868277564326535 0.010901848520528331 0.019525614061209094 0.025390866789295728
leaf_weight=372.06524320691824 5140.0936429277062 7155.9115732461214 6360.0087028369308 2819.4033874198794 428.31062203645706 9330.1483476534486 5900.51700604707 590.48724671453238 2354.9514601752162 1456.1498980075121 2500.0770968943834 15853.395870052278 4746.1197355985641 6349.64864179492 386.22644160687923 3897.3039040565491 1109.5289758741856 1791.62769792974 5783.6705284714699
leaf_count=2144 18336 27862 24421 16791 1392 40081 14979 1117 6783 8811 5022 56353 24568 17103 1871 20985 8233 10109 26354
internal_value=0 2.56289 2.43922 2.52009 2.10652 2.44204 2.73407 2.66565 2.49559 2.44575 2.95171 2.77016 2.30519 2.86461 2.03581 1.984 1.7425 1.62275 2.37866
internal_weight=0 70335.8 40835.5 32850.5 7985.06 26490.4 29500.3 23599.8 23671 21316.1 13989.8 16443.9 11985.9 11489.7 7556.75 7170.53 3273.22 2901.16 10529.8
internal_count=333315 292854 192543 147809 44734 123388 100311 85332 106597 99814 40461 57470 59733 35439 43342 41471 20486 18342 50922
shrinkage=0.01


Tree=30
num_leaves=20
num_cat=0
split_feature=3 0 12 21 9 4 1 6 10 2 1 4 4 0 7 18 18 1 5
split_gain=1813.72 1562.66 969.197 806.844 747.122 743.303 817.108 490.856 459.723 458.391 371.582 357.088 349.356 401.733 369.899 337.257 328.018 323.156 313.983
threshold=1.5000000000000002 0.78631440000000008 1.5000000000000002 1.5000000000000002 1.5000000000000002 0.65000000000000002 0.88176845220000011 1.5000000000000002 7.5000000000000009 4.5000000000000009 0.93641602000000013 0.8500000000000002 0.45000000000000007 0.77147627770000005 0.38079090000000004 0.31606960630000008 0.32394513950000009 1.0137350000000003 8.5000000000000018
decision_type=2 2 2 2 2 2 2 2 2 2 2 2 2 2 2 2 2 2 2
left_child=1 2 -1 9 11 6 -5 15 10 -3 -6 18 13 14 16 -2 -10 -7 -4
right_child=7 3 4 5 8 17 -8 -9 12 -11 -12 -13 -14 -15 -16 -17 -18 -19 -20
leaf_value=0.029326272779809225 0.018599543386841774 0.02625454125101959 0.024370328697925471 0.020688950099724854 0.017085187352638337 0.027956003971904862 0.026788188292520533 0.032689946340164491 0.019540166681455706 0.029664245519557229 0.02407157666106791 0.026125410626807191 0.023633011271560093 0.0014716142310763117 0.027627676440723517 0.028206602061251741 0.0064952744543617666 0.024876713707897586 0.021025061724178382
leaf_weight=2402.2988369464874 378.84755835682154 8156.2160270065069 7327.3723498731852 6216.8111720532179 3852.533391751349 7080.7698167040944 3396.5270829722285 2628.2244716286659 1564.9173838868737 7632.2819136157632 948.77302771806717 5750.0930595248938 6011.1859902814031 122.33000392466784 504.95067278295755 10302.044889979064 219.83832245320082 6570.6480569392443 4546.7021092548966
leaf_count=8326 1735 26734 31793 28779 24960 24892 11434 5093 10235 20625 4536 23482 29277 980 2784 29542 1638 22813 23657
internal_value=0 2.48015 2.32083 2.6158 2.27319 2.49739 2.28439 2.88185 2.09353 2.79028 1.84657 2.40799 2.2343 1.91279 2.00713 2.78658 1.79334 2.64739 2.30894
internal_weight=0 72304.2 33251 39053.3 30848.7 23264.8 9613.34 13309.1 13224.5 15788.5 4801.31 17624.2 8423.22 2412.04 2289.71 10680.9 1784.76 13651.4 11874.1
internal_count=333315 296945 161668 135277 153342 87918 40213 36370 74410 47359 29496 78932 44914 15637 14657 31277 11873 47705 55450
shrinkage=0.01


Tree=31
num_leaves=20
num_cat=0
split_feature=0 1 3 15 4 2 4 3 0 23 3 21 1 4 1 26 2 22 18
split_gain=1739.88 992.446 815.457 741.568 721.119 534.141 729.259 530.228 556.245 453.248 474.96 431.67 424.565 369.702 444.739 351.077 343.118 322.625 284.696
threshold=0.83028920290000008 0.75723177739791658 1.5000000000000002 89.500000000000014 0.25000000000000006 4.5000000000000009 0.65000000000000002 1.5000000000000002 0.60378455000000009 1.5000000000000002 2.5000000000000004 1.5000000000000002 0.99980520000000006 1.0000000180025095e-35 0.66848730000000012 1.5000000000000002 10.500000000000002 1.5000000000000002 0.42278768585000004
decision_type=2 2 2 2 2 2 2 2 2 2 2 2 2 2 2 2 2 2 2
left_child=1 4 3 5 13 6 15 8 -6 10 -3 -7 -8 16 -15 -2 18 -14 -1
right_child=2 9 -4 -5 7 11 12 -9 -10 -11 -12 -13 17 14 -16 -17 -18 -19 -20
leaf_value=0.024509733646212253 0.017585137191194172 0.023811327860720048 0.029640366678899105 0.028881708358350786 0.017800742830438192 0.028563950611751234 0.027359629717476797 0.026839179428344337 0.022906536630860088 0.029056133073993712 0.028026810990403557 0.024909559182866518 0.024349864778670849 0.0091192543699375583 0.018454172797251679 0.02280608140623451 0.060157190141472368 0.017170056527345254 -0.00060600052892819062
leaf_weight=757.30110886693001 2123.4328107237816 19193.393146447837 6124.0923107042909 5942.1217616051435 2550.4073344394565 5566.3100065216422 4979.1658743917942 2743.6121775060892 13060.182656139135 2305.168184414506 3105.1832944601774 7709.0488580614328 3444.6043060198426 627.59300099313259 2732.4178197830915 3273.4974699765444 25.661566250026226 764.81231707334518 47.992704465985298
leaf_count=3896 10081 80246 12797 15672 15913 14700 16270 9994 63936 7040 7686 27003 11265 4643 15935 12532 47 3290 369
internal_value=0 2.34459 2.62828 2.56745 2.19303 2.49905 2.36695 2.27849 2.20724 2.48347 2.43984 2.64418 2.53832 1.81876 1.67106 2.07519 2.416 2.30454 2.30129
internal_weight=0 47148.9 39927.1 33803 22545.2 27860.9 14585.5 18354.2 15610.6 24603.7 22298.6 13275.4 9188.58 4190.97 3360.01 5396.93 830.955 4209.42 805.294
internal_count=333315 209705 123610 110813 114733 95141 53438 89843 79849 94972 87932 41703 30825 24890 20578 22613 4312 14555 4265
shrinkage=0.01


Tree=32
num_leaves=20
num_cat=0
split_feature=0 1 2 2 4 21 4 15 1 0 0 2 23 26 4 1 2 15 2
split_gain=1663.8 941.595 689.583 834.585 678.21 485.266 474.473 455.627 443.101 430.13 429.198 427.174 424.992 358.461 347.159 422.196 310.689 308.898 308.246
threshold=0.83028920290000008 0.75723177739791658 4.5000000000000009 1.5000000000000002 0.25000000000000006 1.5000000000000002 0.65000000000000002 87.500000000000014 0.99980520000000006 1.2889565000000003 0.6366075000000001 1.0000000180025095e-35 1.5000000000000002 1.5000000000000002 1.0000000180025095e-35 0.66848730000000012 10.500000000000002 14.500000000000002 3.5000000000000004
decision_type=2 2 2 2 2 2 2 2 2 2 2 2 2 2 2 2 2 2 2
left_child=1 4 3 -2 14 -4 7 13 -8 18 17 -3 -13 -5 16 -16 -1 -6 -10
right_child=2 11 5 6 10 -7 8 -9 9 -11 -12 12 -14 -15 15 -17 -18 -19 -20
leaf_value=0.022404483444984209 0.027874588230631638 0.02947086681069612 0.028632223140392994 0.015546506038161297 -0.0059530946187292275 0.025553919073416542 0.026462782247456622 0.026123654086344691 0.018282944492576253 0.028318286530343018 0.023120696169514777 0.023420317100691781 0.027981402412986991 0.021462395966564456 0.0089659739777629595 0.018024509451100849 0.057002420527107328 0.019947121539612693 0.024874900367357514
leaf_weight=818.81762146949768 4776.9497869461775 1438.3465015292168 8838.1502113193274 1627.153854213655 46.474405460059643 12176.174689650536 5035.2164596915245 1245.1493131220341 2225.348242893815 864.02994614839554 13590.506647452712 21317.194035418332 2259.4159021005034 2764.2282330170274 631.91699673235416 2769.3879168853164 26.804964974522591 5015.1352304518223 1041.2922009527683
leaf_count=4265 13440 3580 20746 7887 369 37426 15892 3630 8633 2085 61925 84505 6887 10566 4643 15935 47 27549 3305
internal_value=0 2.28389 2.55905 2.42402 2.13738 2.68486 2.30674 2.07843 2.44714 2.20438 2.2195 2.41802 2.38574 1.92704 1.77671 1.63416 2.35012 1.97093 2.03842
internal_weight=0 47914 40593.7 19579.4 22899 21014.3 14802.4 5636.53 9165.89 4130.67 18652.1 25015 23576.6 4391.38 4246.93 3401.3 845.623 5061.61 3266.64
internal_count=333315 209705 123610 65438 114733 58172 51998 22083 29915 14023 89843 94972 91392 18453 24890 20578 4312 27918 11938
shrinkage=0.01


Tree=33
num_leaves=20
num_cat=0
split_feature=3 9 22 2 12 4 15 4 16 2 5 1 5 1 5 21 15 4 2
split_gain=1629.47 1307.74 842.403 1143.97 788.267 712.866 683.287 525.787 416.475 488.268 419.93 409.624 408.093 388.145 363.873 362.936 318.714 298.175 272.83
threshold=1.5000000000000002 1.5000000000000002 1.5000000000000002 5.5000000000000009 1.5000000000000002 0.65000000000000002 83.500000000000014 0.45000000000000007 2.5000000000000004 1.0000000180025095e-35 10.500000000000002 0.85036930000000011 10.500000000000002 1.6402170000000003 6.5000000000000009 1.5000000000000002 40.500000000000007 0.55000000000000016 1.5000000000000002
decision_type=2 2 2 2 2 2 2 2 2 2 2 2 2 2 2 2 2 2 2
left_child=1 2 3 5 -3 13 7 15 10 -10 -9 -2 17 14 -1 -6 -14 -4 -16
right_child=11 4 12 -5 6 -7 -8 8 9 -11 -12 -13 16 -15 18 -17 -18 -19 -20
leaf_value=0.023062753071691859 0.02494768370097708 0.027353518027192748 0.018760991188579865 0.026989767430419045 0.021133668952533255 0.024877604771972137 0.025862570857984706 0.023913616959474179 0.031679788823276545 0.018941258679536825 0.01743555820205572 0.028370861754248949 0.02298422769550142 0.033444059221174854 0.023502878314055568 0.01565906240934235 0.016107010487844395 0.023345006507177708 0.018236828088048804
leaf_weight=5275.5020610764623 7147.9052789583802 1820.5779417678714 1690.2019712179899 13000.922254480422 1756.2730562090874 13426.315526381135 2165.3901747018099 5617.7710906788707 312.73161162436008 7952.3228346407413 1217.5327191054821 6841.3676376119256 1018.5349274352193 263.96671459823847 1266.9815686792135 3899.9422697499394 1991.3762849569321 8843.2236128672957 4402.3418193534017
leaf_count=19254 22661 6036 7890 37793 9204 43137 6531 24006 937 38130 6480 13709 4349 556 4991 24570 9875 33476 19730
internal_value=0 2.29077 2.38202 2.45899 2.10201 2.33233 2.05171 1.99595 2.09335 1.94233 2.27597 2.66218 2.16815 2.14616 2.11726 1.73589 1.84342 2.26095 1.94137
internal_weight=0 75921.9 51179.4 37636 24742.5 24635.1 22922 20756.6 15100.4 8265.05 6835.3 13989.3 13543.3 11208.8 10944.8 5656.22 3009.91 10533.4 5669.32
internal_count=333315 296945 181051 125461 115894 87668 109858 103327 69553 39067 30486 36370 55590 44531 43975 33774 14224 41366 24721
shrinkage=0.01


Tree=34
num_leaves=20
num_cat=0
split_feature=0 5 13 3 6 21 4 1 10 4 1 9 7 26 2 4 16 7 7
split_gain=1567.36 969.98 829.392 739.066 574.786 532.56 480.59 540.941 457.303 400.302 526.38 363.477 406.533 344.751 317.192 305.491 305.114 287.552 287.24
threshold=0.83028920290000008 8.5000000000000018 0.55000000000000016 1.5000000000000002 1.5000000000000002 1.5000000000000002 0.35000000000000003 0.72303440000000008 5.5000000000000009 0.65000000000000002 0.88176845220000011 1.5000000000000002 0.29664926975000006 2.5000000000000004 4.5000000000000009 0.45000000000000007 7.5000000000000009 0.32557245000000007 0.30331500890000002
decision_type=2 2 2 2 2 2 2 2 2 2 2 2 2 2 2 2 2 2 2
left_child=1 4 11 5 6 14 7 -1 13 10 17 -3 -13 -8 16 -12 -2 -7 -4
right_child=3 2 18 -5 -6 9 8 -9 -10 -11 15 12 -14 -15 -16 -17 -18 -19 -20
leaf_value=0.016033713528069104 0.024256097750009888 0.020046716790647748 0.030036207777002166 0.027443900867937829 0.025914851182474365 0.026314002844385322 0.016927597723034215 0.022628780450708996 0.023431044421920219 0.023883485817301899 0.026774476215816634 0.025707725117601436 0.015894601583923841 0.023510001643505429 0.026722160469843423 0.020414176180552159 0.015271069437448116 0.018401906836138852 0.022388008262566275
leaf_weight=2460.9711788669229 6970.8374013230205 6679.7229473814368 549.50061977654696 6423.7894801422954 4842.505863584578 507.48589840531349 2094.3449561074376 2514.3553586751223 18425.850788339972 12367.244016669691 1935.6419938802719 457.29549577087164 5495.1059640273452 1283.1757336035371 7179.7397131100297 1238.2586939185858 399.60571485757828 4841.64501837641 4616.539900302887
leaf_count=14127 20464 30660 1710 12797 14449 1789 10601 10151 70479 39373 5410 2178 32293 5284 17425 4349 1542 20461 17773
internal_value=0 2.16933 1.98259 2.4323 2.27444 2.37574 2.21711 1.93666 2.2811 2.27343 2.10668 1.84454 1.66485 1.94284 2.52262 2.42931 2.3769 1.91525 2.32015
internal_weight=0 49419.4 17798.2 41864.2 31621.2 35440.5 26778.7 4975.33 21803.4 20890.3 8523.03 12632.1 5952.4 3377.52 14550.2 3173.9 7370.44 5349.13 5166.04
internal_count=333315 209705 84614 123610 125091 110813 110642 24278 86364 71382 32009 65131 34471 15885 39431 9759 22006 22250 19483
shrinkage=0.01


Tree=35
num_leaves=20
num_cat=0
split_feature=0 12 3 21 2 0 1 4 7 1 3 11 27 27 9 5 23 5 18
split_gain=1504.96 1027.59 774.463 640.439 617.904 588.487 546.869 740.167 391.741 413.673 318.401 316.054 291.764 283.514 334.166 294.5 279.929 271.395 261.019
threshold=0.78631440000000008 1.5000000000000002 1.5000000000000002 1.5000000000000002 1.0000000180025095e-35 0.61412430000000018 0.88176845220000011 0.35000000000000003 0.3507225000000001 0.72132930000000017 2.5000000000000004 1.5000000000000002 1.5000000000000002 1.5000000000000002 1.5000000000000002 10.500000000000002 1.5000000000000002 10.500000000000002 0.31622778300000004
decision_type=2 2 2 2 2 2 2 2 2 2 2 2 2 2 2 2 2 2 2
left_child=1 -1 4 11 -3 8 7 -5 16 -10 18 -2 17 14 -7 -16 -6 -9 -8
right_child=3 2 -4 6 5 13 10 12 9 -11 -12 -13 -14 -15 15 -17 -18 -19 -20
leaf_value=0.026725764277571763 0.023773244860261424 0.028139131527018437 0.02390202506532816 0.0178000014184224 0.019615646964032327 0.0212705872133255 0.0019568130398353949 0.02240860214677327 0.011805124382969165 0.01817188401147702 0.027852938127559172 0.026276458958865732 0.024847954102802161 0.02169712052199493 0.019052580345775085 0.013767283707409109 0.038190407487368197 0.017013154480737085 0.023617377448055654
leaf_weight=3050.9880115911365 9801.898632735014 928.50693555921316 6361.7741995677352 4151.1275407299399 2705.2818350568414 6340.5276347175241 55.867264807224274 5163.5210870057344 1847.9585810676217 2279.1598818600178 1950.0197663754225 10390.826462328434 4155.1483531296253 11866.900891698897 6112.5487637296319 1273.9887372329831 83.642371743917465 1137.6922293305397 13269.417577989399
leaf_count=9286 28565 3048 19558 17698 13435 26119 309 18023 12121 11163 3357 24329 13397 49538 30080 7678 191 4849 40571
internal_value=0 2.11327 2.07039 2.36856 2.00955 1.98658 2.2756 2.13726 1.72775 1.53211 2.40789 2.50614 2.27909 2.05651 1.95866 1.8141 2.01727 2.14344 2.35266
internal_weight=0 42851.3 39800.3 50075.5 33438.5 32510 29882.8 14607.5 6916.04 4127.12 15275.3 20192.7 10456.4 25594 13727.1 7386.54 2788.92 6301.21 13325.3
internal_count=333315 182217 172931 151098 153373 150325 98204 53967 36910 23284 44237 52894 36269 113415 63877 37758 13626 22872 40880
shrinkage=0.01


Tree=36
num_leaves=20
num_cat=0
split_feature=15 15 6 6 0 18 4 1 4 7 4 15 4 1 1 4 5 0 21
split_gain=1703.32 865.63 716.03 560.934 482.881 443.469 413.26 468.685 382.919 373.456 364.853 312.062 290.542 315.04 280.432 271.995 254.775 277.864 246.165
threshold=63.500000000000007 28.500000000000004 1.5000000000000002 1.5000000000000002 0.60835270000000008 0.31614868930000006 0.25000000000000006 0.84372720000000012 0.35000000000000003 0.37013510525000004 1.0000000180025095e-35 96.500000000000014 0.55000000000000016 0.52796780100000007 0.59740420000000005 1.0000000180025095e-35 8.5000000000000018 0.43960675000000005 1.5000000000000002
decision_type=2 2 2 2 2 2 2 2 2 2 2 2 2 2 2 2 2 2 2
left_child=1 12 4 5 16 -2 7 -7 10 -10 -6 -8 15 -14 -4 -1 17 -3 -17
right_child=3 2 14 -5 8 6 11 -9 9 -11 -12 -13 13 -15 -16 18 -18 -19 -20
leaf_value=0.026063895946929035 0.012077735847630527 0.0024826329121285344 0.017411771596988201 0.025876133799846195 0.022843605404212645 0.017881445759813153 0.023126291524894569 0.024673780773183808 0.021438383351281041 0.01841295830028656 0.015668839234262273 0.026523046585055218 0.01736885489642221 0.023493000438754425 0.024412458605607069 0.022670145461849752 0.013215827964336447 0.018596992422184183 0.018289637780791644
leaf_weight=792.40587652474642 373.03517350554466 111.11383691430092 670.10528121888638 7946.5734351798892 885.63634761422873 2944.8383008465171 25486.348509982228 1550.8926624432206 11695.939454622567 6265.877221442759 3548.9484927132726 3025.7522422522306 894.32816533744335 13825.688330434263 3916.3073840811849 1963.8548279479146 1766.5464542582631 2894.1656436696649 3699.4587674811482
leaf_count=2751 2004 753 2960 17027 3818 11811 77144 3963 47047 27386 19345 6930 3925 45350 11763 7264 10720 14113 17241
internal_value=0 2.07792 1.97349 2.34883 1.91179 2.29199 2.30424 2.02246 1.97333 2.0383 1.71017 2.34868 2.23452 2.31209 2.33896 2.05765 1.62296 1.80012 1.98087
internal_weight=0 52930.4 31754.6 41327.4 27168.2 33380.9 33007.8 4495.73 22396.4 17961.8 4434.58 28512.1 21175.7 14720 4586.41 6455.72 4771.83 3005.28 5663.31
internal_count=333315 214436 137905 118879 123182 101852 99848 15774 97596 74433 23163 84074 76531 49275 14723 27256 25586 14866 24505
shrinkage=0.01


Tree=37
num_leaves=20
num_cat=0
split_feature=15 15 6 6 2 18 2 4 3 1 13 1 4 2 20 1 10 7 3
split_gain=1635.66 820.986 681.321 537.523 467.174 420.815 430.149 403.768 387.603 350.798 326.664 348.007 314.021 309.084 379.096 301.985 299.746 374.886 283.493
threshold=63.500000000000007 28.500000000000004 1.5000000000000002 1.5000000000000002 1.5000000000000002 0.31614868930000006 1.0000000180025095e-35 0.25000000000000006 2.5000000000000004 0.84372720000000012 1.0000000180025095e-35 0.72132930000000017 0.35000000000000003 4.5000000000000009 1.5000000000000002 1.1977020000000003 6.5000000000000009 0.32124758405000003 2.5000000000000004
decision_type=2 2 2 2 2 2 2 2 2 2 2 2 2 2 2 2 2 2 2
left_child=1 18 4 5 12 -2 -7 9 16 10 -8 -12 15 14 -9 -3 17 -6 -1
right_child=3 2 -4 -5 8 6 7 13 -10 -11 11 -13 -14 -15 -16 -17 -18 -19 -20
leaf_value=0.021380154423364963 0.011858237907750107 0.014316437678569898 0.022821021939337036 0.025250003077825336 0.021138879005526408 0.028966108786298211 0.024761596726316788 0.020458346891733287 0.021953362607608128 0.023453071076628956 0.009227360368693642 0.018088061251124946 0.022401653627192368 0.023726644596115926 0.024096260359369702 0.035797208313061359 0.018170070434283671 0.013292837785639789 0.024900464014867528
leaf_weight=18876.986078590155 376.12499642372131 845.39468284696341 4653.3313263580203 8061.6007996499538 776.06335786730051 996.6039660051465 510.88182463496923 8947.2143471688032 2269.516201518476 1485.1497071683407 582.84847567230463 1850.7062919735909 4501.2487751990557 14883.955117806792 4213.3990977704525 70.938102133572102 16228.166835695505 2828.4259213581681 2603.0550203472376
leaf_count=70454 2004 4526 14723 17027 3847 1703 1622 29740 7064 3876 3145 6927 16282 40451 12384 134 75065 16264 6077
internal_value=0 2.02929 1.92821 2.29294 1.86837 2.23767 2.24949 2.22963 1.80387 1.94906 1.7492 1.59659 2.13154 2.27395 2.1623 1.59794 1.75907 1.49821 2.18068
internal_weight=0 53653.1 32173.1 41908.5 27519.8 33846.9 33470.8 32474.2 22102.2 4429.59 2944.44 2433.55 5417.58 28044.6 13160.6 916.333 19832.7 3604.49 21480
internal_count=333315 214436 137905 118879 123182 101852 99848 98145 102240 15570 11694 10072 20942 82575 42124 4660 95176 20111 76531
shrinkage=0.01


Tree=38
num_leaves=20
num_cat=0
split_feature=15 15 6 6 12 0 27 2 18 2 15 14 1 3 8 1 7 12 1
split_gain=1573.46 779.656 648.915 515.876 508.87 553.303 500.172 466.278 399.887 408.747 365.461 324.958 301.656 273.03 273.951 263.448 262.49 257.626 256.08
threshold=63.500000000000007 28.500000000000004 1.5000000000000002 1.5000000000000002 1.5000000000000002 0.60835270000000008 1.5000000000000002 1.5000000000000002 0.31614868930000006 1.0000000180025095e-35 96.500000000000014 2.5000000000000004 0.55593384325000006 2.5000000000000004 5.5000000000000009 0.59740420000000005 0.30033312420000008 1.5000000000000002 0.6742392348038041
decision_type=2 2 2 2 2 2 2 2 2 2 2 2 2 2 2 2 2 2 2
left_child=1 13 4 8 -3 12 7 -7 -2 -10 11 -11 16 14 17 -4 -6 -1 -16
right_child=3 2 15 -5 5 6 -8 -9 9 10 -12 -13 -14 -15 18 -17 -18 -19 -20
leaf_value=0.025512902349111126 0.011644921673191776 0.024244807527239624 0.016558350204307588 0.024653166852904879 0.028679535576127395 0.021109813506591687 0.020227725785256986 0.016171186122710079 0.028230685715853767 0.020802926100680436 0.024794239608621232 0.023233397397460914 0.015702759638638934 0.024306357530077597 0.0085624614044803697 0.023253109830954459 0.0049713491030713144 0.02037376949687492 0.029762164875582801
leaf_weight=1033.0285882651806 379.16935323178768 1354.7484472170472 688.14195079356432 8173.6250547915697 52.172130294144154 2414.6441846564412 10302.910318978131 9179.3741120100021 1012.2599645629525 21991.724366717041 3582.6272009164095 7336.1479270085692 4115.3869519680738 2639.8248410522938 63.729537300765514 4030.8523902595043 445.23774943500757 17503.779454581439 537.9248623624444
leaf_count=2898 2004 4383 2960 17027 234 8907 41032 44146 1703 70745 8233 19167 21335 6077 328 11763 3145 65787 1441
internal_value=0 1.98267 1.88476 2.23955 1.82669 1.79614 1.86245 1.71997 2.18576 2.19717 2.17792 2.14109 1.48137 2.12916 2.08757 2.22769 0.745804 2.06602 2.75166
internal_weight=0 54361.8 32583.5 42475.6 27864.5 26509.7 21896.9 11594 34301.9 33922.8 32910.5 29327.9 4612.8 21778.3 19138.5 4718.99 497.41 18536.8 601.654
internal_count=333315 214436 137905 118879 123182 118799 94085 53053 101852 99848 98145 89912 24714 76531 70454 14723 3379 68685 1769
shrinkage=0.01


Tree=39
num_leaves=20
num_cat=0
split_feature=15 15 6 6 12 0 2 18 2 4 3 1 4 2 20 5 9 7 1
split_gain=1515.54 741.605 619.269 496.031 481.469 526.353 444.469 380.471 389.227 378.754 353.83 330.756 297.713 292.955 352.226 292.262 316.87 301 288.168
threshold=63.500000000000007 28.500000000000004 1.5000000000000002 1.5000000000000002 1.5000000000000002 0.60835270000000008 1.5000000000000002 0.31614868930000006 1.0000000180025095e-35 0.25000000000000006 2.5000000000000004 0.84372720000000012 0.35000000000000003 4.5000000000000009 1.5000000000000002 8.5000000000000018 1.5000000000000002 0.29427871170000003 0.55593384325000006
decision_type=2 2 2 2 2 2 2 2 2 2 2 2 2 2 2 2 2 2 2
left_child=1 -1 4 7 -3 18 12 -2 -9 11 15 -10 -7 14 -11 17 -17 -8 -6
right_child=3 2 -4 -5 5 6 10 8 9 13 -12 -13 -14 -15 -16 16 -18 -19 -20
leaf_value=0.020798393568714209 0.011437528660796401 0.023635869001039214 0.021757318339017191 0.024083550553999175 0.0073431902473880296 0.015245931369912058 0.0019060083180297044 0.027532774754611529 0.016681914808904713 0.019525146633904419 0.021604959390452545 0.022396520208728316 0.022218888099217963 0.022655446162816589 0.022984627863101115 0.017170852446550665 0.012583352868710667 0.018312411309362335 0.015377333392522253
leaf_weight=22070.228912189603 382.16900476813316 1375.6476374715567 4783.0302832275629 8282.7168901115656 500.11130432784557 734.89780375361443 113.15997062623501 1027.4619199261069 3017.5432976931334 9179.2968374043703 1883.6357026100159 1524.5289863795042 3670.3280505537987 15284.252469815314 4331.9774694815278 3782.0262282565236 2501.5670696273446 9481.5380558148026 4160.2261996045709
leaf_count=76531 2004 4383 14723 17027 3379 3595 663 1703 11694 29740 5495 3876 12299 40451 12384 17276 14580 40177 21335
internal_value=0 1.93795 1.84302 2.18845 1.78659 1.75701 1.82123 2.13603 2.14706 2.12838 1.75071 1.86 2.10556 2.17071 2.06343 1.7021 1.53445 1.81189 1.45152
internal_weight=0 55056.4 32986.2 43029.9 28203.1 26827.5 22167.2 34747.2 34365.1 33337.6 17761.9 4542.07 4405.23 28795.5 13511.3 15878.3 6283.59 9594.7 4660.34
internal_count=333315 214436 137905 118879 123182 118799 94085 101852 99848 98145 78191 15570 15894 82575 42124 72696 31856 40840 24714
shrinkage=0.01


Tree=40
num_leaves=20
num_cat=0
split_feature=1 5 3 27 10 21 6 11 0 15 11 22 14 12 4 4 4 21 1
split_gain=1475.28 906.392 890.331 667.595 521.92 478.236 465.621 385.174 375.126 374.089 397.266 330.536 298.069 297.242 288.221 455.055 268.473 268.383 258.842
threshold=0.82234420510000017 7.5000000000000009 2.5000000000000004 1.5000000000000002 9.5000000000000018 1.5000000000000002 1.5000000000000002 1.5000000000000002 1.0682110000000002 89.500000000000014 1.5000000000000002 1.5000000000000002 2.5000000000000004 1.5000000000000002 0.35000000000000003 1.0000000180025095e-35 0.15000000000000005 1.5000000000000002 0.56639190000000006
decision_type=2 2 2 2 2 2 2 2 2 2 2 2 2 2 2 2 2 2 2
left_child=1 6 5 4 17 11 9 13 12 10 14 -2 -7 -6 15 -1 -5 18 -3
right_child=2 3 -4 16 7 8 -8 -9 -10 -11 -12 -13 -14 -15 -16 -17 -18 -19 -20
leaf_value=0.023198660229721297 0.022520397881215914 0.0065375002019066875 0.024536519461807738 0.014640487734244451 0.024282348431832426 0.018418525676400784 0.022726342921193382 0.019780277186807999 0.02192263391544343 0.023561823970616853 0.020756644312906244 0.018740064326845409 0.021325841465397989 0.014527223367836318 0.018751159357859707 0.014005790656213333 0.019690900791737534 0.01112336525544555 0.018611291236030971
leaf_weight=647.39891751855612 13564.809335462749 213.3128545358777 6380.8714022040367 1205.3750750273466 336.79773643612862 15975.638332173228 4537.3375155553222 3117.2813296690583 5895.1588791459799 1835.8990618139505 7320.337946921587 2788.3477708026767 4525.3068183735013 4303.3608530238271 10517.564639136195 3200.3009746670723 8302.3930990025401 3059.6207107529044 1059.4200641214848
leaf_count=2360 33815 1217 11239 5940 991 58172 11862 11113 14503 4363 25965 8948 13903 19673 40055 15267 32290 17286 4353
internal_value=0 1.8608 2.10521 1.70681 1.55089 2.0532 1.97933 1.70617 1.96995 1.92275 1.88606 2.18758 1.90603 1.52353 1.78944 1.55525 1.90506 1.27286 1.65877
internal_weight=0 49656.4 49130.1 21597.6 12089.8 42749.3 28058.8 7757.44 26396.1 23521.5 21685.6 16353.2 20500.9 4640.16 14365.3 3847.7 9507.77 4332.35 1272.73
internal_count=333315 192735 140580 92863 54633 129341 99872 31777 86578 88010 83647 42763 72075 20664 57682 17627 38230 22856 5570
shrinkage=0.01


Tree=41
num_leaves=20
num_cat=0
split_feature=1 3 4 0 4 2 2 27 1 19 8 22 12 0 12 2 15 8 0
split_gain=1420.22 859.009 783.613 718.01 634.706 513.316 532.714 474.364 444.187 407.069 391.917 342.785 340.018 355.807 332.11 327.584 398.411 322.254 310.154
threshold=0.82234420510000017 2.5000000000000004 0.35000000000000003 0.68026795000000007 1.0000000180025095e-35 1.0000000180025095e-35 5.5000000000000009 1.5000000000000002 0.72132930000000017 1.5000000000000002 1.5000000000000002 1.5000000000000002 1.5000000000000002 0.68194544160000015 1.5000000000000002 1.5000000000000002 63.500000000000007 3.5000000000000004 0.6317773040500001
decision_type=2 2 2 2 2 2 2 2 2 2 2 2 2 2 2 2 2 2 2
left_child=2 5 4 9 18 -2 15 12 10 -4 -6 -8 -5 -14 -12 -7 -17 -11 -1
right_child=1 -3 3 7 8 6 11 -9 -10 17 14 -13 13 -15 -16 16 -18 -19 -20
leaf_value=0.011180001477655988 0.027648636712005032 0.023992456841527645 0.013467960389575831 0.023163049925500719 0.010362336853360396 0.021354970529825889 0.022124805159564356 0.021421548138474029 0.017085091117521357 0.017164046018509793 0.026084166634279066 0.018785360071041084 0.034373267614262869 0.018112388130522478 0.014575981865295755 0.016960760103251767 0.019740651355524452 0.023840109245032194 0.022858319435074295
leaf_weight=262.19775924831629 878.60939905792475 6459.9064059704542 2867.6208401918411 1561.4652655273676 2663.3507368341088 4871.963522426784 12670.469997122884 10728.621086321771 5721.1494206637144 6288.8338312283158 280.86099833250046 4058.3094554841518 135.79311292618513 14858.007624410093 2340.24253924191 9470.8459102511406 11314.982322223485 816.95717044919729 1714.2335430756211
leaf_count=1445 1834 11239 13893 4036 15078 14164 32975 33427 22119 28364 833 13438 360 52752 11695 35356 31574 2805 5928
internal_value=0 2.0591 1.82071 1.89443 1.60913 2.00831 1.99263 1.97836 1.51543 1.66482 1.3064 2.13147 1.87221 1.82597 1.58091 1.90211 1.8474 1.79316 2.1309
internal_weight=0 49725.1 50239.3 37257.3 12982 43265.2 42386.6 27283.9 11005.6 9973.41 5284.45 16728.8 16555.3 14993.8 2621.1 25657.8 20785.8 7105.79 1976.43
internal_count=333315 140580 192735 135637 57098 129341 127507 90575 49725 45062 27606 46413 57148 53112 12528 81094 66930 31169 7373
shrinkage=0.01


Tree=42
num_leaves=20
num_cat=0
split_feature=15 13 3 3 27 12 5 4 4 2 2 0 2 6 0 23 2 0 15
split_gain=1385.85 892.521 620.147 558.589 434.821 456.989 429.899 401.562 434.549 426.635 387.71 375.923 329.338 319.996 317.507 317.396 309.346 398.035 305.18
threshold=64.500000000000014 0.25000000000000006 1.5000000000000002 2.5000000000000004 1.5000000000000002 1.5000000000000002 4.5000000000000009 1.0000000180025095e-35 0.35000000000000003 3.5000000000000004 1.0000000180025095e-35 0.55002815000000016 1.5000000000000002 1.5000000000000002 0.62547501305000008 1.5000000000000002 1.5000000000000002 0.81651090000000015 18.500000000000004
decision_type=2 2 2 2 2 2 2 2 2 2 2 2 2 2 2 2 2 2 2
left_child=1 4 6 7 5 -1 -2 -3 9 -9 -8 -10 -13 18 -12 -11 17 -7 -14
right_child=2 3 -4 -5 -6 16 10 8 11 15 14 12 13 -15 -16 -17 -18 -19 -20
leaf_value=0.022851867008291352 0.021611247674111867 0.026738063795364034 0.023132414713503663 0.02212578002449184 0.018038472006703311 0.015632860486306063 0.028831431072639812 0.007953373144026098 0.013527831303132898 0.01850118684986906 0.013866603319502353 0.02126593318321561 0.019809070186435393 0.020916680314299246 0.019251833445053792 -0.012481332314618294 0.013940874539999235 0.025909451615530314 0.016994716643453672
leaf_weight=723.71195919811726 9806.6393304914236 571.65788022428751 6649.3474144041538 4713.0573068261147 8804.647173807025 1461.5254446342587 409.09485923498869 777.01271196454763 1398.7062919437885 1100.9906778410077 1143.5471038073301 4656.985056579113 5403.62887006253 4000.0295071899891 25697.339433178306 34.088746801018715 9832.3194385915995 507.86512930691242 13426.844006717205
leaf_count=2246 24469 1614 12090 10226 35648 6580 715 4192 6707 4730 5281 14242 17655 10610 74459 216 47311 1426 52898
