tree
version=v3
num_class=1
num_tree_per_iteration=1
label_index=0
max_feature_idx=34
objective=binary sigmoid:1
feature_names=ps_car_13 ps_reg_03 ps_ind_03 ps_ind_05_cat ps_reg_01 ps_ind_15 ps_ind_17_bin ps_car_14 ps_car_01_cat ps_ind_06_bin ps_car_15 ps_ind_01 ps_car_07_cat ps_reg_02 ps_car_03_cat ps_car_11_cat ps_car_06_cat ps_ind_07_bin ps_car_12 ps_calc_14 ps_car_09_cat ps_ind_02_cat ps_calc_10 ps_ind_16_bin ps_calc_03 ps_calc_02 ps_ind_09_bin ps_calc_11 ps_car_04_cat ps_car_08_cat ps_car_02_cat ps_car_05_cat ps_car_11 ps_ind_04_cat ps_ind_18_bin
feature_infos=[0.3133398:3.3947425321] [0.061237239999999998:3.4907910000000002] [0:11] [1:3] [0:0.90000000000000002] [0:13] [1:2] [0.1095445:0.63639610000000002] [1:6] [1:2] [0:14] [0:7] [1:2] [0:1.8] [1:3] [-0.88492512611029339:0.67043710492173902] [1:8] [1:2] [0.10000000000000001:1.2649110641000001] [0:23] [1:3] [1:3] [0:25] [1:2] [0:0.90000000000000002] [0:0.90000000000000002] [1:2] [0:18] [1:3] [1:2] [1:2] [1:3] [0:3] [1:2] [1:2]
tree_sizes=2204 2219 2226 2226 2231 2224 2222 2231 2235 2235 2228 2239 2248 2235 2239 2231 2229 2232 2231 2234 2241 2230 2244 2242 2235 2212 2236 2225 2227 2232 2239 2238 2240 2224 2226 2232 2233 2244 2248 2239 2245 2230 2240 2228 2253 2245 2232 2239 2247 2236 2226 2227 2230 2226 2228 2232 2228 2237 2242 2228 2241 2237 2230 2245 2243 2239 2242 2246 2243 2247 2234 2252 2259 2246 2248 2246 2250 2264 2260 2252 2264 2246 2252 2272 2254 2261 2252 2261 2257 2258 2261 2254 2269 2263 2264 2259 2263 2264 2263 2264 2266 2274 2251 2279 2271 2262 2261 2267 2265 2274 2277 2270 2279 2268 2297 2266 2265 2267 2270 2274 2272 2285 2261 2275 2274 2261 2265 2259 2256 2267 2282 2277 2267 2280 2278 2269 2276 2259 2264 2273 2260 2268 2279 2282 2278 2275 2268 2277 2284 2261 2282 2273 2264 2276 2278 2266 2261 2276 2272 2268 2275 2275 2268 2268 2270 2262 2276 2281 2279 2279 2287 2261 2265 2263 2267 2273 2290 2279 2278 2276 2250 2265 2265 2272 2281 2266 2269 2262 2263 2251 2264 2282 2287 2263 2267 2278 2271 2273 2265 2272 2284 2281 2269 2278 2283 2287 2278 2263 2276 2291 2283 2256 2269 2293 2262 2274 2277 2283 2269 2269 2272 2289 2271 2277 2279 2282 2275 2284 2273 2268 2268 2294 2283 2275 2270 2278 2278 2260 2274 2269 2283 2289 2292 2269 2274 2289 2273 2285 2284 2273 2287 2271 2288 2282 2288 2278 2277 2294 2288 2268 2267 2287 2261 2269 2265 2267 2287 2278 2299 2258 2285 2283 2279 2274 2261 2283 2290 2288 2265 2260 2273 2278 2266 2264 2275 2289 2256 2278 2293 2274 2284 2278 2292 2295 2306 2292 2289 2279 2295 2297 2273 2279 2283 2286 2285 2270 2272 2301 2272 2271 2297 2283 2285 2276 2294 2298 2269 2288 2288 2297 2273 2282 2274 2282 2272 2272 2278 2272 2270 2284 2258 2285 2285 2260 2295 2285 2288 2298 2275 2287 2280 2271 2273 2269 2281 2284 2270 2267 2288 2259 2266 2276 2268 2285 2281 2290 2269 2277 2275 2277 2249 2263 2288 2282 2259 2270 2293 2275 2264 2259 2290 2247 2295 2289 2281 2279 2272 2263 2280 2251 2293 2298 2285 2301 2297 2266 2288 2259 2266 2290 2288 2285 2297 2268 2277 2250 2254 2272 2262 2270 2227 2258 2267 2275 2242 2265 2262 2271 2291 2280 2279 2251 2253 2262 2281 2284 2284 2245 2287 2302 2286 2307 2289 2287 2303 2272 2304 2280 2295 2260 2269 2270 2274 2276 2280 2266 2267 2252 2298 2295 2281 2278 2275 2271 2276 2275 2283 2248 2289 2285 2271 2284 2243 2280 2233 2281 2259 2281 2260 2280 2252 2256 2242 2271 2254 2273 2288 2281 2303 2274 2227 2235 2298 2276 2278 2292 2290 2299 2278 2287 2286 2292 2306 2288 2286 2285 2283 2275 2275 2286 2291 2283 2269 2290 2282 2271 2293 2282 2229 2282 2299 2267 2261 2279 2249 2256 2246 2257 2280 2274 2267 2276 2267 2253 2264 2251 2262 2241 2277 2258 2254 2235 2265 2255 2223 2318 2317 2295 2309 2295 2256 2274 2229 2258 2248 2270 2259 2270 2281 2277 2252 2279 2255 2262 2268 2259 2255 2301 2262 2285 2265 2277 2262 2255 2270 2271 2257 2230 2232 2275 2284 2282 2290 2308 2264 2244 2233 2231 2259 2261 2279 2272 2246 2236 2269 2284 2239 2240 2307 2285 2290 2252 2231 2302 2262 2233 2232 2263 2234 2255 2275 2267 2297 2277 2282 2222 2253 2263 2254 2256 2266 2247 2289 2259 2284 2261 2268 2247 2246 2257 2284 2299 2278 2289 2299 2266 2271 2268 2272 2249 2224 2301 2307 2302 2294 2273 2268 2248 2280 2284 2243 2277 2252 2279 2238 2264 2276 2281 2271 2249 2257 2313 2234 2255 2252 2311 2259 2269 2297 2265 2230 2229 2247 2256 2277

Tree=0
num_leaves=20
num_cat=0
split_feature=0 3 3 6 6 13 15 5 0 15 0 13 0 13 7 5 15 2 13
split_gain=55504.6 22436.8 15367.9 12807.7 11141 10455 9623.48 5965.2 4171.57 4170.84 3814 3529.32 2541.18 2474.65 2375.23 2349.72 2252.63 2194 2117.32
threshold=0.83028920290000008 2.5000000000000004 1.5000000000000002 1.5000000000000002 1.5000000000000002 0.35000000000000003 0.11838924825267978 7.5000000000000009 0.64643011030000019 -0.28745760736434262 1.3763995000000002 0.35000000000000003 0.68495795000000015 0.25000000000000006 0.33912950000000003 11.500000000000002 -0.33750662900763018 7.5000000000000009 0.45000000000000007
decision_type=2 2 2 2 2 2 2 2 2 2 2 2 2 2 2 2 2 2 2
left_child=1 3 4 5 6 7 13 9 -7 -1 17 16 -11 -2 -5 -10 -3 -8 -4
right_child=2 11 18 14 -6 8 10 -9 15 12 -12 -13 -14 -15 -16 -17 -18 -19 -20
leaf_value=-3.170285557506348 -3.1543329866098122 -3.1528405426210915 -3.1001280388611208 -3.1138147011689363 -3.0990062386889106 -3.1641405710869961 -3.1274865654657855 -3.1789878892942429 -3.1386343695894454 -3.1683919264567901 -3.0967222845859612 -3.0964027267582241 -3.1392430338993984 -3.1360107278309193 -3.1392239767364045 -3.1652668152540393 -3.116008044446184 -3.1049575480224116 -3.0746285613063313
leaf_weight=1581.0300934612751 1156.9955266267061 249.00886808335781 671.13856826722622 623.45322950184345 1400.9240842163563 1157.3688215911388 2501.9281013011932 2831.7481491565704 2714.8101562857628 409.22046905755997 639.94019438326359 648.87240424752235 1111.2489627152681 2031.3993615061045 897.49739401042461 377.32155795395374 498.37879920005798 522.5497899055481 632.52220369875431
leaf_count=28171 18840 4019 7429 7722 15356 19938 34279 52827 40107 7217 6874 6950 16482 29498 13310 6541 6278 6027 5450
internal_value=0 11.7794 14.9487 11.3273 14.4447 10.9231 13.9194 10.0655 12.1204 11.0236 15.0248 15.5684 12.2061 12.649 14.0341 12.7265 14.087 14.5555 18.1394
internal_weight=0 13100 9557.4 11703.7 8253.74 10182.7 6852.81 5933.25 4249.5 3101.5 3664.42 1396.26 1520.47 3188.39 1520.95 3092.13 747.388 3024.48 1303.66
internal_count=333315 209562 123753 192315 110874 171283 95518 104697 66586 51870 47180 17247 23699 48338 21032 46648 10297 40306 12879
shrinkage=1


Tree=1
num_leaves=20
num_cat=0
split_feature=15 3 3 0 6 9 4 4 6 6 0 2 0 8 12 2 15 13 15
split_gain=39712 13572.8 11846.4 10539.1 7445.8 5236.04 4581.36 4348.91 3595.43 2955.93 2952.64 2649.99 2571.77 2324.47 2307.25 2662.94 2392.68 2264.83 2232.24
threshold=-0.069575444365654715 2.5000000000000004 1.5000000000000002 0.97582345000000015 1.5000000000000002 1.5000000000000002 0.65000000000000002 0.45000000000000007 1.5000000000000002 1.5000000000000002 0.6366075000000001 4.5000000000000009 0.61838231020000012 1.5000000000000002 1.5000000000000002 1.5000000000000002 -0.3177746513129458 0.55000000000000016 0.18459634928146937
decision_type=2 2 2 2 2 2 2 2 2 2 2 2 2 2 2 2 2 2 2
left_child=1 4 3 6 5 12 8 -7 -2 11 -8 -5 -1 -4 -9 -16 -17 -3 -12
right_child=2 17 13 9 -6 7 10 14 -10 -11 18 -13 -14 -15 15 16 -18 -19 -20
leaf_value=0.085220701480478681 0.10064447193494921 0.12339133826922458 0.13226470401928786 0.12236672697381171 0.11957292992816319 0.072685593049069491 0.091489894060950927 0.12926785626768056 0.13439038005062043 0.15121750182719243 0.12101449483387652 0.13916570576940973 0.10509275755156634 0.1575977859673956 0.11160506916693967 0.075140179881352562 0.095667342768310473 0.15138939706134205 0.14191380087472735
leaf_weight=764.1431424356997 2345.4976688735187 982.15459319576621 497.35798566043377 1838.958846218884 1455.8593379817903 1388.6846039667726 291.48607521504164 175.01683041453362 364.83527232706547 889.47893157601357 2999.9108120426536 1918.8539105765522 4408.0574304759502 1332.8197285570204 553.65647869557142 964.76764977350831 1380.1918187402189 409.33596919849515 616.00896267220378
leaf_count=12716 34365 11604 5251 22150 17861 24741 4611 2117 3875 7711 37299 19722 63306 10583 7667 16910 21121 3487 6218
internal_value=0 10.2188 12.7116 12.3283 9.84945 9.53094 11.5177 8.73726 10.5187 13.4825 12.2107 13.0945 10.2157 15.0713 9.40083 9.18794 8.7222 13.1628 12.4575
internal_weight=0 12481.9 13095.2 11265 11090.4 9634.52 6617.74 4462.32 2710.33 4647.29 3907.41 3757.81 5172.2 1830.18 3073.63 2898.62 2344.96 1391.49 3615.92
internal_count=333315 181530 151785 135951 166439 148578 86368 72556 38240 49583 48128 41872 76022 15834 47815 45698 38031 15091 43517
shrinkage=0.01


Tree=2
num_leaves=20
num_cat=0
split_feature=15 1 1 4 23 14 5 0 0 0 4 14 8 15 1 0 14 11 20
split_gain=28235.4 10108.4 8962.65 4553 4409.08 4222.15 4094.08 3818.95 3078.51 2497.09 2111.64 2020.74 1997.82 1577.35 1483.58 1482.16 1474.92 1425.02 1498.61
threshold=-0.042868681735059859 0.75723177739791658 0.82234420510000017 0.35000000000000003 1.5000000000000002 1.5000000000000002 8.5000000000000018 0.67858321740000016 0.67058165000000003 1.2480895000000003 0.65000000000000002 1.5000000000000002 1.5000000000000002 0.33953380037368264 0.60941580000000017 0.63874552115000005 1.5000000000000002 1.5000000000000002 1.5000000000000002
decision_type=2 2 2 2 2 2 2 2 2 2 2 2 2 2 2 2 2 2 2
left_child=1 3 4 12 13 9 -3 11 -6 15 -10 14 -1 17 -5 -4 -8 18 -2
right_child=2 6 5 7 8 -7 16 -9 10 -11 -12 -13 -14 -15 -16 -17 -18 -19 -20
leaf_value=0.061123579153174311 0.085698776225158521 0.10729072471337289 0.08097740355586408 0.062733280570023114 0.066514904751332898 0.12722442822653307 0.085929051428211528 0.095925931460715819 0.091537353594098439 0.13162293859186397 0.10790101393502344 0.095002211071043605 0.081335293418824187 0.13428887361186148 0.081954328156697578 0.111188328800819 0.10188375579757185 0.1198415186160998 0.11009231288712801
leaf_weight=976.81789500638843 347.09312902390957 4218.7590456418693 169.60850178450346 743.43715799972415 324.4052100032568 3620.7974696196616 1715.2053519897163 3241.5915069691837 1765.0497310496867 610.35724916309118 1425.4993161261082 570.77297308668494 979.37431469932199 312.27143509685993 873.2504836730659 3817.3747039660811 875.0037634074688 903.56467773765326 917.79279418289661
leaf_count=16324 4571 48212 2458 12297 5163 30811 23557 41659 22535 4814 15439 7496 14381 2400 12736 39729 10509 8519 9705
internal_value=0 9.2426 11.2365 8.43231 10.3068 11.9148 10.1215 8.90362 9.58643 11.2787 9.88484 7.88264 7.12426 11.3276 7.31155 10.9903 9.13187 11.025 10.3399
internal_weight=0 14194.2 14213.8 7385.24 5995.68 8218.14 6808.97 5429.05 3514.95 4597.34 3190.55 2187.46 1956.19 2480.72 1616.69 3986.98 2590.21 2168.45 1264.89
internal_count=333315 187171 146144 104893 68332 77812 82278 74188 43137 47001 37974 32529 30705 25195 25033 42187 34066 22795 14276
shrinkage=0.01


Tree=3
num_leaves=20
num_cat=0
split_feature=1 3 17 23 12 5 17 28 4 7 4 2 1 8 3 6 9 20 3
split_gain=19970.7 9629.11 7790.32 5517.06 5154.9 3563.75 2557.12 2438.11 2261.29 2139.64 2066.58 1844.67 1612.17 1455.41 1396.91 1345.83 1287.18 1246.64 1245.24
threshold=0.80622700000000014 1.5000000000000002 1.5000000000000002 1.5000000000000002 1.5000000000000002 8.5000000000000018 1.5000000000000002 1.5000000000000002 0.55000000000000016 0.34293165000000003 0.55000000000000016 1.5000000000000002 0.58843010740000012 1.5000000000000002 1.5000000000000002 1.5000000000000002 1.5000000000000002 1.5000000000000002 1.5000000000000002
decision_type=2 2 2 2 2 2 2 2 2 2 2 2 2 2 2 2 2 2 2
left_child=2 3 4 6 -1 10 17 11 14 -7 13 -5 -12 -6 -4 -3 -13 -2 -11
right_child=1 15 8 7 5 9 -8 -9 -10 18 12 16 -14 -15 -16 -17 -18 -19 -20
leaf_value=0.10469209325140146 0.089240282728098835 0.11502686529072319 0.084733783132191501 0.10124638046606782 0.068520358477691293 0.08253956756566326 0.11403575036655962 0.10133728036244702 0.10366808173962122 0.064254174465932096 0.078371436088039245 0.089615489401534756 0.092043086042173552 0.083323027843595382 0.11203105169601692 0.13367037384336464 0.07853729953708842 0.10364316539219655 0.082989051100747752
leaf_weight=803.08337319642305 853.59966506436467 1896.1443426758051 1490.2103196904063 1023.0395977310836 1277.2724847011268 1206.2310911267996 2027.5543906800449 2130.8182477168739 2101.4736584126949 2619.5059793591499 1274.5793320834637 3816.5329308472574 2667.9472882449627 1383.8371913209558 214.44681672751904 486.55619136989117 1446.2718333080411 2030.4213006980717 410.34944795817137
leaf_count=7790 9268 13467 17682 10232 17784 14854 15749 19280 19795 37732 16062 42011 29302 16884 1758 2484 17902 18586 4693
internal_value=0 10.0318 8.43061 9.7008 8.0246 7.84348 10.543 9.20932 9.67259 7.12758 8.30272 8.89595 8.76232 7.62181 8.81678 11.8834 8.65711 9.93803 6.67915
internal_weight=0 15710.9 15448.9 13328.2 11642.8 10839.7 4911.58 8416.66 3806.13 4236.09 6603.64 6285.84 3942.53 2661.11 1704.66 2382.7 5262.8 2884.02 3029.86
internal_count=333315 148979 184336 133028 145101 137311 43603 89425 39235 57279 80032 70145 45364 34668 19440 15951 59913 27854 42425
shrinkage=0.01


Tree=4
num_leaves=20
num_cat=0
split_feature=0 3 3 15 1 23 0 5 5 4 1 9 2 1 15 2 7 2 1
split_gain=18100.5 7827.16 5514.18 5259.5 5157.18 2745.06 2601.6 2377.94 1991.76 1929.58 2484.3 1858.57 1453.28 1357.95 1284.73 1437.41 1230.8 1229.22 1189.09
threshold=0.78631440000000008 1.5000000000000002 2.5000000000000004 0.070410064365843572 0.75723177739791658 1.5000000000000002 0.60378455000000009 8.5000000000000018 7.5000000000000009 0.55000000000000016 0.77620871740000008 1.5000000000000002 4.5000000000000009 0.86410009394804366 -0.28745760736434262 1.5000000000000002 0.35832947865000003 1.0000000180025095e-35 1.0683945155000003
decision_type=2 2 2 2 2 2 2 2 2 2 2 2 2 2 2 2 2 2 2
left_child=1 4 3 9 6 -5 -1 -6 -8 10 -2 -3 17 -4 15 -9 -10 -7 -16
right_child=2 11 13 5 7 12 8 14 16 -11 -12 -13 -14 -15 18 -17 -18 -19 -20
leaf_value=0.055423792916835857 0.065651906600278948 0.10108363707478969 0.097452460186335785 0.10057753323996582 0.084617799898179302 0.12804282833187591 0.076111894468660263 0.091965434094539486 0.073785459369635015 0.086215391599713587 0.087453582066800789 0.083480105986277101 0.094675495083256164 0.11461036399220831 0.070728964762727081 0.060011122411337235 0.059301935914694584 0.083187120468880202 0.089199319938067664
leaf_weight=1386.887182302773 1265.9196156188846 1329.681551374495 800.2002494558692 3845.9019381143153 4147.5909329988062 62.569519877433777 3099.7977935001254 164.08570848032832 891.48613150790334 4366.5162521488965 890.21026273444295 1092.5738024972379 2691.3722149394453 1089.0393499583006 801.93741838634014 990.88050402700901 1716.3519011363387 2589.7853345237672 616.50260376557708
leaf_count=19732 15898 9904 5975 27237 41596 323 35737 1590 10759 41771 8558 10635 21629 5292 9475 12996 23681 24590 5937
internal_value=0 7.65624 9.12016 8.92608 7.36553 9.41351 6.77085 7.99325 7.06936 8.23934 7.46533 9.31435 8.94985 10.7343 7.23811 6.45509 6.42531 8.42453 7.87568
internal_weight=0 16237.8 17601.5 15712.3 13815.5 9189.63 7094.52 6721 5707.64 6522.65 2156.13 2422.26 5343.73 1889.24 2573.41 1154.97 2607.84 2652.35 1418.44
internal_count=333315 182042 151273 140006 161503 73779 89909 71594 70177 66227 24456 20539 46542 11267 29998 14586 34440 24913 15412
shrinkage=0.01


Tree=5
num_leaves=20
num_cat=0
split_feature=0 1 6 3 5 0 3 5 15 12 3 28 23 2 0 6 2 11 7
split_gain=15212.5 8182.47 3695.72 3339.42 3222.72 2962.7 3039.44 2580.46 1987.24 1597.49 1471.96 1432.69 1269.53 1207.24 1134.46 1119.22 1111.84 1064.45 1060.92
threshold=0.83028920290000008 0.7508410000000002 1.5000000000000002 2.5000000000000004 7.5000000000000009 1.0833405000000003 2.5000000000000004 8.5000000000000018 0.25309550151252014 1.5000000000000002 1.5000000000000002 1.5000000000000002 1.5000000000000002 1.5000000000000002 0.61412430000000018 1.5000000000000002 4.5000000000000009 2.5000000000000004 0.35832947865000003
decision_type=2 2 2 2 2 2 2 2 2 2 2 2 2 2 2 2 2 2 2
left_child=1 4 5 7 9 6 8 11 -2 -1 18 15 -9 -14 -11 -3 -7 -12 -6
right_child=2 3 -4 -5 10 16 -8 12 -10 14 17 -13 13 -15 -16 -17 -18 -19 -20
leaf_value=0.089311465228486972 0.07514799351812082 0.076035234845292399 0.094731057625306259 0.092357474832208825 0.063366535378109295 0.083492347845098097 0.095026767914676374 0.077966117575752128 0.090196697192430828 0.059117124449033227 0.065099539714473215 0.094638408184731668 0.082742933513139716 0.062001022966045836 0.071064263759566759 0.089069323052369309 0.093967096905312172 0.094586462142803016 0.052319108147071511
leaf_weight=405.07901002839208 6995.3418896459043 4395.304298710078 2946.8204229027033 1354.4067072235048 1357.8450720831752 1803.3468310758471 1063.939101330936 1041.4759169183671 1003.3735391534865 995.69025494530797 475.52131379768252 574.23082011938095 323.79592815414071 2103.6386708915234 3939.5535667091608 774.95463186874986 2313.1395026780665 164.86945156753063 2415.9363081343472
leaf_count=3366 64799 42085 17406 8500 16143 13930 6026 9757 7213 12407 4966 4106 2944 24424 41466 5827 14358 1204 32388
internal_value=0 7.15997 8.4607 7.7696 6.49951 8.23433 7.91478 7.55407 7.70357 7.02209 5.86729 7.96532 6.87303 6.47678 6.86539 7.79889 8.93783 7.2691 5.62941
internal_weight=0 20322.3 16126 10567.8 9754.49 13179.1 9062.65 9213.4 7998.72 5340.32 4414.17 5744.49 3468.91 2427.43 4935.24 5170.26 4116.49 640.391 3773.78
internal_count=333315 209583 123732 97643 111940 106326 78038 89143 72012 57239 54701 52018 37125 27368 53873 47912 28288 6170 48531
shrinkage=0.01


Tree=6
num_leaves=20
num_cat=0
split_feature=9 3 0 4 15 23 1 15 2 1 3 5 0 6 6 10 5 23 15
split_gain=13702.7 6115.14 5269.35 4872.38 3369.61 2889 2130.84 2052.27 1367.6 1319.69 1209.83 1199.56 1226.7 1176.41 1114.05 993.4 940.149 937.953 899.939
threshold=1.5000000000000002 1.5000000000000002 0.97582345000000015 0.55000000000000016 -0.23645959544980485 1.5000000000000002 0.75723177739791658 -0.33750662900763018 4.5000000000000009 0.7304067500000001 2.5000000000000004 9.5000000000000018 0.68622818120000006 1.5000000000000002 1.5000000000000002 4.5000000000000009 3.5000000000000004 1.5000000000000002 0.18459634928146937
decision_type=2 2 2 2 2 2 2 2 2 2 2 2 2 2 2 2 2 2 2
left_child=1 2 5 4 16 9 -7 15 -4 -1 13 -8 -13 -9 -3 -5 -2 -6 -19
right_child=3 14 8 7 17 6 11 10 -10 -11 -12 12 -14 -15 -16 -17 -18 18 -20
leaf_value=0.069343791591269952 0.062124228653431077 0.084653720475777863 0.076465765137678318 0.043655635495676047 0.072415156223991514 0.060683153187023164 0.073671623571932285 0.06689159963478733 0.08556760114938855 0.07945470952838804 0.082890310051052948 0.049631587115000368 0.06841358589537562 0.078991091515899323 0.097921044866826554 0.062015313714481678 0.042807219091483557 0.055316917896568375 0.076614933585775924
leaf_weight=1935.0879199020565 292.67511077225208 3060.5307922177017 3168.27339335531 353.47219671681523 730.71884223818779 3324.398237336427 4175.699147798121 5063.1796046942472 3446.7255586646497 3877.719058483839 679.30203470960259 444.91599614918232 1592.1056338921189 955.16907407715917 797.91221431270242 1772.7520493119955 1810.745070874691 1279.2789856567979 234.81277139112353
leaf_count=17928 3202 17790 22819 4462 6313 35673 35279 47493 20399 28992 4223 5325 14676 6810 3270 18717 23750 14371 1823
internal_value=0 7.57867 7.37472 6.32531 5.45892 7.05318 6.71449 6.75225 8.12082 7.60888 7.02398 7.06026 6.43113 6.88119 8.73974 5.89631 4.5495 6.31105 5.86199
internal_weight=0 25823.4 21964.9 13172.1 4348.23 15349.9 9537.12 8823.87 6615 5812.81 6697.65 6212.72 2037.02 6018.35 3858.44 2126.22 2103.42 2244.81 1514.09
internal_count=333315 202151 181091 131164 49459 137873 90953 81705 43218 46920 58526 55280 20001 54303 21060 23179 26952 22507 16194
shrinkage=0.01


Tree=7
num_leaves=20
num_cat=0
split_feature=15 3 0 1 12 5 6 1 10 3 5 18 5 6 15 13 0 33 27
split_gain=10723.9 4411.28 4449.96 3984.29 2405.17 2043.33 1878.57 1773.11 1518.88 1072.38 1107.31 1064.74 1000.08 978.567 940.355 842.772 806.678 763.868 1117.37
threshold=-0.23645959544980485 2.5000000000000004 0.97582345000000015 0.72303440000000008 1.5000000000000002 7.5000000000000009 1.5000000000000002 0.74665921310000016 4.5000000000000009 2.5000000000000004 8.5000000000000018 0.31614868930000006 5.5000000000000009 1.5000000000000002 0.33953380037368264 0.25000000000000006 0.64028825000000011 1.5000000000000002 8.5000000000000018
decision_type=2 2 2 2 2 2 2 2 2 2 2 2 2 2 2 2 2 2 2
left_child=3 2 4 5 -2 15 8 11 -5 10 -10 -6 -4 16 -13 -1 -9 18 -7
right_child=1 -3 12 6 7 17 -8 13 9 -11 -12 14 -14 -15 -16 -17 -18 -19 -20
leaf_value=0.055285706588676542 0.078715610808331088 0.081583618499014063 0.079306630069532313 0.047428283355776493 0.027965941490702605 0.045670690465833927 0.07610118947952009 0.05509010319154245 0.065836569596170874 0.074681366728042611 0.056424588892989028 0.059692604155481055 0.072128680609821638 0.075002142050803314 0.080755874304125785 0.065429552303233371 0.066811754622842182 0.053580275388157919 0.015991526385279373
leaf_weight=2315.3923254683614 1286.8968150503933 3059.7823705151677 2963.491862654686 619.65304811671376 102.10476395487785 1554.2512692250311 1164.9527002349496 643.3725784085691 3265.4990751743317 796.28030819818377 2025.2344558686018 5111.9475852362812 5626.0045969188213 1366.276491433382 221.12156492844224 1267.3458603620529 6714.2506939955056 1239.814010117203 138.12402028590441
leaf_count=24212 8596 14730 16628 6796 1395 18665 7671 6514 27903 4766 20734 48275 36256 8379 1324 11553 53299 13567 2052
internal_value=0 7.02748 6.88352 5.95921 6.56265 5.38075 6.43798 6.44368 6.23437 6.38621 6.22338 5.99535 7.46052 6.723 6.05659 5.8874 6.57868 4.7617 4.32484
internal_weight=0 27095.2 24035.5 14386.5 15446 6514.93 7871.62 14159.1 6706.67 6087.01 5290.73 5435.17 8589.5 8723.9 5333.07 3582.74 7357.62 2932.19 1692.38
internal_count=333315 195396 180666 137919 127782 70049 67870 119186 60199 53403 48637 50994 52884 68192 49599 35765 59813 34284 20717
shrinkage=0.01


Tree=8
num_leaves=20
num_cat=0
split_feature=9 3 4 15 15 15 6 1 5 5 1 15 6 10 5 6 3 10 7
split_gain=10021.5 4256.32 3828.09 3402.73 2632.77 1774.79 1762.69 1898.7 1634.28 1031.09 1008.49 893.347 862.162 856.287 826.916 806.067 754.109 773.348 705.485
threshold=1.5000000000000002 1.5000000000000002 0.45000000000000007 1.0000000180025095e-35 -0.23645959544980485 -0.33750662900763018 1.5000000000000002 0.75723177739791658 4.5000000000000009 10.500000000000002 0.60622825000000014 0.33953380037368264 1.5000000000000002 3.5000000000000004 3.5000000000000004 1.5000000000000002 2.5000000000000004 7.5000000000000009 0.29444861865000005
decision_type=2 2 2 2 2 2 2 2 2 2 2 2 2 2 2 2 2 2 2
left_child=1 3 4 6 14 10 7 -1 -5 -9 13 -6 16 -4 -2 -3 17 -7 -16
right_child=2 15 5 8 11 12 -8 9 -10 -11 -12 -13 -14 -15 18 -17 -18 -19 -20
leaf_value=0.05368994721377969 0.054792819272131039 0.072471324137837731 0.011468566767610329 0.07390136109478096 0.052729015907894167 0.051408982322762767 0.069349334847300381 0.064270344247931696 0.065594619055991066 0.054674847357592551 0.055455329916146517 0.07499847052706049 0.068504465545474819 0.045457804103066907 0.05627755527479944 0.082973182552956881 0.069339796855433775 0.060189345179657953 0.033715530474079741
leaf_weight=4264.6918107159436 268.89032009243965 3502.7016801945865 83.135211605578661 3256.2842499837279 1896.6634535193443 1260.5469864606857 1895.0696631968021 5264.178317245096 8686.7858631163836 1422.4464328549802 1810.9721870198846 199.03999752551317 1262.118009198457 683.52756524458528 153.09574658796191 923.58098687976599 701.20321882516146 4911.8504575937986 1462.6967896595597
leaf_count=41233 2657 17790 1245 17905 17767 12199 12183 39795 56939 13036 16853 1113 7836 7590 1553 3270 3956 39930 18465
internal_value=0 6.56298 5.55054 6.4017 4.71315 5.86165 6.04447 5.89038 6.78595 6.22291 5.13855 5.48441 6.09075 4.17721 3.85554 7.46626 5.95126 5.83962 3.58533
internal_weight=0 29215.7 14693.7 24789.5 3980.39 10713.4 12846.4 10951.3 11943.1 6686.62 2577.63 2095.7 8135.72 766.663 1884.68 4426.28 6873.6 6172.4 1615.79
internal_count=333315 202151 131164 181091 41555 89609 106247 94064 74844 52831 25688 18880 63921 8835 22675 21060 56085 52129 20018
shrinkage=0.01


Tree=9
num_leaves=20
num_cat=0
split_feature=9 26 2 6 2 5 14 10 5 1 14 2 5 1 2 12 12 3 7
split_gain=8454.48 3722.41 3822.62 2183.05 2001.04 1766.49 1549.02 1383.78 1310.83 1309.22 1016.98 1010.3 987.32 898.425 870.248 911.488 812.715 759.532 720.538
threshold=1.5000000000000002 1.5000000000000002 4.5000000000000009 1.5000000000000002 1.0000000180025095e-35 7.5000000000000009 1.5000000000000002 8.5000000000000018 10.500000000000002 0.82234420510000017 1.5000000000000002 1.0000000180025095e-35 7.5000000000000009 0.76949600000000007 1.5000000000000002 1.5000000000000002 1.5000000000000002 2.5000000000000004 0.41255886345000009
decision_type=2 2 2 2 2 2 2 2 2 2 2 2 2 2 2 2 2 2 2
left_child=1 2 4 5 -1 11 -4 -7 17 12 13 18 -6 -5 -9 -16 -13 -3 -2
right_child=3 8 6 10 9 7 -8 14 -10 -11 -12 16 -14 -15 15 -17 -18 -19 -20
leaf_value=0.076189535883840545 0.070633141127540933 0.056598559521253033 0.06436481896713106 0.046484828687388798 0.05830679410105305 0.040293877187059499 0.071935007244543686 0.060923500638721539 0.048280215359826059 0.061830564407422961 0.068655386481725464 0.065348948013280783 0.049322435196034652 0.064866763886756204 0.068259813728946933 0.047062457248837786 0.052291397826784172 0.067293566820703199 -0.010890267395110103
leaf_weight=684.73570970073342 448.35318404436111 5663.6182419210672 5906.6972349062562 582.50887840986252 3257.7765106111765 2055.1696908026934 4983.4855468459427 652.38427209481597 1841.121457785368 5826.4548379071057 1070.5802708379924 517.52693469822407 1958.4954279065132 489.17326594144106 216.03056581318378 3326.2766840346158 6037.3227964825928 752.21722047775984 11.110227540135382
leaf_count=2879 2638 42457 36150 5066 23721 22025 24333 5055 15729 36281 5948 3424 17059 2861 1401 30984 51613 3542 149
internal_value=0 6.14649 6.35628 5.23952 5.96012 5.08824 6.7829 4.70163 5.57181 5.85726 6.17618 5.43271 5.49335 5.48753 5.03099 4.83552 5.33223 5.78525 6.86618
internal_weight=0 30874.6 22617.6 15406.4 11727.5 13264.2 10890.2 6249.86 8256.96 11042.7 2142.26 7014.31 5216.27 1071.68 4194.69 3542.31 6554.85 6415.84 459.463
internal_count=333315 202151 140423 131164 79940 117289 60483 59465 61728 77061 13875 57824 40780 7927 37440 32385 55037 45999 2787
shrinkage=0.01


Tree=10
num_leaves=20
num_cat=0
split_feature=9 14 4 26 7 10 3 12 2 4 2 6 2 2 4 1 6 12 1
split_gain=6064.5 3500.92 2928.4 1867.51 1712.66 1647.6 1533.68 1253.92 1196.56 1126.95 1088.07 980.026 867.097 846.418 833.687 797.834 776.413 766.443 801.111
threshold=1.5000000000000002 1.5000000000000002 0.55000000000000016 1.5000000000000002 0.41812885000000005 8.5000000000000018 1.5000000000000002 1.5000000000000002 1.5000000000000002 0.55000000000000016 5.5000000000000009 1.5000000000000002 1.5000000000000002 1.0000000180025095e-35 0.8500000000000002 0.61235835000000016 1.5000000000000002 1.5000000000000002 0.55255085000000015
decision_type=2 2 2 2 2 2 2 2 2 2 2 2 2 2 2 2 2 2 2
left_child=1 4 7 11 6 14 9 -2 -7 10 -1 -3 -5 -9 15 -4 -15 -10 -19
right_child=2 3 5 12 -6 8 -8 13 17 -11 -12 -13 -14 16 -16 -17 -18 18 -20
leaf_value=0.044069903962059571 0.063512048121267858 0.061792361804363524 0.029601378981899473 0.068343077080844902 0.060188659451690434 0.064352409324818075 0.061165714295841375 0.063227633254419893 0.065668161116191767 0.054101714629226728 0.05504065079615094 0.068776569647740746 0.051308560003296463 0.040604055410028803 0.051629002114270989 0.046218228631140168 0.053827360646903064 0.043151690584925129 0.0543447203751036
leaf_weight=2695.0483327768743 311.04657458513975 7075.2707100249827 390.60036029294133 351.37187169492245 4968.198882702738 1348.2887940853834 2192.0477888286114 195.1331672668457 507.83930617570877 8975.427901878953 1360.3468509912491 2805.8663339465857 1997.9233522601426 4271.5164702273905 2125.1460421904922 1110.2422968260944 495.54262960702181 740.06669287383556 4702.6179133951664
leaf_count=23351 2056 39806 4332 1751 27371 7988 10762 1294 2718 63769 10190 11233 13954 42626 17166 9451 3541 6554 33402
internal_value=0 5.76481 5.01551 6.18703 5.50906 5.31092 5.34268 4.40351 5.58464 5.21249 4.77499 6.37756 5.38563 4.28142 4.75994 4.18936 4.19786 5.3919 5.28228
internal_weight=0 32421.5 16198 12230.4 20191.1 10924.8 15222.9 5273.24 7298.81 13030.8 4055.4 9881.14 2349.3 4962.19 3625.99 1500.84 4767.06 5950.52 5442.68
internal_count=333315 202187 131128 66744 135443 81611 108072 49517 50662 97310 33541 51039 15705 47461 30949 13783 46167 42674 39956
shrinkage=0.01


Tree=11
num_leaves=20
num_cat=0
split_feature=15 6 4 3 5 3 4 14 10 10 2 4 1 13 15 5 2 2 19
split_gain=6478.57 2429.23 1984.13 1980.86 1788.15 1562.73 1261.95 1248.06 1237.96 1041.14 878.115 1127.33 810.083 805.056 735.507 664.053 765.183 647.39 615.819
threshold=-0.13176136161160293 1.5000000000000002 0.35000000000000003 1.5000000000000002 5.5000000000000009 2.5000000000000004 1.0000000180025095e-35 1.5000000000000002 5.5000000000000009 7.5000000000000009 5.5000000000000009 0.35000000000000003 0.6796146500000001 0.25000000000000006 0.40755073023341293 8.5000000000000018 1.5000000000000002 1.0000000180025095e-35 13.500000000000002
decision_type=2 2 2 2 2 2 2 2 2 2 2 2 2 2 2 2 2 2 2
left_child=1 2 6 4 14 9 13 8 -6 -4 11 18 -8 -1 -2 -11 -17 -3 -10
right_child=3 17 5 -5 7 -7 12 -9 10 15 -12 -13 -14 -15 -16 16 -18 -19 -20
leaf_value=0.045697570418568929 0.05706512708265022 0.079088535599621881 0.042253964169298122 0.061678702587218553 0.036423432106551468 0.057171216294062209 0.029666264106782553 0.055721018951953014 0.037346871845964642 0.050728128563134051 0.055151133916033927 0.050672643822652436 0.040927972517912366 0.068414032412936199 0.066962037528911222 0.056596106058918294 0.043793914329488003 0.055374278045833981 0.07640284231154898
leaf_weight=544.02576820924878 7175.1545550078154 119.55562530457973 3109.7283373735845 4234.6712508648634 628.19599343091249 1834.2384824156761 870.81754729524255 6357.331249974668 963.84221785515547 6760.750295445323 3179.7753477916121 4584.5364266112447 2396.6606871187687 218.73153160139918 838.68024680763483 541.51035489141941 3387.159348808229 3102.1312754750252 42.136777006089687
leaf_count=4713 39653 353 28030 16615 5767 9415 9553 35253 7991 49121 18826 29899 21710 1215 3198 3765 29483 18571 184
internal_value=0 4.82052 4.68865 5.53776 5.4255 4.84993 4.06302 5.22989 4.99842 4.73466 5.09555 4.85691 3.79266 5.22118 5.81009 4.88281 4.55585 5.62543 3.89828
internal_weight=0 22885.3 19663.6 28004.3 23769.7 15633.4 4030.24 15755.8 9398.49 13799.1 8770.29 5590.52 3267.48 762.757 8013.83 10689.4 3928.67 3221.69 1005.98
internal_count=333315 175929 157005 157386 140771 119814 37191 97920 62667 110399 56900 38074 31263 5928 42851 82369 33248 18924 8175
shrinkage=0.01


Tree=12
num_leaves=20
num_cat=0
split_feature=0 1 6 3 12 4 2 15 12 8 2 0 4 0 4 6 20 0 7
split_gain=5720.49 2746.86 1543.15 1537.7 1522.37 1437.85 1384.75 1249.04 1236.08 1011.14 916.378 863.149 1017.5 840.839 792.898 783.119 824.444 739.214 706.597
threshold=0.83028920290000008 0.75291100865000005 1.5000000000000002 2.5000000000000004 1.5000000000000002 0.35000000000000003 1.0000000180025095e-35 0.27899497730928086 1.5000000000000002 1.5000000000000002 1.0000000180025095e-35 1.2042066228000001 0.65000000000000002 0.6366075000000001 1.0000000180025095e-35 1.5000000000000002 1.5000000000000002 0.61216155000000005 0.36661008773548359
decision_type=2 2 2 2 2 2 2 2 2 2 2 2 2 2 2 2 2 2 2
left_child=1 4 6 8 -1 9 -2 11 -3 14 -10 12 -8 18 -6 17 -17 -12 -7
right_child=2 3 -4 -5 5 13 7 -9 10 -11 15 -13 -14 -15 -16 16 -18 -19 -20
leaf_value=0.055863356406208022 0.067369217441209939 0.059116427858213208 0.058343243289742414 0.057363392526286451 0.047692442422322207 0.043231496059732838 0.045822289704353425 0.05699633245481809 0.063404499550965651 0.042269662234450625 0.039551193675440757 0.055741626043794894 0.051479900725241591 0.046209907730528292 0.028447034654967656 0.038260357523698441 0.056108052845956435 0.046925457362395458 0.032359314952280289
leaf_weight=896.74764712154865 558.84436748176813 952.07108103483915 4514.4456588551402 2098.0139681324363 251.48894004896283 1802.7984258271754 5291.7377820238471 3291.9936926215887 342.73134976625443 1677.0896726250648 1620.5974448919296 2397.1872735098004 7961.4455585852265 6911.2957464046776 1438.9040021747351 314.61069679260254 1459.5016702488065 8432.6776925548911 894.31581377238035
leaf_count=5362 1698 4967 17561 8491 2103 15301 35032 14844 1710 14395 13623 10472 44367 51959 14973 2199 7217 58326 8715
internal_value=0 4.64806 5.30748 4.94142 4.32621 4.23912 5.18551 5.13974 4.81432 3.67683 4.72848 5.02197 4.92209 4.43619 3.13103 4.68177 5.2943 4.57367 3.96265
internal_weight=0 29092.8 24015.7 15220.2 13872.6 12975.9 19501.2 18942.4 13122.2 3367.48 12170.1 15650.4 13253.2 9608.41 1690.39 11827.4 1774.11 10053.3 2697.11
internal_count=333315 209341 123974 96533 112808 107446 106413 104715 88042 31471 83075 89871 79399 75975 17076 81365 9416 71949 24016
shrinkage=0.01


Tree=13
num_leaves=20
num_cat=0
split_feature=15 12 3 17 1 14 2 10 0 2 5 5 2 22 2 7 8 6 2
split_gain=5123.25 1959.28 2074.06 1691.84 1643.36 1207.06 1103.43 1021.35 925.852 894.895 726.407 708.267 848.33 704.225 680.763 611.027 588.453 584.631 576.654
threshold=-0.13176136161160293 1.5000000000000002 1.5000000000000002 1.5000000000000002 0.77620871740000008 1.5000000000000002 4.5000000000000009 5.5000000000000009 0.60378455000000009 1.0000000180025095e-35 5.5000000000000009 8.5000000000000018 5.5000000000000009 17.500000000000004 6.5000000000000009 0.36400990000000005 1.5000000000000002 1.5000000000000002 1.0000000180025095e-35
decision_type=2 2 2 2 2 2 2 2 2 2 2 2 2 2 2 2 2 2 2
left_child=1 -1 4 5 8 7 -5 -2 15 -7 -9 12 -6 -10 18 -3 -11 -4 -12
right_child=3 2 17 6 11 9 -8 10 13 16 14 -13 -14 -15 -16 -17 -18 -19 -20
leaf_value=0.055901910655464571 0.036795699150928445 0.036128653270275916 0.048158925939824092 0.049717336743627404 0.044489554093694761 0.068352946168718787 0.055750147110639955 0.05086159962339281 0.04019535410408271 0.045174246341719966 0.058497434869790331 0.041304070305183606 0.052943902354931613 0.077659282408446162 0.049937776522671458 0.0228853621904694 0.052116725220352676 0.058983645348111229 0.042427492669112762
leaf_weight=1240.9337855502963 1116.9609756991267 1247.4796280786395 3073.5419887825847 6180.6255393028259 3801.628222502768 290.44266507029533 5951.018044218421 3156.2068828046322 9179.7922962084413 1616.4067413434386 233.93968673050404 3354.1957697570324 1725.6112464591861 50.450473889708519 2080.3505060374737 483.39243298396468 4989.8584351241589 595.6313638612628 4909.3050386682153
leaf_count=6619 8724 11461 16923 31065 24397 646 23455 16522 74216 9532 944 24868 9654 225 11311 5269 23720 2297 31467
internal_value=0 4.36556 4.30092 4.97778 4.17321 4.78659 5.26767 4.58817 3.91416 5.11734 4.68595 4.49291 4.7129 4.04001 4.51108 3.24301 5.04181 4.99161 4.31584
internal_weight=0 24752.7 23511.7 30525.1 19842.6 18393.5 12131.6 11496.8 10961.1 6896.71 10379.8 8881.44 5527.24 9230.24 7223.6 1730.87 6606.27 3669.17 5143.24
internal_count=333315 175929 169310 157386 150090 102866 54520 68968 91171 33898 60244 58919 34051 74441 43722 16730 33252 19220 32411
shrinkage=0.01


Tree=14
num_leaves=20
num_cat=0
split_feature=0 9 4 3 6 2 15 2 16 14 4 1 4 28 16 7 8 22 16
split_gain=4586.99 2245.29 1672.34 1411.61 1297.44 1100.74 1025.78 863.001 1045.72 744.84 718.345 895.552 690.969 569.464 551.856 544.211 533.492 975.88 575.51
threshold=0.83028920290000008 1.5000000000000002 0.35000000000000003 1.5000000000000002 1.5000000000000002 1.0000000180025095e-35 0.27899497730928086 1.0000000180025095e-35 2.5000000000000004 1.5000000000000002 0.65000000000000002 0.88566260000000008 0.45000000000000007 1.5000000000000002 7.5000000000000009 0.41413292448569355 1.5000000000000002 7.5000000000000009 3.5000000000000004
decision_type=2 2 2 2 2 2 2 2 2 2 2 2 2 2 2 2 2 2 2
left_child=1 3 13 9 5 -2 10 -4 15 -1 11 -7 -13 16 -10 -9 -3 -18 -19
right_child=4 2 7 -5 -6 6 -8 8 14 -11 -12 12 -14 -15 -16 -17 17 18 -20
leaf_value=0.041871818762165412 0.060043326666397542 0.026051056742278048 0.052292761525751817 0.050960858883408816 0.052565424276375707 0.040227553386491026 0.051326346303899824 0.044037365790059103 0.035646481861673754 0.046692866995044754 0.047111604286738114 0.052148691837744565 0.041038501464670682 0.051895584016011985 0.044409664742977153 0.022830230098335562 0.022776218096868278 0.045406385230574609 0.019933236343868649
leaf_weight=10563.748278364539 614.96547219902277 1217.3001029863954 621.72694859653711 2889.4089377224445 4913.039060510695 4379.1761032268405 3583.5568852201104 4746.923419803381 4419.0473633185029 4600.1607249155641 10199.55258320272 1452.2146716341376 910.89679737389088 133.6960486844182 858.18235695362091 124.17029148340225 397.95472040772438 672.04572799056768 102.17746315896511
leaf_count=71162 1698 12206 3077 11738 17561 27869 14844 32289 34446 26937 50669 6320 5013 789 5587 1058 3932 5112 1008
internal_value=0 4.22584 3.91395 4.4555 4.79364 4.68606 4.64656 4.08562 4.01556 4.33343 4.54374 4.29048 4.78661 3.18115 3.70715 4.34968 3.06878 3.5503 4.20446
internal_weight=0 31346.5 13293.2 18053.3 26053.4 21140.4 20525.4 10770.1 10148.3 15163.9 16941.8 6742.29 2363.11 2523.17 5277.23 4871.09 2389.48 1172.18 774.223
internal_count=333315 209341 99504 109837 123974 106413 104715 76457 73380 98099 89871 39202 11333 23047 40033 33347 22258 10052 6120
shrinkage=0.01


Tree=15
num_leaves=20
num_cat=0
split_feature=15 3 0 3 4 5 13 2 14 26 1 1 0 7 27 23 2 15 11
split_gain=4574.7 1741.41 1767.22 1612.66 1576.19 1472.55 978.008 758.148 716.451 738.721 715.805 709.106 669.128 651.347 750.881 598.933 598.652 475.655 473.344
threshold=-0.1620935319777366 1.5000000000000002 1.0833405000000003 2.5000000000000004 0.35000000000000003 8.5000000000000018 0.45000000000000007 1.5000000000000002 2.5000000000000004 1.5000000000000002 0.84705370865000018 0.75723177739791658 0.62547501305000008 0.35832947865000003 8.5000000000000018 1.5000000000000002 9.5000000000000018 0.21865579574685909 2.5000000000000004
decision_type=2 2 2 2 2 2 2 2 2 2 2 2 2 2 2 2 2 2 2
left_child=3 2 4 5 10 11 13 -8 12 -10 15 -1 -6 -7 -15 -2 -17 -14 -16
right_child=1 -3 -4 -5 8 6 7 -9 9 -11 -12 -13 17 14 18 16 -18 -19 -20
leaf_value=0.038286480654087789 0.040594422988909355 0.050315053144729421 0.04830927165203236 0.046496267869358947 0.034907971552365989 0.037032334397841135 0.053480995794104862 0.037871935738874915 0.049280150837457647 0.037973861810072236 0.044558555722320731 0.042952940424030091 0.042794138284229517 0.031232740743343805 0.0047569898100701617 0.030087344351635938 0.055935764679475738 0.048550800870408778 0.032703975989815018
leaf_weight=6810.0163993835449 1097.360570371151 5468.9630943760276 7758.0193022936583 2853.5492580085993 972.83945151418447 1992.2502384856343 366.2698565274477 2068.5514115542173 3722.7839556187391 684.07146985828876 970.99390862137079 6240.3969038724899 11745.913461230695 2935.031592041254 184.39443925768137 1840.4398752748966 94.184923201799393 1635.1341295018792 90.275724925100803
leaf_count=49974 6498 18475 30592 13041 7261 15109 1789 14320 16536 3862 4905 35797 65171 25258 2120 14248 494 7121 744
internal_value=0 4.51186 4.41875 3.9449 4.27827 3.84769 3.49892 4.022 4.39982 4.75251 3.70861 4.05179 4.29154 3.25409 2.97531 3.46931 3.13457 4.34976 1.39423
internal_weight=0 35990.7 30521.7 23540.7 22763.7 20687.2 7636.77 2434.82 18760.7 4406.86 4002.98 13050.4 14353.9 5201.95 3209.7 3031.99 1934.62 13381 274.67
internal_count=333315 175163 156688 158152 126096 145111 59340 16109 99951 20398 26145 85771 79553 43231 28122 21240 14742 72292 2864
shrinkage=0.01


Tree=16
num_leaves=20
num_cat=0
split_feature=17 3 5 1 0 4 1 12 0 4 9 14 1 23 1 5 7 7 0
split_gain=4522.04 2219.59 2155.46 1276.51 1226.11 1160.76 1224.67 995.816 808.506 966.865 704.252 639.168 582.055 570.028 543.957 496.803 568.979 484.675 482.617
threshold=1.5000000000000002 2.5000000000000004 8.5000000000000018 0.81662412430000009 0.75245465000000011 0.35000000000000003 1.2246174357000001 1.5000000000000002 0.66542565000000009 0.8500000000000002 1.5000000000000002 2.5000000000000004 0.69731880000000013 1.5000000000000002 0.58528865000000008 6.5000000000000009 0.32863351725000006 0.36634060000000007 0.53830541095000017
decision_type=2 2 2 2 2 2 2 2 2 2 2 2 2 2 2 2 2 2 2
left_child=1 2 4 8 7 6 15 -1 11 -10 17 -4 -3 -7 -13 -2 -17 -9 -19
right_child=5 12 3 -5 -6 13 -8 10 9 -11 -12 14 -14 -15 -16 16 -18 18 -20
leaf_value=0.047594978444168379 0.041746539690825542 0.039640307706454887 0.025114101078213463 0.038430786832681571 0.042443644284782304 0.048368804979312056 0.055333539742540669 0.043320290192380519 0.031962540437882304 0.041590338860966192 0.034502949593784929 -0.00093857512979751213 0.047516447774537056 0.044505054178773353 0.047365269417665598 0.045691668338252771 0.031297690012923172 0.012294817147763345 0.037504140169838829
leaf_weight=947.76469813287258 1918.9423423632979 1260.6016689687967 1829.3124995231628 6858.6067909747362 12138.585993282497 7083.8934029862285 476.85395725816488 2109.0601307600737 3958.616577193141 1416.2338630333543 5527.79436070472 26.067597128450871 3669.7698537185788 8283.167522571981 220.63437185436487 346.58669889718294 1322.58596277982 78.803003951907158 2091.4393370822072
leaf_count=4532 9666 6766 16763 39399 61633 26388 1469 11882 29496 8541 40207 286 12788 38188 1411 1788 8307 739 13066
internal_value=0 3.91979 3.83623 3.53177 4.02653 4.50291 4.02771 3.78067 3.24521 3.44994 3.68607 2.71518 4.55027 4.62862 4.22613 3.82761 3.42865 3.99064 3.65888
internal_weight=0 42133.3 37202.9 14309.5 22893.4 19432 4064.97 10754.9 7450.86 5374.85 9807.1 2076.01 4930.37 15367.1 246.702 3588.12 1669.17 4279.3 2170.24
internal_count=333315 247509 227955 95896 132059 85806 21230 70426 56497 38037 65894 18460 19554 64576 1697 19761 10095 25687 13805
shrinkage=0.01


Tree=17
num_leaves=20
num_cat=0
split_feature=9 26 2 10 13 14 5 5 2 6 7 15 1 15 23 13 5 7 13
split_gain=4144.7 2308.25 1824.14 1509.82 1253.58 1182.82 1253.72 950.873 861.308 805.483 791.575 753.331 751.551 698.853 662.024 563.176 737.79 894.492 534.266
threshold=1.5000000000000002 1.5000000000000002 5.5000000000000009 5.5000000000000009 0.25000000000000006 1.5000000000000002 7.5000000000000009 10.500000000000002 1.5000000000000002 1.5000000000000002 0.40174619425000008 -0.23645959544980485 0.93641602000000013 -0.14429840305728789 1.5000000000000002 0.75000000000000011 7.5000000000000009 0.37881391925000002 0.8500000000000002
decision_type=2 2 2 2 2 2 2 2 2 2 2 2 2 2 2 2 2 2 2
left_child=1 2 5 12 11 6 10 -3 -6 13 -1 -5 15 -10 -4 16 -2 -18 -8
right_child=3 7 14 4 8 -7 18 -9 9 -11 -12 -13 -14 -15 -16 -17 17 -19 -20
leaf_value=0.038385059116577379 0.030845290653083769 0.03877331899643352 0.048526456264247946 0.030292857973553668 0.044909385346061918 0.043726894880844878 0.032991276623493215 0.03172045273686027 0.032998272740692849 0.044397515128625269 0.044882970030071183 0.036655504287119861 0.038985556538908457 0.039363968787415111 0.043641699801286488 0.056199610302846717 0.024833148312880832 0.0033119398585276824 0.04147993853371814
leaf_weight=4219.83249771595 1279.1076094731688 8781.8960949629545 4843.1209518611431 3505.0716098994017 2016.4920006170869 7917.501057356596 3727.3777098730206 2443.4455586224794 3426.0867929905653 1451.8339226096869 3373.5133711844683 3966.8509602621198 613.03121776878834 3472.713560320437 6495.8550380691886 62.449632070958614 777.49995608627796 256.95268691331148 925.55503851175308
leaf_count=22504 9503 46075 16222 27718 9384 32701 22881 15704 23562 5998 13612 23892 3577 17833 28126 279 6779 2760 4205
internal_value=0 4.11318 4.25192 3.56912 3.67933 4.07147 3.87673 3.72381 3.90438 3.76274 4.12719 3.36708 2.91138 3.62026 4.57281 2.65668 2.57669 1.94874 3.46798
internal_weight=0 42728.1 31502.8 20828.1 17839 20163.8 12246.3 11225.3 10367.1 8350.63 7593.35 7471.92 2989.04 6898.8 11339 2376.01 2313.56 1034.45 4652.93
internal_count=333315 202030 140251 131285 108387 95903 63202 61779 56777 47393 36116 51610 22898 41395 44348 19321 19042 9539 27086
shrinkage=0.01


Tree=18
num_leaves=20
num_cat=0
split_feature=9 6 4 26 2 4 5 0 10 13 0 2 5 18 6 2 0 12 10
split_gain=3760.23 2094.56 1602.79 1409.36 1275.04 1140.38 973.634 774.927 667.991 631.151 621.07 583.128 536.789 525.837 517.528 516.814 534.839 507.297 476.837
threshold=1.5000000000000002 1.5000000000000002 0.55000000000000016 1.5000000000000002 5.5000000000000009 0.55000000000000016 10.500000000000002 0.54432648715000009 5.5000000000000009 0.25000000000000006 0.5641127009500001 1.5000000000000002 7.5000000000000009 0.31614868930000006 1.5000000000000002 1.5000000000000002 0.97582345000000015 1.5000000000000002 3.5000000000000004
decision_type=2 2 2 2 2 2 2 2 2 2 2 2 2 2 2 2 2 2 2
left_child=1 3 8 4 5 12 -5 -4 -2 18 -7 -11 -1 -8 -13 -12 -17 -10 -9
right_child=2 -3 7 6 -6 10 13 9 17 11 15 14 -14 -15 -16 16 -18 -19 -20
leaf_value=0.037178491583239763 0.022948049490909801 0.04415785454382766 0.027334416403363721 0.03686692381831138 0.04262639344209921 0.018560757964579663 0.0087993505043492837 0.010190294841839012 0.043239886788949702 0.043193704279435224 0.044499294727939294 0.035792325090705165 0.031358055696487003 0.030435136904248469 0.04242789795770787 0.037063630584108845 0.042346823340734439 0.030936936719333962 0.033919943871266782
leaf_weight=3782.9703573435545 1028.3866896778345 7812.3457620516419 915.9611738473177 7819.3871354907751 9347.3133026510477 132.55191034823656 119.03963758796453 86.655026614665985 356.87761484831572 1874.7756957784295 2322.551034130156 6498.2318086400628 2726.4981603473425 1993.7268737778068 1434.9197973012924 4868.400635316968 3159.8277158886194 5505.8641999438405 3717.7519553601742
leaf_count=19321 8744 26518 6822 40883 37859 1033 1142 845 1730 8195 9104 36762 16688 12704 5740 24943 11835 39131 23316
internal_value=0 3.94611 3.43538 3.84495 3.96599 3.80281 3.52394 3.62377 3.03819 3.68368 4.00695 3.81779 3.47406 2.92161 3.69925 4.03449 3.9143 3.16858 3.33794
internal_weight=0 44084.6 21419.4 36272.3 26340.1 16992.8 9932.15 14528.3 6891.13 13612.3 10483.3 9807.93 6509.47 2112.77 7933.15 10350.8 8028.23 5862.74 3804.41
internal_count=333315 202030 131285 175512 120783 82924 54729 81680 49605 74858 46915 50697 36009 13846 42502 45882 36778 40861 24161
shrinkage=0.01


Tree=19
num_leaves=20
num_cat=0
split_feature=15 9 17 4 2 4 15 20 2 12 23 10 2 13 0 7 5 7 0
split_gain=3462.22 1581.61 1328.96 1025.27 885.758 862.421 724.359 705.885 739.962 680.627 655.189 647.06 594.276 540.656 519.032 499.073 467.999 493.449 483.203
threshold=-0.1620935319777366 1.5000000000000002 1.5000000000000002 0.8500000000000002 1.0000000180025095e-35 0.35000000000000003 0.19481658980376851 1.5000000000000002 5.5000000000000009 1.5000000000000002 1.5000000000000002 5.5000000000000009 4.5000000000000009 0.45000000000000007 1.0833405000000003 0.36878178915000004 9.5000000000000018 0.35567120000000002 0.66031232390000005
decision_type=2 2 2 2 2 2 2 2 2 2 2 2 2 2 2 2 2 2 2
left_child=1 10 4 11 -2 14 7 8 -6 -9 -1 -3 -7 -13 -4 -15 -12 -18 -19
right_child=2 3 5 -5 6 12 -8 9 -10 -11 16 13 -14 15 -16 -17 17 18 -20
leaf_value=0.038260037311974679 0.046567327692174171 0.021608191398777454 0.032238835090090012 0.034679353192746135 0.029009310998122317 0.039497529167040614 0.039937197099239034 0.043474975944342145 0.036538265124364276 0.03596714898872088 0.035521554465924567 0.028354143179885043 0.043788345594962488 0.041234057365610595 0.040368152977063629 0.025835637147503986 0.036079916627834323 0.019305034509421903 0.030678290816979863
leaf_weight=5805.7823642864823 880.94539499282837 1182.3562267720699 1812.8679881691933 4031.2947821989655 2906.372107475996 6715.1402151584625 4567.5686664134264 1334.6919914036989 2369.761468090117 12668.971006654203 6562.200322650373 4888.3117184489965 6215.4223821535707 680.80286581814289 1385.7361097708344 304.67512233555317 1127.7843975424767 501.03398104012012 1468.2706069126725
leaf_count=27752 2495 9934 9328 23996 17012 26270 17539 4932 11507 62332 35086 36015 19040 3387 4708 1993 6475 4103 9411
internal_value=0 3.35386 3.81768 3.06562 3.67203 4.041 3.63565 3.55082 3.23909 3.66827 3.56051 2.83577 4.156 2.97164 3.57607 3.64734 3.40094 3.08053 2.77847
internal_weight=0 26552.5 40857.5 11087.4 24728.3 16129.2 23847.4 19279.8 5276.13 14003.7 15465.1 7056.15 12930.6 5873.79 3198.6 985.478 9659.29 3097.09 1969.3
internal_count=333315 158152 175163 75325 115817 59346 113322 95783 28519 67264 82827 51329 45310 41395 14036 5380 55075 19989 13514
shrinkage=0.01


Tree=20
num_leaves=20
num_cat=0
split_feature=15 6 14 3 12 9 2 2 2 21 10 11 15 1 10 5 5 1 2
split_gain=3352.57 1586.56 1344.22 1146.75 959.124 946.149 935.851 771.703 669.995 659.265 574.146 565.104 549.648 527.467 503.514 498.062 490.064 459.163 451.987
threshold=-0.042868681735059859 1.5000000000000002 1.5000000000000002 2.5000000000000004 1.5000000000000002 1.5000000000000002 2.5000000000000004 4.5000000000000009 1.0000000180025095e-35 1.5000000000000002 4.5000000000000009 1.5000000000000002 -0.30696205998299936 0.76116688370000007 9.5000000000000018 3.5000000000000004 4.5000000000000009 1.0479700000000001 1.0000000180025095e-35
decision_type=2 2 2 2 2 2 2 2 2 2 2 2 2 2 2 2 2 2 2
left_child=1 3 7 4 17 12 10 9 -4 -2 -7 -10 -6 -5 -9 -8 -16 -1 -3
right_child=2 18 8 13 5 6 15 14 11 -11 -12 -13 -14 -15 16 -17 -18 -19 -20
leaf_value=0.042282773750563572 0.031789608922793262 0.053277709542058273 0.050144642050858439 0.032588811152410101 0.029959480365789565 0.019858912772973455 0.032246958753613726 0.033599391932505551 0.036836575103241086 0.036962958348953918 0.033309520771430186 0.0408124732708086 0.034061733253158866 0.040473459021091028 0.04303555355783608 0.024638966907945991 0.037232621470791691 0.025232603295241667 0.037382875040649112
leaf_weight=1029.5301153212786 7082.5725184008479 186.19275492429733 555.59161948412657 1469.9683898985386 5695.7152255028486 348.40024713426828 1028.471454679966 2615.821447327733 6716.3107512369752 3776.8808745667338 3560.8102888390422 7642.8658253476024 7657.1118315383792 2006.7370820119977 1933.5495690777898 5268.2165476232767 5884.0153286829591 186.56905129551888 4568.5811274275184
leaf_count=4616 35082 379 942 7511 35179 2962 6464 13008 26275 16347 22127 25045 41023 6383 6054 39706 23322 1076 19814
internal_value=0 3.26611 3.70675 3.17616 3.10069 3.05599 2.82676 3.54549 3.93697 3.35889 3.21108 3.89528 3.23119 3.71398 3.73971 2.58816 3.86679 3.9667 3.80053
internal_weight=0 33006.3 36207.6 28251.5 24774.8 23558.7 10205.9 21292.8 14914.8 10859.5 3909.21 14359.2 13352.8 3476.71 10433.4 6296.69 7817.56 1216.1 4754.77
internal_count=333315 187240 146075 167047 153153 147461 71259 93813 52262 51429 25089 51320 76202 13894 42384 46170 29376 5692 20193
shrinkage=0.01


Tree=21
num_leaves=20
num_cat=0
split_feature=6 0 1 5 4 1 14 2 2 2 28 7 4 3 28 12 0 4 2
split_gain=2910.92 2483.61 1135.01 1138.9 1039.4 1379.78 655.303 634.783 597.852 551.785 490.913 469.938 465.011 451.953 423.696 420.781 400.466 399.805 414.894
threshold=1.5000000000000002 0.7733173000000001 0.73186510000000016 7.5000000000000009 0.65000000000000002 0.84705370865000018 1.5000000000000002 1.0000000180025095e-35 4.5000000000000009 1.5000000000000002 1.5000000000000002 0.34727510355000007 0.25000000000000006 2.5000000000000004 2.5000000000000004 1.5000000000000002 0.52774275000000015 0.35000000000000003 2.5000000000000004
decision_type=2 2 2 2 2 2 2 2 2 2 2 2 2 2 2 2 2 2 2
left_child=1 2 3 12 5 8 11 -4 17 -6 13 -2 -1 -9 -7 -5 -17 -3 -19
right_child=6 4 7 15 9 14 -8 10 -10 -11 -12 -13 -14 -15 -16 16 -18 18 -20
leaf_value=0.025064554745334897 0.011518099451138953 0.024135506933480641 0.040488221686084624 0.037327755828963395 0.040352794689078764 0.034721325676241706 0.04031299044127952 0.030678299302603046 0.032683654165943751 0.035470761591352373 0.038534263959923029 0.035940628613984824 0.032174651632964867 0.03676684083771585 0.040995683293356802 0.013357899458734538 0.024878190808339036 0.034308940674817053 0.025233536881000617
leaf_weight=1101.9982666969299 80.043670661747456 2058.6248285397887 913.23362116515636 254.03502141684294 2690.7697314471006 3872.7087823301554 6706.6264432147145 11268.807812251151 3988.2779228016734 16581.817379310727 1024.5455701574683 5021.9936082735658 5564.7397704347968 1367.0837850123644 1490.4723551422358 322.56352572143078 4675.0119324997067 1161.6721837222576 889.41837305575609
leaf_count=7818 547 12679 3131 1307 9148 16000 19978 63515 19107 66596 4161 19975 32256 4723 4280 2923 34307 5748 5116
internal_value=0 3.28209 3.05446 2.82557 3.46631 3.2531 3.82583 3.24164 2.99255 3.61524 3.18768 3.55575 3.09994 3.1337 3.6465 2.47728 2.41346 2.72488 3.03736
internal_weight=0 59225.8 26492 11918.3 32733.8 13461.2 11808.7 14573.7 8097.99 19272.6 13660.4 5102.04 6666.74 12635.9 5363.18 5251.61 4997.58 4109.72 2051.09
internal_count=333315 292815 154141 78611 138674 62930 40500 75530 42650 75744 72399 20522 40074 68238 20280 38537 37230 23543 10864
shrinkage=0.01


Tree=22
num_leaves=20
num_cat=0
split_feature=15 6 14 15 3 2 2 21 13 11 2 12 33 2 26 25 1 1 11
split_gain=2939.17 1327.82 1167.88 1017.51 786.8 683.42 587.937 574.521 555.354 490.748 432.347 418.95 492.196 634.161 415.264 404.212 581.412 400.847 381.025
threshold=-0.042868681735059859 1.5000000000000002 1.5000000000000002 -0.3177746513129458 2.5000000000000004 4.5000000000000009 1.0000000180025095e-35 1.5000000000000002 0.35000000000000003 1.5000000000000002 1.0000000180025095e-35 1.5000000000000002 1.5000000000000002 2.5000000000000004 1.5000000000000002 0.65000000000000002 0.59484050000000022 0.59740420000000005 1.5000000000000002
decision_type=2 2 2 2 2 2 2 2 2 2 2 2 2 2 2 2 2 2 2
left_child=1 3 5 8 11 7 -4 -2 -1 -8 -10 -5 13 -13 -11 16 -14 -3 -7
right_child=2 17 6 4 -6 18 9 -9 10 14 -12 12 15 -15 -16 -17 -18 -19 -20
leaf_value=0.025465517817090208 0.029659218312050865 0.028342411805869619 0.046363632911457467 0.037439064788213704 0.036505307615867524 0.032572651877434293 0.034265349375667414 0.034366840625090732 0.040912780347549006 0.038704820996851595 0.029115391456128237 0.032040394060794716 0.020097467228534793 0.026102363874610197 0.031691441451925588 0.035251945084395504 0.03135835067913606 0.036372501729496132 0.036354771891683534
leaf_weight=6725.1925890743732 7431.8233520910144 726.6939866617322 589.95290821045637 784.66491398215294 2355.2646960094571 4533.2286752536893 7074.5830310955644 3981.120500087738 335.05895376205444 7117.0409913957119 4262.8210772946477 2786.4038070887327 510.72941141575575 5072.8514372259378 957.87388452142477 2328.3730307519436 4483.4501836150885 4300.0209379568696 6458.8456858620048
leaf_count=45559 35082 3849 942 3339 8110 19062 26275 16347 1083 21178 23335 15060 3505 31646 3867 11593 23817 16344 23322
internal_value=0 3.04592 3.44819 2.96533 3.11098 3.30154 3.65696 3.13014 2.72967 3.61882 2.99751 3.03139 2.99456 2.82076 3.78729 3.1811 3.02068 3.52116 3.4795
internal_weight=0 34671.5 38144.5 29644.8 18321.7 22405 15739.5 11412.9 11323.1 15149.5 4597.88 15966.5 15181.8 7859.26 8074.91 7322.55 4994.18 5026.71 10992.1
internal_count=333315 187240 146075 167047 97070 93813 52262 51429 69977 51320 24418 88960 85621 46706 25045 38915 27322 20193 42384
shrinkage=0.01


Tree=23
num_leaves=20
num_cat=0
split_feature=15 4 3 3 9 0 12 2 15 6 4 4 7 1 1 4 1 15 1
split_gain=2737.35 1285.29 1106.61 1092.12 1026.07 884.158 787.227 719.675 740.573 655.373 700.079 614.153 556.602 535.035 532.215 515.1 712.623 504.606 475.36
threshold=-0.042868681735059859 0.35000000000000003 1.5000000000000002 2.5000000000000004 1.5000000000000002 0.65905173020000019 1.5000000000000002 1.5000000000000002 -0.40996409330344791 1.5000000000000002 0.15000000000000005 1.0000000180025095e-35 0.36674240820000009 0.58843010740000012 0.78342199040000005 1.0000000180025095e-35 0.73357001880000017 0.35564609747322268 0.73357001880000017
decision_type=2 2 2 2 2 2 2 2 2 2 2 2 2 2 2 2 2 2 2
left_child=1 4 5 6 11 14 -3 -8 -9 10 15 -1 -13 -10 -2 -7 -17 -12 -14
right_child=2 3 -4 -5 -6 9 7 8 13 -11 17 12 18 -15 -16 16 -18 -19 -20
leaf_value=0.03635628977180877 0.019885680612503173 0.036919502615168895 0.037300403384146634 0.035586215759671698 0.020856691759669435 0.032931037350898647 0.033069942193902413 0.025047100202024414 0.025286255541267299 0.036071075831694326 0.032290412496091346 0.030202260114428812 0.013436288060925002 0.030387134940699886 0.030758929795008237 0.011417651753577222 0.02751509924775556 0.036768634109870045 0.026302952260829838
leaf_weight=845.98960776627064 825.67723635584116 1409.9224974885583 5895.506809912622 3545.3227875307202 2764.7027313560247 938.08085218816996 4049.7045054882765 4848.0145759508014 2462.5727055445313 5663.1082537323236 20457.591664776206 1850.3283899277449 456.91205932945013 12464.923906415701 989.80546943843365 368.78691427409649 1081.4801567271352 2869.0532755628228 772.77255874872208
leaf_count=3669 5637 5579 15206 11577 20942 3861 19347 30165 15299 16540 83326 9766 3422 63252 4909 2655 5032 8909 4222
internal_value=0 2.94713 3.3308 3.03891 2.55233 3.25989 2.9659 2.92293 2.84428 3.29915 3.23132 2.88096 2.67367 2.95456 2.58138 2.71567 2.34217 3.28412 2.15221
internal_weight=0 35471.2 39089.1 28780.5 6690.71 33193.6 25235.1 23825.2 19775.5 31378.1 25715 3926 3080.01 14927.5 1815.48 2388.35 1450.27 23326.6 1229.68
internal_count=333315 187240 146075 145219 42021 130869 133642 128063 108716 120323 103783 21079 17410 78551 10546 11548 7687 92235 7644
shrinkage=0.01


Tree=24
num_leaves=20
num_cat=0
split_feature=15 6 4 14 0 15 9 10 5 4 3 2 0 3 2 11 1 7 4
split_gain=2559.91 1208.39 1163.78 1049.61 911.687 867 836.209 635.765 592.852 584.702 555.803 521.333 473.913 465.526 460.017 436.907 435.366 660.096 407.22
threshold=-0.042868681735059859 1.5000000000000002 0.35000000000000003 1.5000000000000002 0.64028825000000011 -0.3177746513129458 1.5000000000000002 2.5000000000000004 7.5000000000000009 1.0000000180025095e-35 2.5000000000000004 1.0000000180025095e-35 1.3407585000000002 2.5000000000000004 1.0000000180025095e-35 3.5000000000000004 0.75291100865000005 0.36400990000000005 0.15000000000000005
decision_type=2 2 2 2 2 2 2 2 2 2 2 2 2 2 2 2 2 2 2
left_child=1 2 6 4 -2 7 9 -4 12 -1 -7 -5 -6 18 -9 -13 17 -11 -10
right_child=3 -3 5 11 8 10 -8 14 13 16 -12 15 -14 -15 -16 -17 -18 -19 -20
leaf_value=0.034846649870230235 0.021946708063439867 0.032970965498838316 0.016174342513650609 0.043117646307226004 0.032074703473094344 0.029485387811077683 0.019541956820982396 0.036133847074140267 0.021547277935341311 0.026603383006310349 0.035170228225686377 0.032618367532314493 0.038704343134187219 0.035544643698025062 0.026461179434839846 0.036134368198601545 0.029189408157310276 0.012958234338349296 0.029283581037293706
leaf_weight=754.10810189694166 1095.8416382297873 5266.6644158735871 574.48516633361578 622.72894231230021 11699.19841170311 13433.90234836936 2574.6552675366402 522.27527296543121 746.66178050637245 900.17913623154163 1972.3245885074139 10601.427214153111 1187.712217181921 1089.2927233353257 8392.8182006925344 5301.5966859683394 1278.7607962265611 584.87635659426451 7666.6573539897799
leaf_count=3299 6795 20193 4271 942 43964 67998 19689 1896 4153 5306 5969 36188 2830 2899 47955 15132 6292 4372 33172
internal_value=0 2.85425 2.77899 3.22111 3.08525 2.87486 2.38725 2.63708 3.12884 2.70419 3.02132 3.4142 3.26857 2.93934 2.70278 3.37905 2.49123 2.12294 2.8597
internal_weight=0 36255 30988.4 40011.1 23485.4 24895.8 6092.58 9489.58 22389.5 3517.92 15406.2 16525.8 12886.9 9502.61 8915.09 15903 2763.82 1485.06 8413.32
internal_count=333315 187240 167047 146075 93813 128089 38958 54122 87018 19269 73967 52262 46794 40224 49851 51320 15970 9678 37325
shrinkage=0.01


Tree=25
num_leaves=20
num_cat=0
split_feature=0 3 4 9 2 2 4 23 26 2 0 0 3 5 16 7 6 13 7
split_gain=2313.75 1598.62 1331.59 901.527 599.085 492.641 488.41 479.045 474.808 569.203 556.803 466.782 401.907 428.879 399.159 478.533 388.365 381.12 584.037
threshold=0.94251070705000017 2.5000000000000004 0.8500000000000002 1.5000000000000002 1.5000000000000002 1.5000000000000002 0.25000000000000006 1.5000000000000002 1.5000000000000002 5.5000000000000009 0.5839361500000001 0.59534175000000011 1.5000000000000002 6.5000000000000009 2.5000000000000004 0.35987434296214155 1.5000000000000002 0.45000000000000007 0.36634060000000007
decision_type=2 2 2 2 2 2 2 2 2 2 2 2 2 2 2 2 2 2 2
left_child=1 2 3 7 -5 -4 -6 8 9 10 -1 -7 13 -2 15 -8 -3 -17 -19
right_child=12 16 5 4 6 11 14 -9 -10 -11 -12 -13 -14 -15 -16 17 -18 18 -20
leaf_value=0.0093949322850895699 0.0334424602340158 0.031948891760831113 0.034133602560875352 0.029250315233870339 0.019074780989617672 0.024113480208078571 0.031300139714867184 0.026795132117196162 0.024887356765086271 0.035765026785740416 0.029832016483086875 0.029991223458187249 0.035755757697667527 0.030409072877683369 0.022344438780595319 0.022140587434114459 0.038323672279947776 0.045830600917854521 0.023172148841524742
leaf_weight=138.28787817060947 8696.3367970958352 5872.7926269769669 2578.0507812649012 2183.0819736048579 2019.0443708077073 1502.2664645686746 1494.5841556042433 12446.614853173494 1433.9210009947419 1919.4024500846863 3703.7291973531246 13428.701416440308 3005.5678178369999 10044.690140731633 3946.7860209569335 1944.5493924468756 1141.4149743765593 188.05302005261183 287.93744692206383
leaf_count=945 26518 19268 10022 11485 14682 8899 7611 62676 7165 6441 15446 58991 6714 35694 23927 12152 2466 644 1569
internal_value=0 2.85199 2.78834 2.6661 2.45094 3.00968 2.34619 2.79825 3.00365 3.1318 2.90964 2.93998 3.23611 3.18166 2.45886 2.6851 3.29863 2.41038 3.2124
internal_weight=0 56229.2 49215 31706 12064 17509 9880.95 19642 7195.34 5761.42 3842.02 14931 21746.6 18741 7861.91 3915.12 7014.21 2420.54 475.99
internal_count=333315 264389 242655 164743 72070 77912 60585 92673 29997 22832 16391 67890 68926 62212 45903 21976 21734 14365 2213
shrinkage=0.01


Tree=26
num_leaves=20
num_cat=0
split_feature=0 3 12 4 1 17 0 1 7 1 14 8 22 0 4 7 4 7 15
split_gain=2176.66 1501.61 1428.33 1065.19 917.556 846.815 593.101 442.024 484.561 416.945 398.238 395.257 512.6 390.099 388.743 416.472 383.265 372.312 345.866
threshold=0.94251070705000017 2.5000000000000004 1.5000000000000002 0.35000000000000003 0.75291100865000005 1.5000000000000002 0.59751550865000003 0.58528865000000008 0.30033312420000008 0.62052995000000011 1.5000000000000002 1.5000000000000002 8.5000000000000018 1.3407585000000002 0.8500000000000002 0.32924300000000006 0.55000000000000016 0.38170669685000008 0.33953380037368264
decision_type=2 2 2 2 2 2 2 2 2 2 2 2 2 2 2 2 2 2 2
left_child=1 2 -1 4 9 6 7 8 -5 -4 13 18 17 16 15 -8 -2 -13 -11
right_child=10 -3 3 5 -6 -7 14 -9 -10 11 -12 12 -14 -15 -16 -17 -18 -19 -20
leaf_value=0.033172521081771086 0.02642582331558762 0.031940068386509236 0.028097065748139218 0.040948971558554703 0.027337250040152951 0.030064818758150289 0.029298900075598183 0.024328831456568431 0.01221075700025586 0.016222119530987206 0.032785376814972268 0.021181298135385246 0.027438565238305759 0.034418817967569057 0.028403665397719338 0.025054306796469184 0.030638519128848435 0.0077400416281089689 0.045385164956976629
leaf_weight=3539.6852627918124 3118.5164831206203 7170.7056840807199 672.65198312699795 65.387581050395966 3576.2649533450603 8620.4553452730179 2910.3107053264976 3029.1008771583438 571.24958498030901 2253.358738437295 10302.182765036821 823.93048917502165 1117.4135714545846 1780.0014024600387 11489.352381907403 11236.704597584903 7023.5872182026505 274.80974350124598 41.414444766938686
leaf_count=12751 12464 21734 3859 311 16732 34049 13095 17598 4506 16339 28463 5319 6435 4461 51688 57784 23538 2088 101
internal_value=0 2.76593 2.70481 2.65838 2.34408 2.73098 2.64993 2.27369 1.51624 2.07526 3.13454 1.96574 2.26695 3.0101 2.70372 2.59275 2.93432 1.78195 1.67484
internal_weight=0 57392.8 50222.1 46682.4 8759.84 37922.6 29302.1 3665.74 636.637 5183.58 22224.3 4510.93 2216.15 11922.1 25636.4 14147 10142.1 1098.74 2294.77
internal_count=333315 264389 242655 229904 50873 179031 144982 22415 4817 34141 68926 30282 13842 40463 122567 70879 36002 7407 16440
shrinkage=0.01


Tree=27
num_leaves=20
num_cat=0
split_feature=0 6 2 9 4 21 15 2 26 4 10 8 14 0 14 4 10 4 14
split_gain=2053.84 1469.98 1144.89 1106.8 792.359 628.83 622.604 602.104 771.7 422.035 421.974 411.778 371.983 363.266 361.751 355.527 353.265 343.278 341.616
threshold=0.94251070705000017 1.5000000000000002 1.5000000000000002 1.5000000000000002 0.25000000000000006 1.5000000000000002 -0.3177746513129458 4.5000000000000009 1.5000000000000002 0.8500000000000002 8.5000000000000018 1.5000000000000002 1.5000000000000002 1.3407585000000002 2.5000000000000004 0.55000000000000016 3.5000000000000004 0.75000000000000011 2.5000000000000004
decision_type=2 2 2 2 2 2 2 2 2 2 2 2 2 2 2 2 2 2 2
left_child=1 2 5 7 -5 17 16 9 -9 -4 14 -3 13 15 -7 -2 -6 18 -1
right_child=12 11 3 4 6 10 -8 8 -10 -11 -12 -13 -14 -15 -16 -17 -18 -19 -20
leaf_value=0.020485656845842332 0.025689620557193097 0.027592510374966805 0.023641599932521021 0.017821672615181978 0.012617745252389968 0.025419098968000368 0.02560462861265779 0.029983876863275489 0.025110791345930236 0.027808294449456525 0.032667675034152091 0.032142365998323326 0.031767463678987647 0.033319742140876164 0.04128164670587707 0.029708863639978312 0.021962535071838592 0.029833520180056156 0.032869158257848204
leaf_weight=1378.3429350331426 3175.5140477791429 3012.2973413467407 7326.370743393898 2200.4085430130363 462.12035438418388 1565.7862914800644 9859.2782895639539 8680.4858454689384 5194.2129176929593 3637.9645228609443 4650.7913092896342 5856.3570892736316 10524.821391418576 1820.1218905672431 158.3039927482605 7170.1821047961712 3246.6928441226482 1037.395906560123 265.71157437562943
leaf_count=7775 12464 11688 36518 15417 3597 7391 49041 32912 24373 15447 16454 18033 28463 4461 412 23538 20056 4196 1079
internal_value=0 2.68468 2.61771 2.54601 2.33881 2.93922 2.42908 2.67755 2.81596 2.50241 3.11012 3.0597 3.03909 2.92 2.68756 2.84752 2.07982 2.53293 2.24871
internal_weight=0 58532.5 49663.9 40607.5 15768.5 9056.33 13568.1 24839 13874.7 10964.3 6374.88 8868.65 22690.6 12165.8 1724.09 10345.7 3708.81 2681.45 1644.05
internal_count=333315 264389 234668 197361 88111 37307 72694 109250 57285 51965 24257 29721 68926 40463 7803 36002 23653 13050 8854
shrinkage=0.01


Tree=28
num_leaves=20
num_cat=0
split_feature=0 3 12 2 9 4 15 26 2 4 5 3 5 10 27 13 6 4 2
split_gain=1943.58 1395.15 1303.64 1269.39 1014.32 737.697 624.538 534.042 854.523 484.182 510.8 377.702 385.448 359.544 384.951 345.524 339.619 325.706 310.076
threshold=0.94251070705000017 2.5000000000000004 1.5000000000000002 1.5000000000000002 1.5000000000000002 0.25000000000000006 -0.3177746513129458 1.5000000000000002 7.5000000000000009 0.8500000000000002 6.5000000000000009 1.5000000000000002 6.5000000000000009 8.5000000000000018 10.500000000000002 0.45000000000000007 1.5000000000000002 0.8500000000000002 5.5000000000000009
decision_type=2 2 2 2 2 2 2 2 2 2 2 2 2 2 2 2 2 2 2
left_child=1 2 -1 13 7 -6 -7 8 9 10 -5 12 -2 14 -4 -15 -3 -9 -14
right_child=11 16 3 4 5 6 -8 17 -10 -11 -12 -13 18 15 -16 -17 -18 -19 -20
leaf_value=0.031229674142514929 0.030473925629076807 0.029181448225003809 0.025687200413608689 0.026906603670410631 0.016655438496449872 0.019739470336138893 0.024506128119425111 0.021492838232054466 0.03171739763655964 0.028909734452035742 0.022446255575085412 0.032684001267359555 0.026208896619225489 0.027982029858161062 -0.011570585031754238 0.032940765274001721 0.034955724575946062 0.025428625255797678 0.029649873020693458
leaf_weight=3690.2427264899015 9262.8612675964832 6240.3416059464216 2086.6327850595117 4858.5543605163693 1982.4700926169753 3806.0400493741035 9894.6389997005463 4008.3847579434514 2770.2783870324492 3382.9874448105693 5444.8852373585105 3195.4696515873075 6097.0765321105719 3441.055627182126 28.104849830269814 2375.0855272114277 1217.2760048434138 4422.4770579636097 4590.548989854753
leaf_count=12751 26518 19268 10290 20128 14126 24079 48852 20865 9713 12250 26699 6714 21905 15297 243 7612 2466 19750 13789
internal_value=0 2.60781 2.55 2.50641 2.43488 2.2357 2.3182 2.5604 2.66525 2.56273 2.45495 2.94921 2.89809 2.87231 2.5192 3.0007 3.0124 2.35574 2.76869
internal_weight=0 59649.5 52191.8 48501.6 40570.7 15683.1 13700.7 24887.6 16456.7 13686.4 10303.4 23146 19950.5 7930.88 2114.74 5816.14 7457.62 8430.86 10687.6
internal_count=333315 264389 242655 229904 196462 87057 72931 109405 68790 59077 46827 68926 62212 33442 10533 22909 21734 40615 35694
shrinkage=0.01


Tree=29
num_leaves=20
num_cat=0
split_feature=0 3 12 2 9 4 21 26 2 4 5 10 0 7 2 1 23 1 3
split_gain=1843.85 1320.41 1214.38 1179.21 954.18 693.52 579.604 499.354 791.762 452.357 476.901 403.738 400.925 452.621 480.825 400.223 368.784 358.948 357.111
threshold=0.94251070705000017 2.5000000000000004 1.5000000000000002 1.5000000000000002 1.5000000000000002 0.25000000000000006 1.5000000000000002 1.5000000000000002 7.5000000000000009 0.8500000000000002 6.5000000000000009 5.5000000000000009 0.68194544160000015 0.36510271265000005 1.0000000180025095e-35 0.93641602000000013 1.5000000000000002 0.53209490815000016 1.5000000000000002
decision_type=2 2 2 2 2 2 2 2 2 2 2 2 2 2 2 2 2 2 2
left_child=1 2 -1 6 7 -6 -4 8 9 10 -5 15 13 -8 -15 -7 17 -13 -2
right_child=18 -3 3 4 5 11 12 -9 -10 -11 -12 16 -14 14 -16 -17 -18 -19 -20
leaf_value=0.030263236590058841 0.028151636876549833 0.02924781957455562 0.024028300218333451 0.026141775521372659 0.016279122014238444 0.016553830542765192 0.029081544843087528 0.022933246155542042 0.030721392356903032 0.028061476695544721 0.0218692629322483 0.017695332645597542 0.031592816937866697 0.031718037762219403 0.011158890746372607 0.026301943661920971 0.021953794922881516 0.026685905100000091 0.031717035059877989
leaf_weight=3769.5986046344042 20330.807887472212 7603.4528733938932 2648.5787572860718 4950.2226817011833 2007.8850676044822 1822.9499238431454 1225.5471520274878 8572.9759610444307 2831.1776272803545 3450.0527697056532 5532.2086435630918 502.32111456990242 3702.7116487249732 169.4258339703083 346.21098921447992 547.7186985835433 7230.2877638041973 3829.7924558743834 3259.6315088197589
leaf_count=12751 62212 21734 12500 20128 14126 12028 5296 40615 9713 12250 26699 2830 12831 656 2159 2620 39015 16438 6714
internal_value=0 2.53501 2.47924 2.43747 2.36904 2.17736 2.78651 2.48964 2.59003 2.49206 2.38869 2.25654 2.97318 2.57744 1.79141 1.8806 2.33362 2.56434 2.86443
internal_weight=0 60743.1 53139.7 49370.1 41277.6 15941 8092.47 25336.6 16763.7 13932.5 10482.4 13933.1 5443.9 1741.18 515.637 2370.67 11562.4 4332.11 23590.4
internal_count=333315 264389 242655 229904 196462 87057 33442 109405 68790 59077 46827 72931 20942 8111 2815 14648 58283 19268 68926
shrinkage=0.01


Tree=30
num_leaves=20
num_cat=0
split_feature=0 13 5 3 15 9 2 4 12 3 1 0 4 2 13 31 1 26 1
split_gain=1889.47 1162.7 1325.29 931.652 685.141 662.256 579.413 631.733 501.236 468.031 457.906 454.825 447.482 495.212 447.174 373.906 367.027 335.008 304.609
threshold=0.83028920290000008 0.45000000000000007 7.5000000000000009 1.5000000000000002 0.27899497730928086 1.5000000000000002 4.5000000000000009 0.65000000000000002 1.5000000000000002 2.5000000000000004 0.99980520000000006 0.61412430000000018 0.8500000000000002 5.5000000000000009 1.0000000180025095e-35 1.5000000000000002 0.96111911965000008 1.5000000000000002 0.93641602000000013
decision_type=2 2 2 2 2 2 2 2 2 2 2 2 2 2 2 2 2 2 2
left_child=1 2 8 4 6 12 7 15 16 -3 -9 14 13 -4 -10 -2 -1 -12 -5
right_child=3 9 5 18 -6 -7 -8 10 11 -11 17 -13 -14 -15 -16 -17 -18 -19 -20
leaf_value=0.031400150627508429 0.018282341755574614 0.025553920551888244 0.018995806303451643 0.028426835875373507 0.029489719227314363 0.018345641630362945 0.027249515652116221 0.028006828334919773 0.028158010613087918 0.030475975643035173 0.024835387147728826 0.02510290139238101 0.027722377543820342 0.025054268141605305 0.018616234649645205 0.023731412167493027 0.00086360733245344657 0.017482287615286401 0.032936355971935519
leaf_weight=1363.4192879348993 2078.3628159016371 13691.418309621513 3307.920188985765 3009.3484095558524 5862.7891475409269 6658.1995532587171 13025.18236027658 4904.6638097241521 628.01178561151028 2249.2625699937344 3403.3913896754384 12488.641829177737 1437.8369477838278 2278.4636299237609 2253.8193461000919 3195.2360884472728 40.530365526676178 757.51351290941238 2982.3724727332592
leaf_count=4248 10081 55597 17529 7752 15672 40582 41703 16270 2952 5117 11265 54498 5962 10212 12775 12532 233 3290 5045
internal_value=0 2.40603 2.2915 2.70419 2.63874 2.06053 2.57228 2.43359 2.4799 2.62484 2.59368 2.42766 2.27473 2.14668 2.06956 2.15839 3.05186 2.34967 3.06714
internal_weight=0 46397.5 30456.8 39218.9 33227.1 13682.4 27364.3 14339.2 16774.4 15940.7 9065.57 15370.5 7024.22 5586.38 2881.83 5273.6 1403.95 4160.9 5991.72
internal_count=333315 209705 148991 123610 110813 74285 95141 53438 74706 60714 30825 70225 33703 27741 15727 22613 4481 14555 12797
shrinkage=0.01


Tree=31
num_leaves=20
num_cat=0
split_feature=3 9 6 10 15 1 4 20 4 6 15 15 26 4 2 2 12 16 26
split_gain=1804.49 1408.64 915.47 801.533 670.278 600.929 542.913 492.683 547.215 466.179 428.809 374.146 356.472 355.188 353.564 347.203 345.371 343.715 333.024
threshold=1.5000000000000002 1.5000000000000002 1.5000000000000002 7.5000000000000009 0.27899497730928086 0.75723177739791658 0.35000000000000003 1.5000000000000002 0.55000000000000016 1.5000000000000002 -0.43633212861038045 0.19481658980376851 1.5000000000000002 1.0000000180025095e-35 9.5000000000000018 10.500000000000002 1.5000000000000002 2.5000000000000004 1.5000000000000002
decision_type=2 2 2 2 2 2 2 2 2 2 2 2 2 2 2 2 2 2 2
left_child=1 2 4 16 5 7 14 13 12 10 -2 17 -9 -1 -5 -15 -3 -8 -7
right_child=9 3 -4 6 -6 18 11 8 -10 -11 -12 -13 -14 15 -16 -17 -18 -19 -20
leaf_value=0.032381645601983852 0.021061008109348342 0.027553116076295067 0.028083255484802509 0.018590874119065685 0.028389638575014371 0.025686634225193121 0.024992358518828261 0.021861749232380358 0.025896301400265793 0.031843899714349186 0.027827806100174751 0.028032700112217656 0.012249549666937679 0.019092230681834896 0.032883598365125735 -0.011672003531253999 0.018130419998330132 0.021765596073310724 0.023184670877447508
leaf_weight=202.52042499929667 1035.2464679554105 420.44122508168221 8481.2618158906698 3019.1022342219949 3952.4911565035582 17620.623343914747 6440.0419064834714 2622.0452939346433 4601.606250308454 2673.7919509187341 9815.7598532140255 1948.123091712594 452.38067766278982 3980.0246172919869 183.60187708586454 37.026506893336773 5199.5007673054934 6772.9132668450475 7620.9399353712797
leaf_count=753 4448 1635 23242 17949 10525 60915 27835 12617 18403 5093 26829 5769 2837 19946 865 306 30703 31138 31507
internal_value=0 2.41295 2.50921 2.21399 2.44747 2.4058 2.31513 2.2205 2.37139 2.81038 2.71822 2.39415 2.04474 1.94601 1.94102 1.88087 1.88354 2.33383 2.49312
internal_weight=0 73554.6 49570.9 23983.7 41089.7 37137.2 18363.8 11895.6 7676.03 13524.8 10851 15161.1 3074.43 4219.57 3202.7 4017.05 5619.94 13213 25241.6
internal_count=333315 296945 181051 115894 157809 147284 83556 54862 33857 36370 31277 64742 15454 21005 18814 20252 32338 58973 92422
shrinkage=0.01


Tree=32
num_leaves=20
num_cat=0
split_feature=3 15 13 12 23 5 17 2 1 1 32 10 2 15 2 21 14 10 9
split_gain=1715.08 1359.02 715.88 769.673 655.87 646.438 496.788 475.27 463.32 402.646 436.864 428.259 400.825 387.845 350.916 397.7 334.963 317.839 308.788
threshold=1.5000000000000002 -0.14429840305728789 0.45000000000000007 1.5000000000000002 1.5000000000000002 8.5000000000000018 1.5000000000000002 4.5000000000000009 0.85036930000000011 0.83200505000000013 1.0000000180025095e-35 9.5000000000000018 1.0000000180025095e-35 0.26139728941742435 3.5000000000000004 1.5000000000000002 1.5000000000000002 7.5000000000000009 1.5000000000000002
decision_type=2 2 2 2 2 2 2 2 2 2 2 2 2 2 2 2 2 2 2
left_child=1 2 3 -1 7 17 16 13 -2 11 -11 -6 -12 -3 15 -14 -7 18 -5
right_child=8 4 -4 5 9 6 -8 -9 -10 10 12 -13 14 -15 -16 -17 -18 -19 -20
leaf_value=0.029014805842171604 0.025553575540143956 0.023548598111012953 0.024107804177320141 0.022390841487753114 0.018785483816589118 0.015365006373282055 0.023809883186613392 0.027851428708861942 0.029224618195380945 0.03130938296953048 0.036776823750628081 0.023334312107517179 0.019656700988716639 0.028914739798603352 0.025327670994824733 0.025201711463870936 0.020387657116544288 0.022660794738519542 0.015862067072616309
leaf_weight=1103.9079420641065 7043.4746118336916 7260.2915861234069 10167.787744916975 1355.2916268631816 2754.2636662349105 4257.1709461063147 1264.6803959533572 8476.848762921989 6716.1952750235796 943.4469992890954 251.83473692089319 8327.1693921908736 3021.8499568477273 1653.6805138513446 8292.7510141655803 2261.4197496473789 1929.642681568861 9873.2750019952655 1556.3104941546917
leaf_count=3808 22661 24882 40965 6335 13881 27041 5793 23022 13709 2549 483 32415 11970 4011 26509 7643 10328 45562 9748
internal_value=0 2.35037 2.19241 2.08836 2.46546 2.04401 1.8099 2.61562 2.73454 2.36446 2.47255 2.22037 2.42763 2.45441 2.40444 2.20302 1.69316 2.18046 1.89011
internal_weight=0 74751.6 31508.1 21340.3 43243.6 20236.4 7451.49 17390.8 13759.7 25852.7 14771.3 11081.4 13827.9 8913.97 13576 5283.27 6186.81 12784.9 2911.6
internal_count=333315 296945 149580 108615 147365 104807 43162 51915 36370 95450 49154 46296 46605 28893 46122 19613 37369 61645 16083
shrinkage=0.01


Tree=33
num_leaves=20
num_cat=0
split_feature=0 5 13 3 23 6 4 0 2 10 2 2 8 21 9 2 16 27 4
split_gain=1702.65 1036.58 945.772 817.346 606.583 602.166 468.497 448.017 446.44 419.998 404.19 396.296 393.104 366.202 365.015 356.19 326.87 301.653 342.683
threshold=0.83028920290000008 8.5000000000000018 0.55000000000000016 1.5000000000000002 1.5000000000000002 1.5000000000000002 0.35000000000000003 1.2162381366000001 9.5000000000000018 5.5000000000000009 4.5000000000000009 1.5000000000000002 1.5000000000000002 1.5000000000000002 1.5000000000000002 3.5000000000000004 7.5000000000000009 8.5000000000000018 0.65000000000000002
decision_type=2 2 2 2 2 2 2 2 2 2 2 2 2 2 2 2 2 2 2
left_child=1 5 12 4 10 6 8 11 14 -8 16 13 17 -6 -1 -13 -2 -3 -19
right_child=3 2 -4 -5 7 -7 9 -9 -10 -11 -12 15 -14 -15 -16 -17 -18 18 -20
leaf_value=0.021535680635118144 0.024822869898921952 0.017551968756940078 0.023920709109268738 0.02829590143785855 0.020538859101072417 0.026587143146725913 0.020086585140710055 0.02641661065433849 0.033906091663415933 0.023957781662476307 0.027676783783239962 0.019812525589389209 0.020402396802628932 0.02921149326397731 0.015818737746077512 0.023109334746745473 0.015488983882762947 0.001096973482950859 0.017856028010474867
leaf_weight=2829.952018737793 6874.3343766704202 5127.2398701608181 5070.599751226604 6305.29102768749 709.85353619605303 4766.4227909743786 3313.4525236487389 3739.1892563998699 218.42913996428251 18176.78067778796 7025.3905165418983 4968.4150655418634 6880.687913261354 1549.9803710430861 1844.8931213915348 9627.1285987049341 396.84764847904444 248.49290651828051 239.70355031639338
leaf_count=12206 20464 28252 19483 12797 2839 14449 15885 9658 747 70479 17425 20312 33785 4461 11325 34112 1542 1849 1245
internal_value=0 2.22206 2.02782 2.49825 2.43837 2.3316 2.2725 2.32851 1.99324 2.33609 2.59662 2.25904 1.88001 2.64873 1.92795 2.19871 2.43134 1.68368 0.932564
internal_weight=0 48716.7 17566.7 41196.4 34891.1 31149.9 26383.5 20594.6 4893.27 21490.2 14296.6 16855.4 12496.1 2259.83 4674.85 14595.5 7271.18 5615.44 488.196
internal_count=333315 209705 84614 123610 110813 125091 110642 71382 24278 86364 39431 61724 65131 7300 23531 54424 22006 31346 3094
shrinkage=0.01


Tree=34
num_leaves=20
num_cat=0
split_feature=0 1 3 23 3 0 0 6 2 2 21 2 2 9 13 28 1 16 32
split_gain=1632.77 1003.96 780.161 575.51 518.732 560.407 425.704 414.158 380.248 371.237 342.35 335.9 331.606 348.191 410.095 406.396 323.214 322.746 410.232
threshold=0.83028920290000008 0.75723177739791658 1.5000000000000002 1.5000000000000002 1.5000000000000002 0.60378455000000009 1.2162381366000001 1.5000000000000002 4.5000000000000009 1.5000000000000002 1.5000000000000002 3.5000000000000004 1.0000000180025095e-35 1.5000000000000002 0.45000000000000007 1.5000000000000002 1.0137350000000003 2.5000000000000004 2.5000000000000004
decision_type=2 2 2 2 2 2 2 2 2 2 2 2 2 2 2 2 2 2 2
left_child=1 4 3 8 5 17 9 12 -2 10 -5 16 -3 -14 15 -15 -11 18 -1
right_child=2 7 -4 6 -6 -7 -8 -9 -10 11 -12 -13 13 14 -16 -17 -18 -19 -20
leaf_value=0.023111894636014946 0.023710261618675003 0.02740036335982286 0.027564831768393586 0.020059486839190441 0.023706539928420242 0.020293174632820477 0.025738572137100405 0.025975296862727447 0.02694678661296801 0.021120234330334269 0.028381770883335461 0.022538523468401364 0.02304073343763462 0.016075592988481872 0.022313940512079508 0.033337877757390715 0.015713455564669594 0.012582931187277394 0.012934526896397139
leaf_weight=954.98580384254456 7381.0299763381481 1292.8787819519639 6407.2701902911067 719.4997663795948 3552.7733448669314 16891.429944485426 3799.0079660713673 4041.3161141946912 7142.9499892219901 3393.8006874248385 1579.1899132654071 9771.4965224266052 14220.690669260919 2357.3676644638181 3706.4697226732969 144.75502143800259 1639.8784006014466 1612.698379047215 676.70495408028364
leaf_count=5048 22006 3311 12797 2839 12874 82107 9658 11162 17425 13525 4461 34112 52673 12130 15300 396 6787 10365 4339
internal_value=0 2.16696 2.43537 2.3773 2.01836 1.9562 2.27105 2.30358 2.5302 2.2038 2.57769 2.14574 2.24889 2.21781 2.02023 1.70743 1.93588 1.57555 1.88911
internal_weight=0 49452.1 41834.1 35426.9 23688.6 20135.8 20902.9 25763.5 14524 17103.9 2298.69 14805.2 21722.2 20429.3 6208.59 2502.12 5033.68 3244.39 1631.69
internal_count=333315 209705 123610 110813 114733 101859 71382 94972 39431 61724 7300 54424 83810 80499 27826 12526 20312 19752 9387
shrinkage=0.01


Tree=35
num_leaves=20
num_cat=0
split_feature=6 0 5 4 5 0 2 2 2 7 2 0 13 23 19 17 8 4 2
split_gain=1593.14 1341.4 585.987 498.294 496.025 435.799 402.314 458.64 390.538 347.534 346.798 353.806 336.627 340.575 318.883 309.316 287.788 313.577 287.143
threshold=1.5000000000000002 0.78631440000000008 7.5000000000000009 0.35000000000000003 10.500000000000002 0.61838231020000012 4.5000000000000009 1.5000000000000002 5.5000000000000009 0.36510271265000005 1.0000000180025095e-35 0.86250525000000011 1.2500000000000002 1.5000000000000002 12.500000000000002 1.5000000000000002 1.5000000000000002 0.25000000000000006 1.0000000180025095e-35
decision_type=2 2 2 2 2 2 2 2 2 2 2 2 2 2 2 2 2 2 2
left_child=1 2 18 8 -5 9 7 -2 10 -4 -3 -12 -7 -14 15 -6 17 -9 -1
right_child=6 3 5 4 14 12 -8 16 -10 -11 11 -13 13 -15 -16 -17 -18 -19 -20
leaf_value=0.026392482423828627 0.028368205509322789 0.031718397196296134 0.01813870415493217 0.024294344920072999 0.019932311369402034 0.019639716892823574 0.026960772047701864 0.003241294214795088 0.023560191904922256 0.011538663249354235 0.013851652871183862 0.020188755783923682 0.038128326505999038 0.022693945820825616 0.0084116228000714419 0.02478403858206378 0.023816296275744303 0.02006981419550188 0.021397383489985079
leaf_weight=1228.0447365567088 1650.4855129495263 207.0757110118866 2756.4996320381761 26802.719973221421 3948.5022741481662 12385.991231650114 8163.5336112901568 119.44545055925846 3294.9847267121077 1122.7873805686831 1205.9613447487354 3269.6925109997392 188.08058652281761 596.02530597150326 190.77812352776527 1969.4800969734788 4018.1012985929847 1516.9114415422082 18302.627613663673
leaf_count=3529 3825 370 14657 80093 14675 58134 19345 658 10509 6995 6254 12185 375 2143 907 5516 11394 5286 76465
internal_value=0 2.19201 2.05289 2.31647 2.37083 1.91743 2.54352 2.37304 2.09226 1.62284 1.90666 1.84812 2.0042 2.63961 2.11367 2.15469 2.23766 1.88414 2.17115
internal_weight=0 77469.3 36580.1 40889.2 32911.5 17049.4 15468.5 7304.94 7977.71 3879.29 4682.73 4475.65 13170.1 784.106 6108.76 5917.98 5654.46 1636.36 19530.7
internal_count=333315 292807 162298 130509 101191 82304 40508 21163 29318 21652 18809 18439 60652 2518 21098 20191 17338 5944 79994
shrinkage=0.01


Tree=36
num_leaves=20
num_cat=0
split_feature=15 6 6 1 4 13 0 33 2 2 2 21 2 1 15 13 5 13 10
split_gain=1937 745.18 687.644 546.499 619.133 527.318 522.034 475.413 382.343 310.914 353.23 359.457 334.886 305.135 304.55 300.38 401.655 298.799 291.899
threshold=-0.23645959544980485 1.5000000000000002 1.5000000000000002 0.82234420510000017 0.25000000000000006 1.0000000180025095e-35 0.60835270000000008 1.5000000000000002 1.5000000000000002 1.0000000180025095e-35 4.5000000000000009 1.5000000000000002 1.5000000000000002 0.59740420000000005 0.4113698494484283 0.15000000000000005 12.500000000000002 0.25000000000000006 9.5000000000000018
decision_type=2 2 2 2 2 2 2 2 2 2 2 2 2 2 2 2 2 2 2
left_child=2 3 6 4 5 -2 -1 8 -8 -5 12 -12 -11 -4 15 -6 18 -9 -17
right_child=1 -3 13 9 14 -7 7 17 -10 10 11 -13 -14 -15 -16 16 -18 -19 -20
leaf_value=0.016329240884200128 0.025242220640521694 0.025327051018436197 0.017308302349929024 0.028479510374832415 0.019337332912277322 0.016394145596002212 0.022178636237576092 0.019266259224364618 0.017717910788924079 0.024935406251701066 0.024960963979379223 0.020733995926246428 0.021102017423610092 0.024603134324996102 0.027271476977325328 0.020418565359475033 0.013550056597869557 0.022818403024039952 0.023758578082020528
leaf_weight=4756.9845655485988 823.86226617544889 11131.511572569609 672.28668896108866 1155.7736651748419 3814.4398271963 3691.9864854365587 2407.8381397426128 3682.1854925379157 9513.4574800729752 2956.8433133065701 12069.140642434359 2414.258220538497 9939.9668963849545 3898.4869216829538 1087.763858705759 3607.1136407852173 482.34419338405132 6635.5362432748079 9528.7439862936735
leaf_count=25586 2929 25785 2960 2082 15604 16955 9152 17231 46359 8417 31961 7637 33430 11763 2494 15016 2266 24854 30834
internal_value=0 2.29806 1.99433 2.24741 2.13284 1.80084 1.9336 1.99791 1.86189 2.3399 2.31846 2.42564 2.19809 2.35302 2.21379 2.18176 2.25123 2.15507 2.28414
internal_weight=0 62703.7 31566.8 51572.2 23036.3 4515.85 26996 22239 11921.3 28536 27380.2 14483.4 12896.8 4570.77 18520.4 17432.6 13618.2 10317.7 13135.9
internal_count=333315 195410 137905 169625 86098 19884 123182 97596 55511 83527 81445 39598 41847 14723 66214 63720 48116 42085 45850
shrinkage=0.01


Tree=37
num_leaves=20
num_cat=0
split_feature=15 6 6 12 10 1 4 13 2 33 32 2 2 21 13 2 15 1 1
split_gain=1854.49 714.394 654.261 528.822 532.695 523.494 585.912 497.256 427.931 541.629 353.299 318.418 369.76 330.585 313.238 294.367 289.142 288.4 285.561
threshold=-0.23645959544980485 1.5000000000000002 1.5000000000000002 1.5000000000000002 7.5000000000000009 0.82234420510000017 0.25000000000000006 1.0000000180025095e-35 1.5000000000000002 1.5000000000000002 1.0000000180025095e-35 1.0000000180025095e-35 4.5000000000000009 1.5000000000000002 0.25000000000000006 1.5000000000000002 0.4113698494484283 0.59740420000000005 0.55929635000000011
decision_type=2 2 2 2 2 2 2 2 2 2 2 2 2 2 2 2 2 2 2
left_child=2 5 3 -1 18 6 7 -2 14 -10 -7 -12 15 -14 -6 -13 -8 -4 -5
right_child=1 -3 17 4 8 10 16 -9 9 -11 11 12 13 -15 -16 -17 -18 -19 -20
leaf_value=0.025048494051245523 0.024579789679924201 0.024714903493812473 0.016938955028417083 0.010285089316183365 0.018521075928750769 0.027285584529363006 0.021298620209237781 0.016053702577602354 0.016805879926332423 0.020532634346650449 0.027799577524432562 0.023910133487092252 0.024172071421464936 0.020023661275249311 0.024297356099196168 0.020251074637258754 0.026570995990823753 0.023988476737228991 0.016834764668873733
leaf_weight=1327.9434866011143 837.53474327176809 11292.3245331496 680.03661675006151 756.38985420018435 1450.9158253073692 1683.7628137990832 17677.578333511949 3732.3717521727085 7958.6356175914407 7646.7313136607409 1114.7727566957474 2854.8847351744771 11412.17959382385 2309.7613553330302 2659.8758197426796 9564.4309618771076 1105.1863507032394 3958.0887009054422 5550.2014975249767
leaf_count=4383 2929 25785 2960 4815 6654 4087 63720 16955 39056 31562 1979 8134 29912 7277 8515 32138 2494 11763 28197
internal_value=0 2.24339 1.9482 1.88931 1.8579 2.19414 2.08275 1.76163 1.93882 1.8632 2.28402 2.25655 2.23423 2.34738 2.22586 2.10922 2.16088 2.29549 1.60492
internal_weight=0 63584.8 31988.8 27350.7 26022.7 52292.5 23352.7 4569.91 19716.2 15605.4 28939.8 27256 26141.3 13721.9 4110.79 12419.3 18782.8 4638.13 6306.59
internal_count=333315 195410 137905 123182 118799 169625 86098 19884 85787 70618 83527 79440 77461 37189 15169 40272 66214 14723 33012
shrinkage=0.01


Tree=38
num_leaves=20
num_cat=0
split_feature=15 6 6 1 12 0 33 2 32 1 15 2 2 5 13 10 13 25 27
split_gain=1777.68 686.173 623.387 502.522 499.383 590.037 456.661 422.172 331.506 312.467 306.745 303.465 351.952 285.161 331.431 362.176 297.93 348.503 311.555
threshold=-0.23645959544980485 1.5000000000000002 1.5000000000000002 0.82234420510000017 1.5000000000000002 0.60835270000000008 1.5000000000000002 1.5000000000000002 1.0000000180025095e-35 0.55593384325000006 0.4113698494484283 1.0000000180025095e-35 4.5000000000000009 12.500000000000002 0.15000000000000005 9.5000000000000018 1.0000000180025095e-35 0.8500000000000002 3.5000000000000004
decision_type=2 2 2 2 2 2 2 2 2 2 2 2 2 2 2 2 2 2 2
left_child=2 3 4 10 -1 9 7 -7 -5 -6 13 -10 -13 14 16 -16 17 -2 -18
right_child=1 -3 -4 8 5 6 -8 -9 11 -11 -12 12 -14 -15 15 -17 18 -19 -20
leaf_value=0.024401397969015418 0.020694157339835845 0.02413104528167994 0.022405438757723186 0.026577105968138875 0.0074304238631959577 0.021205509063563874 0.020385981993754441 0.016496435391812239 0.027113040061371625 0.015818226308438443 0.024957753007811327 0.02061272401613809 0.022920881537860777 0.014456744136183674 0.018597036834089281 0.021943597281572653 0.0056574315155121166 0.009150578632312634 0.016710205706946799
leaf_weight=1349.4172523617744 3313.043830037117 11449.087448135018 4704.006160825491 1711.2202811092138 498.07386256754398 2408.5620133802295 10257.921643279493 9084.013086527586 1131.4845313578844 4100.5114329531789 1360.1017360240221 12580.293722786009 13911.441986039281 870.89989068359137 4483.4442603811622 11603.052717961371 309.97356443852186 283.94692916423082 1438.8054284006357
leaf_count=4383 12630 25785 14723 4087 3379 8907 41032 44146 1979 21335 3180 40272 37189 3952 18897 38347 1636 1406 6050
internal_value=0 2.1911 1.90397 2.14314 1.84681 1.81642 1.88523 1.74833 2.2306 1.49097 2.03472 2.20414 2.18248 2.00661 2.0294 2.10109 1.81368 1.97829 1.47511
internal_weight=0 64446.8 32402.5 52997.7 27698.5 26349.1 21750.5 11492.6 29334.4 4598.59 23663.3 27623.2 26491.7 22303.2 21432.3 16086.5 5345.77 3596.99 1748.78
internal_count=333315 195410 137905 169625 123182 118799 94085 53053 83527 24714 86098 79440 77461 82918 78966 57244 21722 14036 7686
shrinkage=0.01


Tree=39
num_leaves=20
num_cat=0
split_feature=0 12 3 23 1 4 9 4 3 18 0 11 25 7 17 5 7 24 19
split_gain=1359.24 950.731 771.632 616.29 513.49 623.077 461.915 367.374 341.36 326.301 354.474 319.033 306.25 304.885 291.292 307.784 266.383 258.732 258.683
threshold=0.78631440000000008 1.5000000000000002 1.5000000000000002 1.5000000000000002 0.88176845220000011 0.35000000000000003 1.5000000000000002 0.45000000000000007 2.5000000000000004 0.31614868930000006 0.76965465000000011 1.5000000000000002 0.8500000000000002 0.42308390800000006 1.5000000000000002 10.500000000000002 0.33912950000000003 0.35000000000000003 4.5000000000000009
decision_type=2 2 2 2 2 2 2 2 2 2 2 2 2 2 2 2 2 2 2
left_child=1 -1 6 11 5 -5 16 9 -6 -8 12 17 13 18 15 -7 -3 -2 -11
right_child=3 2 -4 4 8 14 7 -9 -10 10 -12 -13 -14 -15 -16 -17 -18 -19 -20
leaf_value=0.024437338205166654 0.019584245136152995 0.021051602343365491 0.021916513590007517 0.016173503246221958 0.021371734606091004 0.020599812100963701 0.0052998211196808734 0.017873432585897141 0.02574723835430013 0.022960066447577261 0.0014955426550963694 0.024070161547585997 0.0068614452546897639 0.033630519461608291 0.022887391457455657 0.01573989357896876 0.018489142251881242 0.022848498138176326 0.015111932435210368
leaf_weight=3223.2832966819406 3891.9696383103728 5635.2424759939313 6688.5758691653609 4363.3339432999492 14081.988259352744 5590.8968199193478 359.26479352265596 10917.698723338544 2041.5131779760122 493.25771252065897 178.75730010867119 10939.447215333581 340.39169194549322 104.43519236147404 3781.5662507861853 1699.1737691313028 14484.246117055416 6456.2081808596849 2827.2984996885061
leaf_count=9286 11496 19926 19558 17698 40880 18830 2580 49451 3357 2420 1207 24329 2207 404 10574 6865 59067 17069 16111
internal_value=0 1.92033 1.88019 2.15646 2.06777 1.9374 1.82125 1.68981 2.19257 1.44235 1.52546 2.28795 1.59078 1.68069 2.06353 1.94671 1.92069 2.16208 1.62777
internal_weight=0 45252.5 42029.2 52846.1 31558.5 15435 35340.6 15221.1 16123.5 4303.41 3944.14 21287.6 3765.38 3424.99 11071.6 7290.07 20119.5 10348.2 3320.56
internal_count=333315 182217 172931 151098 98204 53967 153373 74380 44237 24929 22349 52894 21142 18935 36269 25695 78993 28565 18531
shrinkage=0.01


Tree=40
num_leaves=20
num_cat=0
split_feature=15 13 3 3 5 33 4 6 0 2 0 4 12 5 20 2 4 4 2
split_gain=1546.98 1113.43 765.806 519.704 507.539 471.185 451.93 466.453 592.442 440.875 379.198 341.424 336.597 311.615 371.661 298.611 280.727 290.675 271.887
threshold=-0.0038847239615818598 0.25000000000000006 1.5000000000000002 2.5000000000000004 7.5000000000000009 1.5000000000000002 1.0000000180025095e-35 1.5000000000000002 0.55002815000000016 1.5000000000000002 0.6366075000000001 0.35000000000000003 1.5000000000000002 8.5000000000000018 1.5000000000000002 10.500000000000002 0.15000000000000005 1.0000000180025095e-35 6.5000000000000009
decision_type=2 2 2 2 2 2 2 2 2 2 2 2 2 2 2 2 2 2 2
left_child=1 5 4 6 18 12 -3 8 -8 11 -6 -10 -1 14 -14 -16 17 -12 -2
right_child=2 3 -4 -5 10 -7 7 -9 9 -11 16 -13 13 -15 15 -17 -18 -19 -20
leaf_value=0.022485485811203468 0.021000363209746183 0.028449309875025267 0.024225432442340069 0.023017473139519788 0.012438937981960226 0.018624284405462956 0.011731771968731174 0.022022293594881871 0.0091598577559821662 0.018278684111002242 0.020992492831003018 0.022571644191820603 0.012802194317627641 0.012609647991780696 0.01735833118569078 0.035334609371201545 0.02005271706097413 0.011622355396309505 0.023609892456801573
leaf_weight=649.28665950149298 16525.624936528504 529.81408006697893 6973.2996340841055 4311.3964690938592 765.06322824954987 8169.5189702883363 1204.8196176812053 4663.1559735611081 199.6167030185461 18705.963434018195 548.76880853623152 3863.8059128895402 2223.5505481138825 3492.6345035880804 5150.5605285912752 94.095327250659466 14623.522610351443 834.53207287192345 5264.6466650515795
leaf_count=2095 46814 1525 13130 9814 3899 33909 6581 12859 1098 74106 1693 12379 10886 18926 22744 231 44160 3672 12794
internal_value=0 1.86654 2.11758 1.97768 2.06243 1.67843 1.92978 1.91285 1.85656 1.89272 1.93167 2.19128 1.54896 1.50752 1.62283 1.76808 1.96454 1.53396 2.16308
internal_weight=0 53258.2 45535.5 33478.6 38562.2 19779.6 29167.2 28637.4 23974.2 22769.4 16771.9 4063.42 11610.1 10960.8 7468.21 5244.66 16006.8 1383.3 21790.3
internal_count=333315 207153 126162 118362 113032 88791 108548 107023 94164 87583 53424 13477 54882 52787 33861 22975 49525 5365 59608
shrinkage=0.01


Tree=41
num_leaves=20
num_cat=0
split_feature=1 4 6 5 20 4 2 2 20 12 8 5 1 16 26 19 1 27 2
split_gain=1472.83 738.125 691.402 572.355 567.792 549.406 531.946 557.68 428.546 387.304 379.85 417.081 368.738 361.292 342.298 330.781 342.608 287.249 285.041
threshold=0.75723177739791658 0.35000000000000003 1.5000000000000002 10.500000000000002 1.5000000000000002 1.0000000180025095e-35 4.5000000000000009 1.0000000180025095e-35 2.5000000000000004 1.5000000000000002 3.5000000000000004 8.5000000000000018 0.58528865000000008 4.5000000000000009 1.5000000000000002 4.5000000000000009 0.72132930000000017 1.5000000000000002 1.5000000000000002
decision_type=2 2 2 2 2 2 2 2 2 2 2 2 2 2 2 2 2 2 2
left_child=1 5 3 6 12 -1 7 -2 -6 -7 11 -10 -3 -13 -4 -11 17 -17 -5
right_child=2 4 14 18 8 9 -8 -9 10 15 -12 13 -14 -15 -16 16 -18 -19 -20
leaf_value=0.020916672509676298 0.024262223953701773 0.013386955284012885 0.02343630238882613 0.0250869659566407 0.023166009558585651 0.022922921458337134 0.021706347465393051 0.018854934734492842 0.019600942824929721 0.019007281825627421 0.023004071692065642 0.015204257543681921 0.017885969606304057 0.02172724060717628 0.018504305747883913 -0.0082551089111509886 0.016354003915010379 0.011635506901310155 0.017358060778901788
leaf_weight=1517.952983520925 2110.5353262796998 2710.688776165247 9089.3420806825161 502.27754484117031 2764.2944983914495 491.75726530700922 17696.995828218758 19809.839782245457 11262.562141306698 1027.2423595488071 2069.186346039176 4927.0743546634912 5554.9282583668828 1025.9171111136675 1664.9792999774218 73.88779878616333 1947.8389098644257 4179.1968335583806 9545.3332468867302
leaf_count=5892 4266 12026 18606 1308 7688 1553 48216 65231 40408 4644 6351 22199 21166 3438 4571 555 8483 22608 34106
internal_value=0 1.78917 2.03739 1.98761 1.86458 1.5417 2.04167 1.93756 1.94837 1.43356 1.89559 1.84693 1.64105 1.63284 2.26727 1.37514 1.28807 1.129 1.77444
internal_weight=0 39552.5 60419.3 49665 30314.7 9237.88 39617.4 21920.4 22049 7719.92 19284.7 17215.6 8265.62 5952.99 10754.3 7228.17 6200.92 4253.08 10047.6
internal_count=333315 157011 176304 153127 113276 43735 117713 69497 80084 37843 72396 66045 33192 25637 23177 36290 31646 23163 35414
shrinkage=0.01


Tree=42
num_leaves=20
num_cat=0
split_feature=15 13 3 3 23 33 12 10 10 2 6 2 0 2 22 11 15 2 1
split_gain=1482.62 1119.32 670.472 590.176 442.923 431.852 395.918 377.962 338.623 317.461 338.258 282.855 390.665 298.099 357.19 551.582 267.268 247.591 231.114
threshold=1.0000000180025095e-35 0.25000000000000006 1.5000000000000002 2.5000000000000004 1.5000000000000002 1.5000000000000002 1.5000000000000002 3.5000000000000004 8.5000000000000018 1.5000000000000002 1.5000000000000002 1.5000000000000002 0.81651090000000015 6.5000000000000009 7.5000000000000009 1.0000000180025095e-35 -0.47354945237720653 1.0000000180025095e-35 0.72480730120172909
decision_type=2 2 2 2 2 2 2 2 2 2 2 2 2 2 2 2 2 2 2
left_child=1 5 4 7 -2 6 -1 16 -6 -9 -11 12 -8 14 15 -13 -3 -10 -4
right_child=2 3 18 -5 8 -7 11 9 17 10 -12 13 -14 -15 -16 -17 -18 -19 -20
leaf_value=0.022027173387666604 0.02113625165080046 0.00081764226514465118 0.019685093767982279 0.022307706589722184 0.016207375642907577 0.017806529366665692 0.01531113640179585 0.0210500129093306 0.02902130050988173 0.01776204897449233 0.020875029022655187 0.0032533681463082324 0.025437611960033312 0.016344464007359897 0.014392290997400317 0.013047910140269134 0.015065541510772079 0.019350337693448471 0.024262437403506146
leaf_weight=739.17443314194679 15432.595504201949 144.65338962525129 1398.1008471548557 4691.2166827842593 3798.2645225673914 8865.3344297260046 1476.6563532873988 5029.1183530762792 268.78387635946274 20454.795449964702 4208.7752082273364 881.32372262328863 513.42786335200071 3126.3844032436609 4219.3944310471416 1654.0471032708883 1465.4128770157695 17533.125766158104 5227.042445525527
leaf_count=2246 38121 923 3506 10226 14978 35648 6580 15852 425 78005 11234 5276 1426 14012 20069 7954 6850 51400 8584
internal_value=0 1.7922 2.03666 1.9 1.98424 1.61153 1.49263 1.85043 1.8918 1.87602 1.82933 1.44841 1.79237 1.37914 1.26097 0.964322 1.37855 1.94964 2.32965
