tree
version=v3
num_class=1
num_tree_per_iteration=1
label_index=0
max_feature_idx=34
objective=binary sigmoid:1
feature_names=ps_car_13 ps_reg_03 ps_ind_03 ps_ind_05_cat ps_reg_01 ps_ind_15 ps_ind_17_bin ps_car_14 ps_car_01_cat ps_ind_06_bin ps_car_15 ps_ind_01 ps_car_07_cat ps_reg_02 ps_car_03_cat ps_car_11_cat ps_car_06_cat ps_ind_07_bin ps_car_12 ps_calc_14 ps_car_09_cat ps_ind_02_cat ps_calc_10 ps_ind_16_bin ps_calc_03 ps_calc_02 ps_ind_09_bin ps_calc_11 ps_car_04_cat ps_car_08_cat ps_car_02_cat ps_car_05_cat ps_car_11 ps_ind_04_cat ps_ind_18_bin
feature_infos=[-4.8939161134593618:4.0694009389328354] [-14.197967065796366:3.3383318594645908] [0:11] [1:3] [0:0.90000000000000002] [0:13] [1:2] [-10.147674070032112:4.4790125316730709] [1:6] [1:2] [0:14] [0:7] [1:2] [0:1.8] [1:3] [-0.88492512611029339:0.67043710492173902] [1:8] [1:2] [0.10000000000000001:1.2649110641000001] [0:23] [1:3] [1:3] [0:25] [1:2] [0:0.90000000000000002] [0:0.90000000000000002] [1:2] [0:18] [1:3] [1:2] [1:2] [1:3] [0:3] [1:2] [1:2]
tree_sizes=2215 2222 2235 2226 2225 2227 2240 2245 2237 2237 2236 2228 2237 2242 2238 2233 2238 2237 2231 2235 2235 2236 2244 2251 2243 2233 2241 2243 2232 2234 2234 2245 2238 2232 2225 2239 2242 2246 2251 2234 2246 2231 2240 2233 2235 2234 2233 2239 2243 2238 2219 2236 2225 2224 2225 2236 2225 2230 2247 2237 2249 2245 2246 2240 2240 2240 2240 2241 2249 2254 2242 2243 2246 2238 2254 2249 2248 2265 2259 2258 2248 2266 2247 2269 2258 2259 2251 2257 2254 2266 2263 2257 2256 2266 2262 2274 2264 2261 2259 2270 2269 2267 2257 2272 2270 2269 2270 2272 2274 2265 2273 2275 2264 2282 2287 2278 2269 2275 2267 2272 2274 2276 2276 2264 2282 2263 2273 2264 2274 2282 2276 2267 2268 2278 2273 2281 2281 2281 2274 2271 2275 2279 2272 2264 2279 2283 2272 2286 2281 2277 2269 2281 2269 2275 2271 2285 2276 2272 2270 2273 2273 2269 2270 2267 2272 2264 2288 2276 2270 2278 2283 2252 2276 2263 2267 2267 2282 2279 2276 2272 2255 2283 2275 2275 2284 2284 2267 2266 2267 2271 2261 2292 2287 2264 2272 2279 2271 2267 2266 2263 2281 2281 2268 2279 2275 2274 2280 2283 2277 2286 2274 2272 2271 2268 2270 2265 2286 2291 2270 2269 2269 2279 2273 2270 2268 2281 2283 2277 2273 2278 2273 2301 2280 2277 2274 2287 2279 2265 2284 2265 2281 2280 2283 2275 2274 2283 2286 2292 2272 2294 2283 2272 2284 2297 2287 2280 2286 2267 2268 2281 2281 2290 2269 2262 2290 2280 2286 2285 2275 2274 2289 2283 2287 2286 2270 2299 2304 2292 2266 2258 2289 2268 2283 2282 2270 2288 2290 2280 2294 2271 2280 2293 2279 2288 2275 2291 2290 2268 2290 2290 2275 2278 2278 2291 2294 2269 2279 2288 2298 2272 2281 2287 2281 2297 2301 2296 2307 2272 2284 2280 2268 2273 2291 2268 2264 2284 2286 2284 2262 2267 2260 2293 2289 2298 2295 2283 2290 2293 2270 2300 2291 2275 2283 2303 2289 2284 2269 2271 2281 2252 2265 2274 2285 2287 2273 2292 2298 2270 2305 2260 2286 2310 2291 2253 2278 2277 2291 2277 2269 2265 2292 2264 2303 2287 2284 2277 2266 2252 2300 2278 2321 2317 2274 2277 2310 2270 2293 2289 2266 2262 2281 2287 2300 2244 2278 2248 2276 2260 2256 2278 2236 2271 2253 2266 2257 2271 2276 2261 2292 2270 2276 2252 2261 2267 2274 2289 2284 2277 2280 2276 2297 2307 2284 2292 2300 2278 2292 2290 2280 2285 2270 2277 2300 2267 2290 2256 2269 2271 2301 2292 2283 2295 2279 2270 2294 2277 2278 2287 2296 2285 2280 2289 2231 2280 2235 2286 2256 2269 2258 2283 2257 2260 2254 2274 2256 2263 2309 2306 2297 2282 2239 2239 2287 2280 2283 2291 2277 2285 2286 2304 2279 2289 2302 2294 2286 2283 2289 2292 2292 2287 2278 2276 2278 2262 2290 2283 2277 2278 2253 2274 2265 2261 2272 2272 2259 2256 2249 2266 2287 2287 2266 2259 2280 2258 2257 2252 2284 2248 2276 2265 2257 2261 2258 2268 2222 2317 2319 2277 2278 2297 2270 2269 2255 2234 2258

Tree=0
num_leaves=20
num_cat=0
split_feature=0 3 3 13 6 15 5 6 0 15 0 13 6 0 9 13 5 15 2
split_gain=55572.6 22499.3 15389.6 12868.8 11178.5 9578.78 7135.75 5358.85 4171.11 3932.37 3825.54 3521.91 2870.86 2818.16 2797.74 2482.44 2364.48 2262.19 2198.12
threshold=0.28701388061127914 2.5000000000000004 1.5000000000000002 0.35000000000000003 1.5000000000000002 0.11838924825267978 7.5000000000000009 1.5000000000000002 -0.77311342571727015 -0.27930275221661122 2.013314345511994 0.35000000000000003 1.5000000000000002 -0.52928835956155329 1.5000000000000002 0.25000000000000006 10.500000000000002 -0.33750662900763018 7.5000000000000009
decision_type=2 2 2 2 2 2 2 2 2 2 2 2 2 2 2 2 2 2 2
left_child=1 3 4 6 5 15 9 8 -5 12 18 17 -1 -11 -8 -2 -10 -3 -7
right_child=2 11 -4 7 -6 10 14 -9 16 13 -12 -13 -14 -15 -16 -17 -18 -19 -20
leaf_value=-3.169626961474898 -3.1543093702498437 -3.1528405426210915 -3.0877531514735241 -3.1640897284654561 -3.0989791388458459 -3.1275294597275449 -3.1657644967239444 -3.1183011190795789 -3.137480681684393 -3.1654242949844367 -3.0967222845859612 -3.0963827984725301 -3.1323350717556249 -3.1359865977949859 -3.1845499703906039 -3.1359728820716826 -3.159367295624627 -3.1159269242731797 -3.1049811320677478
leaf_weight=1660.0603894591331 1158.8767337203026 249.00886808335781 1305.0124490857124 1161.4136517643929 1402.1698553413153 2502.634141266346 1488.1591286212206 712.54539930820465 2468.8270588666201 444.65588703751564 639.94019438326359 648.80180025100708 235.75182497501373 1210.5764264911413 1696.6895135492086 2034.5263397246599 616.95499412715435 498.13168521225452 522.62039390206337
leaf_count=29474 18868 4019 12892 20002 15366 34299 25869 9133 36199 7715 6874 6948 3340 17576 32560 29536 10345 6271 6029
internal_value=0 11.7775 14.9484 11.3246 14.4443 13.9183 10.4245 12.5471 12.1213 11.3993 15.0214 15.5722 10.416 12.5255 9.33772 12.6522 12.7293 14.092 14.5515
internal_weight=0 13091.6 9565.78 11695.6 8260.77 6858.6 6735.89 4959.74 4247.2 3551.04 3665.19 1395.94 1895.81 1655.23 3184.85 3193.4 3085.78 747.141 3025.25
internal_count=333315 209451 123864 192213 110972 95606 116534 75679 66546 58105 47202 17238 32814 25291 58429 48404 46544 10290 40328
shrinkage=1


Tree=1
num_leaves=20
num_cat=0
split_feature=15 3 3 0 6 9 6 4 4 0 6 0 2 8 13 12 2 15 7
split_gain=39583.6 13508.4 11917.6 10596 8021.94 4940.38 4768.55 4935.74 4315.8 3020.51 2954.23 2700.66 2649.71 2401.08 2342.62 2303.23 2653.49 2386.1 1950.4
threshold=-0.069575444365654715 2.5000000000000004 1.5000000000000002 0.89581837014706811 1.5000000000000002 1.5000000000000002 1.5000000000000002 0.65000000000000002 0.45000000000000007 -0.82629607250331549 1.5000000000000002 -0.97968544397814583 4.5000000000000009 1.5000000000000002 0.55000000000000016 1.5000000000000002 1.5000000000000002 -0.3177746513129458 -0.62572751103934066
decision_type=2 2 2 2 2 2 2 2 2 2 2 2 2 2 2 2 2 2 2
left_child=1 4 3 6 5 11 7 -2 -7 -9 12 -1 -5 -4 -3 -10 -17 -18 -6
right_child=2 14 13 10 18 8 -8 9 15 -11 -12 -13 -14 -15 -16 16 17 -19 -20
leaf_value=0.084605473795512906 0.10047741051666391 0.12320861475055526 0.13203921576341984 0.12236907371917091 0.13398137256642284 0.07285719839183151 0.13515878347324797 0.085786614827936522 0.12935658892702004 0.12223253722445446 0.15121347085657419 0.1048806433026863 0.13916728762479641 0.15777531132740266 0.15169679234539363 0.1116845045058802 0.075260936238651988 0.095772499622123045 0.11048971644583197
leaf_weight=771.84444065764546 2349.0162400901318 983.49229273572564 498.14241158217192 1838.9264919534326 615.27404230460525 1385.8381844870746 1007.4889347143471 245.92579334974289 174.90607609972358 3017.9572829008102 889.50100766122341 4413.8438057713211 1918.8336897529662 1331.4178906492889 408.56240950152278 553.29757223278284 963.41499922797084 1378.8307556658983 830.45237813144922
leaf_count=12822 34365 11604 5251 22150 6807 24741 10690 4060 2117 37253 7711 63200 19722 10583 3487 7667 16910 21121 11054
internal_value=0 10.2207 12.7095 12.3252 9.85209 9.52273 11.5127 11.1531 8.75055 11.9486 13.4826 10.1863 13.0947 15.0768 13.157 9.4117 9.19884 8.73357 12.0487
internal_weight=0 12479.8 13097.2 11267.6 11087.7 9641.98 6620.39 5612.9 4456.29 3263.88 4647.26 5185.69 3757.76 1829.56 1392.05 3070.45 2895.54 2342.25 1445.73
internal_count=333315 181530 151785 135951 166439 148578 86368 75678 72556 41313 49583 76022 41872 15834 15091 47815 45698 38031 17861
shrinkage=0.01


Tree=2
num_leaves=20
num_cat=0
split_feature=15 1 1 4 23 14 5 0 0 0 4 14 8 1 15 0 14 23 15
split_gain=28181.3 10082.9 9171.85 4708.46 4455.04 4297.61 4095.31 3704.74 2923.49 2458.23 2165.22 1958.92 1907.69 1745.04 1644.43 1534.45 1495.1 1480.15 1457.93
threshold=-0.042868681735059859 -0.17414651447199622 0.082714388765569399 0.35000000000000003 1.5000000000000002 1.5000000000000002 8.5000000000000018 -0.6376025522483687 -0.61715380613442872 1.717943337434737 0.65000000000000002 1.5000000000000002 1.5000000000000002 -1.3880038805685457 0.33953380037368264 -0.82629607250331549 1.5000000000000002 1.5000000000000002 -0.3177746513129458
decision_type=2 2 2 2 2 2 2 2 2 2 2 2 2 2 2 2 2 2 2
left_child=1 3 4 12 14 9 -3 11 -6 15 -10 13 -1 -5 -2 -4 -8 -9 -15
right_child=2 6 5 7 8 -7 16 17 10 -11 -12 -13 -14 18 -16 -17 -18 -19 -20
leaf_value=0.061084287496601046 0.11012773331181114 0.10725642909841933 0.080579495613730845 0.048117808638344528 0.067023075907460622 0.12737856574344042 0.08588049607215581 0.10350301230364493 0.091241972978663391 0.13151663744465425 0.10779162551110391 0.094884801196276736 0.080884470461147689 0.067998808324656754 0.13463415043099583 0.11125566414587862 0.10192608832346489 0.090109201912379047 0.090663426304405631
leaf_weight=973.68620098009706 2170.643277309835 4231.1354606412351 170.34618484973907 251.30780650675297 322.27845706418157 3616.7643504701555 1718.7961453534663 1344.6129638999701 1772.7407959997654 608.96328618377447 1426.8183521404862 509.03627119585872 972.69788518920541 703.60757012292743 313.34075641259551 3813.1076810248196 877.01295433565974 2135.4070976525545 475.70468686893582
leaf_count=16296 22812 48286 2463 4530 5116 30791 23605 15989 22609 4810 15471 6727 14331 11317 2404 39668 10529 29046 6515
internal_value=0 9.24348 11.2355 8.43205 10.2964 11.9225 10.119 8.91118 9.57306 11.2804 9.86222 7.80374 7.09794 7.20428 11.3219 10.9944 9.13016 9.52843 7.71411
internal_weight=0 14193 14215 7366.06 6005.82 8209.18 6826.94 5419.68 3521.84 4592.42 3199.56 1939.66 1946.38 1430.62 2483.98 3983.45 2595.81 3480.02 1179.31
internal_count=333315 187171 146144 104751 68412 77732 82420 74124 43196 46941 38080 29089 30627 22362 25216 42131 34134 45035 17832
shrinkage=0.01


Tree=3
num_leaves=20
num_cat=0
split_feature=1 3 17 23 12 6 4 17 28 4 8 18 2 5 3 6 31 9 20
split_gain=20062.6 9945.65 7487.28 5308.33 5230.87 3598.23 3453.9 2625.25 2454.18 2296.76 2196.51 2080.84 1809.21 1477.74 1371.49 1341.14 1302.65 1257.24 1202.46
threshold=0.022917840940016612 1.5000000000000002 1.5000000000000002 1.5000000000000002 1.5000000000000002 1.5000000000000002 0.55000000000000016 1.5000000000000002 1.5000000000000002 0.55000000000000016 1.5000000000000002 0.31606960630000008 1.5000000000000002 8.5000000000000018 1.5000000000000002 1.5000000000000002 1.5000000000000002 1.5000000000000002 1.5000000000000002
decision_type=2 2 2 2 2 2 2 2 2 2 2 2 2 2 2 2 2 2 2
left_child=2 3 4 7 -1 6 10 18 12 14 -6 -8 -5 -13 -4 -3 -7 -14 -2
right_child=1 15 9 8 5 16 11 -9 -10 -11 -12 13 17 -15 -16 -17 -18 -19 -20
leaf_value=0.10488410242724419 0.089155852750197759 0.11538318938662374 0.084442710565870882 0.10119105307218927 0.06209772318557797 0.081055946682657753 0.05708487488769784 0.11395530078634092 0.10143483629463786 0.10344329885494333 0.076569374289214981 0.087423743093576617 0.089653428479034847 0.07595438995434052 0.11142725248616159 0.13401727816698758 0.10063645978921529 0.078697172715940136 0.10329786875700217
leaf_weight=806.30118557065725 854.31418450176716 1890.8048536665738 1494.7599082104862 1021.1937065608799 2056.6077255345881 548.16776330024004 322.8361776098609 2028.8525111563504 2128.9684345126152 2105.6015904955566 2140.3093173056841 3124.0327263176441 3815.0852999463677 1754.1228758133948 215.50388824567199 485.39437727257609 893.70290061458945 1443.6906707361341 2029.6267298012972
leaf_count=7800 9255 13446 17711 10220 30449 6407 4989 15728 19264 19814 28072 36305 41966 22803 1763 2482 8407 17880 18554
internal_value=0 10.0343 8.42943 9.69813 8.03111 7.84833 7.62265 10.524 9.21564 9.64512 6.94779 8.16723 8.90109 8.32995 8.78429 11.919 9.31924 8.66456 9.91086
internal_weight=0 15697.9 15461.9 13321.7 11646.1 10839.8 9397.91 4912.79 8408.94 3815.87 4196.92 5200.99 6279.97 4878.16 1710.26 2376.2 1441.87 5258.78 2883.94
internal_count=333315 148795 184520 132867 145232 137432 122618 43537 89330 39288 58521 64097 70066 59108 19474 15928 14814 59846 27809
shrinkage=0.01


Tree=4
num_leaves=20
num_cat=0
split_feature=0 3 3 15 1 23 0 5 5 4 1 9 2 1 7 1 4 16 2
split_gain=18067 7951.26 5593.21 5447.7 5075.93 2642.61 2456.25 2387.45 1951.47 1907.09 2481.34 1785.93 1462 1460.64 1367.48 1270.13 1256.38 1251.81 1236.73
threshold=0.069438630379963534 1.5000000000000002 2.5000000000000004 0.070410064365843572 -0.17414651447199622 1.5000000000000002 -1.0884968317999435 8.5000000000000018 7.5000000000000009 0.55000000000000016 0.041726801970634671 1.5000000000000002 4.5000000000000009 0.23068445497506443 -0.96136781140920813 1.643820681601319 0.8500000000000002 2.5000000000000004 1.0000000180025095e-35
decision_type=2 2 2 2 2 2 2 2 2 2 2 2 2 2 2 2 2 2 2
left_child=1 4 3 9 6 -5 17 -6 -8 10 -2 -3 18 -4 -10 -9 -16 -1 -7
right_child=2 11 13 5 7 12 8 15 14 -11 -12 -13 -14 -15 16 -17 -18 -19 -20
leaf_value=0.065090123297459501 0.067183933824555495 0.10110464139100377 0.097277101494766122 0.10051873912855053 0.084538851822765507 0.12835512822336684 0.075994610679118724 0.0699647775641596 0.076835697276796164 0.086048643751172521 0.090138537928257462 0.083817146826221101 0.094841048615595974 0.11504507530922203 0.055309388544784482 0.093467576145383424 0.073619292504217004 0.046063784879156952 0.083312748485105337
leaf_weight=705.64453856647015 1464.1084743961692 1324.7326480597258 808.78745200484991 3847.9271145351231 4153.762373290956 62.429597534239292 3088.7932729870081 2324.2016472294927 646.79783116281033 4387.5906671322882 694.2057752199471 1088.6960558779538 2689.6628868244588 1081.1193864606321 1445.1638216115534 255.18277990445495 505.96153380349278 678.1075563468039 2586.3477734811604
leaf_count=9453 18088 9889 5996 27243 41608 323 35611 27672 7664 41885 6426 10632 21632 5283 20523 2357 6101 10337 24592
internal_value=0 7.65603 9.11867 8.9234 7.36324 9.42013 6.77148 7.98464 7.06222 8.2263 7.45671 9.33063 8.96478 10.7441 6.42347 7.22899 6.00575 5.57663 8.43744
internal_weight=0 16217 17622.2 15732.3 13803.6 9186.37 7070.47 6733.15 5686.72 6545.9 2158.31 2413.43 5338.44 1889.91 2597.92 2579.38 1951.13 1383.75 2648.78
internal_count=333315 181847 151468 140189 161326 73790 89689 71637 69899 66399 24514 20521 46547 11279 34288 30029 26624 19790 24915
shrinkage=0.01


Tree=5
num_leaves=20
num_cat=0
split_feature=0 1 6 3 5 0 3 5 15 3 28 12 3 23 2 0 7 2 18
split_gain=15276.8 8117.79 3520.91 3256.13 3228.01 2903.87 3019.33 2574.73 2145.95 1608.76 1538.84 1458.82 1345.98 1184.51 1253.97 1181.43 1123.12 1114.22 1089.04
threshold=0.28701388061127914 -0.17414651447199622 1.5000000000000002 2.5000000000000004 7.5000000000000009 1.2595331819691673 2.5000000000000004 8.5000000000000018 0.25309550151252014 1.5000000000000002 1.5000000000000002 1.5000000000000002 1.5000000000000002 1.5000000000000002 1.5000000000000002 -1.1165197863139529 -0.11191915649922274 4.5000000000000009 0.37342930155000004
decision_type=2 2 2 2 2 2 2 2 2 2 2 2 2 2 2 2 2 2 2
left_child=1 4 5 7 11 6 8 10 -2 -6 16 -1 15 -9 -15 -13 -3 -7 -16
right_child=2 3 -4 -5 9 17 -8 13 -10 -11 -12 12 -14 14 18 -17 -18 -19 -20
leaf_value=0.08841898020920326 0.075173699895343948 0.08276541856312912 0.094462463316721923 0.092415314661426023 0.056425229846809206 0.083468954055923528 0.095061842800020169 0.077766341219964646 0.090855004144985402 0.073425050298024319 0.095433969282585698 0.05464850004770247 0.081567843279272009 0.083543129143525935 0.053505900881888203 0.068995474584926914 0.073343559947514 0.093953915712238933 0.068231332830813049
leaf_weight=411.37867460399866 7002.4621295556426 2519.0029228143394 2961.7801695838571 1325.5918336249888 3860.5571209564805 1803.7918715178967 1063.5961138643324 1020.0115431584418 996.92111786827445 650.47315003350377 564.96136109158397 681.20757611095905 712.71915917098522 312.6858488060534 865.30567549914122 3645.9381733052433 2541.8437333628535 2313.4297820776701 1196.9804775677621
leaf_count=3443 64898 22050 17422 8284 49611 13930 6033 9514 7221 6306 3978 9070 6217 2858 10925 39677 24636 14358 12884
internal_value=0 7.15771 8.46103 7.7781 6.5134 8.23963 7.92326 7.56305 7.7128 5.88765 7.97807 7.03122 6.88342 6.87532 6.48821 6.67369 7.80332 8.93604 6.20528
internal_weight=0 20308.7 16142 10346.4 9962.27 13180.2 9062.98 9020.79 7999.38 4511.03 5625.81 5451.24 5039.86 3394.98 2374.97 4327.15 5060.85 4117.22 2062.29
internal_count=333315 209453 123862 95129 114324 106440 78152 86845 72119 55917 50664 58407 54964 36181 26667 48747 46686 28288 23809
shrinkage=0.01


Tree=6
num_leaves=20
num_cat=0
split_feature=9 3 0 4 15 23 15 1 2 1 5 1 0 3 13 6 15 2 6
split_gain=13352 6209.02 5354.02 4641.29 3382.31 2844.19 2346.45 2200.87 1361.57 1359.04 1227.2 1213.92 1213.86 1170 1138.44 1234.89 1114.02 1113.34 1111.05
threshold=1.5000000000000002 1.5000000000000002 0.89581837014706811 0.45000000000000007 -0.23645959544980485 1.5000000000000002 -0.33750662900763018 -0.17414651447199622 4.5000000000000009 -0.28486567561285076 9.5000000000000018 -0.89971194655697562 -0.50946015422186164 2.5000000000000004 0.25000000000000006 1.5000000000000002 0.33953380037368264 1.0000000180025095e-35 1.5000000000000002
decision_type=2 2 2 2 2 2 2 2 2 2 2 2 2 2 2 2 2 2 2
left_child=1 2 5 4 -2 9 11 -7 -4 -1 -9 -5 -12 14 -8 -16 -6 -13 -3
right_child=3 18 8 6 16 7 13 10 -10 -11 12 17 -14 -15 15 -17 -18 -19 -20
leaf_value=0.069107434479823357 0.043498186124406112 0.084684490339408211 0.07645898760744764 0.047182370339670897 0.060466238141382397 0.060489063105835066 0.061808699609115399 0.07367396867741631 0.085539962779330625 0.079356096620844918 0.049614084766786339 0.091145208529036056 0.06828814872963597 0.081874852822056338 0.068770926531496454 0.082530104666387299 0.086976909131026153 0.060536078446668667 0.097934997362554205
leaf_weight=1940.7653034701943 1714.9631367586553 3059.559574753046 3168.5179856456816 695.86135384440422 1692.8230486400425 3314.9686544053257 1849.9595534168184 4188.0300213694572 3447.7060610279441 3881.9238778688014 445.03201582282782 129.05797721818089 1597.9564116001129 720.79927706345916 3894.2446952313185 783.53608801215887 174.88283444195986 1499.3509389385581 797.81375829130411
leaf_count=17929 22675 17790 22819 8835 17767 35577 18870 35345 20399 28991 5305 845 14726 4541 35342 5168 1113 16008 3270
internal_value=0 7.5723 7.36698 6.33472 5.3638 7.04319 6.69809 6.70721 8.11911 7.59401 7.05744 5.82377 6.42203 6.97844 6.84494 7.10756 6.29486 6.2962 8.74251
internal_weight=0 25842.3 21984.9 13155.5 3582.67 15368.7 9572.81 9545.99 6616.22 5822.69 6231.02 2324.27 2042.99 7248.54 6527.74 4677.78 1867.71 1628.41 3857.37
internal_count=333315 202151 181091 131164 41555 137873 89609 90953 43218 46920 55376 25688 20031 63921 59380 40510 18880 16853 21060
shrinkage=0.01


Tree=7
num_leaves=20
num_cat=0
split_feature=15 3 0 1 12 5 6 1 10 3 5 15 5 18 6 15 13 13 1
split_gain=10645.1 4421.82 4450.06 3802.48 2395.54 2122.96 1917.31 1772.13 1580.23 1086.71 1109.75 1044.14 1008.99 955.551 922.366 811.822 805.89 747.333 742.016
threshold=-0.23645959544980485 2.5000000000000004 0.89581837014706811 -0.31630758044675117 1.5000000000000002 7.5000000000000009 1.5000000000000002 -0.21745732266833626 4.5000000000000009 2.5000000000000004 8.5000000000000018 0.33953380037368264 5.5000000000000009 0.31614868930000006 1.5000000000000002 0.18459634928146937 0.25000000000000006 0.45000000000000007 0.17258159329254713
decision_type=2 2 2 2 2 2 2 2 2 2 2 2 2 2 2 2 2 2 2
left_child=3 2 4 5 -2 16 8 11 -5 10 -10 13 -4 -6 15 -9 -1 -12 -3
right_child=1 18 12 6 7 -7 -8 14 9 -11 17 -13 -14 -15 -16 -17 -18 -19 -20
leaf_value=0.055609923312252139 0.078665917080982861 0.075939930731558664 0.07930712546798023 0.047016546488220533 0.028523473054436723 0.047647731592903336 0.076133382108686809 0.064597442107767189 0.065752963731772182 0.074671725735506303 0.049971953540416982 0.081278955371965472 0.072097730979818239 0.059633396878523232 0.074731001574717362 0.074942989645227942 0.065527199304180592 0.062126279558144162 0.085879012303382199
leaf_weight=2312.0631966665387 1287.6050096526742 1324.0960375964642 2963.4766063131392 619.48366658017039 100.67726897448301 2930.7140200547874 1164.5141154751182 6500.7256419099867 3262.1463457085192 796.36410964652896 966.66588895767927 219.87596087902784 5628.0841254740953 5108.7094090357423 1373.6229970045388 858.68762461096048 1269.1886152401567 1061.2931742593646 1735.8742471262813
leaf_count=24228 8596 7835 16628 6778 1394 34349 7658 54156 27842 4761 10738 1322 36256 48192 8389 5733 11605 9960 6895
internal_value=0 7.02561 6.88151 5.96122 6.56068 5.39594 6.42892 6.44195 6.22325 6.37812 6.21417 5.99331 7.45845 5.90322 6.72086 6.58045 5.91246 5.63327 8.15782
internal_weight=0 27101.4 24041.5 14382.4 15449.9 6511.97 7870.47 14162.3 6705.95 6086.47 5290.11 5429.26 8591.56 5209.39 8733.04 7359.41 3581.25 2027.96 3059.97
internal_count=333315 195396 180666 137919 127782 70182 67737 119186 60079 53301 48540 50908 52884 49586 68278 59889 35833 20698 14730
shrinkage=0.01


Tree=8
num_leaves=20
num_cat=0
split_feature=9 3 4 15 15 6 1 5 15 5 20 5 7 10 6 6 23 3 1
split_gain=9800.67 4300.69 3589.51 3446.6 2464.06 1770.54 1932.4 1646.08 1394.78 1065.24 838.452 818.747 881.743 802.784 797.355 794.487 790.659 787.594 780.081
threshold=1.5000000000000002 1.5000000000000002 0.55000000000000016 1.0000000180025095e-35 -0.23645959544980485 1.5000000000000002 -0.17414651447199622 4.5000000000000009 -0.33750662900763018 10.500000000000002 1.5000000000000002 3.5000000000000004 -1.0186413815591691 4.5000000000000009 1.5000000000000002 1.5000000000000002 1.5000000000000002 2.5000000000000004 -1.0765533378084189
decision_type=2 2 2 2 2 2 2 2 2 2 2 2 2 2 2 2 2 2 2
left_child=1 3 4 5 11 6 -1 -5 13 -8 18 -2 -13 -4 -3 17 -6 -12 -10
right_child=2 14 8 7 16 -7 9 -9 10 -11 15 12 -14 -15 -16 -17 -18 -19 -20
leaf_value=0.053560497262382108 0.055785845332606783 0.072486657047272765 0.039090189392712235 0.073897178851202575 0.063379996529246252 0.069295069240110183 0.06424647365074708 0.065561137471229505 0.037157386280685378 0.054506233936727738 0.059753878360029072 0.049600503014220941 0.034485808406917659 0.054875843904772348 0.082929907527443503 0.070711773202013897 0.051404319747475162 0.072753202929375663 0.057463641831863019
leaf_weight=4256.8733857087791 320.27011297643185 3502.0668561942875 385.39744372293353 3256.4439750649035 818.75432588160038 1896.329853054136 5279.8272325843573 8690.5566165819764 219.46291038393974 1426.0946699976921 4372.1482931636274 527.59497732669115 1437.7254956960678 1963.4460808522999 924.00454196333885 1053.8160482570529 1687.7032570652664 521.6940693333745 1371.1090541370213
leaf_count=41140 3202 17790 4462 17905 6313 12183 39872 56939 2360 13052 35999 5711 18039 18717 3270 6210 16194 2735 11222
internal_value=0 6.55864 5.55717 6.39662 4.84687 6.03733 5.883 6.78333 5.90144 6.21751 6.1111 4.09595 3.85434 5.22857 7.46668 6.28356 5.53163 6.11396 5.46618
internal_weight=0 29232.2 14679.1 24806.1 4792.05 12859.1 10962.8 11947 9887.07 6705.92 7538.23 2285.59 1965.32 2348.84 4426.07 5947.66 2506.46 4893.84 1590.57
internal_count=333315 202151 131164 181091 49459 106247 94064 74844 81705 52924 58526 26952 23750 23179 21060 44944 22507 38734 13582
shrinkage=0.01


Tree=9
num_leaves=20
num_cat=0
split_feature=9 26 2 6 2 5 14 10 5 1 5 2 14 2 12 1 12 3 5
split_gain=8270.22 3765.71 3805.14 2132.72 2005.17 1743.81 1583.23 1436.1 1362.57 1319.13 1030.79 950.264 938.562 893.348 914.77 815.766 794.211 772.623 734.246
threshold=1.5000000000000002 1.5000000000000002 4.5000000000000009 1.5000000000000002 1.0000000180025095e-35 7.5000000000000009 1.5000000000000002 8.5000000000000018 10.500000000000002 0.082714388765569399 7.5000000000000009 1.0000000180025095e-35 1.5000000000000002 1.5000000000000002 1.5000000000000002 -0.13219026247886759 1.5000000000000002 2.5000000000000004 8.5000000000000018
decision_type=2 2 2 2 2 2 2 2 2 2 2 2 2 2 2 2 2 2 2
left_child=1 2 4 5 -1 11 18 -7 17 10 -6 -2 15 -9 -15 -5 -13 -3 -4
right_child=3 8 6 12 9 7 -8 13 -10 -11 -12 16 -14 14 -16 -17 -18 -19 -20
leaf_value=0.076190304202820011 0.068243365800328595 0.056564620048361471 0.066992367750510762 0.046950056667796995 0.058353958188586887 0.040268793730166411 0.071944501930198496 0.061255209442777646 0.048081852327835573 0.061828008247763189 0.049181470053121831 0.065285137009960956 0.068303895318685678 0.068459807144602022 0.047197910372093324 0.064471979183731071 0.052381286373299057 0.067354745602771326 0.059692593301603467
leaf_weight=684.72787651047111 461.86373366042972 5666.4305415563285 3725.6893980242312 573.33189925923944 3259.3730618618429 2056.1527904160321 4982.9250886552036 649.41639274358749 1847.2396711483598 5823.0198858231306 1963.0619767010212 517.95512189343572 1075.2519226074219 215.49183774739504 3318.6229823827744 495.2059021294117 6028.8287229128182 751.63968896120787 2186.6182228885591
leaf_count=2879 2787 42457 21285 5026 23744 22025 24333 5055 15729 36237 17080 3424 5948 1401 30984 2901 51613 3542 14865
internal_value=0 6.14267 6.3537 5.24544 5.95847 5.0957 6.77922 4.71119 5.565 5.85552 5.49061 5.43802 6.17079 5.04752 4.84943 5.50705 5.34022 5.78283 6.42926
internal_weight=0 30890.7 22625.4 15392.1 11730.2 13248.3 10895.2 6239.68 8265.31 11045.5 5222.44 7008.65 2143.79 4183.53 3534.11 1068.54 6546.78 6418.07 5912.31
internal_count=333315 202151 140423 131164 79940 117289 60483 59465 61728 77061 40824 57824 13875 37440 32385 7927 55037 45999 36150
shrinkage=0.01


Tree=10
num_leaves=20
num_cat=0
split_feature=9 14 4 26 7 10 3 12 2 4 2 6 2 2 1 10 6 12 1
split_gain=5918.19 3568.82 2775.7 1876.73 1721.89 1712.09 1554.74 1251.98 1204.19 1123.96 1078.01 980.362 872.183 827.659 824.878 781.686 776.47 768.625 801.851
threshold=1.5000000000000002 1.5000000000000002 0.55000000000000016 1.5000000000000002 0.98727996806074703 8.5000000000000018 1.5000000000000002 1.5000000000000002 1.5000000000000002 0.55000000000000016 5.5000000000000009 1.5000000000000002 1.5000000000000002 1.0000000180025095e-35 -0.86632125682933303 5.5000000000000009 1.5000000000000002 1.5000000000000002 -1.2240594375903298
decision_type=2 2 2 2 2 2 2 2 2 2 2 2 2 2 2 2 2 2 2
left_child=1 4 7 11 6 14 9 -2 -7 10 -1 -3 -5 -9 -4 -6 -15 -10 -19
right_child=2 3 5 12 15 8 -8 13 17 -11 -12 -13 -14 16 -16 -17 -18 18 -20
leaf_value=0.044028749450941443 0.063727929022637492 0.061806232837266231 0.039340982035540477 0.068379947969794339 0.037420810475334888 0.064413462019933324 0.061159994712738391 0.063196060432906265 0.065712409442208769 0.054031385002572811 0.054941942132408571 0.068792317032988118 0.051292527492579003 0.040808862269613368 0.050265956369101965 0.060837622878967379 0.054056088072128451 0.043168191653769006 0.054368150254809969
leaf_weight=2697.0468361824751 310.15905744582415 7073.943690545857 928.24765003845096 351.21023025736213 146.89363719150424 1347.208759535104 2192.2184543311596 195.21414300054312 507.54929951578379 8985.0240867771208 1362.3628483451903 2805.3147887587547 1998.4255067147315 4254.8397971391678 2705.3076013289392 4824.2646123319864 493.81215206161141 739.83886723220348 4700.9410483539104
leaf_count=23351 2056 39806 9334 1751 1274 7988 10762 1294 2718 63769 10190 11233 13954 42626 21615 26097 3541 6554 33402
internal_value=0 5.76156 5.02118 6.18795 5.50352 5.30833 5.33679 4.42387 5.58766 5.20584 4.76913 6.379 5.38467 4.3016 4.7475 6.01457 4.21864 5.39431 5.28452
internal_weight=0 32436.7 16183.1 12228.9 20207.8 10929.1 15236.7 5254.03 7295.54 13044.4 4059.41 9879.26 2349.64 4943.87 3633.56 4971.16 4748.65 5948.33 5440.78
internal_count=333315 202187 131128 66744 135443 81611 108072 49517 50662 97310 33541 51039 15705 47461 30949 27371 46167 42674 39956
shrinkage=0.01


Tree=11
num_leaves=20
num_cat=0
split_feature=15 6 3 4 5 3 14 10 4 5 2 10 2 4 17 1 13 15 13
split_gain=6399.5 2468.01 1998.03 1934.08 1771.75 1557.24 1294.13 1267.02 1255.31 1050.86 1007.84 886.632 883.942 1123.35 829.725 804.329 796.158 769.126 733.081
threshold=-0.13176136161160293 1.5000000000000002 1.5000000000000002 0.35000000000000003 5.5000000000000009 2.5000000000000004 1.5000000000000002 5.5000000000000009 1.0000000180025095e-35 8.5000000000000018 1.5000000000000002 3.5000000000000004 5.5000000000000009 0.35000000000000003 1.5000000000000002 -0.51710341535273951 0.25000000000000006 0.19481658980376851 0.25000000000000006
decision_type=2 2 2 2 2 2 2 2 2 2 2 2 2 2 2 2 2 2 2
left_child=1 3 4 8 17 9 7 -6 16 11 18 -5 13 -9 -12 -10 -1 -2 -11
right_child=2 -3 -4 5 6 -7 -8 12 15 10 14 -13 -14 -15 -16 -17 -18 -19 -20
leaf_value=0.045783865869701713 0.056292359931830661 0.056347004864074852 0.06168527794117333 0.036638426010753893 0.036236517946252017 0.057144976552126518 0.0557694164177574 0.038951565491733557 0.029773323776797273 0.03719432642099936 0.040094497917543478 0.050231252454319766 0.055120093853672232 0.05061689499348232 0.052043913384118047 0.041007887127335128 0.068375491108608272 0.063494067135637669 0.061250236629087879
leaf_weight=543.20604985579848 6054.9779774397612 3217.2826994657516 4234.3083305358887 509.57706968486309 630.63674875348806 1834.9331405833364 6352.7708993777633 1006.597349382937 868.56793143227696 169.75403757765889 3701.500535402447 8231.424954123795 3181.252147577703 4588.6192813105881 689.29688750952482 2393.0254955552518 218.83587074652314 1963.94883146137 499.24537424743176
leaf_count=4713 34285 18924 16615 4953 5767 9415 35253 8175 9553 1664 34472 61026 18826 29899 5078 21710 1215 8566 3206
internal_value=0 4.82277 5.53564 4.6899 5.42295 4.84901 5.22824 4.99275 4.0716 4.73394 4.37125 4.94388 5.09113 4.85183 4.19704 3.80161 5.22715 5.80562 5.51462
internal_weight=0 22876.7 28013.1 19659.4 23778.8 15635.7 15759.9 9407.11 4023.64 13800.8 5059.8 8741 8776.47 5595.22 4390.8 3261.59 762.042 8018.93 668.999
internal_count=333315 175929 157386 157005 140771 119814 97920 62667 37191 110399 44420 65979 56900 38074 39550 31263 5928 42851 4870
shrinkage=0.01


Tree=12
num_leaves=20
num_cat=0
split_feature=0 1 3 6 12 2 4 15 12 8 2 4 2 1 0 7 6 0 20
split_gain=5794.67 2654.5 1550.41 1457.59 1453.55 1380.91 1271.17 1263.94 1243.06 1039.52 932.635 872.132 944.528 820.867 794.988 771.294 760.988 854.53 814.787
threshold=0.28701388061127914 -0.17414651447199622 2.5000000000000004 1.5000000000000002 1.5000000000000002 1.0000000180025095e-35 0.35000000000000003 0.27899497730928086 1.5000000000000002 1.5000000000000002 1.0000000180025095e-35 0.65000000000000002 4.5000000000000009 -1.0765533378084189 -1.0884968317999435 -0.55964768792850617 1.5000000000000002 -1.0267381891184981 1.5000000000000002
decision_type=2 2 2 2 2 2 2 2 2 2 2 2 2 2 2 2 2 2 2
left_child=1 4 8 5 -1 -2 9 11 -3 -6 -10 12 -7 14 15 -8 17 -12 -18
right_child=3 2 -4 -5 6 7 13 -9 10 -11 16 -13 -14 -15 -16 -17 18 -19 -20
leaf_value=0.055594799057455388 0.067403472525771835 0.059168395302260202 0.057407318242851446 0.058201683792696447 0.031755727125674559 0.043284471370488159 0.04571642587186308 0.057087294622565496 0.063498196579553134 0.042746962140525251 0.039001671071011337 0.052190303831056051 0.051070353811758118 0.046393955547782417 0.042416103563171208 0.020260572437403264 0.038121313246982827 0.046968013058241928 0.055987563804056187
leaf_weight=904.34030693769455 558.6104082018137 940.08822305500507 2073.6118929609656 4534.8050641939044 1716.0291080102324 2968.8667129576206 181.21747827902436 3287.6842485517263 342.2813052162528 1725.8997917324305 1606.6092885807157 9407.8738993033767 3278.9798531904817 6472.9802439510822 2691.9593102894723 346.83222688362002 310.13896206021309 8317.2331467270851 1442.457688935101
leaf_count=5447 1699 4872 8354 17576 17341 20780 1519 14845 1689 14733 13455 50719 18475 49490 21809 3963 2166 57270 7113
internal_value=0 4.64587 4.9379 5.3095 4.3332 5.19075 4.24877 5.14506 4.80943 3.72671 4.72281 5.02669 4.73706 4.43415 4.02154 2.89966 4.67512 4.56783 5.2826
internal_weight=0 29071.7 15032.4 24036.8 14039.3 19502 13134.9 18943.4 12958.8 3441.93 12018.7 15655.7 6247.85 9692.99 3220.01 528.05 11676.4 9923.84 1752.6
internal_count=333315 209221 94919 124094 114302 106518 108855 104819 86565 32074 81693 89974 39255 76781 27291 5482 80004 70725 9279
shrinkage=0.01


Tree=13
num_leaves=20
num_cat=0
split_feature=0 1 3 6 5 2 15 5 7 2 17 12 2 13 12 1 22 5 3
split_gain=5113.87 2349.84 1366.33 1276.55 1272.86 1189.47 1098.5 1079.49 984.606 891.05 841.676 834.304 710.592 687.07 631.369 610.826 602.975 585.464 585.283
threshold=0.28701388061127914 -0.17414651447199622 2.5000000000000004 1.5000000000000002 7.5000000000000009 1.0000000180025095e-35 0.27899497730928086 8.5000000000000018 -0.96136781140920813 5.5000000000000009 1.5000000000000002 1.5000000000000002 1.0000000180025095e-35 0.65000000000000002 1.5000000000000002 0.64649757078474368 17.500000000000004 5.5000000000000009 1.5000000000000002
decision_type=2 2 2 2 2 2 2 2 2 2 2 2 2 2 2 2 2 2 2
left_child=1 4 7 5 14 -2 10 9 -6 11 17 15 -13 -9 -1 -3 18 -7 -16
right_child=3 2 -4 -5 8 6 -8 13 -10 -11 -12 12 -14 -15 16 -17 -18 -19 -20
leaf_value=0.053689196875973143 0.063289774240617436 0.065577591628165371 0.054321035681532182 0.055043949829116617 0.044538164603192779 0.050009044193489401 0.05400129494096878 0.039088170721932769 0.035754217027855167 0.052588252560272719 0.050401808849120877 0.059625247154399097 0.043615182519048161 0.046678540733159225 0.041842188400962071 0.041116719172913097 0.080521008660908513 0.044311821960863702 0.04984136017053066
leaf_weight=625.28909385204315 588.80983556807041 339.44164125621319 2169.009653404355 4745.8957299888134 1739.4637060314417 2448.0796388909221 3440.0082883611321 3025.0314804390073 4790.3945231959224 2775.5839099064469 7000.4460378736258 293.74502037465572 4929.7076931372285 1968.6297090500593 6285.6942944526672 145.99635003507137 43.095450423657894 6853.0506988093257 1070.4681995436549
leaf_count=3370 1699 1320 8354 17576 13321 13324 14845 23219 42706 15167 34795 1357 31787 12812 48612 903 154 41855 6139
internal_value=0 4.42646 4.69548 5.03741 4.13725 4.9284 4.88663 4.57694 3.80941 4.79406 4.77826 4.56809 4.45155 4.20805 4.40401 5.82209 4.32247 4.58113 4.30062
internal_weight=0 30201.6 15647.1 25076.3 14554.4 20330.4 19741.6 13478.1 6529.86 8484.47 16301.6 5708.89 5223.45 4993.66 8024.55 485.438 7399.26 9301.13 7356.16
internal_count=333315 209221 94919 124094 114302 106518 104819 86565 56027 50534 89974 35367 33144 36031 58275 2223 54905 55179 54751
shrinkage=0.01


Tree=14
num_leaves=20
num_cat=0
split_feature=15 6 3 4 0 0 3 4 2 4 2 1 10 7 2 33 1 13 2
split_gain=4640.14 1887.96 1537.55 1462.75 1288.85 1136.13 1040.43 1008.48 921.87 741.468 832.967 722.006 669.82 697.285 657.953 914.262 644.543 611.263 601.416
threshold=-0.13176136161160293 1.5000000000000002 1.5000000000000002 0.35000000000000003 0.89581837014706811 -1.0694514454149426 2.5000000000000004 1.0000000180025095e-35 1.5000000000000002 0.25000000000000006 3.5000000000000004 -0.89971194655697562 6.5000000000000009 0.46533226637433672 2.5000000000000004 1.5000000000000002 -0.51710341535273951 0.25000000000000006 5.5000000000000009
decision_type=2 2 2 2 2 2 2 2 2 2 2 2 2 2 2 2 2 2 2
left_child=1 3 4 7 8 11 14 17 -2 -10 -11 -5 13 -12 -7 -16 -9 -1 -6
right_child=2 -3 -4 5 18 6 -8 16 9 10 12 -13 -14 -15 15 -17 -18 -19 -20
leaf_value=0.03979809842845488 0.050508333154685316 0.04834413570597778 0.052592111476011331 0.026170043989553152 0.047143702212719907 0.045015263504681866 0.050193578306514865 0.026094183523032784 0.03722013340860171 0.040841571056155282 0.046012437571351511 0.038653401096556017 0.047724850171127348 0.030634508931180741 0.037351604905861029 0.043945752725254313 0.03567903227837315 0.058387723959851257 0.051842395828217799
leaf_weight=605.99399460852146 2252.5431350246072 3641.1591973900795 4822.657068438828 595.99243142455816 6809.9962374940515 4634.8957925140858 1750.0034193992615 952.86009838432074 1606.4172857627273 4114.1524672359228 709.40224987268448 2081.2610463574529 6377.7387088015676 504.5887111350894 4654.1556906849146 3835.1870232596993 2660.4983577430248 249.79599507898092 4540.2389367222786
leaf_count=4713 11799 18924 16615 5928 32088 30312 7518 9553 11279 25533 4382 15772 33829 3913 35006 25278 21710 1215 17948
internal_value=0 4.16738 4.73924 4.05708 4.64607 4.18714 4.29508 3.54633 4.4592 4.35909 4.44652 3.58744 4.64289 3.96207 4.1985 4.03306 3.31515 4.52242 4.90232
internal_weight=0 25661.8 31737.7 22020.6 26915.1 17551.5 14874.2 4469.15 15564.8 13312.3 11705.9 2677.25 7591.73 1213.99 13124.2 8489.34 3613.36 855.79 11350.2
internal_count=333315 175929 157386 157005 140771 119814 98114 37191 90735 78936 67657 21700 42124 8295 90596 60284 31263 5928 50036
shrinkage=0.01


Tree=15
num_leaves=20
num_cat=0
split_feature=15 14 3 5 0 4 7 6 0 4 33 21 3 2 2 22 0 1 26
split_gain=4543.49 1739.51 1611.37 1446.96 1322.49 1560.21 990.871 942.873 820.032 818.658 682.217 974.793 644.967 616.313 613.99 592.501 584.629 552.37 538.037
threshold=-0.1620935319777366 1.5000000000000002 2.5000000000000004 8.5000000000000018 1.2595331819691673 0.35000000000000003 -0.3249629440670459 1.5000000000000002 -0.82629607250331549 0.75000000000000011 1.5000000000000002 1.5000000000000002 2.5000000000000004 4.5000000000000009 1.0000000180025095e-35 8.5000000000000018 -1.0267381891184981 -1.8376140966592411 1.5000000000000002
decision_type=2 2 2 2 2 2 2 2 2 2 2 2 2 2 2 2 2 2 2
left_child=2 4 3 10 5 -2 -5 14 -7 -8 11 15 -10 16 -3 -1 -12 -18 -16
right_child=1 7 -4 6 -6 8 9 -9 12 -11 13 -13 -14 -15 18 -17 17 -19 -20
leaf_value=0.032992235374960453 0.035560944714639039 0.058320563853893406 0.046503551257221325 0.039657050968536257 0.048169283446128634 0.03467497965121942 0.028628961655175141 0.051957215709045712 0.043350716365263352 0.03701697682763825 0.030988507863467563 0.044089941462571731 0.050487619251485392 0.047436001345816346 0.046574417509342998 0.039640844262887234 0.0096809374456930438 0.042984061245055473 0.039285298259128257
leaf_weight=2728.3230142891407 3035.1538209468126 403.18612984567881 2853.1828773617744 2878.9315270259976 4476.5416548699141 988.68564400076866 2715.8959289342165 3975.0718120485544 11797.812323093414 2035.6745340153575 538.23406881093979 2258.8487645015121 1418.4893654957414 2114.7921305969357 8756.5699722990394 2634.8186860084534 50.730171918869019 2726.63515175879 1145.0790743008256
leaf_count=20648 20183 964 13041 20507 17996 7184 23911 12845 64130 14922 4310 13992 4674 11709 40881 18200 492 16420 6306
internal_value=0 4.5109 3.94587 3.84869 4.33265 4.2069 3.50275 4.782 4.34596 3.22226 4.05092 3.85795 4.41167 4.32178 4.6224 3.62586 4.05272 4.23758 4.57315
internal_weight=0 35996.6 23536.1 20682.9 21716.7 17240.1 7630.5 14279.9 14205 4751.57 13052.4 7621.99 13216.3 5430.39 10304.8 5363.14 3315.6 2777.37 9901.65
internal_count=333315 175163 158152 145111 114167 96171 59340 60996 75988 38833 85771 52840 68804 32931 48151 38848 21222 16912 47187
shrinkage=0.01


Tree=16
num_leaves=20
num_cat=0
split_feature=9 26 14 4 10 5 5 3 4 20 0 7 23 23 1 3 1 21 0
split_gain=4580.69 2506.71 1739.59 1726.98 1243.81 1028.82 970.658 907.997 746.839 714.186 675.454 659.647 601.071 568.309 536.838 534.498 527.654 494.302 493.539
threshold=1.5000000000000002 1.5000000000000002 1.5000000000000002 0.75000000000000011 5.5000000000000009 10.500000000000002 7.5000000000000009 2.5000000000000004 0.25000000000000006 1.5000000000000002 -1.5993062759415262 0.98727996806074703 1.5000000000000002 1.5000000000000002 -1.0025728158817604 2.5000000000000004 0.58286400123847215 2.5000000000000004 0.018909365499519704
decision_type=2 2 2 2 2 2 2 2 2 2 2 2 2 2 2 2 2 2 2
left_child=1 2 6 4 17 15 11 8 -8 -6 -5 -1 -4 -10 18 -3 -14 -2 -12
right_child=3 5 12 10 9 -7 7 -9 13 -11 14 -13 16 -15 -16 -17 -18 -19 -20
leaf_value=0.042579134741499214 0.02737238514414396 0.039510985402191945 0.049420097632781039 0.029594228720901977 0.031363572430227971 0.033004894485039897 0.030179851140618826 0.048466888794265084 0.045007721939623366 0.037555719003731801 0.031219236501410449 0.047924078371665367 0.042404342591753762 0.037645072491406764 0.04220607053170556 0.047147068630024304 0.048149065256987714 -0.005447133934969043 0.042657494727793344
leaf_weight=7020.1214049458504 1588.5583182275295 7460.8669521138072 6326.7348408699036 549.71144615858793 2558.3389786705375 2374.8330380767584 986.13795183598995 991.56736235320568 1443.7650364041328 6849.6167501583695 951.96964966505766 3440.6926633939147 3435.3975714817643 3828.1149788573384 7052.5676608011127 1045.0484435558319 2990.8151021227241 47.256229355931282 624.81359878927469
leaf_count=36120 13289 42543 21823 4302 19184 15704 6965 3290 6882 45348 7438 13089 17690 22914 37822 3532 11478 550 3352
internal_value=0 4.29445 4.4416 3.71367 3.44725 3.88244 4.23882 3.9576 3.81673 3.58719 4.03421 4.43372 4.72321 3.96614 4.10267 4.04492 4.5078 2.64243 3.57517
internal_weight=0 41344.1 30463.3 20222.8 11043.8 10880.7 17710.4 7249.59 6258.02 9407.96 9179.06 10460.8 12752.9 5271.88 8629.35 8505.92 6426.21 1635.81 1576.78
internal_count=333315 202030 140251 131285 78371 61779 89260 40051 36761 64532 52914 49209 50991 29796 48612 46075 29168 13839 10790
shrinkage=0.01


Tree=17
num_leaves=20
num_cat=0
split_feature=17 15 2 5 2 14 13 5 2 2 15 1 6 7 12 9 2 19 9
split_gain=4153.37 2154.52 1242.98 1111.76 1053.63 937.594 741.073 725.58 686.56 618.418 564.095 548.694 537.48 531.727 557.701 664.568 505.821 563.044 471.051
threshold=1.5000000000000002 -0.24202812705139212 4.5000000000000009 8.5000000000000018 1.0000000180025095e-35 2.5000000000000004 0.45000000000000007 8.5000000000000018 1.5000000000000002 1.0000000180025095e-35 0.19481658980376851 0.051737202230703057 1.5000000000000002 -0.29572518094507255 1.5000000000000002 1.5000000000000002 4.5000000000000009 11.500000000000002 1.5000000000000002
decision_type=2 2 2 2 2 2 2 2 2 2 2 2 2 2 2 2 2 2 2
left_child=1 3 9 -1 -3 7 13 10 -8 -2 18 -9 -4 -5 -15 -16 17 -13 -6
right_child=2 4 12 6 5 -7 8 11 -10 -11 -12 16 -14 14 15 -17 -18 -19 -20
leaf_value=0.036870993229548607 0.050463677912425606 0.049900931262974131 0.044583915816315448 0.034002911274339569 0.040605478898733588 0.04254942144647543 0.049703227931978011 0.032529348534051657 0.034086852006408867 0.040202042096865134 0.044351263360294484 0.034914583131043446 0.050596768231443268 0.048498249122038602 0.031382124512953365 0.021642293228867446 0.040870991970588327 0.0079549583265923329 0.036304707087330045
leaf_weight=10660.56503354758 623.3192181289196 925.14158092439175 7457.3935468271375 1626.9743903130293 5249.9674746543169 5836.5255273878574 336.42706844955683 3381.0908164009452 1725.1437007114291 10158.851535446942 1980.6752377599478 1366.2203603461385 1856.7709532156587 114.69971714913845 1269.0999653637409 1563.7232708334923 2397.0327811762691 82.12319041788578 4945.8420919924974
leaf_count=66100 1739 2891 29953 11677 25107 25518 1469 22371 11084 49210 7915 7714 4904 644 9336 14612 11319 684 29068
internal_value=0 3.76091 4.31068 3.48707 3.94194 3.90352 3.16574 3.79782 3.66353 4.07953 3.94679 3.5468 4.57826 2.9414 2.6881 2.60057 3.80518 3.33859 3.85192
internal_weight=0 43461.3 20096.3 17296.6 26164.6 25239.5 6636.07 19403 2061.57 10782.2 12176.5 7226.47 9314.16 4574.5 2947.52 2832.82 3845.38 1448.34 10195.8
internal_count=333315 247509 85806 114922 132587 129696 48822 104178 12553 50949 62090 42088 34857 36269 24592 23948 19717 8398 54175
shrinkage=0.01


Tree=18
num_leaves=20
num_cat=0
split_feature=9 26 2 4 4 5 5 0 10 2 23 3 14 0 4 12 2 0 11
split_gain=3812.1 2087.93 1675.98 1535.66 1228.81 876.884 790.407 768.592 703.039 605.118 579.642 567.252 553.122 538.612 526.182 523.124 522.046 592.557 518.684
threshold=1.5000000000000002 1.5000000000000002 5.5000000000000009 0.55000000000000016 0.55000000000000016 10.500000000000002 7.5000000000000009 -1.5993062759415262 5.5000000000000009 1.5000000000000002 1.5000000000000002 2.5000000000000004 1.5000000000000002 0.69167878619687573 0.25000000000000006 1.5000000000000002 1.5000000000000002 0.83975935253185774 2.5000000000000004
decision_type=2 2 2 2 2 2 2 2 2 2 2 2 2 2 2 2 2 2 2
left_child=1 2 4 8 6 -3 -1 -5 -2 -9 -4 13 14 -11 -8 -10 18 -18 -6
right_child=3 5 10 7 16 -7 12 9 15 11 -12 -13 -14 -15 -16 -17 17 -19 -20
leaf_value=0.038567018202792833 0.022827924067834803 0.037270412998283715 0.046363057284027356 0.027307496159098058 0.042221846087024242 0.030586996674170072 0.021788053769321039 0.041257161111774139 0.043546671198581077 0.033928713234727036 0.041869052447460822 0.043092225731337822 0.037398865404545935 0.039652670362093294 0.032621784707659869 0.031020409446715407 0.037835300162110216 0.042701071570870976 0.052056021561854633
leaf_weight=4586.0750669687986 1031.9221750199795 9044.3976187631488 5018.1123173609376 916.63746497780085 2067.6877654865384 2507.3367244079709 692.90675120055676 2460.0075421705842 354.93031140416861 8142.9792151600122 6704.8634067103267 968.54703806340694 1207.5559220463037 2059.7611691877246 1270.0100603476167 5495.2559920623899 5912.3392104133964 4340.0106499120593 724.15820913016796
leaf_count=22024 8744 46075 16222 6850 8420 15704 5066 11692 1730 50358 28126 3681 5933 9099 7606 39131 29171 15569 2114
internal_value=0 3.94718 4.07689 3.43301 3.90648 3.58198 3.59128 3.61712 3.0438 3.67673 4.37927 3.57786 3.20735 3.50843 2.87975 3.17804 4.0939 3.98951 4.47727
internal_weight=0 44075.5 32523.7 21430 20800.7 11551.7 7756.55 14547.9 6882.11 13631.3 11723 11171.3 3170.47 10202.7 1962.92 5850.19 13044.2 10252.3 2791.85
internal_count=333315 202030 140251 131285 95903 61779 40629 81680 49605 74830 44348 63138 18605 59457 12672 40861 55274 44740 10534
shrinkage=0.01


Tree=19
num_leaves=20
num_cat=0
split_feature=9 26 2 4 4 15 15 5 5 0 23 19 2 14 4 2 21 0 20
split_gain=3476.83 1892.4 1508.34 1402.74 1111.64 859.216 817.44 796.604 716.347 582.192 522.516 514.87 507.784 504.785 483.55 466.652 618.279 539.956 464.994
threshold=1.5000000000000002 1.5000000000000002 5.5000000000000009 0.55000000000000016 0.55000000000000016 -0.23645959544980485 0.21865579574685909 10.500000000000002 7.5000000000000009 -1.5993062759415262 1.5000000000000002 4.5000000000000009 1.0000000180025095e-35 1.5000000000000002 0.25000000000000006 1.5000000000000002 1.5000000000000002 0.83975935253185774 1.5000000000000002
decision_type=2 2 2 2 2 2 2 2 2 2 2 2 2 2 2 2 2 2 2
left_child=1 2 4 5 8 11 9 -3 -1 -5 -4 -2 -11 14 -10 16 -6 18 -17
right_child=3 7 10 6 15 -7 -8 -9 13 12 -12 -13 -14 -15 -16 17 -18 -19 -20
leaf_value=0.037077717375621252 0.035285549494397113 0.035859496387347436 0.044363675408355736 0.026450289007480934 0.034534173350068878 0.032718657069401205 0.041969053297230434 0.029567657864979249 0.021204442295187077 0.043238087427406938 0.040166199196456934 0.024112726049535852 0.034153454970841809 0.035987423404958058 0.031487177717131609 0.031980707782351341 0.045437844894295136 0.040965614457363041 0.038123427955909561
leaf_weight=4721.8770033419132 482.10066687315702 9304.9034415632486 5190.9257407486439 936.77693086862564 680.47046829015017 3713.6899283528328 1444.8962294831872 2567.5283616483212 704.79692895710468 648.7280832529068 6918.1181628108025 2854.8747930526733 11928.832263551652 1242.1881860718131 1302.4482204988599 1716.6182253658772 2205.818982988596 4477.9144992977381 4368.1014187335968
leaf_count=22024 3448 46075 16222 6850 3227 22633 5224 15704 5066 2455 28126 23524 67151 5933 7606 9261 7307 15569 19910
internal_value=0 3.79298 3.91446 3.30868 3.75499 2.94096 3.48199 3.44988 3.45909 3.40556 4.19656 2.57269 3.4622 3.09772 2.78766 3.93038 4.28672 3.833 3.63904
internal_weight=0 45401.7 33529.3 22009.9 21420.2 7050.67 14959.2 11872.4 7971.31 13514.3 12109 3336.98 12577.6 3249.43 2007.25 13448.9 2886.29 10562.6 6084.72
internal_count=333315 202030 140251 131285 95903 49605 81680 61779 40629 76456 44348 26972 69606 18605 12672 55274 10534 44740 29171
shrinkage=0.01


Tree=20
num_leaves=20
num_cat=0
split_feature=15 6 14 1 3 12 2 2 10 21 11 10 5 2 5 5 1 26 2
split_gain=3368.75 1625.98 1339.15 1146.79 978.796 805.497 756.705 643.785 637.638 635.075 558.498 525.388 500.931 488.074 468.691 446.658 435.391 412.084 378.459
threshold=-0.042868681735059859 1.5000000000000002 1.5000000000000002 -0.17414651447199622 2.5000000000000004 1.5000000000000002 4.5000000000000009 1.0000000180025095e-35 7.5000000000000009 1.5000000000000002 1.5000000000000002 9.5000000000000018 6.5000000000000009 1.0000000180025095e-35 4.5000000000000009 7.5000000000000009 -0.95016325280757841 1.5000000000000002 1.5000000000000002
decision_type=2 2 2 2 2 2 2 2 2 2 2 2 2 2 2 2 2 2 2
left_child=1 3 6 5 18 -1 9 -4 12 15 -9 -8 -7 -3 -13 -2 -15 -12 -5
right_child=2 13 7 4 -6 8 11 10 -10 -11 17 14 -14 16 -16 -17 -18 -19 -20
leaf_value=0.040678817733337702 0.033814989349799707 0.054031405962439834 0.049912069388086414 0.036501243512452278 0.040183538378276172 0.029609008756625803 0.03351030510164351 0.036855834033428458 0.030415790558825827 0.036922654607223694 0.041658592655737153 0.0429511477149008 0.021621497776498907 0.029966985317953498 0.037278684574791596 0.02863962055118276 0.038704127290447081 0.034464494503882712 0.031861084380415385
leaf_weight=642.17970751971006 4381.7359237447381 184.12878420203924 557.59483633190393 2136.0070025995374 2032.9968566969037 1450.6106226220727 2620.855121538043 6713.7075345665216 10363.010738119483 3779.8905640468001 6740.4253565371037 1936.4120384678245 1711.5349054858088 668.14679449051619 5878.6857981830835 2692.2041086703539 3896.5735635980964 902.87220971286297 9925.37973767519
leaf_count=3094 20153 379 942 10329 6498 9946 13008 26275 67006 16347 21178 6054 14051 3803 23322 14929 16011 3867 56123
internal_value=0 3.26549 3.70719 3.17452 3.37647 2.9736 3.54622 3.93697 2.92164 3.36135 3.89603 3.73848 2.52857 3.80691 3.86842 3.18453 3.74253 4.08088 3.26828
internal_weight=0 33010.6 36204.4 28261.7 14094.4 14167.3 21289.8 14914.6 13525.2 10853.8 14357 10436 3162.15 4748.85 7815.1 7073.94 4564.72 7643.3 12061.4
internal_count=333315 187240 146075 167047 72950 94097 93813 52262 91003 51429 51320 42384 23997 20193 29376 35082 19814 25045 66452
shrinkage=0.01


Tree=21
num_leaves=20
num_cat=0
split_feature=0 3 12 14 13 5 4 7 2 6 7 10 6 17 0 16 13 11 7
split_gain=2981.92 1555.29 1398.89 1352.01 1052.25 1130.3 861.766 867.196 796.179 630.339 584.694 537.717 482.29 448.615 442.719 446.225 434.095 424.781 388.647
threshold=0.018909365499519704 1.5000000000000002 1.5000000000000002 1.5000000000000002 0.55000000000000016 7.5000000000000009 0.65000000000000002 0.79678591158903234 5.5000000000000009 1.5000000000000002 -0.4741025960578234 7.5000000000000009 1.5000000000000002 1.5000000000000002 -0.41415025717326964 1.5000000000000002 0.45000000000000007 4.5000000000000009 0.048995640019510171
decision_type=2 2 2 2 2 2 2 2 2 2 2 2 2 2 2 2 2 2 2
left_child=1 2 18 6 5 14 7 8 16 11 -3 -7 -5 -13 -4 -16 -2 -6 -1
right_child=3 10 4 12 17 9 -8 -9 -10 -11 -12 13 -14 -15 15 -17 -18 -19 -20
leaf_value=0.042647583962790718 0.024304868732338548 0.040755051163019716 0.029154830704714838 0.036689538787162204 0.034592412599534023 0.02096835584396425 0.03564602966523716 0.034914811549152852 0.034224816285687305 0.033107703954998895 0.033768731985926767 0.02535012033322645 0.04052282278280641 0.033224647682447817 0.027243763962962506 0.035265454389284141 0.033513265747238813 0.028199069951582723 0.033196435510888703
leaf_weight=1103.4825815111399 2718.8753465637565 1987.1738913059235 5832.2056666240096 11816.242012932897 5165.9701192453504 2382.4161864444613 13394.722263649106 4572.983462266624 1841.1919036209583 1064.0923612341285 3016.1727096438408 4066.0849721804261 4544.5596313104033 880.06726817786694 892.75839933753014 3106.3728597089648 630.69047664105892 1300.9276343435049 718.33038260042667
leaf_count=4413 16574 6701 35888 45086 25127 18767 54054 18557 8655 5618 13184 29141 12052 5002 5363 15675 2866 7152 3440
internal_value=0 3.14298 3.04647 3.55537 2.98408 2.8611 3.39991 3.17396 2.89424 2.59156 3.65435 2.48713 3.77543 2.67512 3.0912 3.34747 2.60387 3.33063 3.89211
internal_weight=0 31516.1 26512.7 39519.3 24690.9 18224 23158.5 9763.74 5190.76 8392.66 5003.35 7328.57 16360.8 4946.15 9831.34 3999.13 3349.57 6466.9 1821.81
internal_count=333315 175471 155586 157844 147733 115454 100706 46652 28095 58528 19885 52910 57138 34143 56926 21038 19440 32279 7853
shrinkage=0.01


Tree=22
num_leaves=20
num_cat=0
split_feature=15 6 14 15 3 2 2 21 13 11 12 33 2 2 2 11 25 1 1
split_gain=2953.32 1418.61 1132.32 1043.41 783.265 668.261 572.714 564.34 528.691 494.22 453.428 462.453 622.516 424.709 406.318 400.94 395.102 577.837 386.003
threshold=-0.042868681735059859 1.5000000000000002 1.5000000000000002 -0.3177746513129458 2.5000000000000004 4.5000000000000009 1.0000000180025095e-35 1.5000000000000002 0.35000000000000003 1.5000000000000002 1.5000000000000002 1.5000000000000002 2.5000000000000004 1.0000000180025095e-35 1.0000000180025095e-35 1.5000000000000002 0.65000000000000002 -0.96502056832396466 -0.95016325280757841
decision_type=2 2 2 2 2 2 2 2 2 2 2 2 2 2 2 2 2 2 2
left_child=1 3 5 8 10 7 -4 -2 -1 -8 -5 12 -12 -3 -10 -7 17 -13 -15
right_child=2 13 6 4 -6 15 9 -9 14 -11 11 16 -14 18 -16 -17 -18 -19 -20
leaf_value=0.025450480074091609 0.029715858433398176 0.049792308328668995 0.04619308163378754 0.037739071893153113 0.036479604505385635 0.032523018654736904 0.034234873230494539 0.03438314878175943 0.040396936384575775 0.03785423941640198 0.032031492999873269 0.020067430522803024 0.026147402799616134 0.027929710609406605 0.029011150150038471 0.036402246223788279 0.035123856728382634 0.031288308353391255 0.035956840490429791
leaf_weight=6727.7956452965736 7422.2008538842201 196.3321989774704 591.59754827618599 780.06243078410625 2356.3973768800497 4538.1034045815468 7079.0280150026083 3979.7779465690255 338.23743103444576 8077.6654321327806 2786.9244454577565 511.17878365516663 5067.0886021703482 701.20967827737331 4273.3479842990637 6452.7856083139777 2334.5259005129337 4490.4806913137436 4112.2870678082108
leaf_count=45559 35082 379 942 3339 8110 19062 26275 16347 1083 25045 15060 3505 31646 3803 23335 23322 11593 23817 16011
internal_value=0 3.04536 3.4486 2.96224 3.10976 3.3041 3.65406 3.13449 2.72382 3.61638 3.03035 2.99216 2.82353 3.53755 2.98462 3.48005 3.1727 3.01415 3.47875
internal_weight=0 34675.9 38141.2 29666 18326.7 22392.9 15748.3 11402 11339.4 15156.7 15970.3 15190.2 7854.01 5009.83 4611.59 10990.9 7336.19 5001.66 4813.5
internal_count=333315 187240 146075 167047 97070 93813 52262 51429 69977 51320 88960 85621 46706 20193 24418 42384 38915 27322 19814
shrinkage=0.01


Tree=23
num_leaves=20
num_cat=0
split_feature=15 6 4 0 3 15 9 6 4 10 4 4 1 3 15 1 7 2 1
split_gain=2750.08 1310.34 1218.14 1114.94 1026.16 936.219 926.051 723.922 729.26 622.669 614.005 576.235 748.416 571.432 544.829 494.509 707.236 451.973 430.473
threshold=-0.042868681735059859 1.5000000000000002 0.35000000000000003 -0.6848804920759558 2.5000000000000004 -0.3177746513129458 1.5000000000000002 1.5000000000000002 0.15000000000000005 2.5000000000000004 1.0000000180025095e-35 1.0000000180025095e-35 -0.27145533385975779 2.5000000000000004 0.27899497730928086 -0.19130509349670835 -0.1650770571417767 1.0000000180025095e-35 -0.068786814678292715
decision_type=2 2 2 2 2 2 2 2 2 2 2 2 2 2 2 2 2 2 2
left_child=1 2 6 18 7 9 10 8 11 -4 -1 -5 -13 -7 -10 16 -12 -11 -2
right_child=3 -3 5 4 -6 13 -8 -9 14 17 15 12 -14 -15 -16 -17 -18 -19 -20
leaf_value=0.036115237335571024 0.021487642285753256 0.03413554161127378 0.016946656544275147 0.033217979023204516 0.038401468543288443 0.030461020336450945 0.020042705712430116 0.036236155769845284 0.032268914129947146 0.036922875600963447 0.027533262185168085 0.011057511785004564 0.027430088189234744 0.036289891434273129 0.036288982976746577 0.030394225457425775 0.013253619004424771 0.027258709580230054 0.030440279367337869
leaf_weight=734.78121680021286 992.19515278935432 5139.2160826250911 559.64267794042826 961.44708549231291 4156.0085488408804 13135.098123706877 2535.2803613767028 6094.8013728410006 20191.992834314704 514.17470821738243 866.15028093010187 374.50002019107342 1097.1056153774261 1928.8632221966982 4046.9470603987575 1256.0495064854622 578.49006494134665 8227.5584332123399 1170.9156623706222
leaf_count=3299 6370 20193 4271 3947 9802 67998 19689 17431 82281 1896 5250 2689 5091 5969 12942 6319 4401 47955 5522
internal_value=0 2.94661 2.86751 3.33117 3.37205 2.96671 2.46271 3.31268 3.24162 2.71725 2.80103 2.71971 2.32635 3.12074 3.29401 2.58051 2.18151 2.78271 2.63338
internal_weight=0 35475.3 30336.1 39085.9 36922.8 24365.3 5970.75 32766.8 26672 9301.38 3435.47 2433.05 1471.61 15064 24238.9 2700.69 1444.64 8741.73 2163.11
internal_count=333315 187240 167047 146075 134183 128089 38958 124381 106950 54122 19269 11727 7780 73967 95223 15970 9651 49851 11892
shrinkage=0.01


Tree=24
num_leaves=20
num_cat=0
split_feature=15 6 4 0 3 15 9 14 5 10 4 3 1 7 2 0 26 11 1
split_gain=2571.39 1213.95 1127.53 1032.36 958.748 864.487 862.75 584.524 580.312 578.771 563.49 533.423 458.55 660.534 417.31 415.677 402.277 434.307 399.511
threshold=-0.042868681735059859 1.5000000000000002 0.35000000000000003 -0.6848804920759558 1.5000000000000002 -0.3177746513129458 1.5000000000000002 1.5000000000000002 7.5000000000000009 2.5000000000000004 1.0000000180025095e-35 2.5000000000000004 -0.19130509349670835 -0.1650770571417767 1.0000000180025095e-35 1.9357791411734679 1.5000000000000002 1.5000000000000002 -0.068786814678292715
decision_type=2 2 2 2 2 2 2 2 2 2 2 2 2 2 2 2 2 2 2
left_child=1 2 6 18 7 9 10 8 15 -4 -1 -7 13 -12 -11 -5 17 -9 -2
right_child=3 -3 5 4 -6 11 -8 16 -10 14 12 -13 -14 -15 -16 -17 -18 -19 -20
leaf_value=0.034806172227269248 0.020927506570671311 0.032976872429203524 0.016556217150580539 0.031666589595260225 0.036378629041581789 0.029474686073775236 0.019529372624746254 0.032134337870290082 0.028775872637821675 0.035598990253408389 0.026687155747951167 0.035037340406959168 0.029416478397249379 0.01298702466462962 0.026432711959745104 0.038181501052693141 0.02850954121079945 0.036023638266649852 0.029470652700797441
leaf_weight=754.68926744163036 1008.4807917773724 5265.9342817366123 567.07414599508047 10048.551242671907 5708.9234595149755 13437.343404255807 2575.6944368183613 5432.9002606570721 8039.6394977867603 527.89233271032572 884.58028725534678 1977.5881716609001 1284.6726440563798 584.43122183531523 8398.9336030706763 1085.1092571243644 1398.1051749885082 6088.9939618483186 1197.2105424925685
leaf_count=3299 6370 20193 4271 39123 13900 67998 19689 19376 35743 1896 5250 5969 6319 4401 47955 2677 5765 17599 5522
internal_value=0 2.85379 2.77836 3.22147 3.26027 2.87263 2.39243 3.1931 3.08232 2.63525 2.71509 3.01883 2.50528 2.12367 2.69748 3.23015 3.35751 3.41897 2.55646
internal_weight=0 36258.8 30992.9 40007.9 37802.2 24908.8 6084.07 32093.3 19173.3 9493.9 3508.37 15414.9 2753.68 1469.01 8926.83 11133.7 12920 11521.9 2205.69
internal_count=333315 187240 167047 146075 134183 128089 38958 120283 77543 54122 19269 73967 15970 9651 49851 41800 42740 36975 11892
shrinkage=0.01


Tree=25
num_leaves=20
num_cat=0
split_feature=0 3 4 1 4 23 2 4 14 2 0 1 6 7 3 5 7 24 7
split_gain=2269.4 1585.63 1308.65 926.09 679.075 550.175 674.458 546.974 516.527 487.154 458.896 410.423 400.503 388.957 382.739 422.51 381.845 416.002 375.305
threshold=0.76993601953505675 2.5000000000000004 0.8500000000000002 -0.17414651447199622 0.25000000000000006 1.5000000000000002 1.5000000000000002 1.0000000180025095e-35 2.5000000000000004 1.5000000000000002 -1.1572060278508762 -0.61016307328253638 1.5000000000000002 -1.8661130481350769 1.5000000000000002 6.5000000000000009 -1.6106068741268749 0.65000000000000002 1.4887180057827412
decision_type=2 2 2 2 2 2 2 2 2 2 2 2 2 2 2 2 2 2 2
left_child=1 2 3 4 7 -5 -7 13 18 -4 16 -9 -3 -1 15 -2 -11 -18 -6
right_child=14 12 9 5 8 6 -8 11 -10 10 -12 -13 -14 -15 -16 -17 17 -19 -20
leaf_value=-0.011329352722725341 0.03341255621433098 0.031923025228079556 0.034100107818830695 0.031019392813432096 0.025462795764504095 0.032485694463567041 0.025825106343346539 0.010279095308383801 0.030853721283070273 0.035044868383808374 0.029981617869606049 0.020940237517079973 0.038400255137812908 0.029810016720509317 0.035639710927182537 0.030402382290160825 0.025339745794900344 0.012277018885607546 0.0053331474377939546
leaf_weight=23.652608603239059 8701.7616160809994 5875.8013205379248 2579.7965955287218 5368.8007659688592 10153.863847479224 1865.221507795155 8221.3235082477331 415.59297267347574 1983.976154088974 265.63982792198658 13425.535459592938 2753.7831567302346 1139.7888905405998 810.48082175850868 3012.4106952473521 10046.166618168354 908.75634253025055 333.18018021434546 93.474312022328377
leaf_count=231 26518 19268 10022 21067 57928 7653 41580 3451 9225 1224 58949 18447 2466 4492 6714 35694 5332 2385 669
internal_value=0 2.85278 2.78936 2.66812 2.50133 2.84333 2.70568 2.14385 2.61834 3.00874 2.93942 1.95423 3.29753 2.86435 3.23312 3.17995 2.41629 2.18353 2.52792
internal_weight=0 56218.7 49203.1 31690.2 16234.8 15455.3 10086.5 4003.51 12231.3 17512.9 14933.1 3169.38 7015.59 834.133 21760.3 18747.9 1507.58 1241.94 10247.3
internal_count=333315 264389 242655 164743 94443 70300 49233 26621 67822 77912 67890 21898 21734 4723 68926 62212 8941 7717 58597
shrinkage=0.01


Tree=26
num_leaves=20
num_cat=0
split_feature=0 3 12 4 1 17 0 1 1 7 4 7 14 0 4 8 22 15 27
split_gain=2135.74 1489.7 1533.1 1039.86 957.054 879.46 590.729 423.975 406.242 481.873 386.122 427.167 374.384 400.646 386.171 361.774 560.756 349.31 343.447
threshold=0.76993601953505675 2.5000000000000004 1.5000000000000002 0.35000000000000003 -0.19130509349670835 1.5000000000000002 -1.1407549686652436 -0.82012513610233262 -1.0211890235029448 -1.7634780130624341 0.8500000000000002 -0.99947938186820739 1.5000000000000002 1.9357791411734679 0.55000000000000016 1.5000000000000002 8.5000000000000018 0.33953380037368264 1.0000000180025095e-35
decision_type=2 2 2 2 2 2 2 2 2 2 2 2 2 2 2 2 2 2 2
left_child=1 2 -1 4 7 6 8 -4 9 -5 11 -8 13 14 -2 17 -17 -9 -13
right_child=12 -3 3 5 -6 -7 10 15 -10 -11 -12 18 -14 -15 -16 16 -18 -19 -20
leaf_value=0.033420718495938077 0.026414694679568348 0.031929998601442071 0.02811590101067294 0.041183557683244852 0.027432054391606595 0.030104199085722341 0.029316173145015025 0.016289786061751545 0.024234518087114555 0.012454887513250849 0.02836837746568557 -0.011558342532355057 0.032711882787630583 0.034489484420820886 0.030643025480027793 0.017397543393982771 0.027503423869280966 0.045666555510229315 0.025100153305902512
leaf_weight=3521.156649813056 3119.2946905568242 7172.0098573118448 672.34135571122169 65.103104285895824 3594.6439253985882 8612.9410205632448 2909.0558479204774 2247.9759994745255 3051.1668023467064 565.79294615983963 11498.956832677126 25.615457847714424 10318.015393249691 1777.4633138030767 7022.9232369810343 1087.5256742984056 1108.9514854922891 41.218729175627232 11207.909103944898
leaf_count=12751 12464 21734 3859 311 16798 34049 13088 16308 17644 4517 51665 222 28463 4461 23538 7386 6421 101 57535
internal_value=0 2.76668 2.70578 2.6578 2.3471 2.72948 2.64696 2.07105 2.27241 1.54194 2.70075 2.5901 3.13173 3.01101 2.93426 1.96005 2.24998 1.68187 2.50166
internal_weight=0 57382.4 50210.4 46689.2 8752.66 37936.5 29323.6 5158.01 3682.06 630.896 25641.5 14142.6 22237.7 11919.7 10142.2 4485.67 2196.48 2289.19 11233.5
internal_count=333315 264389 242655 229904 50873 179031 144982 34075 22472 4828 122510 70845 68926 40463 36002 30216 13807 16409 57757
shrinkage=0.01


Tree=27
num_leaves=20
num_cat=0
split_feature=0 6 9 4 2 15 14 0 2 8 2 4 34 2 2 2 10 26 13
split_gain=2015.99 1468.2 1140.06 893.109 593.89 626.594 492.908 518.685 417.799 389.16 387.578 448.785 396.746 398.876 361.709 411.12 335.857 327.603 323.706
threshold=0.76993601953505675 1.5000000000000002 1.5000000000000002 0.25000000000000006 1.5000000000000002 -0.3177746513129458 2.5000000000000004 -1.0114137778510053 1.0000000180025095e-35 1.5000000000000002 1.0000000180025095e-35 0.8500000000000002 1.5000000000000002 4.5000000000000009 1.0000000180025095e-35 4.5000000000000009 3.5000000000000004 1.5000000000000002 0.35000000000000003
decision_type=2 2 2 2 2 2 2 2 2 2 2 2 2 2 2 2 2 2 2
left_child=1 2 6 18 -5 16 7 -1 -3 -10 -9 12 13 -12 -2 -16 -6 -8 -4
right_child=14 8 3 4 5 -7 17 10 9 -11 11 -13 -14 -15 15 -17 -18 -19 -20
leaf_value=0.022559808951917538 0.038646480866064072 0.041799331650296978 0.018041439490982702 0.028866947376095516 0.012727744624531757 0.025541563796288694 0.031417490023235503 0.033736773807127987 0.027224333646098015 0.031721192922563611 0.023383831816634438 0.029144435159362918 0.029417633719586434 0.02715875246285808 0.02867375455668553 0.031408709963334724 0.021854522758100573 0.025909517812601274 0.031868324474942769
leaf_weight=2589.7072495594621 515.36838262528181 321.15666853636503 2515.2448085397482 3455.9470826461911 460.1719109788537 9875.0776955708861 4326.3532667607069 895.57729885727167 2926.7533483654261 5619.5745861977339 5931.2294700667262 6700.8007879853249 2726.8140985295177 5300.6589003130794 10032.297886691988 12156.057740271091 3256.6220566853881 1439.0321501046419 181.53830163925886
leaf_count=14136 824 522 17572 15122 3597 49041 15276 2481 11505 17694 29706 26457 10933 23060 34280 33822 20056 6419 812
internal_value=0 2.68539 2.61845 2.43196 2.51655 2.42243 2.74156 2.67883 3.0602 3.01812 2.72964 2.70172 2.5996 2.51653 3.03645 3.01721 2.07245 3.00427 1.89722
internal_weight=0 58522.3 49654.8 19744.6 17047.8 13591.9 29910.2 24144.8 8867.48 8546.33 21555.1 20659.5 13958.7 11231.9 22703.7 22188.4 3716.79 5765.39 2696.78
internal_count=333315 264389 234668 106200 87816 72694 128468 106773 29721 29199 92637 90156 63699 52766 68926 68102 23653 21695 18384
shrinkage=0.01


Tree=28
num_leaves=20
num_cat=0
split_feature=0 3 12 2 9 4 15 26 2 4 5 10 27 3 5 6 13 0 0
split_gain=1908.12 1383.11 1395.87 1298.86 1093.48 749.884 642.678 534.671 853.478 466.829 507.19 394.708 385.682 352.533 382.676 343.326 325.682 317.002 317.823
threshold=0.76993601953505675 2.5000000000000004 1.5000000000000002 1.5000000000000002 1.5000000000000002 0.25000000000000006 -0.3177746513129458 1.5000000000000002 7.5000000000000009 0.8500000000000002 6.5000000000000009 8.5000000000000018 10.500000000000002 1.5000000000000002 6.5000000000000009 1.5000000000000002 0.25000000000000006 -1.1572060278508762 -1.0114137778510053
decision_type=2 2 2 2 2 2 2 2 2 2 2 2 2 2 2 2 2 2 2
left_child=1 2 -1 11 7 -6 -7 8 9 10 -5 12 -4 14 -2 -3 17 -13 -19
right_child=13 15 3 4 5 6 -8 -9 -10 -11 -12 16 -14 -15 -16 -17 -18 18 -20
leaf_value=0.03145365176802762 0.030459976711889106 0.029165513152108042 0.025567172651338749 0.026955818519340837 0.016535615130424553 0.019618568306903221 0.024446596784889418 0.023592558041291449 0.031754804972106518 0.028887224795759399 0.022508079189309107 0.056820922050800776 -0.011587425878608584 0.032545813376149674 0.027683246862147182 0.034971856227071017 0.031819710510127962 -0.011451891402193859 0.026724182735011214
leaf_weight=3672.1713842824101 9265.7672770768404 6242.2683436796069 2092.8478288725019 4852.7529507800937 1990.4692465513945 3819.8416440486908 9910.0147739499807 8423.0656276345253 2767.9545518681407 3384.8122026622295 5435.6611793413758 34.616921745240688 28.316612765192986 3204.5487909764051 10688.563528850675 1216.8812733441591 3818.4658016711473 22.05697176605463 1926.9066881164908
leaf_count=12751 26518 19268 10290 20128 14126 24079 48852 40615 9713 12250 26699 78 243 6714 35694 2466 13407 201 9223
internal_value=0 2.60849 2.55092 2.50591 2.43361 2.22718 2.31034 2.56413 2.66909 2.56658 2.4606 2.87626 2.50712 2.9467 2.89726 3.01128 3.01121 2.68249 2.62921
internal_weight=0 59639.1 52180 48507.8 40584.6 15720.3 13729.9 24864.2 16441.2 13673.2 10288.4 7923.21 2121.16 23158.9 19954.3 7459.15 5802.05 1983.58 1948.96
internal_count=333315 264389 242655 229904 196462 87057 72931 109405 68790 59077 46827 33442 10533 68926 62212 21734 22909 9502 9424
shrinkage=0.01


Tree=29
num_leaves=20
num_cat=0
split_feature=0 3 12 2 9 4 21 26 2 10 4 5 0 7 2 21 14 5 7
split_gain=1810.78 1309.36 1299.22 1206.46 1027.82 705.071 570.203 500.019 790.759 442.3 436.265 473.489 414.826 460.717 464.592 358.908 345.377 369.094 494.036
threshold=0.76993601953505675 2.5000000000000004 1.5000000000000002 1.5000000000000002 1.5000000000000002 0.25000000000000006 1.5000000000000002 1.5000000000000002 7.5000000000000009 7.5000000000000009 0.8500000000000002 6.5000000000000009 -0.5399447986078455 -0.14005694185346831 1.0000000180025095e-35 1.5000000000000002 1.5000000000000002 7.5000000000000009 0.23820463779721382
decision_type=2 2 2 2 2 2 2 2 2 2 2 2 2 2 2 2 2 2 2
left_child=1 2 -1 6 7 -6 -4 8 10 -7 11 -5 13 -8 -15 -13 17 18 -2
right_child=16 -3 3 4 5 9 12 -9 -10 -11 -12 15 -14 14 -16 -17 -18 -19 -20
leaf_value=0.030473969404503351 0.016592345731126841 0.029237416576198449 0.024092860874777747 0.026188392918993157 0.016163799264076965 0.019686508483931598 0.029075198553608989 0.022966400114398332 0.030756687620440079 0.02362033335848035 0.028040128667181211 0.023368067434479833 0.031644109367844828 0.031300257825409114 0.01115046011749605 0.017415010080849187 0.029920666669621215 0.02542605164059324 0.02943828290886203
leaf_weight=3751.9118384495378 312.3491822257638 7604.8921155110002 2644.0114515274763 4944.5369360893965 2015.7642382755876 4009.7368035241961 1219.2228777632117 8565.4553641155362 2828.8884761407971 9951.9868973940611 3451.852301158011 4187.3101453259587 3704.5823426097631 170.92702884227037 346.17489938437939 1335.8390770480037 10951.043989665806 5127.7351220548153 7212.0666483640671
leaf_count=12751 1389 21734 12500 20128 14126 23523 5276 40615 9713 49408 12250 19611 12871 650 2145 7088 28463 18126 20948
internal_value=0 2.53565 2.4801 2.43699 2.36782 2.16924 2.79025 2.49317 2.59368 2.24906 2.49572 2.39406 2.97538 2.57205 1.78109 2.19282 2.86204 2.7495 2.8905
internal_weight=0 60733.1 53128.2 49376.3 41291.4 15977.5 8084.92 25313.9 16748.4 13961.7 13919.5 10467.7 5440.91 1736.32 517.102 5523.15 23603.2 12652.2 7524.42
internal_count=333315 264389 242655 229904 196462 87057 33442 109405 68790 72931 59077 46827 20942 8071 2795 26699 68926 40463 22337
shrinkage=0.01


Tree=30
num_leaves=20
num_cat=0
split_feature=0 1 3 5 15 5 14 2 4 13 1 4 2 31 1 3 12 4 26
split_gain=1873.06 1138.12 912.112 731.762 695.788 575.566 541.309 540.609 656.671 464.049 463.003 386.315 370.896 357.954 357.183 339.56 344.989 334.134 323.476
threshold=0.28701388061127914 -0.17414651447199622 1.5000000000000002 7.5000000000000009 0.27899497730928086 8.5000000000000018 2.5000000000000004 4.5000000000000009 0.65000000000000002 0.55000000000000016 0.64649757078474368 0.25000000000000006 5.5000000000000009 1.5000000000000002 0.46021763723185238 2.5000000000000004 1.5000000000000002 0.35000000000000003 1.5000000000000002
decision_type=2 2 2 2 2 2 2 2 2 2 2 2 2 2 2 2 2 2 2
left_child=1 3 4 17 7 12 11 8 13 -7 -10 -5 15 -2 -4 16 -3 -1 -12
right_child=2 5 14 6 -6 9 -8 -9 10 -11 18 -13 -14 -15 -16 -17 -18 -19 -20
leaf_value=0.021045007770483869 0.018335794393996241 0.031368875167502912 0.028189302167645494 0.014969693833385348 0.02951237472970096 0.021191600415361847 0.02582538939133544 0.027188404185027496 0.02808778134594454 0.025766696725290604 0.024865631034546924 0.020433855337290346 0.028926578390092113 0.023668020849750386 0.033067309205785406 0.030269376883012851 0.024308568234454517 0.024947667498718934 0.017626720167003711
leaf_weight=2852.9771158248186 2075.2096441909671 756.97731029987335 3012.7873247042298 1605.9904273822904 5859.8371702507138 4326.4949359297752 1542.3412687256932 13050.727325811982 4908.2879587039351 4546.9354232475162 3400.8943258970976 6657.7744268849492 5138.7876164764166 3200.7177903950214 2991.640463501215 1367.2004764527082 8072.8632941618562 9495.1925666406751 754.19325171411037
leaf_count=15716 10102 2237 7745 11194 15674 21111 7231 41745 16289 18296 11274 37651 17214 12543 5063 3146 33079 42712 3293
internal_value=0 2.40642 2.70326 2.24264 2.63849 2.5563 2.0387 2.57158 2.43755 2.3536 2.60082 1.93719 2.67359 2.15707 3.06197 2.56319 2.49138 2.4046 2.35517
internal_weight=0 46363.5 39254.3 22154.3 33249.9 24209.3 9806.11 27390 14339.3 8873.43 9063.38 8263.76 15335.8 5275.93 6004.43 10197 8829.84 12348.2 4155.09
internal_count=333315 209587 123728 114504 110920 95083 56076 95246 53501 39407 30856 48845 55676 22645 12808 38462 35316 58428 14567
shrinkage=0.01


Tree=31
num_leaves=20
num_cat=0
split_feature=9 3 6 12 15 4 15 1 20 4 16 2 23 26 2 4 2 2 7
split_gain=1829.89 1305.29 880.608 869.349 813.226 729.017 671.586 616.98 506.808 531.85 467.453 508.593 409.031 336.064 321.566 316.045 343.322 324.619 334.403
threshold=1.5000000000000002 1.5000000000000002 1.5000000000000002 1.5000000000000002 0.18459634928146937 0.45000000000000007 0.27899497730928086 -0.17414651447199622 1.5000000000000002 0.55000000000000016 2.5000000000000004 1.0000000180025095e-35 1.5000000000000002 1.5000000000000002 5.5000000000000009 1.0000000180025095e-35 10.500000000000002 5.5000000000000009 -0.55621899356506355
decision_type=2 2 2 2 2 2 2 2 2 2 2 2 2 2 2 2 2 2 2
left_child=1 2 6 -2 5 12 7 8 15 13 -7 -12 -5 -10 -9 -1 17 -17 -19
right_child=3 -3 -4 4 -6 10 -8 14 9 -11 11 -13 -14 -15 -16 16 -18 18 -20
leaf_value=0.031698171053663411 0.028895142217351052 0.029231043727084897 0.028046907693890986 0.022464807922217465 0.027327865042179513 0.024430052136621271 0.028429075729933244 0.02409076346649858 0.021882878020786051 0.025893492331385819 0.030154535686592838 0.020520680894942304 0.016984459381743065 0.012505325887366281 0.026415034118445174 0.017010037434821129 -0.01166980510164045 0.0058514642021571155 0.024454896526939131
leaf_weight=199.59302224963903 2074.9378609582782 9122.0837507247925 8487.7463210970163 1973.2614445537329 2741.0863430425525 7909.2337734177709 3949.011093325913 15662.411374218762 2604.9072092026472 4588.454952865839 584.65233887732029 8738.0261289924383 4395.5668376907706 447.86282535642385 9601.5004814565182 2596.9584938362241 36.629975005984306 104.63369133323431 1262.2159640416503
leaf_count=750 6808 20953 23242 10181 8348 34598 10525 59404 12574 18384 1742 41936 27698 2826 33156 13653 303 660 5574
internal_value=0 2.57548 2.51148 2.26631 2.21722 2.15734 2.45085 2.40913 2.22078 2.37416 2.26419 2.11248 1.86824 2.05071 2.49741 1.94173 1.88046 1.90862 2.30308
internal_weight=0 58664 49541.9 28416.8 26341.8 23600.7 41054.2 37105.2 11841.3 7641.22 17231.9 9322.68 6368.83 3052.77 25263.9 4200.03 4000.44 3963.81 1366.85
internal_count=333315 202004 181051 131311 124503 116155 157809 147284 54724 33784 78276 43678 37879 15400 92560 20940 20190 19887 6234
shrinkage=0.01


Tree=32
num_leaves=20
num_cat=0
split_feature=9 3 12 26 2 15 5 20 13 1 14 33 20 5 13 23 3 10 12
split_gain=1736.36 1242.37 815.203 805.84 1092.11 769.366 615.752 502.517 474.302 463.905 409.982 446.202 404.253 369.046 381.029 363.978 354.536 394.923 350.869
threshold=1.5000000000000002 1.5000000000000002 1.5000000000000002 1.5000000000000002 5.5000000000000009 0.18459634928146937 8.5000000000000018 1.5000000000000002 0.45000000000000007 -0.24059199083473262 2.5000000000000004 1.5000000000000002 2.5000000000000004 10.500000000000002 0.15000000000000005 1.5000000000000002 1.5000000000000002 7.5000000000000009 1.5000000000000002
decision_type=2 2 2 2 2 2 2 2 2 2 2 2 2 2 2 2 2 2 2
left_child=1 3 -2 4 7 6 16 9 10 -1 11 -8 -9 14 -5 -6 17 -4 -14
right_child=2 -3 5 13 15 -7 8 12 -10 -11 -12 -13 18 -15 -16 -17 -18 -19 -20
leaf_value=0.018017945034745752 0.028063484085622221 0.028436126625719222 0.018601372395330475 0.017228480862750813 0.029515215668222555 0.026584729220626029 0.014252844143016016 0.029431711010126333 0.022776883341993171 0.023429307270912459 0.022961925858921487 0.02040252709933037 0.030245492112709948 0.019216693271784539 0.023843360586150334 0.026111936644524936 0.025752556544407473 0.022619580122284343 0.023993085162522344
leaf_weight=2241.8083650916815 2114.8588299229741 9282.4917458221316 3294.0193041712046 959.66976471990347 5503.5609598457813 2789.2846353277564 3481.3818468973041 1788.5083194747567 2335.5017316117883 5400.8551439791918 1135.541507281363 1784.6775342226028 959.75783058255911 2940.3592217043042 9402.4407862201333 7325.2714268043637 2428.8283410817385 9500.3778470307589 13843.510117016733
leaf_count=10650 6808 20953 17953 4812 13708 8348 21632 4631 9966 19538 5325 10079 2605 14224 36554 24085 8233 42967 50244
internal_value=0 2.50744 2.20867 2.44548 2.52126 2.16141 2.10355 2.39637 1.89195 2.1842 1.75121 1.6337 2.4941 2.23435 2.32307 2.75719 2.225 2.15851 2.43985
internal_weight=0 59648.2 28864.5 50365.7 37063.3 26749.6 23960.3 24234.4 8737.1 7642.66 6401.6 5266.06 16591.8 13302.5 10362.1 12828.8 15223.2 12794.4 14803.3
internal_count=333315 202004 131311 181051 125461 124503 116155 87668 47002 30188 37036 31711 57480 55590 41366 37793 69153 60920 52849
shrinkage=0.01


Tree=33
num_leaves=20
num_cat=0
split_feature=0 13 5 3 15 9 2 4 23 3 4 2 2 6 10 24 0 10 14
split_gain=1700.42 969.925 1104.92 806.01 601.959 577.895 474.626 591.278 455.901 435.523 406.898 460.121 368.879 326.26 316.733 307.497 302.229 288.266 276.906
threshold=0.28701388061127914 0.45000000000000007 7.5000000000000009 1.5000000000000002 0.27899497730928086 1.5000000000000002 4.5000000000000009 0.65000000000000002 1.5000000000000002 2.5000000000000004 0.8500000000000002 5.5000000000000009 1.5000000000000002 1.5000000000000002 5.5000000000000009 0.45000000000000007 -1.1572060278508762 13.500000000000002 1.5000000000000002
decision_type=2 2 2 2 2 2 2 2 2 2 2 2 2 2 2 2 2 2 2
left_child=1 2 13 4 6 10 7 18 -8 -3 11 -4 -9 16 -7 17 -1 -16 -2
right_child=3 9 5 -5 -6 14 8 12 -10 -11 -12 -13 -14 -15 15 -17 -18 -19 -20
leaf_value=0.01882428514448134 0.018254209546064503 0.023513702805301462 0.01755778339716161 0.028267050460334835 0.027219104314429313 0.012705193766987867 0.027271540588804332 0.027993419081899052 0.023575138640812267 0.028143055091016288 0.025710950066436877 0.023271683903627393 0.023074223102123103 0.026152008611328263 0.020966712627524694 0.015671447310497574 0.022884008283253071 0.0038450322813045894 0.022910165665975254
leaf_weight=2137.4297587051988 3514.7253633290529 14406.431553773582 3457.4735803604126 6315.7002794370055 6169.7197070121765 1346.411491535604 5737.9267735332251 1906.680952578783 7973.1088513955474 2365.968402326107 1509.9036415144801 2379.0354280099273 7602.8623846173286 2586.5583106204867 2799.9756834879518 2688.6472265869379 12907.358611218631 101.91233628988266 2006.6399395242333
leaf_count=11400 15670 55562 17515 12808 15674 8917 14712 5331 27033 5114 5959 10207 25525 8337 15060 15880 54927 709 6975
internal_value=0 2.22198 2.11966 2.49797 2.43849 1.91293 2.37766 2.25492 2.5122 2.41667 2.10839 1.98868 2.40605 2.28713 1.70593 1.8108 2.23072 2.03654 1.99463
internal_weight=0 48687.1 31914.7 41227.4 34911.7 14283.4 28741.9 15030.9 13711 16772.4 7346.41 5836.51 9509.54 17631.3 6936.95 5590.54 15044.8 2901.89 5521.37
internal_count=333315 209587 148911 123728 110920 74247 95246 53501 41745 60676 33681 27722 30856 74664 40566 31649 66327 15769 22645
shrinkage=0.01


Tree=34
num_leaves=20
num_cat=0
split_feature=0 1 3 23 3 0 0 6 2 21 2 8 12 2 1 1 16 32 2
split_gain=1630.37 968.978 769.541 560.431 529.811 542.336 462.711 422.91 394.688 368.775 348.097 336.852 342.778 325.821 332.61 324.135 316.695 445.219 304.384
threshold=0.28701388061127914 -0.17414651447199622 1.5000000000000002 1.5000000000000002 1.5000000000000002 -1.0884968317999435 1.6370445411971697 1.5000000000000002 1.5000000000000002 1.5000000000000002 4.5000000000000009 1.5000000000000002 1.5000000000000002 3.5000000000000004 1.1236418355454274 0.46021763723185238 2.5000000000000004 2.5000000000000004 1.0000000180025095e-35
decision_type=2 2 2 2 2 2 2 2 2 2 2 2 2 2 2 2 2 2 2
left_child=1 4 3 10 5 16 8 18 9 -5 -2 -7 -13 14 -10 -4 17 -1 -3
right_child=2 7 15 6 -6 11 -8 -9 13 -11 -12 12 -14 -15 -16 -17 -18 -19 -20
leaf_value=0.023254831577155168 0.023757246180806508 0.027148257033499403 0.025297835770885783 0.019968004171350189 0.023774931127975487 0.01882874815325537 0.025889167845458531 0.025981217650782283 0.020701575558761464 0.028604462946057594 0.026851654521582936 0.027494503215282365 0.020988746867452109 0.02249272828539492 0.014433207274902009 0.029792599992604477 0.012681495217539279 0.0127197943969759 0.022159022862552665
leaf_weight=973.40153717249632 7379.5648528859019 1300.3618046790361 3219.905072465539 721.40662775188684 3532.0476474091411 8079.3099200129509 3785.5527785271406 4034.3293632790446 3964.8340591266751 1571.2936463430524 7164.9577895849943 903.57959998399019 7809.3558559119701 9783.7140207141638 1076.2862548083067 3197.7709912955761 1606.9343297854066 682.34330213814974 20499.640084333718
leaf_count=5079 22028 3311 7745 2843 12852 41569 9658 11173 15767 4469 17437 2962 37302 34152 4566 5063 10391 4349 80599
internal_value=0 2.16691 2.43511 2.37742 2.02037 1.95747 2.27254 2.3007 2.20257 2.5887 2.52816 2.02996 2.16634 2.14286 1.93633 2.75375 1.5844 1.89133 2.24566
internal_weight=0 49421.3 41865.3 35447.6 23587 20054.9 20903.1 25834.3 17117.5 2292.7 14544.5 16792.2 8712.94 14824.8 5041.12 6417.68 3262.68 1655.74 21800
internal_count=333315 209587 123728 110920 114504 101652 71455 95083 61797 7312 39465 81833 40264 54485 20333 12808 19819 9428 83910
shrinkage=0.01


Tree=35
num_leaves=20
num_cat=0
split_feature=6 0 0 4 2 5 2 19 7 17 18 2 2 2 2 0 13 16 2
split_gain=1599.37 1396.54 590.294 547.655 485.608 435.421 426.372 401.537 391.812 386.535 371.915 368.978 435.276 362.336 347.57 374.406 329.661 398.706 325.934
threshold=1.5000000000000002 0.069438630379963534 -1.0114137778510053 0.35000000000000003 1.5000000000000002 10.500000000000002 4.5000000000000009 12.500000000000002 -0.4741025960578234 1.5000000000000002 0.36048576290000006 4.5000000000000009 1.5000000000000002 5.5000000000000009 1.0000000180025095e-35 0.13981834023520501 0.25000000000000006 1.5000000000000002 9.5000000000000018
decision_type=2 2 2 2 2 2 2 2 2 2 2 2 2 2 2 2 2 2 2
left_child=1 2 8 13 -5 6 -6 9 10 -7 -1 12 -2 14 -3 -16 17 -4 -19
right_child=11 3 16 4 5 7 -8 -9 -10 -11 -12 -13 -14 -15 15 -17 -18 18 -20
leaf_value=0.018893193481677863 0.028321963652000057 0.031718863533116176 0.016422711194561141 0.026781907332911543 0.022449008267501184 0.019460247167698133 0.025208399188445845 0.0058850482258619588 0.016296099399608292 0.024989748078466125 0.026991364234158821 0.026902222121294925 0.022485239846071214 0.023375285616172164 0.0051443003022616611 0.019095132366941655 0.022019548331217643 0.020468790722210358 0.030331271094579792
leaf_weight=2330.3630145862699 1652.0509934276342 207.08968780189753 2636.7447774037719 4579.8871275633574 10607.94178096205 3792.878447137773 11860.577430099249 174.07883285731077 4811.2882693633437 1896.2356945350766 749.51469310373068 8173.975822776556 5638.4789240956306 3310.5098989680409 201.43432211130857 4276.1653500497341 17573.89684715867 8109.2076616212726 349.52974877506495
leaf_count=11593 3825 372 13677 12297 36006 14339 32493 878 26027 5316 2838 19345 17338 10525 1244 17216 68454 38179 1353
internal_value=0 2.19211 2.05009 2.31904 2.37607 2.32723 2.39056 2.08455 1.80789 2.13033 2.0864 2.54434 2.38079 2.08429 1.90533 1.84675 2.11675 1.9818 2.08763
internal_weight=0 77467.3 36560.5 40906.8 32911.6 28331.7 22468.5 5863.19 7891.17 5689.11 3079.88 15464.5 7290.53 7995.2 4684.69 4477.6 28669.4 11095.5 8458.74
internal_count=333315 292807 162121 130686 101329 89032 68499 20533 40458 19655 14431 40508 21163 29357 18832 18460 121663 53209 39532
shrinkage=0.01


Tree=36
num_leaves=20
num_cat=0
split_feature=15 6 6 1 4 13 0 2 33 13 10 1 2 2 21 2 7 5 0
split_gain=1954.31 736.935 705.125 603.274 635.525 511.048 497.893 448.169 476.851 319.828 317.354 299.664 299.364 326.458 359.248 320.9 281.563 275.3 290.466
threshold=-0.23645959544980485 1.5000000000000002 1.5000000000000002 0.082714388765569399 0.25000000000000006 1.0000000180025095e-35 -1.0543007949002254 1.5000000000000002 1.5000000000000002 0.25000000000000006 7.5000000000000009 -0.95016325280757841 1.0000000180025095e-35 4.5000000000000009 1.5000000000000002 1.5000000000000002 0.74670699034721277 8.5000000000000018 -2.7494688076135874
decision_type=2 2 2 2 2 2 2 2 2 2 2 2 2 2 2 2 2 2 2
left_child=2 3 6 4 5 -2 17 9 -9 -8 -6 -4 -5 15 -15 -14 -11 18 -1
right_child=1 -3 11 12 10 -7 7 8 -10 16 -12 -13 13 14 -16 -17 -18 -19 -20
leaf_value=0.0024151901971948293 0.025022285537541166 0.025320661791605234 0.017395694280093427 0.028439917104022699 0.018870583752496509 0.016332684932334713 0.019183690535741281 0.017717753355913815 0.020987724857383858 0.025209812848832547 0.022631436267536539 0.024633746058196404 0.024979583220668813 0.024980575502868287 0.020753654062129718 0.021224067765544238 -0.0041579638259216277 0.013269316454688786 0.018850052018305759
leaf_weight=111.69512963294983 828.35971850156784 11132.279995769262 670.43001542985439 1156.6544702202082 2611.6368638426065 3699.172591432929 1540.741636030376 9496.1798304319382 8408.2825818136334 2752.9289837926626 15927.588518746197 3895.7149148061872 2953.5959911495447 12062.903483733535 2412.8824422284961 9906.9083478748798 33.038090236485004 1773.9742057397962 2889.5149630978703
leaf_count=759 2934 25785 2960 2079 11838 16977 7202 46298 34915 8851 54440 11763 8409 31921 7632 33395 207 10769 14181
internal_value=0 2.29874 1.99366 2.24836 2.12814 1.79225 1.93221 1.99514 1.92534 2.28397 2.21016 2.3571 2.34568 2.3246 2.4276 2.20866 2.48615 1.63924 1.82384
internal_weight=0 62692 31572.5 51559.7 23066.8 4527.53 27006.4 22231.2 17904.5 4326.71 18539.2 4566.14 28492.9 27336.3 14475.8 12860.5 2785.97 4775.18 3001.21
internal_count=333315 195410 137905 169625 86189 19911 123182 97473 81213 16260 66278 14723 83436 81357 39553 41804 9058 25709 14940
shrinkage=0.01


Tree=37
num_leaves=20
num_cat=0
split_feature=15 6 12 6 1 4 2 33 13 32 4 32 8 3 15 2 2 21 13
split_gain=1870.43 706.821 674.405 630.344 577.37 601.179 550.574 537.604 482.146 364.696 332.342 353.674 329.647 326.791 309.822 309.322 343.266 330.753 296.525
threshold=-0.23645959544980485 1.5000000000000002 1.5000000000000002 1.5000000000000002 0.082714388765569399 0.25000000000000006 1.5000000000000002 1.5000000000000002 1.0000000180025095e-35 1.0000000180025095e-35 0.35000000000000003 1.5000000000000002 3.5000000000000004 2.5000000000000004 0.4113698494484283 1.0000000180025095e-35 4.5000000000000009 1.5000000000000002 0.15000000000000005
decision_type=2 2 2 2 2 2 2 2 2 2 2 2 2 2 2 2 2 2 2
left_child=2 4 -1 6 5 8 10 -8 -2 -6 11 -4 -13 -9 18 -11 -17 -18 -7
right_child=1 -3 3 -5 9 14 7 13 -10 15 -12 12 -14 -15 -16 16 17 -19 -20
leaf_value=0.025778659016762667 0.024370522459997709 0.024709004731592599 0.02578606557150696 0.022669586724163037 0.027419626110807029 0.018807837816757975 0.016298044238497848 0.018831132484573878 0.015994379104401383 0.027773919867922516 0.02257045125056446 0.015045929604310969 -0.0043474862445431065 0.024347305747771355 0.026719296100575864 0.021189460009428899 0.024184502532530062 0.02003435676877955 0.021938298529709951
leaf_weight=1612.0822924301028 841.93851391971111 11292.951225116849 251.43836562335491 4340.2203882932663 1678.3478357717395 3873.5036730095744 10946.437174260616 8626.6749704256654 3739.4362124353647 1115.2913840413094 4375.147493056953 509.58342968672514 105.85436686128378 1226.6929993033409 1101.4949770718813 12386.504857204854 11408.308903247118 2309.0076518431306 13826.841459266841
leaf_count=5075 2934 25785 1047 14031 4076 15614 55731 39218 16977 1976 15890 2760 759 3394 2494 40233 29878 7273 48170
internal_value=0 2.24403 1.94758 1.91413 2.19502 2.0782 1.85533 1.78234 1.75337 2.28955 2.14497 1.5793 1.17103 1.95179 2.15735 2.26166 2.23962 2.34859 2.12532
internal_weight=0 63573.6 31994.1 30382 52280.7 23383.2 26041.8 20799.8 4581.37 28897.5 5242.02 866.876 615.438 9853.37 18801.8 27219.1 26103.8 13717.3 17700.3
internal_count=333315 195410 137905 132830 169625 86189 118799 98343 19911 83436 20456 4566 3519 42612 66278 79360 77384 37151 63784
shrinkage=0.01


Tree=38
num_leaves=20
num_cat=0
split_feature=15 6 6 1 12 0 2 33 32 10 13 22 2 18 15 13 5 13 1
split_gain=1792.88 679.104 639.579 553.414 542.248 582.595 445.203 500.852 342.115 326.528 318.293 301.04 294.028 329.709 291.052 391.439 517.039 317.021 280.871
threshold=-0.23645959544980485 1.5000000000000002 1.5000000000000002 0.082714388765569399 1.5000000000000002 -1.0543007949002254 1.5000000000000002 1.5000000000000002 1.0000000180025095e-35 9.5000000000000018 0.25000000000000006 1.5000000000000002 1.0000000180025095e-35 0.51536392455000013 0.4113698494484283 0.15000000000000005 12.500000000000002 1.0000000180025095e-35 -0.95016325280757841
decision_type=2 2 2 2 2 2 2 2 2 2 2 2 2 2 2 2 2 2 2
left_child=2 3 4 9 -1 -6 10 -8 -5 -2 -7 -10 -13 -14 15 17 -17 -11 -4
right_child=1 -3 18 8 5 6 7 -9 11 14 -12 12 13 -15 -16 16 -18 -19 -20
leaf_value=0.024658840384525784 0.018337071530896611 0.024125599716014995 0.016543863029960672 0.026704955457644362 0.014917343754535848 0.018036524890464239 0.016485110967191623 0.019880112906903228 -0.012525109898308033 0.019993061024739876 0.023704673828312553 0.027114263031186209 0.021570516680622247 0.025602915419664651 0.025675066888553234 0.021956840654165855 0.010466694894494801 0.014207291947777008 0.023457650312379341
leaf_weight=1340.744447723031 6225.2451162710786 11449.574661456048 688.44548269361258 1705.8893281519413 4626.5100158751011 1534.863878287375 9069.2908909320831 8342.611820794642 25.100970454514027 2790.3998906612396 2794.3937477096915 1131.2582059204578 24217.662330441177 2212.9892643541098 1239.4920865595341 11599.217247337103 405.31097286194563 1433.5743871256709 4010.9611119553447
leaf_count=4383 26462 25785 2960 4076 24829 7055 44091 33998 158 10386 8826 1972 72643 4587 2843 38389 1868 6241 11763
internal_value=0 2.19171 1.90336 2.14399 1.84551 1.81396 1.88253 1.81118 2.2359 2.03036 2.16951 2.20903 2.21218 2.19081 2.10044 2.06476 2.15689 1.80294 2.24448
internal_weight=0 64435.7 32407.8 52986.1 27708.4 26367.7 21741.2 17411.9 29292.9 23693.2 4329.26 27587 27561.9 26430.7 17468 16228.5 12004.5 4223.97 4699.41
internal_count=333315 195410 137905 169625 123182 118799 93970 78089 83436 86189 15881 79360 79202 77230 59727 56884 40257 16627 14723
shrinkage=0.01


Tree=39
num_leaves=20
num_cat=0
split_feature=0 12 3 1 4 9 3 4 18 23 10 16 7 5 5 1 23 25 5
split_gain=1375.94 961.586 758.62 631.039 650.458 498.547 466.634 343.943 344.883 322.582 296.793 292.624 286.405 279.236 275.627 273.594 268.467 263.945 259.13
threshold=0.087750659300809455 1.5000000000000002 1.5000000000000002 0.082714388765569399 0.35000000000000003 1.5000000000000002 2.5000000000000004 0.45000000000000007 0.31614868930000006 1.5000000000000002 7.5000000000000009 1.5000000000000002 -0.7609821225897041 7.5000000000000009 10.500000000000002 -2.0693921973997624 1.5000000000000002 0.8500000000000002 2.5000000000000004
decision_type=2 2 2 2 2 2 2 2 2 2 2 2 2 2 2 2 2 2 2
left_child=1 -1 5 4 9 12 16 8 -7 -2 -9 -10 15 -14 -6 -3 -5 -13 -18
right_child=3 2 -4 6 14 7 -8 10 11 -11 -12 17 13 -15 -16 -17 18 -19 -20
leaf_value=0.024451483193358201 0.020381392323579269 0.0033855171591411545 0.02188586205667728 0.023297675865615007 0.021879852311761389 0.0051525197604527229 0.025837680735763754 0.015664193402662962 0.010431590987163697 0.01539136808692277 0.019058787614621559 0.017759793941221395 0.019759086358423456 0.016999096047136338 0.018408279885828247 0.021458043560931978 0.027367179577209039 0.0074786299082736105 0.020984838635598368
leaf_weight=3258.2976337969303 2102.5686092823744 85.054850734770298 6770.2926806882024 10543.317800357938 13495.328650712967 362.05406604707241 3717.3281807750463 4065.2485324814916 929.45568381249905 3374.9654810503125 7028.8172767832875 2785.9181573241949 8249.929518930614 6596.8966695144773 2753.6687795445323 5529.1507068872452 663.3608512878418 274.29094149172306 15506.480128772557
leaf_count=9433 6774 476 19827 24475 39961 2580 5853 20183 5833 14457 29785 15031 30866 29438 9638 19408 1471 1749 46077
internal_value=0 1.92152 1.88154 2.15887 2.02869 1.82365 2.25181 1.68803 1.44977 1.73068 1.78149 1.53457 1.92603 1.85327 2.12915 2.11842 2.20562 1.68383 2.12467
internal_weight=0 45935.4 42677.1 52157 21726.5 35906.8 30430.5 15445.8 4351.72 5477.53 11094.1 3989.66 20461 14846.8 16249 5614.21 26713.2 3060.21 16169.8
internal_count=333315 184609 175176 148706 70830 155349 77876 75161 25193 21231 49968 22613 80188 60304 49599 19884 72023 16780 47548
shrinkage=0.01


Tree=40
num_leaves=20
num_cat=0
split_feature=15 13 3 3 5 33 2 6 0 4 12 33 2 0 1 13 1 15 22
split_gain=1565.06 1066.43 748.908 530.446 485.168 466.045 424.048 493.394 468.583 397.549 354.939 328.958 309.224 373.927 307.091 508.083 357.263 291.465 285.148
threshold=-0.0038847239615818598 0.25000000000000006 1.5000000000000002 2.5000000000000004 4.5000000000000009 1.5000000000000002 1.5000000000000002 1.5000000000000002 -1.1165197863139529 0.25000000000000006 1.5000000000000002 1.5000000000000002 1.5000000000000002 0.22121637093783256 0.1371495962653273 1.0000000180025095e-35 -0.56206179009675117 -0.49643910999568391 7.5000000000000009
decision_type=2 2 2 2 2 2 2 2 2 2 2 2 2 2 2 2 2 2 2
left_child=1 5 4 6 -2 10 -3 8 17 14 -1 -10 13 -12 15 -6 -17 -8 -14
right_child=2 3 -4 -5 9 -7 7 -9 11 -11 12 -13 18 -15 -16 16 -18 -19 -20
leaf_value=0.022734510396538891 0.022509965595896939 0.021946678316357212 0.024196956102301895 0.023018179283016933 0.024679728694431049 0.018645049891119328 0.0034206133735023929 0.021840637244223821 0.017261147187162242 0.02040917117744185 0.016283291384539975 0.019976251253512708 0.01206433393211285 0.026749412037847819 0.020693371449337344 -0.006516143723828278 0.013338908599779159 0.015026272686721265 0.015719019926188568
leaf_weight=645.09154706448317 10175.785147093236 4891.8178872168064 6977.5801305025816 4311.0220872685313 405.0014535933733 8164.0381805673242 242.31952402740717 4192.0356782972813 8962.2345725819468 24869.083801746368 1411.6013941019773 8887.6629542857409 3427.1430094540119 450.2430731356144 1288.6737914606929 95.679644644260406 1715.2988339215517 2022.6457939520478 5661.7052886784077
leaf_count=2095 26281 16039 13130 9814 1260 33909 1565 11627 36672 73885 6446 32514 17796 1265 3521 651 7434 10131 27280
internal_value=0 1.86573 2.11823 1.97438 2.06367 1.68148 1.92604 1.87198 1.80693 1.99648 1.55261 1.8613 1.51015 1.88143 1.68117 1.45543 1.22899 1.37846 1.43409
internal_weight=0 53269.6 45527.1 33509.7 38549.5 19759.8 29198.7 24306.9 20114.9 28373.7 11595.8 17849.9 10950.7 1861.84 3504.65 2215.98 1810.98 2264.97 9088.85
internal_count=333315 207153 126162 118362 113032 88791 108548 92509 80882 86751 54882 69186 52787 7711 12866 9345 8085 11696 45076
shrinkage=0.01


Tree=41
num_leaves=20
num_cat=0
split_feature=1 5 33 2 2 5 14 6 4 11 2 21 2 9 26 5 18 20 4
split_gain=1472.08 900.166 641.182 577.076 627.479 740.307 498.227 440.625 412.473 387.258 374.926 357.226 341.298 323.381 294.841 294.188 292.543 279.831 270.442
threshold=0.082714388765569399 7.5000000000000009 1.5000000000000002 1.0000000180025095e-35 4.5000000000000009 10.500000000000002 2.5000000000000004 1.5000000000000002 0.8500000000000002 1.5000000000000002 1.5000000000000002 1.5000000000000002 5.5000000000000009 1.5000000000000002 1.5000000000000002 12.500000000000002 0.31622778300000004 1.5000000000000002 0.75000000000000011
decision_type=2 2 2 2 2 2 2 2 2 2 2 2 2 2 2 2 2 2 2
left_child=1 7 6 -2 10 -6 8 9 13 17 -5 -7 18 -3 -8 -14 -13 -1 -4
right_child=3 2 12 4 5 11 14 -9 -10 -11 -12 16 15 -15 -16 -17 -18 -19 -20
leaf_value=0.015919101979812108 0.02550149013782561 0.015323235434840586 0.015934785425560396 0.021462734914446495 0.02250799621454766 0.019654495836053162 0.020424806082002554 0.022189049245267212 0.017550342151814762 0.020605727235420708 0.018428169367141835 -0.0078319114019144848 0.023207452476132654 0.011031908493994099 0.010095380122012221 0.015607893604086893 0.014689863739640568 0.018794844051405583 0.020167566300124399
leaf_weight=4899.2406820058823 2301.6725669950247 3087.6563840359449 4485.6097271218896 5355.588787548244 18262.679213486612 5645.2252460718155 2186.6144154518843 4607.2206156775355 2573.7748642638326 7989.1503611281514 16980.770593799651 61.022059381008148 2224.6448520943522 4071.7048401013017 316.3082125633955 660.66223283112049 1051.3722017109394 10938.762209326029 2275.048045925796
leaf_count=20094 4098 12824 20191 15066 44895 16832 7534 11872 10604 27315 55259 406 7174 22302 1414 2761 3849 40670 8155
internal_value=0 1.81848 1.66601 2.06117 2.03741 2.14617 1.51402 1.93581 1.41169 1.88107 1.91558 1.86339 1.8588 1.28827 1.91194 2.14673 1.34544 1.79053 1.73592
internal_weight=0 50316.4 21882 49658.3 47356.7 25020.3 12236.1 28434.4 9733.14 23827.2 22336.4 6757.62 9645.96 7159.36 2502.92 2885.31 1112.39 15838 6760.66
internal_count=333315 192910 92959 140405 136307 65982 54678 99951 45730 88079 70325 21087 38281 35126 8948 9935 4255 60764 28346
shrinkage=0.01


Tree=42
num_leaves=20
num_cat=0
split_feature=15 13 3 3 23 33 6 0 2 10 12 2 0 2 22 11 11 0 18
split_gain=1503.79 993.091 716.208 507.474 462.09 430.573 391.737 554.004 458.38 339.59 333.71 289.969 350.165 276.896 331.96 549.771 275.977 231.513 218.802
threshold=-0.0038847239615818598 0.25000000000000006 1.5000000000000002 2.5000000000000004 1.5000000000000002 1.5000000000000002 1.5000000000000002 -1.5460291753119171 1.5000000000000002 8.5000000000000018 1.5000000000000002 1.5000000000000002 0.22121637093783256 6.5000000000000009 7.5000000000000009 1.0000000180025095e-35 1.5000000000000002 0.95314001837846585 0.37342930155000004
decision_type=2 2 2 2 2 2 2 2 2 2 2 2 2 2 2 2 2 2 2
left_child=1 5 4 6 16 10 7 -3 17 18 -1 12 -12 14 15 -13 -2 -9 -6
right_child=2 3 -4 -5 9 -7 -8 8 -10 -11 11 13 -14 -15 -16 -17 -18 -19 -20
leaf_value=0.021765687681487116 0.019714278728003427 0.011428531510474274 0.023210157756913756 0.02204972109528015 0.0089017308200261616 0.017827640432760836 0.0210247662248997 0.021456090634403929 0.01760559635670636 0.019396257417110735 0.015582107030491068 0.0029371197393596505 0.025577798535559443 0.016279939207896169 0.014325159224009161 0.013063271632717473 0.022315059593176204 -0.0011549089352337174 0.016923767511954652
leaf_weight=661.55389941483736 7913.5390931591392 1251.0420836955309 7137.5897947847843 4413.4886341392994 377.40912817418575 8364.5120598450303 4831.1135702356696 4245.6275388374925 19539.724348902702 19306.616452001035 1443.7478838935494 813.8549347370863 462.81393185257912 2914.4511794671416 3983.6702256351709 1571.3379544913769 8422.4987088441849 45.771300792694092 3430.4346399456263
leaf_count=2095 21714 6645 13130 9814 1998 33909 13004 13494 75178 57192 6446 4974 1265 13286 19152 7664 19147 227 12981
internal_value=0 1.78488 2.02952 1.88843 1.97678 1.60905 1.84173 1.7915 1.82555 1.8858 1.48644 1.44564 1.80085 1.37269 1.25586 0.960811 2.10552 2.12149 1.61287
internal_weight=0 54542.7 46588.1 34326.8 39450.5 20215.9 29913.3 25082.2 23831.1 23114.5 11851.4 11189.9 1906.56 9283.31 6368.86 2385.19 16336 4291.4 3807.84
internal_count=333315 207153 126162 118362 113032 88791 108548 95544 88899 72171 54882 52787 7711 45076 31790 12638 40861 13721 14979
shrinkage=0.01


Tree=43
num_leaves=20
num_cat=0
split_feature=15 3 13 14 5 4 6 0 5 2 15 0 26 13 2 2 2 8 27
